{"learner":{"attributes":{"best_iteration":"1995","best_score":"0.6114581954012474"},"feature_names":["RSI_14","MACD","MACD_signal","MACD_hist","BB_upper","BB_lower","BB_width","ATR_14","ADX_14","Stoch_K","Stoch_D","Williams_R","CCI","MFI","OBV_pct","RSI_4h","MACD_4h","MACD_hist_4h","BB_width_4h","ATR_4h","ADX_4h","RSI_1d","MACD_1d","MACD_hist_1d","BB_width_1d","ATR_1d","ADX_1d","volume_ma_ratio","volume_spike","buy_sell_volume_ratio","realized_vol","parkinson_vol","garman_klass_vol","fear_greed_index","funding_rate","funding_rate_ma24","eth_btc_corr","eth_momentum","return_lag_1","return_lag_2","return_lag_3","return_lag_6","return_lag_12","return_lag_24","hour_sin","hour_cos","dow_sin","dow_cos","ma_ratio_5","ma_ratio_10","ma_ratio_20","ma_ratio_50"],"feature_types":[],"gradient_booster":{"model":{"cats":{"enc":[],"feature_segments":[],"sorted_idx":[]},"gbtree_model_param":{"num_parallel_tree":"1","num_trees":"2000"},"iteration_indptr":[0,1,2,3,4,5,6,7,8,9,10,11,12,13,14,15,16,17,18,19,20,21,22,23,24,25,26,27,28,29,30,31,32,33,34,35,36,37,38,39,40,41,42,43,44,45,46,47,48,49,50,51,52,53,54,55,56,57,58,59,60,61,62,63,64,65,66,67,68,69,70,71,72,73,74,75,76,77,78,79,80,81,82,83,84,85,86,87,88,89,90,91,92,93,94,95,96,97,98,99,100,101,102,103,104,105,106,107,108,109,110,111,112,113,114,115,116,117,118,119,120,121,122,123,124,125,126,127,128,129,130,131,132,133,134,135,136,137,138,139,140,141,142,143,144,145,146,147,148,149,150,151,152,153,154,155,156,157,158,159,160,161,162,163,164,165,166,167,168,169,170,171,172,173,174,175,176,177,178,179,180,181,182,183,184,185,186,187,188,189,190,191,192,193,194,195,196,197,198,199,200,201,202,203,204,205,206,207,208,209,210,211,212,213,214,215,216,217,218,219,220,221,222,223,224,225,226,227,228,229,230,231,232,233,234,235,236,237,238,239,240,241,242,243,244,245,246,247,248,249,250,251,252,253,254,255,256,257,258,259,260,261,262,263,264,265,266,267,268,269,270,271,272,273,274,275,276,277,278,279,280,281,282,283,284,285,286,287,288,289,290,291,292,293,294,295,296,297,298,299,300,301,302,303,304,305,306,307,308,309,310,311,312,313,314,315,316,317,318,319,320,321,322,323,324,325,326,327,328,329,330,331,332,333,334,335,336,337,338,339,340,341,342,343,344,345,346,347,348,349,350,351,352,353,354,355,356,357,358,359,360,361,362,363,364,365,366,367,368,369,370,371,372,373,374,375,376,377,378,379,380,381,382,383,384,385,386,387,388,389,390,391,392,393,394,395,396,397,398,399,400,401,402,403,404,405,406,407,408,409,410,411,412,413,414,415,416,417,418,419,420,421,422,423,424,425,426,427,428,429,430,431,432,433,434,435,436,437,438,439,440,441,442,443,444,445,446,447,448,449,450,451,452,453,454,455,456,457,458,459,460,461,462,463,464,465,466,467,468,469,470,471,472,473,474,475,476,477,478,479,480,481,482,483,484,485,486,487,488,489,490,491,492,493,494,495,496,497,498,499,500,501,502,503,504,505,506,507,508,509,510,511,512,513,514,515,516,517,518,519,520,521,522,523,524,525,526,527,528,529,530,531,532,533,534,535,536,537,538,539,540,541,542,543,544,545,546,547,548,549,550,551,552,553,554,555,556,557,558,559,560,561,562,563,564,565,566,567,568,569,570,571,572,573,574,575,576,577,578,579,580,581,582,583,584,585,586,587,588,589,590,591,592,593,594,595,596,597,598,599,600,601,602,603,604,605,606,607,608,609,610,611,612,613,614,615,616,617,618,619,620,621,622,623,624,625,626,627,628,629,630,631,632,633,634,635,636,637,638,639,640,641,642,643,644,645,646,647,648,649,650,651,652,653,654,655,656,657,658,659,660,661,662,663,664,665,666,667,668,669,670,671,672,673,674,675,676,677,678,679,680,681,682,683,684,685,686,687,688,689,690,691,692,693,694,695,696,697,698,699,700,701,702,703,704,705,706,707,708,709,710,711,712,713,714,715,716,717,718,719,720,721,722,723,724,725,726,727,728,729,730,731,732,733,734,735,736,737,738,739,740,741,742,743,744,745,746,747,748,749,750,751,752,753,754,755,756,757,758,759,760,761,762,763,764,765,766,767,768,769,770,771,772,773,774,775,776,777,778,779,780,781,782,783,784,785,786,787,788,789,790,791,792,793,794,795,796,797,798,799,800,801,802,803,804,805,806,807,808,809,810,811,812,813,814,815,816,817,818,819,820,821,822,823,824,825,826,827,828,829,830,831,832,833,834,835,836,837,838,839,840,841,842,843,844,845,846,847,848,849,850,851,852,853,854,855,856,857,858,859,860,861,862,863,864,865,866,867,868,869,870,871,872,873,874,875,876,877,878,879,880,881,882,883,884,885,886,887,888,889,890,891,892,893,894,895,896,897,898,899,900,901,902,903,904,905,906,907,908,909,910,911,912,913,914,915,916,917,918,919,920,921,922,923,924,925,926,927,928,929,930,931,932,933,934,935,936,937,938,939,940,941,942,943,944,945,946,947,948,949,950,951,952,953,954,955,956,957,958,959,960,961,962,963,964,965,966,967,968,969,970,971,972,973,974,975,976,977,978,979,980,981,982,983,984,985,986,987,988,989,990,991,992,993,994,995,996,997,998,999,1000,1001,1002,1003,1004,1005,1006,1007,1008,1009,1010,1011,1012,1013,1014,1015,1016,1017,1018,1019,1020,1021,1022,1023,1024,1025,1026,1027,1028,1029,1030,1031,1032,1033,1034,1035,1036,1037,1038,1039,1040,1041,1042,1043,1044,1045,1046,1047,1048,1049,1050,1051,1052,1053,1054,1055,1056,1057,1058,1059,1060,1061,1062,1063,1064,1065,1066,1067,1068,1069,1070,1071,1072,1073,1074,1075,1076,1077,1078,1079,1080,1081,1082,1083,1084,1085,1086,1087,1088,1089,1090,1091,1092,1093,1094,1095,1096,1097,1098,1099,1100,1101,1102,1103,1104,1105,1106,1107,1108,1109,1110,1111,1112,1113,1114,1115,1116,1117,1118,1119,1120,1121,1122,1123,1124,1125,1126,1127,1128,1129,1130,1131,1132,1133,1134,1135,1136,1137,1138,1139,1140,1141,1142,1143,1144,1145,1146,1147,1148,1149,1150,1151,1152,1153,1154,1155,1156,1157,1158,1159,1160,1161,1162,1163,1164,1165,1166,1167,1168,1169,1170,1171,1172,1173,1174,1175,1176,1177,1178,1179,1180,1181,1182,1183,1184,1185,1186,1187,1188,1189,1190,1191,1192,1193,1194,1195,1196,1197,1198,1199,1200,1201,1202,1203,1204,1205,1206,1207,1208,1209,1210,1211,1212,1213,1214,1215,1216,1217,1218,1219,1220,1221,1222,1223,1224,1225,1226,1227,1228,1229,1230,1231,1232,1233,1234,1235,1236,1237,1238,1239,1240,1241,1242,1243,1244,1245,1246,1247,1248,1249,1250,1251,1252,1253,1254,1255,1256,1257,1258,1259,1260,1261,1262,1263,1264,1265,1266,1267,1268,1269,1270,1271,1272,1273,1274,1275,1276,1277,1278,1279,1280,1281,1282,1283,1284,1285,1286,1287,1288,1289,1290,1291,1292,1293,1294,1295,1296,1297,1298,1299,1300,1301,1302,1303,1304,1305,1306,1307,1308,1309,1310,1311,1312,1313,1314,1315,1316,1317,1318,1319,1320,1321,1322,1323,1324,1325,1326,1327,1328,1329,1330,1331,1332,1333,1334,1335,1336,1337,1338,1339,1340,1341,1342,1343,1344,1345,1346,1347,1348,1349,1350,1351,1352,1353,1354,1355,1356,1357,1358,1359,1360,1361,1362,1363,1364,1365,1366,1367,1368,1369,1370,1371,1372,1373,1374,1375,1376,1377,1378,1379,1380,1381,1382,1383,1384,1385,1386,1387,1388,1389,1390,1391,1392,1393,1394,1395,1396,1397,1398,1399,1400,1401,1402,1403,1404,1405,1406,1407,1408,1409,1410,1411,1412,1413,1414,1415,1416,1417,1418,1419,1420,1421,1422,1423,1424,1425,1426,1427,1428,1429,1430,1431,1432,1433,1434,1435,1436,1437,1438,1439,1440,1441,1442,1443,1444,1445,1446,1447,1448,1449,1450,1451,1452,1453,1454,1455,1456,1457,1458,1459,1460,1461,1462,1463,1464,1465,1466,1467,1468,1469,1470,1471,1472,1473,1474,1475,1476,1477,1478,1479,1480,1481,1482,1483,1484,1485,1486,1487,1488,1489,1490,1491,1492,1493,1494,1495,1496,1497,1498,1499,1500,1501,1502,1503,1504,1505,1506,1507,1508,1509,1510,1511,1512,1513,1514,1515,1516,1517,1518,1519,1520,1521,1522,1523,1524,1525,1526,1527,1528,1529,1530,1531,1532,1533,1534,1535,1536,1537,1538,1539,1540,1541,1542,1543,1544,1545,1546,1547,1548,1549,1550,1551,1552,1553,1554,1555,1556,1557,1558,1559,1560,1561,1562,1563,1564,1565,1566,1567,1568,1569,1570,1571,1572,1573,1574,1575,1576,1577,1578,1579,1580,1581,1582,1583,1584,1585,1586,1587,1588,1589,1590,1591,1592,1593,1594,1595,1596,1597,1598,1599,1600,1601,1602,1603,1604,1605,1606,1607,1608,1609,1610,1611,1612,1613,1614,1615,1616,1617,1618,1619,1620,1621,1622,1623,1624,1625,1626,1627,1628,1629,1630,1631,1632,1633,1634,1635,1636,1637,1638,1639,1640,1641,1642,1643,1644,1645,1646,1647,1648,1649,1650,1651,1652,1653,1654,1655,1656,1657,1658,1659,1660,1661,1662,1663,1664,1665,1666,1667,1668,1669,1670,1671,1672,1673,1674,1675,1676,1677,1678,1679,1680,1681,1682,1683,1684,1685,1686,1687,1688,1689,1690,1691,1692,1693,1694,1695,1696,1697,1698,1699,1700,1701,1702,1703,1704,1705,1706,1707,1708,1709,1710,1711,1712,1713,1714,1715,1716,1717,1718,1719,1720,1721,1722,1723,1724,1725,1726,1727,1728,1729,1730,1731,1732,1733,1734,1735,1736,1737,1738,1739,1740,1741,1742,1743,1744,1745,1746,1747,1748,1749,1750,1751,1752,1753,1754,1755,1756,1757,1758,1759,1760,1761,1762,1763,1764,1765,1766,1767,1768,1769,1770,1771,1772,1773,1774,1775,1776,1777,1778,1779,1780,1781,1782,1783,1784,1785,1786,1787,1788,1789,1790,1791,1792,1793,1794,1795,1796,1797,1798,1799,1800,1801,1802,1803,1804,1805,1806,1807,1808,1809,1810,1811,1812,1813,1814,1815,1816,1817,1818,1819,1820,1821,1822,1823,1824,1825,1826,1827,1828,1829,1830,1831,1832,1833,1834,1835,1836,1837,1838,1839,1840,1841,1842,1843,1844,1845,1846,1847,1848,1849,1850,1851,1852,1853,1854,1855,1856,1857,1858,1859,1860,1861,1862,1863,1864,1865,1866,1867,1868,1869,1870,1871,1872,1873,1874,1875,1876,1877,1878,1879,1880,1881,1882,1883,1884,1885,1886,1887,1888,1889,1890,1891,1892,1893,1894,1895,1896,1897,1898,1899,1900,1901,1902,1903,1904,1905,1906,1907,1908,1909,1910,1911,1912,1913,1914,1915,1916,1917,1918,1919,1920,1921,1922,1923,1924,1925,1926,1927,1928,1929,1930,1931,1932,1933,1934,1935,1936,1937,1938,1939,1940,1941,1942,1943,1944,1945,1946,1947,1948,1949,1950,1951,1952,1953,1954,1955,1956,1957,1958,1959,1960,1961,1962,1963,1964,1965,1966,1967,1968,1969,1970,1971,1972,1973,1974,1975,1976,1977,1978,1979,1980,1981,1982,1983,1984,1985,1986,1987,1988,1989,1990,1991,1992,1993,1994,1995,1996,1997,1998,1999,2000],"tree_info":[0,0,0,0,0,0,0,0,0,0,0,0,0,0,0,0,0,0,0,0,0,0,0,0,0,0,0,0,0,0,0,0,0,0,0,0,0,0,0,0,0,0,0,0,0,0,0,0,0,0,0,0,0,0,0,0,0,0,0,0,0,0,0,0,0,0,0,0,0,0,0,0,0,0,0,0,0,0,0,0,0,0,0,0,0,0,0,0,0,0,0,0,0,0,0,0,0,0,0,0,0,0,0,0,0,0,0,0,0,0,0,0,0,0,0,0,0,0,0,0,0,0,0,0,0,0,0,0,0,0,0,0,0,0,0,0,0,0,0,0,0,0,0,0,0,0,0,0,0,0,0,0,0,0,0,0,0,0,0,0,0,0,0,0,0,0,0,0,0,0,0,0,0,0,0,0,0,0,0,0,0,0,0,0,0,0,0,0,0,0,0,0,0,0,0,0,0,0,0,0,0,0,0,0,0,0,0,0,0,0,0,0,0,0,0,0,0,0,0,0,0,0,0,0,0,0,0,0,0,0,0,0,0,0,0,0,0,0,0,0,0,0,0,0,0,0,0,0,0,0,0,0,0,0,0,0,0,0,0,0,0,0,0,0,0,0,0,0,0,0,0,0,0,0,0,0,0,0,0,0,0,0,0,0,0,0,0,0,0,0,0,0,0,0,0,0,0,0,0,0,0,0,0,0,0,0,0,0,0,0,0,0,0,0,0,0,0,0,0,0,0,0,0,0,0,0,0,0,0,0,0,0,0,0,0,0,0,0,0,0,0,0,0,0,0,0,0,0,0,0,0,0,0,0,0,0,0,0,0,0,0,0,0,0,0,0,0,0,0,0,0,0,0,0,0,0,0,0,0,0,0,0,0,0,0,0,0,0,0,0,0,0,0,0,0,0,0,0,0,0,0,0,0,0,0,0,0,0,0,0,0,0,0,0,0,0,0,0,0,0,0,0,0,0,0,0,0,0,0,0,0,0,0,0,0,0,0,0,0,0,0,0,0,0,0,0,0,0,0,0,0,0,0,0,0,0,0,0,0,0,0,0,0,0,0,0,0,0,0,0,0,0,0,0,0,0,0,0,0,0,0,0,0,0,0,0,0,0,0,0,0,0,0,0,0,0,0,0,0,0,0,0,0,0,0,0,0,0,0,0,0,0,0,0,0,0,0,0,0,0,0,0,0,0,0,0,0,0,0,0,0,0,0,0,0,0,0,0,0,0,0,0,0,0,0,0,0,0,0,0,0,0,0,0,0,0,0,0,0,0,0,0,0,0,0,0,0,0,0,0,0,0,0,0,0,0,0,0,0,0,0,0,0,0,0,0,0,0,0,0,0,0,0,0,0,0,0,0,0,0,0,0,0,0,0,0,0,0,0,0,0,0,0,0,0,0,0,0,0,0,0,0,0,0,0,0,0,0,0,0,0,0,0,0,0,0,0,0,0,0,0,0,0,0,0,0,0,0,0,0,0,0,0,0,0,0,0,0,0,0,0,0,0,0,0,0,0,0,0,0,0,0,0,0,0,0,0,0,0,0,0,0,0,0,0,0,0,0,0,0,0,0,0,0,0,0,0,0,0,0,0,0,0,0,0,0,0,0,0,0,0,0,0,0,0,0,0,0,0,0,0,0,0,0,0,0,0,0,0,0,0,0,0,0,0,0,0,0,0,0,0,0,0,0,0,0,0,0,0,0,0,0,0,0,0,0,0,0,0,0,0,0,0,0,0,0,0,0,0,0,0,0,0,0,0,0,0,0,0,0,0,0,0,0,0,0,0,0,0,0,0,0,0,0,0,0,0,0,0,0,0,0,0,0,0,0,0,0,0,0,0,0,0,0,0,0,0,0,0,0,0,0,0,0,0,0,0,0,0,0,0,0,0,0,0,0,0,0,0,0,0,0,0,0,0,0,0,0,0,0,0,0,0,0,0,0,0,0,0,0,0,0,0,0,0,0,0,0,0,0,0,0,0,0,0,0,0,0,0,0,0,0,0,0,0,0,0,0,0,0,0,0,0,0,0,0,0,0,0,0,0,0,0,0,0,0,0,0,0,0,0,0,0,0,0,0,0,0,0,0,0,0,0,0,0,0,0,0,0,0,0,0,0,0,0,0,0,0,0,0,0,0,0,0,0,0,0,0,0,0,0,0,0,0,0,0,0,0,0,0,0,0,0,0,0,0,0,0,0,0,0,0,0,0,0,0,0,0,0,0,0,0,0,0,0,0,0,0,0,0,0,0,0,0,0,0,0,0,0,0,0,0,0,0,0,0,0,0,0,0,0,0,0,0,0,0,0,0,0,0,0,0,0,0,0,0,0,0,0,0,0,0,0,0,0,0,0,0,0,0,0,0,0,0,0,0,0,0,0,0,0,0,0,0,0,0,0,0,0,0,0,0,0,0,0,0,0,0,0,0,0,0,0,0,0,0,0,0,0,0,0,0,0,0,0,0,0,0,0,0,0,0,0,0,0,0,0,0,0,0,0,0,0,0,0,0,0,0,0,0,0,0,0,0,0,0,0,0,0,0,0,0,0,0,0,0,0,0,0,0,0,0,0,0,0,0,0,0,0,0,0,0,0,0,0,0,0,0,0,0,0,0,0,0,0,0,0,0,0,0,0,0,0,0,0,0,0,0,0,0,0,0,0,0,0,0,0,0,0,0,0,0,0,0,0,0,0,0,0,0,0,0,0,0,0,0,0,0,0,0,0,0,0,0,0,0,0,0,0,0,0,0,0,0,0,0,0,0,0,0,0,0,0,0,0,0,0,0,0,0,0,0,0,0,0,0,0,0,0,0,0,0,0,0,0,0,0,0,0,0,0,0,0,0,0,0,0,0,0,0,0,0,0,0,0,0,0,0,0,0,0,0,0,0,0,0,0,0,0,0,0,0,0,0,0,0,0,0,0,0,0,0,0,0,0,0,0,0,0,0,0,0,0,0,0,0,0,0,0,0,0,0,0,0,0,0,0,0,0,0,0,0,0,0,0,0,0,0,0,0,0,0,0,0,0,0,0,0,0,0,0,0,0,0,0,0,0,0,0,0,0,0,0,0,0,0,0,0,0,0,0,0,0,0,0,0,0,0,0,0,0,0,0,0,0,0,0,0,0,0,0,0,0,0,0,0,0,0,0,0,0,0,0,0,0,0,0,0,0,0,0,0,0,0,0,0,0,0,0,0,0,0,0,0,0,0,0,0,0,0,0,0,0,0,0,0,0,0,0,0,0,0,0,0,0,0,0,0,0,0,0,0,0,0,0,0,0,0,0,0,0,0,0,0,0,0,0,0,0,0,0,0,0,0,0,0,0,0,0,0,0,0,0,0,0,0,0,0,0,0,0,0,0,0,0,0,0,0,0,0,0,0,0,0,0,0,0,0,0,0,0,0,0,0,0,0,0,0,0,0,0,0,0,0,0,0,0,0,0,0,0,0,0,0,0,0,0,0,0,0,0,0,0,0,0,0,0,0,0,0,0,0,0,0,0,0,0,0,0,0,0,0,0,0,0,0,0,0,0,0,0,0,0,0,0,0,0,0,0,0,0,0,0,0,0,0,0,0,0,0,0,0,0,0,0,0,0,0,0,0,0,0,0,0,0,0,0,0,0,0,0,0,0,0,0,0,0,0,0,0,0,0,0,0,0,0,0,0,0,0,0,0,0,0,0,0,0,0,0,0,0,0,0,0,0,0,0,0,0,0,0,0,0,0,0,0,0,0,0,0,0,0,0,0,0,0,0,0,0,0,0,0,0,0,0,0,0,0,0,0,0,0,0,0,0,0,0,0,0,0,0,0,0,0,0,0,0,0,0,0,0,0,0,0,0,0,0,0,0,0,0,0,0,0,0,0,0,0,0,0,0,0,0,0,0,0,0,0,0,0,0,0,0,0,0,0,0,0,0,0,0,0,0,0,0,0,0,0,0,0,0,0,0,0,0,0,0,0,0,0,0,0,0,0,0,0,0,0,0,0,0,0,0,0,0,0,0,0,0,0,0,0,0,0,0,0,0,0,0,0,0,0,0,0,0,0,0,0,0,0,0,0,0,0,0,0,0,0,0,0,0,0,0,0,0,0,0,0,0,0,0,0,0,0,0,0,0,0,0,0,0,0,0,0,0,0,0,0,0,0,0,0,0,0,0,0,0,0,0,0,0,0,0,0,0,0,0,0,0,0,0,0,0,0,0,0,0,0,0,0,0,0,0,0,0,0,0,0,0,0,0,0,0,0,0,0,0,0,0,0,0,0,0,0,0,0,0,0,0,0,0,0,0,0,0,0,0,0,0,0,0,0,0,0,0,0,0,0,0,0,0,0,0,0,0,0,0,0,0,0,0,0,0,0,0,0,0,0,0,0,0,0,0,0,0,0,0,0,0,0,0,0,0,0,0,0,0,0,0,0,0,0,0,0,0,0,0,0,0,0,0,0,0,0,0,0,0,0,0,0,0,0,0,0,0,0,0,0,0,0,0,0,0,0,0,0,0,0,0,0,0,0,0,0,0,0,0,0,0,0],"trees":[{"base_weights":[5.8546555E-3,1.7125979E-1,-1.8572438E-1,-8.2220435E-2,4.439142E-1,-4.1441938E-1,1.4935677E-1,1.4566411E-1,-5.1773256E-3,8.958558E-3,2.2211625E-1,-1.3401227E-1,-8.127398E-3,4.416094E-3,-1.2507406E-3,-7.220938E-4,4.18708E-3,5.219283E-3,-1.179472E-3,-5.5871424E-3,2.854056E-3],"categories":[],"categories_nodes":[],"categories_segments":[],"categories_sizes":[],"default_left":[0,0,0,0,0,0,0,0,0,0,0,0,0,0,0,0,0,0,0,0,0],"id":0,"left_children":[1,3,5,7,9,11,13,15,-1,-1,17,19,-1,-1,-1,-1,-1,-1,-1,-1,-1],"loss_changes":[3.95857E1,4.669027E1,4.4514904E1,3.496677E1,3.161773E1,3.7807346E1,1.9105753E1,1.3908731E1,0E0,0E0,2.2896805E1,3.7045624E1,0E0,0E0,0E0,0E0,0E0,0E0,0E0,0E0,0E0],"parents":[2147483647,0,0,1,1,2,2,3,3,4,4,5,5,6,6,7,7,10,10,11,11],"right_children":[2,4,6,8,10,12,14,16,-1,-1,18,20,-1,-1,-1,-1,-1,-1,-1,-1,-1],"split_conditions":[9.562087E-2,-4.3307963E-1,8.915015E-1,-5.214921E-1,1.0175934E-1,1.4279291E-1,1.0419011E0,-9.7317636E-1,-5.1773256E-3,8.958558E-3,8.36338E-3,-8.816988E-2,-8.127398E-3,4.416094E-3,-1.2507406E-3,-7.220938E-4,4.18708E-3,5.219283E-3,-1.179472E-3,-5.5871424E-3,2.854056E-3],"split_indices":[43,15,15,1,16,16,16,17,0,0,39,15,0,0,0,0,0,0,0,0,0],"split_type":[0,0,0,0,0,0,0,0,0,0,0,0,0,0,0,0,0,0,0,0,0],"sum_hessian":[1.2454478E3,6.698961E2,5.7555164E2,3.4692834E2,3.229678E2,3.4268533E2,2.3286629E2,2.2787451E2,1.19053825E2,1.0357932E2,2.1938849E2,2.0341481E2,1.3927051E2,1.1306369E2,1.1980259E2,1.2654149E2,1.0133302E2,1.16807526E2,1.0258097E2,1.0133302E2,1.0208179E2],"tree_param":{"num_deleted":"0","num_feature":"52","num_nodes":"21","size_leaf_vector":"1"}},{"base_weights":[2.616261E-2,-2.2920144E-1,1.0550217E-1,-5.3328276E-4,-4.3680524E-3,1.9017045E-1,-1.4914325E-1,5.924713E-3,1.0941637E-1,-3.7796167E-3,4.5083827E-4,-1.2784367E-4,2.3887863E-3],"categories":[],"categories_nodes":[],"categories_segments":[],"categories_sizes":[],"default_left":[0,0,0,0,0,0,0,0,0,0,0,0,0],"id":1,"left_children":[1,3,5,-1,-1,7,9,-1,11,-1,-1,-1,-1],"loss_changes":[2.5659678E1,1.064398E1,2.0983204E1,0E0,0E0,2.32367E1,1.0937944E1,0E0,9.793148E0,0E0,0E0,0E0,0E0],"parents":[2147483647,0,0,1,1,2,2,5,5,6,6,8,8],"right_children":[2,4,6,-1,-1,8,10,-1,12,-1,-1,-1,-1],"split_conditions":[-7.543921E-1,9.192425E-3,7.969157E-1,-5.3328276E-4,-4.3680524E-3,-6.567261E-1,9.910653E-2,5.924713E-3,-2.3368196E-1,-3.7796167E-3,4.5083827E-4,-1.2784367E-4,2.3887863E-3],"split_indices":[6,3,0,0,0,35,36,0,3,0,0,0,0],"split_type":[0,0,0,0,0,0,0,0,0,0,0,0,0],"sum_hessian":[1.2651553E3,2.9750842E2,9.6764685E2,1.6372755E2,1.3378087E2,7.280454E2,2.3960138E2,1.185563E2,6.0948914E2,1.1031818E2,1.2928322E2,3.124782E2,2.9701096E2],"tree_param":{"num_deleted":"0","num_feature":"52","num_nodes":"13","size_leaf_vector":"1"}},{"base_weights":[-6.765091E-3,-3.26558E-1,9.982563E-2,-0E0,-6.641272E-3,3.2761922E-1,-1.0213816E-1,-5.967128E-4,5.3648615E-1,-2.3454551E-1,3.3800884E-3,8.456843E-3,3.6172473E-3,8.20413E-4,-4.477421E-3],"categories":[],"categories_nodes":[],"categories_segments":[],"categories_sizes":[],"default_left":[0,0,0,0,0,0,0,0,0,0,0,0,0,0,0],"id":2,"left_children":[1,3,5,-1,-1,7,9,-1,11,13,-1,-1,-1,-1,-1],"loss_changes":[4.3277763E1,3.503658E1,4.382409E1,0E0,0E0,3.64987E1,2.943288E1,0E0,1.4548439E1,2.6504404E1,0E0,0E0,0E0,0E0,0E0],"parents":[2147483647,0,0,1,1,2,2,5,5,6,6,8,8,9,9],"right_children":[2,4,6,-1,-1,8,10,-1,12,14,-1,-1,-1,-1,-1],"split_conditions":[-4.7665122E-1,-3.659922E-1,6.390617E-2,-0E0,-6.641272E-3,-7.418125E-1,1.3690461E0,-5.967128E-4,-2.519576E-1,1.8317658E-1,3.3800884E-3,8.456843E-3,3.6172473E-3,8.20413E-4,-4.477421E-3],"split_indices":[21,43,43,0,0,17,15,0,51,16,0,0,0,0,0],"split_type":[0,0,0,0,0,0,0,0,0,0,0,0,0,0,0],"sum_hessian":[1.2623898E3,3.15723E2,9.466668E2,1.6146803E2,1.5425494E2,4.4546323E2,5.012036E2,1.5573222E2,2.8973102E2,3.868881E2,1.143155E2,1.0081824E2,1.8891277E2,1.552437E2,2.3164441E2],"tree_param":{"num_deleted":"0","num_feature":"52","num_nodes":"15","size_leaf_vector":"1"}},{"base_weights":[6.433451E-3,2.4476297E-1,-1.1104784E-1,-1.650813E-2,5.126992E-1,-2.4844277E-1,8.2088664E-2,2.6873972E-3,-3.2455497E-3,6.9657313E-3,3.2662759E-3,-1.2418779E-1,-5.176198E-3,-7.8133136E-2,4.2553637E-3,4.1921693E-4,-2.9605755E-3,8.022922E-4,-2.7133932E-3],"categories":[],"categories_nodes":[],"categories_segments":[],"categories_sizes":[],"default_left":[0,0,0,0,0,0,0,0,0,0,0,0,0,0,0,0,0,0,0],"id":3,"left_children":[1,3,5,7,9,11,13,-1,-1,-1,-1,15,-1,17,-1,-1,-1,-1,-1],"loss_changes":[3.5690876E1,2.9770433E1,2.2703339E1,1.9040548E1,6.1872406E0,1.6247286E1,1.9703003E1,0E0,0E0,0E0,0E0,1.0014141E1,0E0,7.539653E0,0E0,0E0,0E0,0E0,0E0],"parents":[2147483647,0,0,1,1,2,2,3,3,4,4,5,5,6,6,11,11,13,13],"right_children":[2,4,6,8,10,12,14,-1,-1,-1,-1,16,-1,18,-1,-1,-1,-1,-1],"split_conditions":[-3.2468992E-1,-7.418125E-1,4.6010703E-1,-1.0828588E0,-3.8280234E-1,-2.9117548E-1,5.354378E-1,2.6873972E-3,-3.2455497E-3,6.9657313E-3,3.2662759E-3,8.952195E-2,-5.176198E-3,4.740413E-1,4.2553637E-3,4.1921693E-4,-2.9605755E-3,8.022922E-4,-2.7133932E-3],"split_indices":[43,17,17,43,2,8,36,0,0,0,0,43,0,37,0,0,0,0,0],"split_type":[0,0,0,0,0,0,0,0,0,0,0,0,0,0,0,0,0,0,0],"sum_hessian":[1.2683785E3,4.1948184E2,8.4889667E2,2.123879E2,2.0709395E2,4.9720633E2,3.5169034E2,1.095645E2,1.02823395E2,1.0005065E2,1.070433E2,3.4344754E2,1.5375876E2,2.3987529E2,1.1181504E2,1.7394011E2,1.6950745E2,1.3104512E2,1.0883016E2],"tree_param":{"num_deleted":"0","num_feature":"52","num_nodes":"19","size_leaf_vector":"1"}},{"base_weights":[4.5640666E-2,-2.6921308E-1,1.9545501E-1,1.4825439E-3,-5.1831937E-1,4.0539923E-1,2.4180785E-2,-2.5180161E-3,-7.579067E-3,6.26992E-3,1.8445785E-3,1.7624359E-1,-2.5862928E-3,4.610094E-3,-5.834306E-4],"categories":[],"categories_nodes":[],"categories_segments":[],"categories_sizes":[],"default_left":[0,0,0,0,0,0,0,0,0,0,0,0,0,0,0],"id":4,"left_children":[1,3,5,-1,7,9,11,-1,-1,-1,-1,13,-1,-1,-1],"loss_changes":[6.0061752E1,4.2958412E1,3.083464E1,0E0,1.557933E1,1.8298195E1,2.0661331E1,0E0,0E0,0E0,0E0,2.123291E1,0E0,0E0,0E0],"parents":[2147483647,0,0,1,1,2,2,4,4,5,5,6,6,11,11],"right_children":[2,4,6,-1,8,10,12,-1,-1,-1,-1,14,-1,-1,-1],"split_conditions":[-3.746074E-1,-5.4338086E-1,6.390617E-2,1.4825439E-3,-1.8269576E-1,9.7218215E-1,7.367165E-1,-2.5180161E-3,-7.579067E-3,6.26992E-3,1.8445785E-3,9.2776376E-1,-2.5862928E-3,4.610094E-3,-5.834306E-4],"split_indices":[21,1,43,0,33,33,45,0,0,0,0,33,0,0,0],"split_type":[0,0,0,0,0,0,0,0,0,0,0,0,0,0,0],"sum_hessian":[1.2698654E3,4.0782928E2,8.62036E2,1.5196298E2,2.5586629E2,3.847566E2,4.7727945E2,1.24055466E2,1.3181082E2,1.8913014E2,1.9562643E2,3.1202814E2,1.6525133E2,1.4103099E2,1.7099713E2],"tree_param":{"num_deleted":"0","num_feature":"52","num_nodes":"15","size_leaf_vector":"1"}},{"base_weights":[3.9672583E-2,2.729037E-1,-6.997636E-2,-7.962263E-4,5.180947E-1,-4.3792185E-1,1.1134067E-1,2.8103795E-3,7.9168165E-3,-7.116438E-4,-7.1164314E-3,7.1480446E-3,-2.4483036E-2,-3.6869417E-3,2.4183153E-3],"categories":[],"categories_nodes":[],"categories_segments":[],"categories_sizes":[],"default_left":[0,0,0,0,0,0,0,0,0,0,0,0,0,0,0],"id":5,"left_children":[1,3,5,-1,7,9,11,-1,-1,-1,-1,-1,13,-1,-1],"loss_changes":[3.265194E1,3.560413E1,5.796269E1,0E0,1.4712715E1,2.8301891E1,4.7925816E1,0E0,0E0,0E0,0E0,0E0,4.3762215E1,0E0,0E0],"parents":[2147483647,0,0,1,1,2,2,4,4,5,5,6,6,12,12],"right_children":[2,4,6,-1,8,10,12,-1,-1,-1,-1,-1,14,-1,-1],"split_conditions":[-3.2468992E-1,-8.945921E-1,7.025066E-2,-7.962263E-4,-4.370595E-1,-4.9369517E-1,1.4279291E-1,2.8103795E-3,7.9168165E-3,-7.116438E-4,-7.1164314E-3,7.1480446E-3,8.915015E-1,-3.6869417E-3,2.4183153E-3],"split_indices":[43,15,15,0,17,16,16,0,0,0,0,0,15,0,0],"split_type":[0,0,0,0,0,0,0,0,0,0,0,0,0,0,0],"sum_hessian":[1.2693248E3,4.0642087E2,8.6290393E2,1.6643633E2,2.3998454E2,2.8482913E2,5.7807477E2,1.3172763E2,1.08256905E2,1.23585014E2,1.6124413E2,1.0531532E2,4.7275946E2,2.0670378E2,2.660557E2],"tree_param":{"num_deleted":"0","num_feature":"52","num_nodes":"15","size_leaf_vector":"1"}},{"base_weights":[1.7268874E-4,-2.890678E-1,1.2624009E-1,4.7865606E-4,-5.5466855E-1,3.391848E-1,-5.2260987E-2,-2.1814327E-3,-8.974592E-3,5.6403864E-2,6.2672268E-3,-4.9813474E-3,1.0913982E-1,3.5485616E-3,-2.4404183E-3,2.9224646E-3,-1.426317E-3],"categories":[],"categories_nodes":[],"categories_segments":[],"categories_sizes":[],"default_left":[0,0,0,0,0,0,0,0,0,0,0,0,0,0,0,0,0],"id":6,"left_children":[1,3,5,-1,7,9,11,-1,-1,13,-1,-1,15,-1,-1,-1,-1],"loss_changes":[4.602904E1,3.4550117E1,3.370064E1,0E0,2.3848694E1,3.241222E1,3.486086E1,0E0,0E0,1.8754633E1,0E0,0E0,1.6449984E1,0E0,0E0,0E0,0E0],"parents":[2147483647,0,0,1,1,2,2,4,4,5,5,6,6,9,9,12,12],"right_children":[2,4,6,-1,8,10,12,-1,-1,14,-1,-1,16,-1,-1,-1,-1],"split_conditions":[-3.8459784E-1,-4.935642E-1,1.476889E-1,4.7865606E-4,-4.8311478E-1,-4.9140432E-1,1.8614765E-1,-2.1814327E-3,-8.974592E-3,-6.781215E-1,6.2672268E-3,-4.9813474E-3,1.0456676E0,3.5485616E-3,-2.4404183E-3,2.9224646E-3,-1.426317E-3],"split_indices":[21,51,51,0,22,17,17,0,0,2,0,0,0,0,0,0,0],"split_type":[0,0,0,0,0,0,0,0,0,0,0,0,0,0,0,0,0],"sum_hessian":[1.2605529E3,3.8065405E2,8.7989886E2,1.6768753E2,2.129665E2,4.0169427E2,4.782046E2,1.0985286E2,1.0311365E2,2.0460526E2,1.9708904E2,1.26811066E2,3.5139352E2,1.03296295E2,1.0130895E2,2.0440192E2,1.469916E2],"tree_param":{"num_deleted":"0","num_feature":"52","num_nodes":"17","size_leaf_vector":"1"}},{"base_weights":[2.2693701E-2,-3.2354304E-1,1.0258721E-1,1.9178343E-4,-6.0650343E-3,3.881259E-1,-3.6238686E-3,5.67784E-3,1.0301087E-3,6.822794E-2,-3.7547266E-3,3.9147222E-3,-4.422416E-5],"categories":[],"categories_nodes":[],"categories_segments":[],"categories_sizes":[],"default_left":[0,0,0,0,0,0,0,0,0,0,0,0,0],"id":7,"left_children":[1,3,5,-1,-1,7,9,-1,-1,11,-1,-1,-1],"loss_changes":[3.5342396E1,2.350871E1,3.1799034E1,0E0,0E0,1.4086163E1,2.051768E1,0E0,0E0,1.5173006E1,0E0,0E0,0E0],"parents":[2147483647,0,0,1,1,2,2,5,5,6,6,9,9],"right_children":[2,4,6,-1,-1,8,10,-1,-1,12,-1,-1,-1],"split_conditions":[-6.0305405E-1,-5.5411565E-1,-3.2468992E-1,1.9178343E-4,-6.0650343E-3,-1.1039382E-2,1.3251867E0,5.67784E-3,1.0301087E-3,-4.9440615E-2,-3.7547266E-3,3.9147222E-3,-4.422416E-5],"split_indices":[21,43,43,0,0,48,10,0,0,33,0,0,0],"split_type":[0,0,0,0,0,0,0,0,0,0,0,0,0],"sum_hessian":[1.2772424E3,2.3714832E2,1.0400941E3,1.07292786E2,1.2985553E2,2.8182706E2,7.58267E2,1.7059462E2,1.1123245E2,6.357168E2,1.2255025E2,1.1631229E2,5.1940454E2],"tree_param":{"num_deleted":"0","num_feature":"52","num_nodes":"13","size_leaf_vector":"1"}},{"base_weights":[-5.4358942E-3,-1.7712846E-1,1.7721483E-1,1.4036684E-1,-4.1835156E-1,6.6146604E-3,1.8031387E-2,-7.0700457E-4,5.0216964E-3,-1.2036206E-3,-6.3794285E-1,-5.241896E-3,1.9413806E-1,-3.9380966E-3,-8.464456E-3,-7.67508E-4,3.8855134E-3],"categories":[],"categories_nodes":[],"categories_segments":[],"categories_sizes":[],"default_left":[0,0,0,0,0,0,0,0,0,0,0,0,0,0,0,0,0],"id":8,"left_children":[1,3,5,7,9,-1,11,-1,-1,-1,13,-1,15,-1,-1,-1,-1],"loss_changes":[3.9662136E1,5.0291565E1,4.67688E1,2.187236E1,2.38516E1,0E0,4.4249973E1,0E0,0E0,0E0,9.561188E0,0E0,1.8734818E1,0E0,0E0,0E0,0E0],"parents":[2147483647,0,0,1,1,2,2,3,3,4,4,6,6,10,10,12,12],"right_children":[2,4,6,8,10,-1,12,-1,-1,-1,14,-1,16,-1,-1,-1,-1],"split_conditions":[1.0445651E-1,-5.1041424E-1,1.6882561E-1,-7.981638E-1,-3.8524464E-1,6.6146604E-3,2.26244E-1,-7.0700457E-4,5.0216964E-3,-1.2036206E-3,-1.6220121E-1,-5.241896E-3,8.915015E-1,-3.9380966E-3,-8.464456E-3,-7.67508E-4,3.8855134E-3],"split_indices":[15,2,51,17,16,0,17,0,0,0,43,0,15,0,0,0,0],"split_type":[0,0,0,0,0,0,0,0,0,0,0,0,0,0,0,0,0],"sum_hessian":[1.260745E3,6.513092E2,6.0943585E2,2.806647E2,3.7064447E2,1.4843391E2,4.6100192E2,1.7740057E2,1.0326414E2,1.5953104E2,2.1111343E2,1.11354965E2,3.4964697E2,1.01013535E2,1.100999E2,1.4552124E2,2.0412573E2],"tree_param":{"num_deleted":"0","num_feature":"52","num_nodes":"17","size_leaf_vector":"1"}},{"base_weights":[-2.012841E-2,-2.9119954E-1,9.553613E-2,-3.1416424E-2,-6.221922E-3,3.293883E-1,-1.15651555E-1,1.5149203E-3,-2.2246046E-3,6.3205236E-3,1.1570245E-1,-3.3909976E-1,1.23727836E-1,-1.8297953E-3,5.266903E-3,5.4672133E-4,-6.9174673E-3,5.8337417E-3,-2.6758066E-3],"categories":[],"categories_nodes":[],"categories_segments":[],"categories_sizes":[],"default_left":[0,0,0,0,0,0,0,0,0,0,0,0,0,0,0,0,0,0,0],"id":9,"left_children":[1,3,5,7,-1,9,11,-1,-1,-1,13,15,17,-1,-1,-1,-1,-1,-1],"loss_changes":[3.9955624E1,3.2434376E1,4.4137825E1,7.674183E0,0E0,2.6901215E1,2.5225777E1,0E0,0E0,0E0,3.1291521E1,3.423259E1,4.1180916E1,0E0,0E0,0E0,0E0,0E0,0E0],"parents":[2147483647,0,0,1,1,2,2,3,3,5,5,6,6,10,10,11,11,12,12],"right_children":[2,4,6,8,-1,10,12,-1,-1,-1,14,16,18,-1,-1,-1,-1,-1,-1],"split_conditions":[-3.8459784E-1,-4.9440615E-2,1.04512945E-1,-3.0243668E-1,-6.221922E-3,4.814489E-1,8.915015E-1,1.5149203E-3,-2.2246046E-3,6.3205236E-3,1.0280726E0,1.2341171E-1,1.2723763E-1,-1.8297953E-3,5.266903E-3,5.4672133E-4,-6.9174673E-3,5.8337417E-3,-2.6758066E-3],"split_indices":[21,33,43,2,0,22,15,0,0,0,21,16,20,0,0,0,0,0,0],"split_type":[0,0,0,0,0,0,0,0,0,0,0,0,0,0,0,0,0,0,0],"sum_hessian":[1.2674717E3,3.7945932E2,8.880124E2,2.1467209E2,1.6478723E2,4.2198666E2,4.660257E2,1.0854568E2,1.061264E2,1.720458E2,2.4994086E2,2.4168288E2,2.2434282E2,1.4468513E2,1.0525572E2,1.1431207E2,1.27370804E2,1.0329939E2,1.21043434E2],"tree_param":{"num_deleted":"0","num_feature":"52","num_nodes":"19","size_leaf_vector":"1"}},{"base_weights":[-2.2613052E-2,-1.2320561E-1,3.1248116E-1,1.1740156E-1,-2.7966875E-1,5.2959058E-3,3.4931052E-4,-2.0584106E-3,3.9079234E-1,-1.6475607E-1,-6.9948803E-3,6.0162E-3,1.6784476E-3,-6.4005787E-3,6.399201E-4],"categories":[],"categories_nodes":[],"categories_segments":[],"categories_sizes":[],"default_left":[0,0,0,0,0,0,0,0,0,0,0,0,0,0,0],"id":10,"left_children":[1,3,5,7,9,-1,-1,-1,11,13,-1,-1,-1,-1,-1],"loss_changes":[4.2436317E1,3.6710884E1,1.7168201E1,3.408793E1,2.781929E1,0E0,0E0,0E0,9.235022E0,5.115157E1,0E0,0E0,0E0,0E0,0E0],"parents":[2147483647,0,0,1,1,2,2,3,3,4,4,8,8,9,9],"right_children":[2,4,6,8,10,-1,-1,-1,12,14,-1,-1,-1,-1,-1],"split_conditions":[1.0280726E0,-2.8027123E-1,2.2432333E-1,-8.7535673E-1,4.814489E-1,5.2959058E-3,3.4931052E-4,-2.0584106E-3,-9.66863E-3,-4.7665122E-1,-6.9948803E-3,6.0162E-3,1.6784476E-3,-6.4005787E-3,6.399201E-4],"split_indices":[21,43,39,15,22,0,0,0,39,21,0,0,0,0,0],"split_type":[0,0,0,0,0,0,0,0,0,0,0,0,0,0,0],"sum_hessian":[1.257463E3,9.692568E2,2.882062E2,3.8086725E2,5.883895E2,1.5968073E2,1.285255E2,1.739103E2,2.0695695E2,4.6506744E2,1.2332208E2,1.0347111E2,1.0348585E2,1.5064369E2,3.1442377E2],"tree_param":{"num_deleted":"0","num_feature":"52","num_nodes":"15","size_leaf_vector":"1"}},{"base_weights":[1.0983762E-2,1.5882468E-1,-1.6803819E-1,-2.3682152E-1,3.3009827E-1,-4.0257296E-1,1.9103019E-1,1.3627971E-3,-5.8087776E-3,6.413607E-3,2.4508326E-1,-6.0438756E-3,-1.3753287E-3,4.340021E-3,-7.4001384E-4,1.002114E-3,4.6979976E-3],"categories":[],"categories_nodes":[],"categories_segments":[],"categories_sizes":[],"default_left":[0,0,0,0,0,0,0,0,0,0,0,0,0,0,0,0,0],"id":11,"left_children":[1,3,5,7,9,11,13,-1,-1,-1,15,-1,-1,-1,-1,-1,-1],"loss_changes":[3.392984E1,4.788732E1,4.897325E1,2.7706882E1,1.2283146E1,1.8258217E1,1.4994742E1,0E0,0E0,0E0,1.236891E1,0E0,0E0,0E0,0E0,0E0,0E0],"parents":[2147483647,0,0,1,1,2,2,3,3,4,4,5,5,6,6,10,10],"right_children":[2,4,6,8,10,12,14,-1,-1,-1,16,-1,-1,-1,-1,-1,-1],"split_conditions":[1.04512945E-1,-8.3618075E-1,8.915015E-1,-1.0231339E0,-9.832978E-1,4.8112318E-1,4.5966786E-1,1.3627971E-3,-5.8087776E-3,6.413607E-3,1.1325746E-1,-6.0438756E-3,-1.3753287E-3,4.340021E-3,-7.4001384E-4,1.002114E-3,4.6979976E-3],"split_indices":[43,15,15,43,13,17,8,0,0,0,15,0,0,0,0,0,0],"split_type":[0,0,0,0,0,0,0,0,0,0,0,0,0,0,0,0,0],"sum_hessian":[1.2781361E3,7.016851E2,5.764509E2,2.108747E2,4.9081042E2,3.4938882E2,2.2706215E2,1.0104937E2,1.09825325E2,1.0122596E2,3.8958447E2,1.9582828E2,1.5356055E2,1.1878008E2,1.0828206E2,2.399857E2,1.4959877E2],"tree_param":{"num_deleted":"0","num_feature":"52","num_nodes":"17","size_leaf_vector":"1"}},{"base_weights":[1.4652253E-2,-1.5681997E-1,1.4800344E-1,1.6231595E-1,-5.070695E-1,5.582737E-1,-4.628216E-2,3.648585E-3,-8.3905173E-4,-7.284005E-3,-1.7391957E-3,3.0287786E-3,7.6364293E-3,-1.8412296E-1,4.680959E-3,2.9908345E-4,-5.0818436E-3],"categories":[],"categories_nodes":[],"categories_segments":[],"categories_sizes":[],"default_left":[0,0,0,0,0,0,0,0,0,0,0,0,0,0,0,0,0],"id":12,"left_children":[1,3,5,7,9,11,13,-1,-1,-1,-1,-1,-1,15,-1,-1,-1],"loss_changes":[2.9204063E1,6.2625507E1,5.7705612E1,1.4781122E1,1.8976395E1,1.1193352E1,3.4750805E1,0E0,0E0,0E0,0E0,0E0,0E0,2.7208914E1,0E0,0E0,0E0],"parents":[2147483647,0,0,1,1,2,2,3,3,4,4,5,5,6,6,13,13],"right_children":[2,4,6,8,10,12,14,-1,-1,-1,-1,-1,-1,16,-1,-1,-1],"split_conditions":[-1.17026635E-1,-4.748232E-1,1.9278722E-1,-9.133544E-2,-4.3307963E-1,-4.8495167E-1,1.4709382E0,3.648585E-3,-8.3905173E-4,-7.284005E-3,-1.7391957E-3,3.0287786E-3,7.6364293E-3,4.8363888E-1,4.680959E-3,2.9908345E-4,-5.0818436E-3],"split_indices":[15,1,1,48,15,32,15,0,0,0,0,0,0,37,0,0,0],"split_type":[0,0,0,0,0,0,0,0,0,0,0,0,0,0,0,0,0],"sum_hessian":[1.2733441E3,5.55256E2,7.1808813E2,2.9034695E2,2.6490903E2,2.303943E2,4.8769385E2,1.5988878E2,1.3045818E2,1.5683844E2,1.08070595E2,1.0598115E2,1.24413155E2,3.8640332E2,1.0129054E2,2.3287195E2,1.5353136E2],"tree_param":{"num_deleted":"0","num_feature":"52","num_nodes":"17","size_leaf_vector":"1"}},{"base_weights":[-5.567954E-3,-2.791873E-1,1.1510956E-1,1.1779346E-3,-5.1231E-1,3.8149288E-1,-5.8679666E-2,-8.066535E-3,-2.7282294E-3,8.329978E-5,6.452262E-1,-2.772874E-1,2.0698467E-1,8.403644E-3,4.337947E-3,5.382262E-4,-5.959267E-3,4.93093E-3,-3.0731742E-4],"categories":[],"categories_nodes":[],"categories_segments":[],"categories_sizes":[],"default_left":[0,0,0,0,0,0,0,0,0,0,0,0,0,0,0,0,0,0,0],"id":13,"left_children":[1,3,5,-1,7,9,11,-1,-1,-1,13,15,17,-1,-1,-1,-1,-1,-1],"loss_changes":[4.2265697E1,3.661917E1,4.1192112E1,0E0,1.6522942E1,3.420128E1,3.1300928E1,0E0,0E0,0E0,7.084076E0,3.1579098E1,1.6737072E1,0E0,0E0,0E0,0E0,0E0,0E0],"parents":[2147483647,0,0,1,1,2,2,4,4,5,5,6,6,10,10,11,11,12,12],"right_children":[2,4,6,-1,8,10,12,-1,-1,-1,14,16,18,-1,-1,-1,-1,-1,-1],"split_conditions":[-3.8459784E-1,-5.4338086E-1,-1.9457037E-2,1.1779346E-3,-4.9133024E-1,-3.5609642E-1,8.915015E-1,-8.066535E-3,-2.7282294E-3,8.329978E-5,-6.9725715E-2,1.7699924E-1,1.0419011E0,8.403644E-3,4.337947E-3,5.382262E-4,-5.959267E-3,4.93093E-3,-3.0731742E-4],"split_indices":[21,1,43,0,15,15,15,0,0,0,2,16,16,0,0,0,0,0,0],"split_type":[0,0,0,0,0,0,0,0,0,0,0,0,0,0,0,0,0,0,0],"sum_hessian":[1.2735834E3,3.9025385E2,8.833295E2,1.4395685E2,2.4629701E2,3.4894897E2,5.3438055E2,1.0743223E2,1.3886479E2,1.461362E2,2.0281276E2,2.9413757E2,2.4024298E2,1.011466E2,1.0166617E2,1.4429169E2,1.4984589E2,1.09003914E2,1.3123907E2],"tree_param":{"num_deleted":"0","num_feature":"52","num_nodes":"19","size_leaf_vector":"1"}},{"base_weights":[-2.6317831E-2,-1.2857336E-1,3.148266E-1,6.0726483E-3,-3.640937E-1,5.572749E-3,1.1707487E-4,-1.14538364E-1,6.23415E-3,-7.052841E-3,-7.9824287E-4,1.1388565E-3,-4.396966E-3],"categories":[],"categories_nodes":[],"categories_segments":[],"categories_sizes":[],"default_left":[0,0,0,0,0,0,0,0,0,0,0,0,0],"id":14,"left_children":[1,3,5,7,9,-1,-1,11,-1,-1,-1,-1,-1],"loss_changes":[4.432543E1,3.1274931E1,2.1203453E1,4.6890858E1,3.4218452E1,0E0,0E0,3.913663E1,0E0,0E0,0E0,0E0,0E0],"parents":[2147483647,0,0,1,1,2,2,3,3,4,4,7,7],"right_children":[2,4,6,8,10,-1,-1,12,-1,-1,-1,-1,-1],"split_conditions":[1.0280726E0,1.2341171E-1,1.836852E-1,1.8995654E-2,5.3976643E-1,5.572749E-3,1.1707487E-4,-3.4055805E-1,6.23415E-3,-7.052841E-3,-7.9824287E-4,1.1388565E-3,-4.396966E-3],"split_indices":[21,16,39,15,15,0,0,2,0,0,0,0,0],"split_type":[0,0,0,0,0,0,0,0,0,0,0,0,0],"sum_hessian":[1.2690046E3,9.784372E2,2.9056744E2,6.224249E2,3.5601227E2,1.5959207E2,1.3097537E2,5.21381E2,1.010439E2,1.5966072E2,1.9635155E2,3.0610425E2,2.1527676E2],"tree_param":{"num_deleted":"0","num_feature":"52","num_nodes":"13","size_leaf_vector":"1"}},{"base_weights":[9.999247E-3,-2.547786E-1,1.2600635E-1,4.3748564E-4,-5.5748513E-3,4.411746E-1,1.3808193E-2,7.368189E-3,1.8938794E-3,2.0704064E-1,-1.9402681E-1,4.2093836E-4,5.8858343E-3,-4.941172E-3,-4.0621025E-4],"categories":[],"categories_nodes":[],"categories_segments":[],"categories_sizes":[],"default_left":[0,0,0,0,0,0,0,0,0,0,0,0,0,0,0],"id":15,"left_children":[1,3,5,-1,-1,7,9,-1,-1,11,13,-1,-1,-1,-1],"loss_changes":[3.8986446E1,3.518978E1,3.1063053E1,0E0,0E0,1.6465729E1,2.6434464E1,0E0,0E0,2.1170383E1,1.423383E1,0E0,0E0,0E0,0E0],"parents":[2147483647,0,0,1,1,2,2,5,5,6,6,9,9,10,10],"right_children":[2,4,6,-1,-1,8,10,-1,-1,12,14,-1,-1,-1,-1],"split_conditions":[-3.8459784E-1,-3.659922E-1,3.503248E-1,4.3748564E-4,-5.5748513E-3,2.4130459E-1,6.5427326E-2,7.368189E-3,1.8938794E-3,1.2373556E0,-5.471883E-1,4.2093836E-4,5.8858343E-3,-4.941172E-3,-4.0621025E-4],"split_indices":[21,43,33,0,0,16,39,0,0,21,36,0,0,0,0],"split_type":[0,0,0,0,0,0,0,0,0,0,0,0,0,0,0],"sum_hessian":[1.2672567E3,3.8403107E2,8.8322565E2,1.9338011E2,1.9065094E2,2.2916714E2,6.540585E2,1.0271827E2,1.2644888E2,3.4018677E2,3.138717E2,2.3997362E2,1.0021314E2,1.0356937E2,2.1030235E2],"tree_param":{"num_deleted":"0","num_feature":"52","num_nodes":"15","size_leaf_vector":"1"}},{"base_weights":[-6.4057275E-3,4.03067E-3,-5.0404396E-2,-1.2281799E-1,1.9197115E-1,-5.6505695E-2,-3.640246E-3,-1.5206476E-6,4.1721077E-3,3.1053298E-3,-1.2073457E-3],"categories":[],"categories_nodes":[],"categories_segments":[],"categories_sizes":[],"default_left":[0,0,0,0,0,0,0,0,0,0,0],"id":16,"left_children":[1,-1,3,5,7,9,-1,-1,-1,-1,-1],"loss_changes":[2.2439058E1,0E0,1.9921457E1,1.376331E1,1.146548E1,1.6275927E1,0E0,0E0,0E0,0E0,0E0],"parents":[2147483647,0,0,2,2,3,3,4,4,5,5],"right_children":[2,-1,4,6,8,10,-1,-1,-1,-1,-1],"split_conditions":[-1.1580701E0,4.03067E-3,8.04982E-1,8.1716144E-1,3.4894966E-2,-1.3470409E0,-3.640246E-3,-1.5206476E-6,4.1721077E-3,3.1053298E-3,-1.2073457E-3],"split_indices":[43,0,23,0,36,4,0,0,0,0,0],"split_type":[0,0,0,0,0,0,0,0,0,0,0],"sum_hessian":[1.2510217E3,1.1869581E2,1.1323259E3,8.741954E2,2.581305E2,6.892491E2,1.8494629E2,1.3918678E2,1.1894372E2,1.0034859E2,5.889005E2],"tree_param":{"num_deleted":"0","num_feature":"52","num_nodes":"11","size_leaf_vector":"1"}},{"base_weights":[-1.11140525E-2,-1.0251754E-1,2.9264942E-1,3.3045656E-3,-1.7324175E-1,6.8948013E-3,7.3080225E-4,-4.1941538E-1,-3.88195E-2,-9.5487776E-4,-6.019993E-3,1.8241098E-3,-4.418656E-3],"categories":[],"categories_nodes":[],"categories_segments":[],"categories_sizes":[],"default_left":[0,0,0,0,0,0,0,0,0,0,0,0,0],"id":17,"left_children":[1,3,5,-1,7,-1,-1,9,11,-1,-1,-1,-1],"loss_changes":[3.483724E1,2.9684267E1,2.476576E1,0E0,2.735529E1,0E0,0E0,1.6879879E1,4.8737328E1,0E0,0E0,0E0,0E0],"parents":[2147483647,0,0,1,1,2,2,4,4,7,7,8,8],"right_children":[2,4,6,-1,8,-1,-1,10,12,-1,-1,-1,-1],"split_conditions":[1.0280726E0,-1.0572147E0,1.9900529E-1,3.3045656E-3,-3.8459784E-1,6.8948013E-3,7.3080225E-4,-3.4477034E-1,4.472912E-1,-9.5487776E-4,-6.019993E-3,1.8241098E-3,-4.418656E-3],"split_indices":[21,43,2,0,21,0,0,43,22,0,0,0,0],"split_type":[0,0,0,0,0,0,0,0,0,0,0,0,0],"sum_hessian":[1.2539788E3,9.6621295E2,2.877658E2,1.3364188E2,8.3257104E2,1.00169846E2,1.8759596E2,2.9124353E2,5.413275E2,1.0707067E2,1.8417285E2,3.4939838E2,1.9192914E2],"tree_param":{"num_deleted":"0","num_feature":"52","num_nodes":"13","size_leaf_vector":"1"}},{"base_weights":[-8.016397E-3,-2.6927483E-1,1.0309569E-1,1.0345746E-3,-5.126451E-1,4.415758E-1,-2.894989E-4,-1.8440052E-3,-8.123361E-3,6.976873E-3,1.6207317E-3,-1.5456007E-1,2.1731387E-1,1.0013216E-3,-3.8636478E-3,5.6681284E-3,-6.1170745E-4],"categories":[],"categories_nodes":[],"categories_segments":[],"categories_sizes":[],"default_left":[0,0,0,0,0,0,0,0,0,0,0,0,0,0,0,0,0],"id":18,"left_children":[1,3,5,-1,7,9,11,-1,-1,-1,-1,13,15,-1,-1,-1,-1],"loss_changes":[3.7097088E1,3.4944107E1,3.1483078E1,0E0,2.2036896E1,1.4387806E1,2.3038017E1,0E0,0E0,0E0,0E0,2.4040543E1,2.7938786E1,0E0,0E0,0E0,0E0],"parents":[2147483647,0,0,1,1,2,2,4,4,5,5,6,6,11,11,12,12],"right_children":[2,4,6,-1,8,10,12,-1,-1,-1,-1,14,16,-1,-1,-1,-1],"split_conditions":[-3.8459784E-1,-5.323446E-1,2.6148805E-1,1.0345746E-3,-1.8269576E-1,3.1924313E-1,1.0280726E0,-1.8440052E-3,-8.123361E-3,6.976873E-3,1.6207317E-3,4.814489E-1,3.561861E-1,1.0013216E-3,-3.8636478E-3,5.6681284E-3,-6.1170745E-4],"split_indices":[21,1,33,0,33,1,21,0,0,0,0,22,0,0,0,0,0],"split_type":[0,0,0,0,0,0,0,0,0,0,0,0,0,0,0,0,0],"sum_hessian":[1.2711584E3,3.7979572E2,8.913627E2,1.4966795E2,2.3012776E2,2.081569E2,6.832058E2,1.1216979E2,1.1795798E2,1.061287E2,1.0202821E2,4.0146393E2,2.8174188E2,1.9080197E2,2.1066194E2,1.2481874E2,1.5692313E2],"tree_param":{"num_deleted":"0","num_feature":"52","num_nodes":"17","size_leaf_vector":"1"}},{"base_weights":[1.0733712E-2,-3.939954E-1,9.479219E-2,-1.7581518E-5,-8.119113E-3,4.7005856E-1,3.3597022E-3,2.328018E-3,6.9729183E-3,-1.5846503E-1,3.373951E-1,5.4254703E-4,-4.098788E-3,5.108674E-3,3.2058655E-4],"categories":[],"categories_nodes":[],"categories_segments":[],"categories_sizes":[],"default_left":[0,0,0,0,0,0,0,0,0,0,0,0,0,0,0],"id":19,"left_children":[1,3,5,-1,-1,7,9,-1,-1,11,13,-1,-1,-1,-1],"loss_changes":[4.285522E1,3.5058777E1,3.5701496E1,0E0,0E0,1.0215664E1,4.5892887E1,0E0,0E0,3.0697336E1,1.4396069E1,0E0,0E0,0E0,0E0],"parents":[2147483647,0,0,1,1,2,2,5,5,6,6,9,9,10,10],"right_children":[2,4,6,-1,-1,8,10,-1,-1,12,14,-1,-1,-1,-1],"split_conditions":[-8.3618075E-1,-9.7332644E-1,-2.8399566E-1,-1.7581518E-5,-8.119113E-3,-5.787918E-1,8.915015E-1,2.328018E-3,6.9729183E-3,2.4922793E-1,6.7476153E-1,5.4254703E-4,-4.098788E-3,5.108674E-3,3.2058655E-4],"split_indices":[15,51,1,0,0,17,15,0,0,51,20,0,0,0,0],"split_type":[0,0,0,0,0,0,0,0,0,0,0,0,0,0,0],"sum_hessian":[1.2598748E3,2.1437384E2,1.0455009E3,1.1223752E2,1.0213632E2,2.0213353E2,8.433674E2,1.0194306E2,1.00190475E2,5.678329E2,2.7553445E2,3.0735843E2,2.604745E2,1.738056E2,1.0172886E2],"tree_param":{"num_deleted":"0","num_feature":"52","num_nodes":"15","size_leaf_vector":"1"}},{"base_weights":[9.010295E-3,-2.760257E-1,1.319151E-1,-6.428514E-3,-1.0707265E-1,3.3663377E-1,-3.4410816E-2,1.4683397E-3,-3.2143702E-3,-1.0328366E-3,5.573954E-1,-3.413619E-3,1.1952424E-1,3.293302E-3,8.381413E-3,4.2539695E-3,-7.399903E-4],"categories":[],"categories_nodes":[],"categories_segments":[],"categories_sizes":[],"default_left":[0,0,0,0,0,0,0,0,0,0,0,0,0,0,0,0,0],"id":20,"left_children":[1,3,5,-1,7,9,11,-1,-1,-1,13,-1,15,-1,-1,-1,-1],"loss_changes":[4.4029816E1,2.2919073E1,3.0163437E1,0E0,1.445206E1,3.883313E1,2.3175274E1,0E0,0E0,0E0,1.5829971E1,0E0,1.943754E1,0E0,0E0,0E0,0E0],"parents":[2147483647,0,0,1,1,2,2,4,4,5,5,6,6,10,10,12,12],"right_children":[2,4,6,-1,8,10,12,-1,-1,-1,14,-1,16,-1,-1,-1,-1],"split_conditions":[-3.8459784E-1,-6.664249E-1,6.390617E-2,-6.428514E-3,-2.2711414E-1,-7.418125E-1,2.26244E-1,1.4683397E-3,-3.2143702E-3,-1.0328366E-3,-3.7132296E-1,-3.413619E-3,-3.280139E-1,3.293302E-3,8.381413E-3,4.2539695E-3,-7.399903E-4],"split_indices":[21,45,43,0,33,17,17,0,0,0,31,0,45,0,0,0,0],"split_type":[0,0,0,0,0,0,0,0,0,0,0,0,0,0,0,0,0],"sum_hessian":[1.2548131E3,3.7607495E2,8.787382E2,1.15889656E2,2.601853E2,3.943362E2,4.8440198E2,1.1832789E2,1.418574E2,1.3136371E2,2.629725E2,1.6206084E2,3.2234113E2,1.4848068E2,1.1449183E2,1.24984505E2,1.9735663E2],"tree_param":{"num_deleted":"0","num_feature":"52","num_nodes":"17","size_leaf_vector":"1"}},{"base_weights":[3.4982104E-2,-2.2456092E-1,1.4308406E-1,-5.2930573E-3,-8.226388E-3,-1.5889533E-1,2.538466E-1,2.620394E-3,-2.9630123E-3,-3.8603742E-3,1.1062691E-3,1.2944824E-1,5.317504E-1,3.6619732E-3,-6.3160335E-4,7.437655E-3,3.0515993E-3],"categories":[],"categories_nodes":[],"categories_segments":[],"categories_sizes":[],"default_left":[0,0,0,0,0,0,0,0,0,0,0,0,0,0,0,0,0],"id":21,"left_children":[1,3,5,-1,7,9,11,-1,-1,-1,-1,13,15,-1,-1,-1,-1],"loss_changes":[3.601247E1,2.4549465E1,3.050295E1,0E0,1.7552366E1,1.5143608E1,2.2569714E1,0E0,0E0,0E0,0E0,2.1366394E1,8.830311E0,0E0,0E0,0E0,0E0],"parents":[2147483647,0,0,1,1,2,2,4,4,5,5,6,6,11,11,12,12],"right_children":[2,4,6,-1,8,10,12,-1,-1,-1,-1,14,16,-1,-1,-1,-1],"split_conditions":[-3.8459784E-1,-3.280139E-1,-6.6894805E-1,-5.2930573E-3,-5.2935106E-1,2.26244E-1,1.830138E-1,2.620394E-3,-2.9630123E-3,-3.8603742E-3,1.1062691E-3,2.8747668E-2,1.3252677E-1,3.6619732E-3,-6.3160335E-4,7.437655E-3,3.0515993E-3],"split_indices":[21,45,36,0,16,17,32,0,0,0,0,43,40,0,0,0,0],"split_type":[0,0,0,0,0,0,0,0,0,0,0,0,0,0,0,0,0],"sum_hessian":[1.2807035E3,3.7458322E2,9.061203E2,1.5335349E2,2.2122974E2,2.4171983E2,6.644005E2,1.1334083E2,1.078889E2,1.3171036E2,1.1000947E2,4.6222504E2,2.0217543E2,2.0770872E2,2.5451633E2,1.0094872E2,1.0122671E2],"tree_param":{"num_deleted":"0","num_feature":"52","num_nodes":"17","size_leaf_vector":"1"}},{"base_weights":[4.512044E-3,-2.2908455E-1,1.07717805E-1,1.6810461E-3,-4.7631788E-1,3.0889577E-1,-1.2361975E-1,-2.1226762E-3,-7.3748315E-3,1.7511802E-2,5.485509E-1,-5.6957076E-3,7.754914E-2,2.649583E-3,-1.990711E-3,8.80886E-3,1.6793183E-3,-2.2301003E-3,2.599549E-3],"categories":[],"categories_nodes":[],"categories_segments":[],"categories_sizes":[],"default_left":[0,0,0,0,0,0,0,0,0,0,0,0,0,0,0,0,0,0,0],"id":22,"left_children":[1,3,5,-1,7,9,11,-1,-1,13,15,-1,17,-1,-1,-1,-1,-1,-1],"loss_changes":[3.0352495E1,3.812954E1,4.0955475E1,0E0,1.566938E1,3.2551445E1,3.6928047E1,0E0,0E0,1.1678441E1,3.1706383E1,0E0,1.5599508E1,0E0,0E0,0E0,0E0,0E0,0E0],"parents":[2147483647,0,0,1,1,2,2,4,4,5,5,6,6,9,9,10,10,12,12],"right_children":[2,4,6,-1,8,10,12,-1,-1,14,16,-1,18,-1,-1,-1,-1,-1,-1],"split_conditions":[-3.8459784E-1,-5.5641294E-1,3.3306137E-1,1.6810461E-3,-1.8269576E-1,-4.2497903E-1,2.26244E-1,-2.1226762E-3,-7.3748315E-3,-6.52127E-1,-1.9457037E-2,-5.6957076E-3,8.915015E-1,2.649583E-3,-1.990711E-3,8.80886E-3,1.6793183E-3,-2.2301003E-3,2.599549E-3],"split_indices":[21,1,0,0,33,17,17,0,0,51,43,0,15,0,0,0,0,0,0],"split_type":[0,0,0,0,0,0,0,0,0,0,0,0,0,0,0,0,0,0,0],"sum_hessian":[1.2574647E3,3.830907E2,8.743741E2,1.4644283E2,2.3664789E2,4.6846976E2,4.059043E2,1.204288E2,1.16219086E2,2.13328E2,2.5514175E2,1.25816734E2,2.800876E2,1.00438576E2,1.1288943E2,1.3410579E2,1.2103597E2,1.045798E2,1.7550778E2],"tree_param":{"num_deleted":"0","num_feature":"52","num_nodes":"19","size_leaf_vector":"1"}},{"base_weights":[-2.7250834E-2,-3.2516733E-1,7.160949E-2,1.7626194E-4,-6.0096118E-3,5.6145242E-3,-8.805107E-3,2.906076E-1,-1.1844771E-1,7.5271365E-4,5.295928E-3,-4.176972E-3,5.8899523E-4],"categories":[],"categories_nodes":[],"categories_segments":[],"categories_sizes":[],"default_left":[0,0,0,0,0,0,0,0,0,0,0,0,0],"id":23,"left_children":[1,3,5,-1,-1,-1,7,9,11,-1,-1,-1,-1],"loss_changes":[3.8182877E1,3.0865768E1,3.847058E1,0E0,0E0,0E0,2.7354265E1,1.1085712E1,3.2757698E1,0E0,0E0,0E0,0E0],"parents":[2147483647,0,0,1,1,2,2,6,6,7,7,8,8],"right_children":[2,4,6,-1,-1,-1,8,10,12,-1,-1,-1,-1],"split_conditions":[-4.7665122E-1,-4.5245633E-1,-1.8269576E-1,1.7626194E-4,-6.0096118E-3,5.6145242E-3,-2.9663485E-1,-3.859641E-1,4.2107528E-1,7.5271365E-4,5.295928E-3,-4.176972E-3,5.8899523E-4],"split_indices":[21,43,33,0,0,0,43,15,15,0,0,0,0],"split_type":[0,0,0,0,0,0,0,0,0,0,0,0,0],"sum_hessian":[1.288553E3,3.2117334E2,9.673796E2,1.4321982E2,1.7795354E2,1.3560426E2,8.317753E2,2.2084076E2,6.109346E2,1.1865209E2,1.0218867E2,2.2737642E2,3.8355814E2],"tree_param":{"num_deleted":"0","num_feature":"52","num_nodes":"13","size_leaf_vector":"1"}},{"base_weights":[1.9371469E-2,-7.596711E-2,3.32892E-1,2.6040743E-3,-1.5842985E-1,6.836445E-3,1.3332327E-3,-4.5430905E-1,-3.1591974E-2,-1.1339076E-3,-7.1776607E-3,2.6239532E-3,-2.0648597E-3],"categories":[],"categories_nodes":[],"categories_segments":[],"categories_sizes":[],"default_left":[0,0,0,0,0,0,0,0,0,0,0,0,0],"id":24,"left_children":[1,3,5,-1,7,-1,-1,9,11,-1,-1,-1,-1],"loss_changes":[3.795394E1,2.6923548E1,2.0148838E1,0E0,2.9040056E1,0E0,0E0,2.0351242E1,2.8360783E1,0E0,0E0,0E0,0E0],"parents":[2147483647,0,0,1,1,2,2,4,4,7,7,8,8],"right_children":[2,4,6,-1,8,-1,-1,10,12,-1,-1,-1,-1],"split_conditions":[1.0280726E0,-8.354897E-1,-1.1563597E-2,2.6040743E-3,-2.3385255E-1,6.836445E-3,1.3332327E-3,-5.1041424E-1,1.04512945E-1,-1.1339076E-3,-7.1776607E-3,2.6239532E-3,-2.0648597E-3],"split_indices":[21,43,37,0,17,0,0,2,43,0,0,0,0],"split_type":[0,0,0,0,0,0,0,0,0,0,0,0,0],"sum_hessian":[1.2617719E3,9.674885E2,2.9428336E2,1.8844038E2,7.7904816E2,1.0405122E2,1.9023212E2,2.3102417E2,5.48024E2,1.0278156E2,1.2824261E2,2.0297484E2,3.4504913E2],"tree_param":{"num_deleted":"0","num_feature":"52","num_nodes":"13","size_leaf_vector":"1"}},{"base_weights":[-2.4024693E-3,-1.7622244E-1,1.2943925E-1,6.242161E-2,-5.8695436E-3,6.698803E-3,1.1059685E-2,-1.9272971E-3,3.7857534E-3,-1.9483146E-1,2.602291E-1,1.5272724E-3,-3.7952408E-3,5.989925E-3,-5.1058084E-4],"categories":[],"categories_nodes":[],"categories_segments":[],"categories_sizes":[],"default_left":[0,0,0,0,0,0,0,0,0,0,0,0,0,0,0],"id":25,"left_children":[1,3,5,7,-1,-1,9,-1,-1,11,13,-1,-1,-1,-1],"loss_changes":[2.8967373E1,5.3892937E1,4.5491825E1,2.8201021E1,0E0,0E0,3.0435215E1,0E0,0E0,2.0992313E1,2.8722046E1,0E0,0E0,0E0,0E0],"parents":[2147483647,0,0,1,1,2,2,3,3,6,6,9,9,10,10],"right_children":[2,4,6,8,-1,-1,10,-1,-1,12,14,-1,-1,-1,-1],"split_conditions":[-1.17026635E-1,-3.3538342E-1,-3.6065236E-2,-7.418125E-1,-5.8695436E-3,6.698803E-3,8.915015E-1,-1.9272971E-3,3.7857534E-3,-3.8213927E-2,2.7491125E-1,1.5272724E-3,-3.7952408E-3,5.989925E-3,-5.1058084E-4],"split_indices":[15,51,2,17,0,0,15,0,0,37,20,0,0,0,0],"split_type":[0,0,0,0,0,0,0,0,0,0,0,0,0,0,0],"sum_hessian":[1.2590162E3,5.443996E2,7.146167E2,3.446369E2,1.9976271E2,1.2597208E2,5.886446E2,1.9027504E2,1.5436186E2,3.214537E2,2.671909E2,1.10726006E2,2.107277E2,1.2783265E2,1.3935823E2],"tree_param":{"num_deleted":"0","num_feature":"52","num_nodes":"15","size_leaf_vector":"1"}},{"base_weights":[-8.098601E-3,-2.69012E-1,1.03924975E-1,-6.1555468E-3,-9.819981E-2,3.437964E-1,-3.0761003E-2,1.3235059E-3,-2.9968743E-3,6.3396124E-3,8.5642224E-4,-4.1797445E-3,1.2812388E-1,5.7937354E-3,-3.567439E-4],"categories":[],"categories_nodes":[],"categories_segments":[],"categories_sizes":[],"default_left":[0,0,0,0,0,0,0,0,0,0,0,0,0,0,0],"id":26,"left_children":[1,3,5,-1,7,9,11,-1,-1,-1,-1,-1,13,-1,-1],"loss_changes":[3.6716278E1,2.1886196E1,2.8467113E1,0E0,1.2074331E1,2.322976E1,3.4782654E1,0E0,0E0,0E0,0E0,0E0,2.977422E1,0E0,0E0],"parents":[2147483647,0,0,1,1,2,2,4,4,5,5,6,6,12,12],"right_children":[2,4,6,-1,8,10,12,-1,-1,-1,-1,-1,14,-1,-1],"split_conditions":[-3.8459784E-1,-6.664249E-1,1.2341171E-1,-6.1555468E-3,-2.2711414E-1,3.9711475E-1,4.0582246E-1,1.3235059E-3,-2.9968743E-3,6.3396124E-3,8.5642224E-4,-4.1797445E-3,4.4197377E-2,5.7937354E-3,-3.567439E-4],"split_indices":[21,45,16,0,33,22,15,0,0,0,0,0,50,0,0],"split_type":[0,0,0,0,0,0,0,0,0,0,0,0,0,0,0],"sum_hessian":[1.2494458E3,3.758099E2,8.736359E2,1.21393326E2,2.5441658E2,3.1436646E2,5.592695E2,1.17813866E2,1.366027E2,1.4572427E2,1.6864218E2,1.6268369E2,3.9658575E2,1.05079475E2,2.915063E2],"tree_param":{"num_deleted":"0","num_feature":"52","num_nodes":"15","size_leaf_vector":"1"}},{"base_weights":[-2.1738699E-2,-1.0602886E-1,2.673589E-1,-3.6604565E-2,-5.263738E-3,5.306917E-3,9.626286E-4,-1.3632505E-1,2.9586765E-3,-5.600496E-3,-3.3086492E-4],"categories":[],"categories_nodes":[],"categories_segments":[],"categories_sizes":[],"default_left":[0,0,0,0,0,0,0,0,0,0,0],"id":27,"left_children":[1,3,5,7,-1,-1,-1,9,-1,-1,-1],"loss_changes":[3.1067091E1,2.8588936E1,1.2526651E1,2.829433E1,0E0,0E0,0E0,2.8494556E1,0E0,0E0,0E0],"parents":[2147483647,0,0,1,1,2,2,3,3,7,7],"right_children":[2,4,6,8,-1,-1,-1,10,-1,-1,-1],"split_conditions":[1.0280726E0,9.475439E-1,-6.3855484E-2,3.782801E-1,-5.263738E-3,5.306917E-3,9.626286E-4,-8.76404E-1,2.9586765E-3,-5.600496E-3,-3.3086492E-4],"split_indices":[21,0,40,17,0,0,0,18,0,0,0],"split_type":[0,0,0,0,0,0,0,0,0,0,0],"sum_hessian":[1.2738927E3,9.886383E2,2.8525433E2,8.513867E2,1.3725162E2,1.09538536E2,1.757158E2,6.570095E2,1.9437718E2,1.2603365E2,5.309759E2],"tree_param":{"num_deleted":"0","num_feature":"52","num_nodes":"11","size_leaf_vector":"1"}},{"base_weights":[-1.9130114E-2,-2.5842673E-1,8.2961075E-2,8.8279415E-4,-4.9615264E-1,2.9980436E-1,-8.654702E-2,-8.872966E-3,-1.7318734E-3,-4.4261644E-5,5.7682556E-1,-1.9353694E-1,2.632263E-3,9.241587E-3,2.3077347E-3,8.11843E-4,-3.427789E-3],"categories":[],"categories_nodes":[],"categories_segments":[],"categories_sizes":[],"default_left":[0,0,0,0,0,0,0,0,0,0,0,0,0,0,0,0,0],"id":28,"left_children":[1,3,5,-1,7,9,11,-1,-1,-1,13,15,-1,-1,-1,-1,-1],"loss_changes":[3.1367058E1,3.196715E1,3.3103233E1,0E0,2.810962E1,3.35797E1,1.8902008E1,0E0,0E0,0E0,2.3949898E1,1.6080666E1,0E0,0E0,0E0,0E0,0E0],"parents":[2147483647,0,0,1,1,2,2,4,4,5,5,6,6,10,10,11,11],"right_children":[2,4,6,-1,8,10,12,-1,-1,-1,14,16,-1,-1,-1,-1,-1],"split_conditions":[-3.8459784E-1,-4.748232E-1,1.2447129E-1,8.8279415E-4,1.7156653E-1,-4.9140432E-1,1.4056336E0,-8.872966E-3,-1.7318734E-3,-4.4261644E-5,1.141189E-1,2.2526379E-1,2.632263E-3,9.241587E-3,2.3077347E-3,8.11843E-4,-3.427789E-3],"split_indices":[21,1,0,0,17,17,15,0,0,0,2,2,0,0,0,0,0],"split_type":[0,0,0,0,0,0,0,0,0,0,0,0,0,0,0,0,0],"sum_hessian":[1.2766062E3,3.8231467E2,8.942915E2,1.5516772E2,2.2714696E2,3.9298178E2,5.013097E2,1.0044949E2,1.2669746E2,1.873706E2,2.0561119E2,3.856642E2,1.1564549E2,1.0022707E2,1.0538412E2,1.3490181E2,2.5076239E2],"tree_param":{"num_deleted":"0","num_feature":"52","num_nodes":"17","size_leaf_vector":"1"}},{"base_weights":[-1.4978831E-2,-2.670443E-1,9.5555395E-2,4.5522727E-4,-4.450663E-1,2.9658106E-1,-1.0465539E-1,-6.6880267E-3,-2.0260804E-3,-6.222446E-4,4.1637555E-1,-2.2261363E-1,2.786016E-3,5.642528E-3,2.2327993E-3,-5.537934E-3,-5.584261E-4],"categories":[],"categories_nodes":[],"categories_segments":[],"categories_sizes":[],"default_left":[0,0,0,0,0,0,0,0,0,0,0,0,0,0,0,0,0],"id":29,"left_children":[1,3,5,-1,7,9,11,-1,-1,-1,13,15,-1,-1,-1,-1,-1],"loss_changes":[3.5135357E1,2.1653555E1,3.5306957E1,0E0,1.2659046E1,1.9035664E1,1.988728E1,0E0,0E0,0E0,8.758045E0,1.8238459E1,0E0,0E0,0E0,0E0,0E0],"parents":[2147483647,0,0,1,1,2,2,4,4,5,5,6,6,10,10,11,11],"right_children":[2,4,6,-1,8,10,12,-1,-1,-1,14,16,-1,-1,-1,-1,-1],"split_conditions":[-3.8459784E-1,-5.5641294E-1,2.2580914E-1,4.5522727E-4,-2.091927E-2,-6.2572217E-1,1.4553893E0,-6.6880267E-3,-2.0260804E-3,-6.222446E-4,4.0842283E-1,-5.1252943E-1,2.786016E-3,5.642528E-3,2.2327993E-3,-5.537934E-3,-5.584261E-4],"split_indices":[21,1,1,0,32,15,15,0,0,0,23,36,0,0,0,0,0],"split_type":[0,0,0,0,0,0,0,0,0,0,0,0,0,0,0,0,0],"sum_hessian":[1.2541465E3,3.8282736E2,8.713191E2,1.3843907E2,2.4438829E2,4.3554053E2,4.3577853E2,1.24199776E2,1.20188515E2,1.0821247E2,3.2732806E2,3.3485907E2,1.0091949E2,1.8172498E2,1.4560309E2,1.0959064E2,2.2526842E2],"tree_param":{"num_deleted":"0","num_feature":"52","num_nodes":"17","size_leaf_vector":"1"}},{"base_weights":[4.0885294E-3,-9.339266E-2,3.2825828E-1,2.1367611E-1,-1.892681E-1,6.519026E-3,1.1381245E-3,-6.549303E-4,5.0318628E-3,8.329487E-4,-2.8651142E-1,-4.320283E-3,5.0773454E-4],"categories":[],"categories_nodes":[],"categories_segments":[],"categories_sizes":[],"default_left":[0,0,0,0,0,0,0,0,0,0,0,0,0],"id":30,"left_children":[1,3,5,7,9,-1,-1,-1,-1,-1,11,-1,-1],"loss_changes":[4.049945E1,2.8959606E1,2.005511E1,1.9132141E1,2.0031805E1,0E0,0E0,0E0,0E0,0E0,2.7459019E1,0E0,0E0],"parents":[2147483647,0,0,1,1,2,2,3,3,4,4,10,10],"right_children":[2,4,6,8,10,-1,-1,-1,-1,-1,12,-1,-1],"split_conditions":[1.0280726E0,-1.2356142E0,1.14855245E-1,-4.780822E-1,-5.6903815E-1,6.519026E-3,1.1381245E-3,-6.549303E-4,5.0318628E-3,8.329487E-4,5.7889944E-1,-4.320283E-3,5.0773454E-4],"split_indices":[21,5,50,21,2,0,0,0,0,0,17,0,0],"split_type":[0,0,0,0,0,0,0,0,0,0,0,0,0],"sum_hessian":[1.2739532E3,9.7933765E2,2.9461554E2,2.3119534E2,7.4814233E2,1.14858376E2,1.7975717E2,1.1760835E2,1.1358698E2,1.9545294E2,5.5268933E2,3.867514E2,1.6593794E2],"tree_param":{"num_deleted":"0","num_feature":"52","num_nodes":"13","size_leaf_vector":"1"}},{"base_weights":[8.24596E-3,1.658292E-1,-9.120722E-2,3.652768E-2,4.0926896E-3,2.1961082E-3,-1.423872E-1,3.2334125E-3,-1.3620092E-1,-4.2550922E-3,-7.556225E-2,-2.7460568E-3,-0E0,1.8317263E-3,-2.0543784E-3],"categories":[],"categories_nodes":[],"categories_segments":[],"categories_sizes":[],"default_left":[0,0,0,0,0,0,0,0,0,0,0,0,0,0,0],"id":31,"left_children":[1,3,5,7,-1,-1,9,-1,11,-1,13,-1,-1,-1,-1],"loss_changes":[1.9853199E1,1.5206668E1,1.2325914E1,1.6247755E1,0E0,0E0,1.2296897E1,0E0,3.9475002E0,0E0,1.8338568E1,0E0,0E0,0E0,0E0],"parents":[2147483647,0,0,1,1,2,2,3,3,6,6,8,8,10,10],"right_children":[2,4,6,8,-1,-1,10,-1,12,-1,14,-1,-1,-1,-1],"split_conditions":[-1.5302727E-1,1.9536634E-1,-1.3268032E0,-7.651833E-1,4.0926896E-3,2.1961082E-3,-6.4827526E-1,3.2334125E-3,-6.550151E-1,-4.2550922E-3,5.5247888E-2,-2.7460568E-3,-0E0,1.8317263E-3,-2.0543784E-3],"split_indices":[40,17,4,43,0,0,17,0,12,0,43,0,0,0,0],"split_type":[0,0,0,0,0,0,0,0,0,0,0,0,0,0,0],"sum_hessian":[1.2604708E3,4.8913333E2,7.7133746E2,3.222998E2,1.6683354E2,1.0674137E2,6.6459607E2,1.2157572E2,2.0072408E2,1.23430756E2,5.4116534E2,1.00219185E2,1.005049E2,1.7929927E2,3.6186606E2],"tree_param":{"num_deleted":"0","num_feature":"52","num_nodes":"15","size_leaf_vector":"1"}},{"base_weights":[-3.9676907E-3,-2.794333E-1,1.1408479E-1,4.996117E-4,-4.5717984E-1,2.9174095E-1,-9.825131E-2,-8.17101E-3,-1.768105E-3,1.3054883E-1,7.458304E-3,-5.334764E-3,1.05950356E-1,4.0096818E-3,-2.7540273E-3,-4.2111045E-4,3.5851188E-3],"categories":[],"categories_nodes":[],"categories_segments":[],"categories_sizes":[],"default_left":[0,0,0,0,0,0,0,0,0,0,0,0,0,0,0,0,0],"id":32,"left_children":[1,3,5,-1,7,9,11,-1,-1,13,-1,-1,15,-1,-1,-1,-1],"loss_changes":[4.0816967E1,2.2324352E1,3.3184822E1,0E0,2.404559E1,3.439313E1,3.5795467E1,0E0,0E0,3.9408062E1,0E0,0E0,1.0379447E1,0E0,0E0,0E0,0E0],"parents":[2147483647,0,0,1,1,2,2,4,4,5,5,6,6,9,9,12,12],"right_children":[2,4,6,-1,8,10,12,-1,-1,14,-1,-1,16,-1,-1,-1,-1],"split_conditions":[-3.8459784E-1,-6.2379426E-1,3.2609388E-1,4.996117E-4,-2.2222531E-1,4.0582246E-1,2.26244E-1,-8.17101E-3,-1.768105E-3,1.2341171E-1,7.458304E-3,-5.334764E-3,3.8521266E-1,4.0096818E-3,-2.7540273E-3,-4.2111045E-4,3.5851188E-3],"split_indices":[21,2,0,0,26,15,17,0,0,16,0,0,36,0,0,0,0],"split_type":[0,0,0,0,0,0,0,0,0,0,0,0,0,0,0,0,0],"sum_hessian":[1.2486545E3,3.7503738E2,8.736171E2,1.3096391E2,2.4407349E2,4.765265E2,3.9709064E2,1.0441707E2,1.3965642E2,3.543986E2,1.2212789E2,1.265634E2,2.7052725E2,2.1346074E2,1.4093785E2,1.703489E2,1.0017835E2],"tree_param":{"num_deleted":"0","num_feature":"52","num_nodes":"17","size_leaf_vector":"1"}},{"base_weights":[-9.146477E-3,-2.4435928E-1,9.634878E-2,6.298041E-2,-5.6384783E-3,-1.01165354E-1,2.9297432E-1,-1.5156287E-3,2.837228E-3,9.101899E-2,-3.109562E-1,4.8198617E-1,7.6165944E-2,-2.681962E-3,4.7747E-3,-6.383439E-3,1.5622817E-4,2.3791785E-3,7.0177214E-3,-1.9253198E-3,3.2908048E-3],"categories":[],"categories_nodes":[],"categories_segments":[],"categories_sizes":[],"default_left":[0,0,0,0,0,0,0,0,0,0,0,0,0,0,0,0,0,0,0,0,0],"id":33,"left_children":[1,3,5,7,-1,9,11,-1,-1,13,15,17,19,-1,-1,-1,-1,-1,-1,-1,-1],"loss_changes":[3.17713E1,3.9301033E1,3.435179E1,9.781824E0,0E0,1.7886211E1,1.7803001E1,0E0,0E0,3.224385E1,2.2978405E1,1.1806881E1,1.4463004E1,0E0,0E0,0E0,0E0,0E0,0E0,0E0,0E0],"parents":[2147483647,0,0,1,1,2,2,3,3,5,5,6,6,9,9,10,10,11,11,12,12],"right_children":[2,4,6,8,-1,10,12,-1,-1,14,16,18,20,-1,-1,-1,-1,-1,-1,-1,-1],"split_conditions":[-3.746074E-1,-3.2468992E-1,3.4894966E-2,-5.930191E-1,-5.6384783E-3,2.7133802E-1,2.0541495E-1,-1.5156287E-3,2.837228E-3,4.7622036E-2,7.043414E-1,-3.127855E-1,9.228484E-1,-2.681962E-3,4.7747E-3,-6.383439E-3,1.5622817E-4,2.3791785E-3,7.0177214E-3,-1.9253198E-3,3.2908048E-3],"split_indices":[21,43,36,17,0,51,43,0,0,15,17,32,15,0,0,0,0,0,0,0,0],"split_type":[0,0,0,0,0,0,0,0,0,0,0,0,0,0,0,0,0,0,0,0,0],"sum_hessian":[1.2735065E3,3.94975E2,8.785315E2,2.0133586E2,1.9363914E2,4.3749124E2,4.4104025E2,1.01270775E2,1.00065094E2,2.2767377E2,2.0981749E2,2.3308566E2,2.0795459E2,1.1764147E2,1.10032295E2,1.0459012E2,1.0522737E2,1.1349333E2,1.1959233E2,1.0010402E2,1.0785057E2],"tree_param":{"num_deleted":"0","num_feature":"52","num_nodes":"21","size_leaf_vector":"1"}},{"base_weights":[2.8167164E-2,-2.7439225E-1,9.8569974E-2,8.20094E-4,-7.3446617E-3,2.888088E-1,-6.4342E-2,5.858349E-3,1.6982536E-1,1.2824109E-1,-2.1010044E-1,3.8178466E-4,4.6662455E-3,-1.6262722E-3,5.173868E-3,-4.3294234E-3,1.7909354E-3],"categories":[],"categories_nodes":[],"categories_segments":[],"categories_sizes":[],"default_left":[0,0,0,0,0,0,0,0,0,0,0,0,0,0,0,0,0],"id":34,"left_children":[1,3,5,-1,-1,7,9,-1,11,13,15,-1,-1,-1,-1,-1,-1],"loss_changes":[2.6634926E1,3.9065563E1,3.171402E1,0E0,0E0,1.6090477E1,1.5501644E1,0E0,1.302572E1,2.7082808E1,2.7570786E1,0E0,0E0,0E0,0E0,0E0,0E0],"parents":[2147483647,0,0,1,1,2,2,5,5,6,6,8,8,9,9,10,10],"right_children":[2,4,6,-1,-1,8,10,-1,12,14,16,-1,-1,-1,-1,-1,-1],"split_conditions":[-8.089152E-1,-9.2200917E-1,3.4384143E-2,8.20094E-4,-7.3446617E-3,-6.098284E-1,1.2341171E-1,5.858349E-3,7.489044E-1,-7.4751735E-2,1.2194613E0,3.8178466E-4,4.6662455E-3,-1.6262722E-3,5.173868E-3,-4.3294234E-3,1.7909354E-3],"split_indices":[15,51,48,0,0,13,16,0,15,15,15,0,0,0,0,0,0],"split_type":[0,0,0,0,0,0,0,0,0,0,0,0,0,0,0,0,0],"sum_hessian":[1.2499929E3,2.335224E2,1.0164705E3,1.319007E2,1.01621704E2,4.6961078E2,5.4685974E2,1.3086768E2,3.387431E2,2.342144E2,3.1264532E2,2.3738957E2,1.01353516E2,1.3396278E2,1.00251625E2,1.9948534E2,1.1315999E2],"tree_param":{"num_deleted":"0","num_feature":"52","num_nodes":"17","size_leaf_vector":"1"}},{"base_weights":[1.8749155E-2,1.3221882E-1,-1.141507E-1,2.6778994E-2,3.9646644E-3,-2.5059575E-2,-4.056408E-3,-1.6834883E-1,1.9318573E-1,1.476088E-1,-1.9361177E-1,-4.430656E-3,5.019E-4,3.6435141E-3,1.2341375E-4,3.08079E-5,3.0430784E-3,-1.683285E-4,-3.4100513E-3],"categories":[],"categories_nodes":[],"categories_segments":[],"categories_sizes":[],"default_left":[0,0,0,0,0,0,0,0,0,0,0,0,0,0,0,0,0,0,0],"id":35,"left_children":[1,3,5,7,-1,9,-1,11,13,15,17,-1,-1,-1,-1,-1,-1,-1,-1],"loss_changes":[1.9223465E1,1.8969765E1,1.4955175E1,1.6187021E1,0E0,1.3219536E1,0E0,1.3931755E1,8.162964E0,4.88757E0,5.823019E0,0E0,0E0,0E0,0E0,0E0,0E0,0E0,0E0],"parents":[2147483647,0,0,1,1,2,2,3,3,5,5,7,7,8,8,9,9,10,10],"right_children":[2,4,6,8,-1,10,-1,12,14,16,18,-1,-1,-1,-1,-1,-1,-1,-1],"split_conditions":[1.5639678E-1,1.0273166E0,8.158007E-1,-4.7890353E-1,3.9646644E-3,1.2584251E-1,-4.056408E-3,-5.301993E-1,-1.2880464E-1,1.7790231E-1,1.478292E-2,-4.430656E-3,5.019E-4,3.6435141E-3,1.2341375E-4,3.08079E-5,3.0430784E-3,-1.683285E-4,-3.4100513E-3],"split_indices":[1,45,4,6,0,40,0,24,48,22,18,0,0,0,0,0,0,0,0],"split_type":[0,0,0,0,0,0,0,0,0,0,0,0,0,0,0,0,0,0,0],"sum_hessian":[1.2701561E3,6.8719916E2,5.8295703E2,4.941277E2,1.9307149E2,4.4946857E2,1.3348843E2,2.2604282E2,2.6808487E2,2.2068073E2,2.2878784E2,1.0025245E2,1.2579037E2,1.3526494E2,1.3281993E2,1.1751938E2,1.0316134E2,1.0657994E2,1.222079E2],"tree_param":{"num_deleted":"0","num_feature":"52","num_nodes":"19","size_leaf_vector":"1"}},{"base_weights":[-1.6967708E-3,-2.0615038E-1,1.2102838E-1,1.2202788E-3,-3.6327118E-1,3.4289223E-1,-2.23139E-2,-4.339115E-4,-6.065195E-3,-5.5131313E-5,5.887743E-3,-2.2941135E-1,1.7809771E-1,-4.505455E-3,-5.301292E-6,4.005914E-3,-8.853384E-4],"categories":[],"categories_nodes":[],"categories_segments":[],"categories_sizes":[],"default_left":[0,0,0,0,0,0,0,0,0,0,0,0,0,0,0,0,0],"id":36,"left_children":[1,3,5,-1,7,9,11,-1,-1,-1,-1,13,15,-1,-1,-1,-1],"loss_changes":[3.1755178E1,2.4733082E1,2.5244923E1,0E0,2.476715E1,2.6931007E1,2.0004442E1,0E0,0E0,0E0,0E0,1.1813148E1,1.4673975E1,0E0,0E0,0E0,0E0],"parents":[2147483647,0,0,1,1,2,2,4,4,5,5,6,6,11,11,12,12],"right_children":[2,4,6,-1,8,10,12,-1,-1,-1,-1,14,16,-1,-1,-1,-1],"split_conditions":[-1.3533296E-1,-1.2884145E0,-1.9457037E-2,1.2202788E-3,-4.3603823E-1,-7.297829E-1,4.6010703E-1,-4.339115E-4,-6.065195E-3,-5.5131313E-5,5.887743E-3,9.405727E-1,1.1474531E0,-4.505455E-3,-5.301292E-6,4.005914E-3,-8.853384E-4],"split_indices":[21,5,43,0,2,17,17,0,0,0,0,21,2,0,0,0,0],"split_type":[0,0,0,0,0,0,0,0,0,0,0,0,0,0,0,0,0],"sum_hessian":[1.2598854E3,4.7360278E2,7.862826E2,1.5244833E2,3.2115445E2,3.0888977E2,4.7739282E2,1.4063147E2,1.8052298E2,1.2776848E2,1.8112129E2,2.3586485E2,2.4152797E2,1.17866425E2,1.1799842E2,1.32136E2,1.0939195E2],"tree_param":{"num_deleted":"0","num_feature":"52","num_nodes":"17","size_leaf_vector":"1"}},{"base_weights":[-1.7511593E-2,1.1579886E-1,-1.6480947E-1,-9.4555505E-2,3.7331197E-1,-5.9701395E-3,-2.0627493E-2,1.5840702E-1,-4.1953255E-3,1.7053249E-3,5.9771356E-3,-1.2386674E-1,3.1765818E-3,-7.8137673E-4,3.8766998E-3,5.2533974E-4,-4.6390644E-3],"categories":[],"categories_nodes":[],"categories_segments":[],"categories_sizes":[],"default_left":[0,0,0,0,0,0,0,0,0,0,0,0,0,0,0,0,0],"id":37,"left_children":[1,3,5,7,9,-1,11,13,-1,-1,-1,15,-1,-1,-1,-1,-1],"loss_changes":[2.5123259E1,3.646628E1,3.7611847E1,3.0591143E1,1.317244E1,0E0,1.6030806E1,1.1497035E1,0E0,0E0,0E0,2.1527897E1,0E0,0E0,0E0,0E0,0E0],"parents":[2147483647,0,0,1,1,2,2,3,3,4,4,6,6,7,7,11,11],"right_children":[2,4,6,8,10,-1,12,14,-1,-1,-1,16,-1,-1,-1,-1,-1],"split_conditions":[6.390617E-2,-3.7219816E-1,7.025066E-2,-6.781215E-1,-1.1102159E-1,-5.9701395E-3,1.4056336E0,-1.0782927E0,-4.1953255E-3,1.7053249E-3,5.9771356E-3,9.6708584E-1,3.1765818E-3,-7.8137673E-4,3.8766998E-3,5.2533974E-4,-4.6390644E-3],"split_indices":[43,17,15,2,15,0,15,15,0,0,0,0,0,0,0,0,0],"split_type":[0,0,0,0,0,0,0,0,0,0,0,0,0,0,0,0,0],"sum_hessian":[1.2742346E3,6.6731824E2,6.0691644E2,3.6691824E2,3.004E2,1.4938023E2,4.5753622E2,2.0603044E2,1.608878E2,1.6082198E2,1.3957802E2,3.5265683E2,1.0487937E2,1.0098031E2,1.0505014E2,2.3234499E2,1.2031186E2],"tree_param":{"num_deleted":"0","num_feature":"52","num_nodes":"17","size_leaf_vector":"1"}},{"base_weights":[-2.428133E-3,-2.4788037E-1,9.7449966E-2,-7.18352E-3,-2.2502074E-2,3.2344067E-1,-3.4260467E-2,2.670055E-3,-2.7801844E-3,9.148195E-2,6.931426E-3,-3.8336688E-3,9.932502E-2,3.4438716E-3,-1.6375068E-3,2.667137E-3,-2.0246296E-3],"categories":[],"categories_nodes":[],"categories_segments":[],"categories_sizes":[],"default_left":[0,0,0,0,0,0,0,0,0,0,0,0,0,0,0,0,0],"id":38,"left_children":[1,3,5,-1,7,9,11,-1,-1,13,-1,-1,15,-1,-1,-1,-1],"loss_changes":[3.0742924E1,3.811429E1,2.6590622E1,0E0,1.8527721E1,2.7648762E1,2.6393425E1,0E0,0E0,1.3433726E1,0E0,0E0,2.0674446E1,0E0,0E0,0E0,0E0],"parents":[2147483647,0,0,1,1,2,2,4,4,5,5,6,6,9,9,12,12],"right_children":[2,4,6,-1,8,10,12,-1,-1,14,-1,-1,16,-1,-1,-1,-1],"split_conditions":[-4.1906413E-1,-6.664249E-1,1.4513062E-2,-7.18352E-3,-2.2711414E-1,-4.370595E-1,8.259849E-2,2.670055E-3,-2.7801844E-3,-7.322999E-1,6.931426E-3,-3.8336688E-3,1.0098389E0,3.4438716E-3,-1.6375068E-3,2.667137E-3,-2.0246296E-3],"split_indices":[21,45,2,0,33,17,17,0,0,2,0,0,43,0,0,0,0],"split_type":[0,0,0,0,0,0,0,0,0,0,0,0,0,0,0,0,0],"sum_hessian":[1.2469911E3,3.612515E2,8.857396E2,1.1487002E2,2.4638148E2,3.264672E2,5.5927246E2,1.14548225E2,1.3183327E2,2.029681E2,1.234991E2,1.5478015E2,4.044923E2,1.02581955E2,1.0038615E2,2.6139633E2,1.4309596E2],"tree_param":{"num_deleted":"0","num_feature":"52","num_nodes":"17","size_leaf_vector":"1"}},{"base_weights":[1.1341117E-2,-1.4581084E-1,1.3611835E-1,1.14955015E-1,-4.324457E-1,6.194662E-3,-2.3447705E-2,-9.945583E-4,4.9110595E-3,-1.0526003E-3,-9.027932E-3,-2.5154188E-1,2.172203E-1,2.7491853E-3,-5.7196873E-3,4.919845E-3,-2.358772E-4],"categories":[],"categories_nodes":[],"categories_segments":[],"categories_sizes":[],"default_left":[0,0,0,0,0,0,0,0,0,0,0,0,0,0,0,0,0],"id":39,"left_children":[1,3,5,7,9,-1,11,-1,-1,-1,-1,13,15,-1,-1,-1,-1],"loss_changes":[2.4477543E1,4.1433067E1,5.413242E1,2.3611324E1,3.9895298E1,0E0,2.898106E1,0E0,0E0,0E0,0E0,4.6323586E1,1.7180777E1,0E0,0E0,0E0,0E0],"parents":[2147483647,0,0,1,1,2,2,3,3,4,4,6,6,11,11,12,12],"right_children":[2,4,6,8,10,-1,12,-1,-1,-1,-1,14,16,-1,-1,-1,-1],"split_conditions":[-9.974002E-2,-4.9369517E-1,1.5944307E-1,-4.5756328E-1,-3.0349195E-1,6.194662E-3,9.000961E-1,-9.945583E-4,4.9110595E-3,-1.0526003E-3,-9.027932E-3,6.899535E-2,2.6283872E-1,2.7491853E-3,-5.7196873E-3,4.919845E-3,-2.358772E-4],"split_indices":[15,16,16,21,1,0,15,0,0,0,0,1,20,0,0,0,0],"split_type":[0,0,0,0,0,0,0,0,0,0,0,0,0,0,0,0,0],"sum_hessian":[1.2445048E3,5.4887463E2,6.9563007E2,2.871205E2,2.6175415E2,1.7199681E2,5.2363324E2,1.8296822E2,1.0415228E2,1.5644067E2,1.0531348E2,2.698597E2,2.5377354E2,1.0162075E2,1.6823895E2,1.1852528E2,1.3524826E2],"tree_param":{"num_deleted":"0","num_feature":"52","num_nodes":"17","size_leaf_vector":"1"}},{"base_weights":[-1.7859447E-3,-1.9445837E-1,1.0104272E-1,9.167244E-2,-5.75264E-3,3.6574787E-1,-9.441804E-2,3.7941923E-3,-1.700318E-3,7.839157E-3,1.8013105E-1,-2.2058442E-1,3.6315036E-3,-1.113955E-3,5.542208E-3,1.2722808E-3,-4.1257488E-3],"categories":[],"categories_nodes":[],"categories_segments":[],"categories_sizes":[],"default_left":[0,0,0,0,0,0,0,0,0,0,0,0,0,0,0,0,0],"id":40,"left_children":[1,3,5,7,-1,9,11,-1,-1,-1,13,15,-1,-1,-1,-1,-1],"loss_changes":[2.5351107E1,4.8957695E1,4.320522E1,1.9489515E1,0E0,2.6752636E1,2.7717327E1,0E0,0E0,0E0,2.7495064E1,2.5438726E1,0E0,0E0,0E0,0E0,0E0],"parents":[2147483647,0,0,1,1,2,2,3,3,5,5,6,6,10,10,11,11],"right_children":[2,4,6,8,-1,10,12,-1,-1,-1,14,16,-1,-1,-1,-1,-1],"split_conditions":[-3.5609642E-1,-4.991715E-1,2.4922793E-1,-9.133544E-2,-5.75264E-3,8.090671E-2,1.4709382E0,3.7941923E-3,-1.700318E-3,7.839157E-3,4.0582246E-1,1.5944307E-1,3.6315036E-3,-1.113955E-3,5.542208E-3,1.2722808E-3,-4.1257488E-3],"split_indices":[15,2,51,48,0,16,15,0,0,0,15,16,0,0,0,0,0],"split_type":[0,0,0,0,0,0,0,0,0,0,0,0,0,0,0,0,0],"sum_hessian":[1.2732264E3,4.4413004E2,8.290964E2,2.5370557E2,1.9042448E2,3.5251468E2,4.7658173E2,1.2132181E2,1.3238376E2,1.055609E2,2.4695377E2,3.7524353E2,1.0133818E2,1.3883113E2,1.0812264E2,1.3277568E2,2.4246785E2],"tree_param":{"num_deleted":"0","num_feature":"52","num_nodes":"17","size_leaf_vector":"1"}},{"base_weights":[-1.2083608E-3,1.0429665E-1,-1.192263E-1,-4.421848E-2,2.3440105E-1,1.4059267E-3,-1.9061637E-1,-1.7880249E-3,1.3925646E-3,1.2307853E-1,4.999007E-3,-3.4744033E-1,-4.5770552E-2,2.9092312E-3,-4.6820645E-7,-7.64456E-4,-5.5682543E-3,1.2317643E-3,-2.546897E-3],"categories":[],"categories_nodes":[],"categories_segments":[],"categories_sizes":[],"default_left":[0,0,0,0,0,0,0,0,0,0,0,0,0,0,0,0,0,0,0],"id":41,"left_children":[1,3,5,7,9,-1,11,-1,-1,13,-1,15,17,-1,-1,-1,-1,-1,-1],"loss_changes":[1.5882446E1,1.3079942E1,1.1282173E1,7.8030667E0,1.0198158E1,0E0,1.0588198E1,0E0,0E0,5.465881E0,0E0,1.2460358E1,9.005699E0,0E0,0E0,0E0,0E0,0E0,0E0],"parents":[2147483647,0,0,1,1,2,2,3,3,4,4,6,6,9,9,11,11,12,12],"right_children":[2,4,6,8,10,-1,12,-1,-1,14,-1,16,18,-1,-1,-1,-1,-1,-1],"split_conditions":[6.790834E-2,-3.984572E-1,-8.681708E-1,-4.054202E-2,6.057577E-1,1.4059267E-3,-9.817686E-2,-1.7880249E-3,1.3925646E-3,5.458404E-1,4.999007E-3,1.756054E-1,4.7235933E-1,2.9092312E-3,-4.6820645E-7,-7.64456E-4,-5.5682543E-3,1.2317643E-3,-2.546897E-3],"split_indices":[40,6,20,42,22,0,31,0,0,46,0,51,34,0,0,0,0,0,0],"split_type":[0,0,0,0,0,0,0,0,0,0,0,0,0,0,0,0,0,0,0],"sum_hessian":[1.2709496E3,6.689349E2,6.020147E2,3.1118832E2,3.5774655E2,1.2783308E2,4.7418164E2,1.8111298E2,1.3007535E2,2.5544872E2,1.0229784E2,2.2467627E2,2.4950537E2,1.086594E2,1.4678932E2,1.0016143E2,1.2451484E2,1.3708011E2,1.12425255E2],"tree_param":{"num_deleted":"0","num_feature":"52","num_nodes":"19","size_leaf_vector":"1"}},{"base_weights":[5.097511E-3,-8.779193E-2,3.164044E-1,1.1320646E-1,-2.4584262E-1,5.556158E-3,1.2536204E-3,-7.163988E-2,2.9961494E-1,-6.042879E-2,-4.6661168E-1,1.5167373E-3,-2.9505685E-3,5.465035E-3,6.5322994E-4,-2.9571631E-3,1.2022365E-3,-7.2934995E-3,-1.431092E-3],"categories":[],"categories_nodes":[],"categories_segments":[],"categories_sizes":[],"default_left":[0,0,0,0,0,0,0,0,0,0,0,0,0,0,0,0,0,0,0],"id":42,"left_children":[1,3,5,7,9,-1,-1,11,13,15,17,-1,-1,-1,-1,-1,-1,-1,-1],"loss_changes":[3.6618748E1,3.0972431E1,1.28343525E1,1.4885736E1,2.2016052E1,0E0,0E0,1.08827305E1,1.2033785E1,1.2915019E1,2.039632E1,0E0,0E0,0E0,0E0,0E0,0E0,0E0,0E0],"parents":[2147483647,0,0,1,1,2,2,3,3,4,4,7,7,8,8,9,9,10,10],"right_children":[2,4,6,8,10,-1,-1,12,14,16,18,-1,-1,-1,-1,-1,-1,-1,-1],"split_conditions":[1.0280726E0,-8.380143E-2,2.6582015E-1,-1.1963441E-1,6.2605145E-4,5.556158E-3,1.2536204E-3,8.36338E-3,-3.9014843E-1,-7.418125E-1,5.404333E-1,1.5167373E-3,-2.9505685E-3,5.465035E-3,6.5322994E-4,-2.9571631E-3,1.2022365E-3,-7.2934995E-3,-1.431092E-3],"split_indices":[21,34,51,31,2,0,0,39,26,17,17,0,0,0,0,0,0,0,0],"split_type":[0,0,0,0,0,0,0,0,0,0,0,0,0,0,0,0,0,0,0],"sum_hessian":[1.2584603E3,9.6911914E2,2.893412E2,4.2545615E2,5.4366296E2,1.2561721E2,1.6372397E2,2.1289464E2,2.125615E2,2.9810797E2,2.4555501E2,1.05673904E2,1.0722074E2,1.0116166E2,1.1139983E2,1.3012408E2,1.679839E2,1.3326599E2,1.1228901E2],"tree_param":{"num_deleted":"0","num_feature":"52","num_nodes":"19","size_leaf_vector":"1"}},{"base_weights":[-1.0816637E-2,-9.923289E-2,2.86386E-1,2.8684067E-3,-1.8735865E-1,5.981327E-3,8.377067E-4,6.799522E-2,-3.5034323E-1,-2.248727E-3,3.1403655E-3,-5.1640156E-3,-6.582343E-4],"categories":[],"categories_nodes":[],"categories_segments":[],"categories_sizes":[],"default_left":[0,0,0,0,0,0,0,0,0,0,0,0,0],"id":43,"left_children":[1,3,5,-1,7,-1,-1,9,11,-1,-1,-1,-1],"loss_changes":[3.2841156E1,3.296091E1,1.762982E1,0E0,3.3052017E1,0E0,0E0,2.2388033E1,2.2485142E1,0E0,0E0,0E0,0E0],"parents":[2147483647,0,0,1,1,2,2,4,4,7,7,8,8],"right_children":[2,4,6,-1,8,-1,-1,10,12,-1,-1,-1,-1],"split_conditions":[1.0280726E0,-1.3268032E0,-2.4235807E-1,2.8684067E-3,-2.9663485E-1,5.981327E-3,8.377067E-4,-8.7535673E-1,5.7889944E-1,-2.248727E-3,3.1403655E-3,-5.1640156E-3,-6.582343E-4],"split_indices":[21,4,19,0,43,0,0,15,17,0,0,0,0],"split_type":[0,0,0,0,0,0,0,0,0,0,0,0,0],"sum_hessian":[1.2491785E3,9.650852E2,2.8409326E2,1.7746005E2,7.876251E2,1.0939885E2,1.746944E2,3.0611752E2,4.8150763E2,1.3891002E2,1.6720749E2,3.0191138E2,1.7959622E2],"tree_param":{"num_deleted":"0","num_feature":"52","num_nodes":"13","size_leaf_vector":"1"}},{"base_weights":[-9.468915E-4,-3.216601E-1,7.341406E-2,1.3801921E-4,-5.876228E-3,2.7036288E-1,-7.228537E-2,7.2256505E-2,6.4767967E-3,-4.7278544E-3,9.884372E-2,4.9794847E-3,-1.6469628E-3,3.4167124E-3,-2.0020932E-3],"categories":[],"categories_nodes":[],"categories_segments":[],"categories_sizes":[],"default_left":[0,0,0,0,0,0,0,0,0,0,0,0,0,0,0],"id":44,"left_children":[1,3,5,-1,-1,7,9,11,-1,-1,13,-1,-1,-1,-1],"loss_changes":[3.0894367E1,2.208299E1,3.0157534E1,0E0,0E0,3.2938065E1,4.1500443E1,3.0192072E1,0E0,0E0,3.0863764E1,0E0,0E0,0E0,0E0],"parents":[2147483647,0,0,1,1,2,2,5,5,6,6,7,7,10,10],"right_children":[2,4,6,-1,-1,8,10,12,-1,-1,14,-1,-1,-1,-1],"split_conditions":[-6.0305405E-1,-8.291057E-1,1.2341171E-1,1.3801921E-4,-5.876228E-3,-1.1102159E-1,4.0582246E-1,-2.363721E-1,6.4767967E-3,-4.7278544E-3,6.8620473E-1,4.9794847E-3,-1.6469628E-3,3.4167124E-3,-2.0020932E-3],"split_indices":[21,16,16,0,0,15,15,48,0,0,12,0,0,0,0],"split_type":[0,0,0,0,0,0,0,0,0,0,0,0,0,0,0],"sum_hessian":[1.2862557E3,2.4211302E2,1.0441427E3,1.0707467E2,1.3503835E2,4.447175E2,5.994252E2,2.940419E2,1.5067558E2,1.7926967E2,4.2015552E2,1.0511222E2,1.8892969E2,2.3264084E2,1.875147E2],"tree_param":{"num_deleted":"0","num_feature":"52","num_nodes":"15","size_leaf_vector":"1"}},{"base_weights":[7.85875E-3,-6.972692E-2,2.6312935E-1,2.5108927E-3,-1.4411716E-1,5.8849314E-3,5.542956E-4,1.17214106E-1,-2.5510845E-1,3.7485978E-3,-1.2111019E-3,-6.0536996E-3,-1.7092659E-3],"categories":[],"categories_nodes":[],"categories_segments":[],"categories_sizes":[],"default_left":[0,0,0,0,0,0,0,0,0,0,0,0,0],"id":45,"left_children":[1,3,5,-1,7,-1,-1,9,11,-1,-1,-1,-1],"loss_changes":[2.4884308E1,2.2893875E1,1.9427786E1,0E0,2.277073E1,0E0,0E0,1.4508128E1,1.5618443E1,0E0,0E0,0E0,0E0],"parents":[2147483647,0,0,1,1,2,2,4,4,7,7,8,8],"right_children":[2,4,6,-1,8,-1,-1,10,12,-1,-1,-1,-1],"split_conditions":[1.0280726E0,-1.3268032E0,2.2210677E-1,2.5108927E-3,-4.991715E-1,5.8849314E-3,5.542956E-4,-9.133544E-2,-5.051367E-1,3.7485978E-3,-1.2111019E-3,-6.0536996E-3,-1.7092659E-3],"split_indices":[21,4,51,0,2,0,0,48,21,0,0,0,0],"split_type":[0,0,0,0,0,0,0,0,0,0,0,0,0],"sum_hessian":[1.247709E3,9.5649243E2,2.9121655E2,1.7788248E2,7.7861E2,1.11101234E2,1.8011533E2,2.3073134E2,5.478786E2,1.1132895E2,1.194024E2,1.02611916E2,4.452667E2],"tree_param":{"num_deleted":"0","num_feature":"52","num_nodes":"13","size_leaf_vector":"1"}},{"base_weights":[-1.3817387E-2,-2.1397063E-1,1.4257999E-1,5.2143186E-2,-4.839919E-1,6.0702623E-3,7.113956E-3,-2.3870417E-3,2.2673255E-3,-1.1936696E-3,-7.593687E-3,-2.1808267E-1,2.5934592E-1,3.5255658E-3,-5.8404603E-3,5.2329586E-3,-5.479644E-4],"categories":[],"categories_nodes":[],"categories_segments":[],"categories_sizes":[],"default_left":[0,0,0,0,0,0,0,0,0,0,0,0,0,0,0,0,0],"id":46,"left_children":[1,3,5,7,9,-1,11,-1,-1,-1,-1,13,15,-1,-1,-1,-1],"loss_changes":[3.9601707E1,4.0201775E1,4.4244102E1,1.4360017E1,2.7191208E1,0E0,3.1440954E1,0E0,0E0,0E0,0E0,6.1345505E1,2.2010963E1,0E0,0E0,0E0,0E0],"parents":[2147483647,0,0,1,1,2,2,3,3,4,4,6,6,11,11,12,12],"right_children":[2,4,6,8,10,-1,12,-1,-1,-1,-1,14,16,-1,-1,-1,-1],"split_conditions":[-1.1102159E-1,-4.748232E-1,6.0070656E-2,-1.2157214E0,-4.9369517E-1,6.0702623E-3,8.915015E-1,-2.3870417E-3,2.2673255E-3,-1.1936696E-3,-7.593687E-3,1.2341171E-1,1.0203031E0,3.5255658E-3,-5.8404603E-3,5.2329586E-3,-5.479644E-4],"split_indices":[15,1,1,15,16,0,15,0,0,0,0,16,1,0,0,0,0],"split_type":[0,0,0,0,0,0,0,0,0,0,0,0,0,0,0,0,0],"sum_hessian":[1.2600016E3,5.5376654E2,7.0623505E2,2.787814E2,2.749851E2,1.5706921E2,5.4916583E2,1.0322357E2,1.7555783E2,1.2033406E2,1.5465105E2,2.892275E2,2.5993835E2,1.1250608E2,1.7672142E2,1.4139496E2,1.18543396E2],"tree_param":{"num_deleted":"0","num_feature":"52","num_nodes":"17","size_leaf_vector":"1"}},{"base_weights":[1.5917059E-2,-1.3106759E-1,1.7545818E-1,9.711912E-2,-4.0153828E-1,6.2887943E-3,6.0767002E-2,-1.5101547E-3,3.3510057E-3,-6.4207036E-3,-2.0173613E-3,-4.640053E-2,3.8195045E-3,1.9360022E-3,-2.082994E-3],"categories":[],"categories_nodes":[],"categories_segments":[],"categories_sizes":[],"default_left":[0,0,0,0,0,0,0,0,0,0,0,0,0,0,0],"id":47,"left_children":[1,3,5,7,9,-1,11,-1,-1,-1,-1,13,-1,-1,-1],"loss_changes":[2.968001E1,4.0763798E1,3.1196936E1,2.1264652E1,1.3829235E1,0E0,1.701251E1,0E0,0E0,0E0,0E0,1.4339909E1,0E0,0E0,0E0],"parents":[2147483647,0,0,1,1,2,2,3,3,4,4,6,6,11,11],"right_children":[2,4,6,8,10,-1,12,-1,-1,-1,-1,14,-1,-1,-1],"split_conditions":[1.1325746E-1,-3.0573422E-1,-6.1595377E-2,-8.617397E-1,-6.785576E-1,6.2887943E-3,5.206877E-1,-1.5101547E-3,3.3510057E-3,-6.4207036E-3,-2.0173613E-3,1.9779481E-1,3.8195045E-3,1.9360022E-3,-2.082994E-3],"split_indices":[15,43,43,15,18,0,36,0,0,0,0,37,0,0,0],"split_type":[0,0,0,0,0,0,0,0,0,0,0,0,0,0,0],"sum_hessian":[1.260759E3,6.5475684E2,6.0600214E2,3.5483127E2,2.999256E2,1.19650116E2,4.8635205E2,1.7303932E2,1.8179193E2,1.3294727E2,1.6697832E2,3.6478915E2,1.2156288E2,1.4554767E2,2.192415E2],"tree_param":{"num_deleted":"0","num_feature":"52","num_nodes":"15","size_leaf_vector":"1"}},{"base_weights":[-7.152829E-3,-1.08591236E-1,1.7712787E-1,-5.2794334E-3,-4.2377084E-2,3.1706253E-1,7.7081616E-3,1.8580924E-1,-2.5896385E-1,5.3114556E-3,1.0794313E-3,-1.5436289E-3,1.745349E-3,8.2699444E-5,5.3703827E-3,-1.1698005E-3,-5.93697E-3],"categories":[],"categories_nodes":[],"categories_segments":[],"categories_sizes":[],"default_left":[0,0,0,0,0,0,0,0,0,0,0,0,0,0,0,0,0],"id":48,"left_children":[1,3,5,-1,7,9,11,13,15,-1,-1,-1,-1,-1,-1,-1,-1],"loss_changes":[2.363775E1,2.2395224E1,1.0450665E1,0E0,3.522359E1,1.0472029E1,5.640703E0,2.1281025E1,1.6911404E1,0E0,0E0,0E0,0E0,0E0,0E0,0E0,0E0],"parents":[2147483647,0,0,1,1,2,2,4,4,5,5,6,6,7,7,8,8],"right_children":[2,4,6,-1,8,10,12,14,16,-1,-1,-1,-1,-1,-1,-1,-1],"split_conditions":[2.2015342E-1,-7.981638E-1,3.3549705E-1,-5.2794334E-3,1.04512945E-1,1.24867685E-1,1.1054373E0,-3.3632952E-1,-2.0148459E-1,5.3114556E-3,1.0794313E-3,-1.5436289E-3,1.745349E-3,8.2699444E-5,5.3703827E-3,-1.1698005E-3,-5.93697E-3],"split_indices":[30,17,35,0,43,43,33,32,7,0,0,0,0,0,0,0,0],"split_type":[0,0,0,0,0,0,0,0,0,0,0,0,0,0,0,0,0],"sum_hessian":[1.2622899E3,8.164209E2,4.4586902E2,1.08399536E2,7.0802136E2,2.4161197E2,2.0425705E2,3.4379242E2,3.6422894E2,1.1668576E2,1.24926216E2,1.0216081E2,1.0209624E2,2.30666E2,1.1312642E2,2.586921E2,1.0553682E2],"tree_param":{"num_deleted":"0","num_feature":"52","num_nodes":"17","size_leaf_vector":"1"}},{"base_weights":[2.5028404E-2,2.4413432E-1,-7.968312E-2,-9.7343436E-4,4.9974024E-1,-4.3127725E-1,1.01195365E-1,7.999603E-3,2.6291974E-3,-3.859017E-4,-7.1221655E-3,6.138113E-3,-2.0988528E-2,-5.347397E-3,1.3119356E-3],"categories":[],"categories_nodes":[],"categories_segments":[],"categories_sizes":[],"default_left":[0,0,0,0,0,0,0,0,0,0,0,0,0,0,0],"id":49,"left_children":[1,3,5,-1,7,9,11,-1,-1,-1,-1,-1,13,-1,-1],"loss_changes":[2.9181803E1,3.6226913E1,5.475541E1,0E0,1.5868149E1,3.1832615E1,3.5808838E1,0E0,0E0,0E0,0E0,0E0,3.6202675E1,0E0,0E0],"parents":[2147483647,0,0,1,1,2,2,4,4,5,5,6,6,12,12],"right_children":[2,4,6,-1,8,10,12,-1,-1,-1,-1,-1,14,-1,-1],"split_conditions":[-3.2468992E-1,-8.617397E-1,7.025066E-2,-9.7343436E-4,-2.7123967E-3,-4.9369517E-1,1.5944307E-1,7.999603E-3,2.6291974E-3,-3.859017E-4,-7.1221655E-3,6.138113E-3,5.5717826E-1,-5.347397E-3,1.3119356E-3],"split_indices":[43,15,15,0,16,16,16,0,0,0,0,0,15,0,0],"split_type":[0,0,0,0,0,0,0,0,0,0,0,0,0,0,0],"sum_hessian":[1.2646511E3,4.0962802E2,8.550231E2,1.7505063E2,2.3457741E2,2.904459E2,5.645772E2,1.0041412E2,1.3416328E2,1.2282288E2,1.6762302E2,1.07906425E2,4.5667078E2,1.0396236E2,3.527084E2],"tree_param":{"num_deleted":"0","num_feature":"52","num_nodes":"15","size_leaf_vector":"1"}},{"base_weights":[-9.315325E-3,-2.8248003E-1,1.0889204E-1,3.8983248E-4,-5.0328857E-1,3.1415397E-1,-5.3774305E-2,-7.2649363E-3,-2.9354782E-3,1.090685E-1,6.914425E-3,-3.4266086E-3,1.1162666E-1,-6.373519E-4,3.624509E-3,-1.2110837E-3,3.1519993E-3],"categories":[],"categories_nodes":[],"categories_segments":[],"categories_sizes":[],"default_left":[0,0,0,0,0,0,0,0,0,0,0,0,0,0,0,0,0],"id":50,"left_children":[1,3,5,-1,7,9,11,-1,-1,13,-1,-1,15,-1,-1,-1,-1],"loss_changes":[4.0635963E1,2.7283197E1,2.9390469E1,0E0,9.674416E0,2.9520958E1,2.3542252E1,0E0,0E0,1.1361536E1,0E0,0E0,1.4916016E1,0E0,0E0,0E0,0E0],"parents":[2147483647,0,0,1,1,2,2,4,4,5,5,6,6,9,9,12,12],"right_children":[2,4,6,-1,8,10,12,-1,-1,14,-1,-1,16,-1,-1,-1,-1],"split_conditions":[-3.8459784E-1,-5.663316E-1,1.2447129E-1,3.8983248E-4,-3.9754957E-1,1.1325746E-1,2.26244E-1,-7.2649363E-3,-2.9354782E-3,-6.55127E-2,6.914425E-3,-3.4266086E-3,1.5460254E-1,-6.373519E-4,3.624509E-3,-1.2110837E-3,3.1519993E-3],"split_indices":[21,51,0,0,15,15,17,0,0,31,0,0,3,0,0,0,0],"split_type":[0,0,0,0,0,0,0,0,0,0,0,0,0,0,0,0,0],"sum_hessian":[1.2518728E3,3.7854526E2,8.733275E2,1.5388902E2,2.2465623E2,3.866461E2,4.8668146E2,1.05292755E2,1.1936348E2,2.5301587E2,1.3363022E2,1.7751547E2,3.09166E2,1.5014348E2,1.0287238E2,1.434831E2,1.6568289E2],"tree_param":{"num_deleted":"0","num_feature":"52","num_nodes":"17","size_leaf_vector":"1"}},{"base_weights":[9.477211E-4,1.3752538E-1,-1.594848E-1,-9.497894E-2,2.853839E-1,-2.9015326E-1,7.264659E-2,2.4010986E-3,-3.3221166E-3,6.4018765E-3,1.0187613E-1,-8.9155495E-2,-7.0658303E-3,2.5717206E-3,-1.1374577E-3,-1.6986297E-3,2.8211619E-3,-2.7092048E-3,1.182965E-3],"categories":[],"categories_nodes":[],"categories_segments":[],"categories_sizes":[],"default_left":[0,0,0,0,0,0,0,0,0,0,0,0,0,0,0,0,0,0,0],"id":51,"left_children":[1,3,5,7,9,11,13,-1,-1,-1,15,17,-1,-1,-1,-1,-1,-1,-1],"loss_changes":[2.7604395E1,2.3610346E1,1.7678915E1,2.130912E1,2.6777496E1,3.0572674E1,7.296233E0,0E0,0E0,0E0,1.383914E1,9.705743E0,0E0,0E0,0E0,0E0,0E0,0E0,0E0],"parents":[2147483647,0,0,1,1,2,2,3,3,4,4,5,5,6,6,10,10,11,11],"right_children":[2,4,6,8,10,12,14,-1,-1,-1,16,18,-1,-1,-1,-1,-1,-1,-1],"split_conditions":[9.499257E-2,-4.3307963E-1,4.1190678E-1,-8.354897E-1,-3.3776462E-2,1.3147858E-1,9.391436E-1,2.4010986E-3,-3.3221166E-3,6.4018765E-3,4.2107528E-1,-3.3982188E-1,-7.0658303E-3,2.5717206E-3,-1.1374577E-3,-1.6986297E-3,2.8211619E-3,-2.7092048E-3,1.182965E-3],"split_indices":[39,15,17,43,43,43,43,0,0,0,15,15,0,0,0,0,0,0,0],"split_type":[0,0,0,0,0,0,0,0,0,0,0,0,0,0,0,0,0,0,0],"sum_hessian":[1.2563124E3,6.804453E2,5.7586707E2,2.6347318E2,4.1697214E2,3.695172E2,2.0634988E2,1.0832845E2,1.5514473E2,1.3951822E2,2.7745392E2,2.5167186E2,1.1784534E2,1.0466059E2,1.0168929E2,1.09582634E2,1.6787128E2,1.3509918E2,1.16572685E2],"tree_param":{"num_deleted":"0","num_feature":"52","num_nodes":"19","size_leaf_vector":"1"}},{"base_weights":[-4.024817E-3,-1.4827777E-1,1.5418376E-1,7.84418E-3,-5.379896E-3,3.1579137E-2,5.6239236E-3,2.1474826E-1,-1.9562599E-1,4.1982806E-3,-7.756003E-2,-6.443676E-4,4.71385E-3,-4.4679395E-3,8.887266E-4,-4.883054E-3,9.57884E-4],"categories":[],"categories_nodes":[],"categories_segments":[],"categories_sizes":[],"default_left":[0,0,0,0,0,0,0,0,0,0,0,0,0,0,0,0,0],"id":52,"left_children":[1,3,5,7,-1,9,-1,11,13,-1,15,-1,-1,-1,-1,-1,-1],"loss_changes":[2.8574684E1,4.0223343E1,2.9475267E1,1.9874062E1,0E0,1.977356E1,0E0,1.7111454E1,1.7173899E1,0E0,2.5964453E1,0E0,0E0,0E0,0E0,0E0,0E0],"parents":[2147483647,0,0,1,1,2,2,3,3,5,5,7,7,8,8,10,10],"right_children":[2,4,6,8,-1,10,-1,12,14,-1,16,-1,-1,-1,-1,-1,-1],"split_conditions":[1.1325746E-1,-9.912343E-2,5.411461E-1,-5.19982E-1,-5.379896E-3,1.3019061E-1,5.6239236E-3,-1.1214269E0,-4.9133024E-1,4.1982806E-3,2.26244E-1,-6.443676E-4,4.71385E-3,-4.4679395E-3,8.887266E-4,-4.883054E-3,9.57884E-4],"split_indices":[15,16,36,2,0,2,0,15,15,0,17,0,0,0,0,0,0],"split_type":[0,0,0,0,0,0,0,0,0,0,0,0,0,0,0,0,0],"sum_hessian":[1.2481904E3,6.5460986E2,5.935806E2,4.6785843E2,1.8675142E2,4.590773E2,1.3450334E2,2.3313518E2,2.3472325E2,1.00488815E2,3.5858847E2,1.1144649E2,1.216887E2,1.2499165E2,1.0973159E2,1.0620013E2,2.5238835E2],"tree_param":{"num_deleted":"0","num_feature":"52","num_nodes":"17","size_leaf_vector":"1"}},{"base_weights":[-2.2928465E-2,1.1333988E-1,-1.8252604E-1,3.973256E-3,4.0289134E-2,-3.358146E-1,1.0759652E-1,-3.8725964E-3,1.3811228E-1,-1.5439466E-1,-6.8597654E-3,4.394427E-3,-2.2472616E-3,4.862139E-3,1.6013363E-4,3.1908236E-5,-3.972752E-3],"categories":[],"categories_nodes":[],"categories_segments":[],"categories_sizes":[],"default_left":[0,0,0,0,0,0,0,0,0,0,0,0,0,0,0,0,0],"id":53,"left_children":[1,3,5,-1,7,9,11,-1,13,15,-1,-1,-1,-1,-1,-1,-1],"loss_changes":[2.8021305E1,1.4119108E1,2.6615206E1,0E0,2.3177359E1,2.4171524E1,2.3003735E1,0E0,1.9018827E1,1.0178259E1,0E0,0E0,0E0,0E0,0E0,0E0,0E0],"parents":[2147483647,0,0,1,1,2,2,4,4,5,5,6,6,8,8,9,9],"right_children":[2,4,6,-1,8,10,12,-1,14,16,-1,-1,-1,-1,-1,-1,-1],"split_conditions":[8.824726E-2,-6.2379426E-1,4.8112318E-1,3.973256E-3,-4.530507E-1,2.7081609E-2,1.1153077E0,-3.8725964E-3,-1.9374254E-1,4.2362294E-1,-6.8597654E-3,4.394427E-3,-2.2472616E-3,4.862139E-3,1.6013363E-4,3.1908236E-5,-3.972752E-3],"split_indices":[48,2,17,0,17,2,51,0,43,5,0,0,0,0,0,0,0],"split_type":[0,0,0,0,0,0,0,0,0,0,0,0,0,0,0,0,0],"sum_hessian":[1.2829554E3,6.906814E2,5.92274E2,1.3809862E2,5.5258276E2,3.8844464E2,2.0382938E2,1.008362E2,4.5174658E2,2.5871393E2,1.297307E2,1.0241805E2,1.0141132E2,1.1469476E2,3.3705182E2,1.5685715E2,1.0185677E2],"tree_param":{"num_deleted":"0","num_feature":"52","num_nodes":"17","size_leaf_vector":"1"}},{"base_weights":[-1.8033886E-2,-9.837547E-2,2.5260764E-1,1.072995E-1,-2.1041967E-1,5.8881617E-3,4.453788E-4,-4.338476E-2,4.037371E-3,-7.713028E-2,-4.1610774E-1,-3.2010572E-3,1.8810151E-3,-3.4253302E-3,1.0568858E-3,-1.780499E-3,-5.793691E-3],"categories":[],"categories_nodes":[],"categories_segments":[],"categories_sizes":[],"default_left":[0,0,0,0,0,0,0,0,0,0,0,0,0,0,0,0,0],"id":54,"left_children":[1,3,5,7,9,-1,-1,11,-1,13,15,-1,-1,-1,-1,-1,-1],"loss_changes":[2.7182796E1,2.2399715E1,1.9609108E1,1.5449505E1,1.692737E1,0E0,0E0,1.4714725E1,0E0,1.8893435E1,8.948948E0,0E0,0E0,0E0,0E0,0E0,0E0],"parents":[2147483647,0,0,1,1,2,2,3,3,4,4,7,7,9,9,10,10],"right_children":[2,4,6,8,10,-1,-1,12,-1,14,16,-1,-1,-1,-1,-1,-1],"split_conditions":[1.0280726E0,-4.9440615E-2,1.6752262E-2,-3.7842864E-1,1.7788504E-1,5.8881617E-3,4.453788E-4,-3.1598762E-1,4.037371E-3,-7.248697E-2,-1.6602905E-1,-3.2010572E-3,1.8810151E-3,-3.4253302E-3,1.0568858E-3,-1.780499E-3,-5.793691E-3],"split_indices":[21,33,37,21,38,0,0,35,0,21,2,0,0,0,0,0,0],"split_type":[0,0,0,0,0,0,0,0,0,0,0,0,0,0,0,0,0],"sum_hessian":[1.2494028E3,9.658152E2,2.8358765E2,3.3905252E2,6.2676263E2,1.06093735E2,1.774939E2,2.2480228E2,1.1425022E2,3.8345688E2,2.4330579E2,1.030316E2,1.2177068E2,1.5680576E2,2.2665112E2,1.0192649E2,1.4137929E2],"tree_param":{"num_deleted":"0","num_feature":"52","num_nodes":"17","size_leaf_vector":"1"}},{"base_weights":[-2.6658436E-2,-1.02667965E-1,2.4022682E-1,5.5079255E-2,-3.2414573E-1,5.22615E-3,-1.8162087E-4,-2.6155773E-1,2.481809E-1,8.9432526E-4,-4.6385685E-1,-5.1960372E-3,3.697822E-4,4.2402553E-3,8.137851E-4,-8.846111E-3,-2.4186426E-3],"categories":[],"categories_nodes":[],"categories_segments":[],"categories_sizes":[],"default_left":[0,0,0,0,0,0,0,0,0,0,0,0,0,0,0,0,0],"id":55,"left_children":[1,3,5,7,9,-1,-1,11,13,-1,15,-1,-1,-1,-1,-1,-1],"loss_changes":[2.5738585E1,3.479849E1,2.0746016E1,3.554021E1,2.4185902E1,0E0,0E0,1.7183495E1,1.0291E1,0E0,2.8021416E1,0E0,0E0,0E0,0E0,0E0,0E0],"parents":[2147483647,0,0,1,1,2,2,3,3,4,4,7,7,8,8,10,10],"right_children":[2,4,6,8,10,-1,-1,12,14,-1,16,-1,-1,-1,-1,-1,-1],"split_conditions":[8.915015E-1,6.2605145E-4,2.7491125E-1,-8.3618075E-1,-1.8269576E-1,5.22615E-3,-1.8162087E-4,8.749727E-1,1.14438094E-1,8.9432526E-4,4.7622036E-2,-5.1960372E-3,3.697822E-4,4.2402553E-3,8.137851E-4,-8.846111E-3,-2.4186426E-3],"split_indices":[15,2,20,15,33,0,0,8,48,0,15,0,0,0,0,0,0],"split_type":[0,0,0,0,0,0,0,0,0,0,0,0,0,0,0,0,0],"sum_hessian":[1.2677557E3,9.891482E2,2.7860757E2,5.772487E2,4.1189948E2,1.3306897E2,1.455386E2,2.1742665E2,3.5982205E2,1.032868E2,3.0861267E2,1.1672591E2,1.00700745E2,1.7220265E2,1.8761942E2,1.0374923E2,2.0486345E2],"tree_param":{"num_deleted":"0","num_feature":"52","num_nodes":"17","size_leaf_vector":"1"}},{"base_weights":[4.625803E-2,-1.2490783E-1,1.824847E-1,1.2917402E-1,-3.6172462E-1,5.395507E-1,-1.7348124E-3,-1.0400004E-3,3.0485266E-3,-1.1581123E-3,-7.7864793E-3,3.08258E-3,7.1445354E-3,3.8636115E-3,-1.1349411E-1,-2.9000556E-3,2.9773854E-3],"categories":[],"categories_nodes":[],"categories_segments":[],"categories_sizes":[],"default_left":[0,0,0,0,0,0,0,0,0,0,0,0,0,0,0,0,0],"id":56,"left_children":[1,3,5,7,9,11,13,-1,-1,-1,-1,-1,-1,-1,15,-1,-1],"loss_changes":[2.9469597E1,3.379979E1,4.660608E1,1.1214233E1,2.915488E1,8.784111E0,2.01522E1,0E0,0E0,0E0,0E0,0E0,0E0,0E0,2.6602116E1,0E0,0E0],"parents":[2147483647,0,0,1,1,2,2,3,3,4,4,5,5,6,6,14,14],"right_children":[2,4,6,8,10,12,14,-1,-1,-1,-1,-1,-1,-1,16,-1,-1],"split_conditions":[-9.974002E-2,-6.4959353E-1,2.5222573E-1,-1.1214269E0,-4.285176E-1,-1.754703E-1,2.1449327E-1,-1.0400004E-3,3.0485266E-3,-1.1581123E-3,-7.7864793E-3,3.08258E-3,7.1445354E-3,3.8636115E-3,1.4056336E0,-2.9000556E-3,2.9773854E-3],"split_indices":[15,0,0,15,16,17,2,0,0,0,0,0,0,0,15,0,0],"split_type":[0,0,0,0,0,0,0,0,0,0,0,0,0,0,0,0,0],"sum_hessian":[1.2586584E3,5.562448E2,7.024137E2,2.6776074E2,2.8848404E2,2.386682E2,4.637455E2,1.14180984E2,1.5357977E2,1.8381783E2,1.04666214E2,1.063775E2,1.322907E2,1.0158675E2,3.6215875E2,2.5465839E2,1.07500374E2],"tree_param":{"num_deleted":"0","num_feature":"52","num_nodes":"17","size_leaf_vector":"1"}},{"base_weights":[1.234482E-2,-3.8145229E-3,5.071233E-2,2.9819334E-1,-8.880236E-3,1.0182294E-3,5.219715E-3,3.1301773E-3,-5.9683025E-2,-1.3603579E-3,1.890087E-3],"categories":[],"categories_nodes":[],"categories_segments":[],"categories_sizes":[],"default_left":[0,0,0,0,0,0,0,0,0,0,0],"id":57,"left_children":[1,-1,3,5,7,-1,-1,-1,9,-1,-1],"loss_changes":[1.8898397E1,0E0,1.7114891E1,9.465736E0,1.5076681E1,0E0,0E0,0E0,1.5291594E1,0E0,0E0],"parents":[2147483647,0,0,2,2,3,3,4,4,8,8],"right_children":[2,-1,4,6,8,-1,-1,-1,10,-1,-1],"split_conditions":[-1.6467924E0,-3.8145229E-3,-8.7620825E-1,2.346668E-1,-1.1844847E0,1.0182294E-3,5.219715E-3,3.1301773E-3,8.04982E-1,-1.3603579E-3,1.890087E-3],"split_indices":[36,0,20,36,13,0,0,0,23,0,0],"split_type":[0,0,0,0,0,0,0,0,0,0,0],"sum_hessian":[1.2571874E3,1.0886818E2,1.1483192E3,2.2292406E2,9.2539514E2,1.2147309E2,1.01450966E2,1.2339182E2,8.020033E2,6.1584467E2,1.8615868E2],"tree_param":{"num_deleted":"0","num_feature":"52","num_nodes":"11","size_leaf_vector":"1"}},{"base_weights":[4.386695E-3,1.8447448E-1,-8.2408525E-2,-1.8574907E-2,5.3690164E-3,-4.43326E-3,-4.6299704E-4,3.5687997E-3,-2.7123156E-3,2.8652242E-1,-1.3700007E-1,5.207692E-3,9.861155E-5,-3.005311E-3,5.7891215E-4],"categories":[],"categories_nodes":[],"categories_segments":[],"categories_sizes":[],"default_left":[0,0,0,0,0,0,0,0,0,0,0,0,0,0,0],"id":58,"left_children":[1,3,5,7,-1,-1,9,-1,-1,11,13,-1,-1,-1,-1],"loss_changes":[1.9566626E1,2.9468891E1,2.4641493E1,2.4798786E1,0E0,0E0,2.6972662E1,0E0,0E0,1.40695095E1,1.51006365E1,0E0,0E0,0E0,0E0],"parents":[2147483647,0,0,1,1,2,2,3,3,6,6,9,9,10,10],"right_children":[2,4,6,8,-1,-1,10,-1,-1,12,14,-1,-1,-1,-1],"split_conditions":[-3.2468992E-1,-4.370595E-1,-4.7665122E-1,-1.1707186E0,5.3690164E-3,-4.43326E-3,1.2341171E-1,3.5687997E-3,-2.7123156E-3,3.835888E-1,1.0309805E0,5.207692E-3,9.861155E-5,-3.005311E-3,5.7891215E-4],"split_indices":[43,17,21,1,0,0,16,0,0,22,21,0,0,0,0],"split_type":[0,0,0,0,0,0,0,0,0,0,0,0,0,0,0],"sum_hessian":[1.2445927E3,4.059057E2,8.3868695E2,2.578325E2,1.4807321E2,1.524261E2,6.8626086E2,1.02584724E2,1.5524777E2,2.19351E2,4.6690985E2,1.1684628E2,1.0250471E2,2.5468666E2,2.1222319E2],"tree_param":{"num_deleted":"0","num_feature":"52","num_nodes":"15","size_leaf_vector":"1"}},{"base_weights":[1.5133215E-2,-8.988761E-2,1.6241407E-1,-4.697094E-3,-2.4943322E-2,2.8978243E-1,-1.3571748E-3,1.2606485E-1,-2.3484801E-1,4.815674E-1,5.6839583E-4,-6.0046546E-4,2.971889E-3,-4.473087E-3,-2.556779E-4,2.6451468E-3,6.8128672E-3],"categories":[],"categories_nodes":[],"categories_segments":[],"categories_sizes":[],"default_left":[0,0,0,0,0,0,0,0,0,0,0,0,0,0,0,0,0],"id":59,"left_children":[1,3,5,-1,7,9,-1,11,13,15,-1,-1,-1,-1,-1,-1,-1],"loss_changes":[1.9703594E1,1.799419E1,2.0325962E1,0E0,2.0259449E1,1.6384075E1,0E0,1.1924035E1,1.1657444E1,7.9957504E0,0E0,0E0,0E0,0E0,0E0,0E0,0E0],"parents":[2147483647,0,0,1,1,2,2,4,4,5,5,7,7,8,8,9,9],"right_children":[2,4,6,-1,8,10,-1,12,14,16,-1,-1,-1,-1,-1,-1,-1],"split_conditions":[2.7323533E-2,-7.418125E-1,5.327978E-1,-4.697094E-3,2.6582015E-1,1.141189E-1,-1.3571748E-3,-1.754703E-1,5.687024E-1,-4.422961E-1,5.6839583E-4,-6.0046546E-4,2.971889E-3,-4.473087E-3,-2.556779E-4,2.6451468E-3,6.8128672E-3],"split_indices":[31,17,40,0,51,2,0,17,17,23,0,0,0,0,0,0,0],"split_type":[0,0,0,0,0,0,0,0,0,0,0,0,0,0,0,0,0],"sum_hessian":[1.2676337E3,7.384531E2,5.291806E2,1.0488385E2,6.335693E2,3.7199097E2,1.5718962E2,3.675592E2,2.6601007E2,2.0167125E2,1.7031972E2,1.7529161E2,1.9226758E2,1.2968764E2,1.3632243E2,1.0006936E2,1.0160189E2],"tree_param":{"num_deleted":"0","num_feature":"52","num_nodes":"17","size_leaf_vector":"1"}},{"base_weights":[-6.783113E-3,4.457143E-2,-3.5961028E-3,-3.8735294E-3,9.939297E-2,4.058914E-1,-2.6804043E-2,7.164744E-3,1.3110234E-3,-2.4283195E-3,1.8455688E-3],"categories":[],"categories_nodes":[],"categories_segments":[],"categories_sizes":[],"default_left":[0,0,0,0,0,0,0,0,0,0,0],"id":60,"left_children":[1,3,-1,-1,5,7,9,-1,-1,-1,-1],"loss_changes":[2.3266445E1,2.6271587E1,0E0,0E0,3.8490833E1,2.413145E1,3.21605E1,0E0,0E0,0E0,0E0],"parents":[2147483647,0,0,1,1,4,4,5,5,6,6],"right_children":[2,4,-1,-1,6,8,10,-1,-1,-1,-1],"split_conditions":[1.2746531E0,-1.1615971E0,-3.5961028E-3,-3.8735294E-3,-3.2468992E-1,-1.4298682E-1,4.0582246E-1,7.164744E-3,1.3110234E-3,-2.4283195E-3,1.8455688E-3],"split_indices":[10,15,0,0,43,16,15,0,0,0,0],"split_type":[0,0,0,0,0,0,0,0,0,0,0],"sum_hessian":[1.2716086E3,1.1103287E3,1.6127985E2,1.2266128E2,9.876675E2,2.8791916E2,6.9974835E2,1.3279358E2,1.5512558E2,3.4707626E2,3.526721E2],"tree_param":{"num_deleted":"0","num_feature":"52","num_nodes":"11","size_leaf_vector":"1"}},{"base_weights":[-0E0,-2.7502647E-1,9.388041E-2,-0E0,-4.82361E-3,-1.7821856E-1,1.7723571E-1,-3.3990126E-3,4.6813282E-5,6.626697E-2,3.8932762E-1,-2.349694E-3,2.1164645E-3,6.2189964E-3,2.051183E-3],"categories":[],"categories_nodes":[],"categories_segments":[],"categories_sizes":[],"default_left":[0,0,0,0,0,0,0,0,0,0,0,0,0,0,0],"id":61,"left_children":[1,3,5,-1,-1,7,9,-1,-1,11,13,-1,-1,-1,-1],"loss_changes":[3.2410793E1,1.8301449E1,2.123162E1,0E0,0E0,6.6310854E0,1.6592695E1,0E0,0E0,2.0871927E1,9.796936E0,0E0,0E0,0E0,0E0],"parents":[2147483647,0,0,1,1,2,2,5,5,6,6,9,9,10,10],"right_children":[2,4,6,-1,-1,8,10,-1,-1,12,14,-1,-1,-1,-1],"split_conditions":[-4.7665122E-1,-5.663316E-1,-8.052355E-1,-0E0,-4.82361E-3,1.0095549E0,5.746811E-3,-3.3990126E-3,4.6813282E-5,6.780216E-2,-4.027697E-2,-2.349694E-3,2.1164645E-3,6.2189964E-3,2.051183E-3],"split_indices":[21,51,36,0,0,21,7,0,0,21,38,0,0,0,0],"split_type":[0,0,0,0,0,0,0,0,0,0,0,0,0,0,0],"sum_hessian":[1.2490752E3,3.177373E2,9.3133795E2,1.3713599E2,1.8060133E2,2.1646169E2,7.148762E2,1.15434784E2,1.0102691E2,4.7259293E2,2.422833E2,1.5231465E2,3.202783E2,1.0378454E2,1.3849876E2],"tree_param":{"num_deleted":"0","num_feature":"52","num_nodes":"15","size_leaf_vector":"1"}},{"base_weights":[1.6403006E-3,-2.1024464E-1,1.01700574E-1,2.2368733E-2,-5.8015166E-3,4.8753795E-1,-5.8665406E-2,-2.51039E-3,2.7385089E-3,7.985877E-3,2.4746552E-3,-1.7728439E-1,2.8496336E-3,-5.4264492E-3,-6.2333496E-4],"categories":[],"categories_nodes":[],"categories_segments":[],"categories_sizes":[],"default_left":[0,0,0,0,0,0,0,0,0,0,0,0,0,0,0],"id":62,"left_children":[1,3,5,7,-1,9,11,-1,-1,-1,-1,13,-1,-1,-1],"loss_changes":[2.6874472E1,3.5223564E1,5.3751167E1,1.7354746E1,0E0,1.8115768E1,2.4969204E1,0E0,0E0,0E0,0E0,1.881628E1,0E0,0E0,0E0],"parents":[2147483647,0,0,1,1,2,2,3,3,5,5,6,6,11,11],"right_children":[2,4,6,8,-1,10,12,-1,-1,-1,-1,14,-1,-1,-1],"split_conditions":[-4.3307963E-1,-4.9369517E-1,5.4101937E-2,-7.083793E-1,-5.8015166E-3,1.0665671E-1,5.278164E-1,-2.51039E-3,2.7385089E-3,7.985877E-3,2.4746552E-3,2.8459036E-1,2.8496336E-3,-5.4264492E-3,-6.2333496E-4],"split_indices":[15,16,1,21,0,16,36,0,0,0,0,15,0,0,0],"split_type":[0,0,0,0,0,0,0,0,0,0,0,0,0,0,0],"sum_hessian":[1.2661309E3,4.0381778E2,8.62313E2,2.4824075E2,1.5557704E2,2.528936E2,6.0941943E2,1.1798475E2,1.30256E2,1.0722804E2,1.4566556E2,4.548356E2,1.5458382E2,1.0603198E2,3.4880362E2],"tree_param":{"num_deleted":"0","num_feature":"52","num_nodes":"15","size_leaf_vector":"1"}},{"base_weights":[-2.1262681E-2,-1.1463209E-1,2.8621638E-1,-2.594488E-3,-3.1251156E-1,6.6869673E-3,7.3999714E-4,-1.4364573E-1,4.9101966E-3,-5.24983E-1,5.2698026E-4,-2.396524E-4,-5.2378913E-3,-2.6709489E-3,-7.4092597E-3],"categories":[],"categories_nodes":[],"categories_segments":[],"categories_sizes":[],"default_left":[0,0,0,0,0,0,0,0,0,0,0,0,0,0,0],"id":63,"left_children":[1,3,5,7,9,-1,-1,11,-1,13,-1,-1,-1,-1,-1],"loss_changes":[3.5863434E1,2.115586E1,2.310624E1,4.296078E1,2.7135078E1,0E0,0E0,2.1657234E1,0E0,1.133786E1,0E0,0E0,0E0,0E0,0E0],"parents":[2147483647,0,0,1,1,2,2,3,3,4,4,7,7,9,9],"right_children":[2,4,6,8,10,-1,-1,12,-1,14,-1,-1,-1,-1,-1],"split_conditions":[1.0280726E0,1.5944307E-1,1.476889E-1,-8.816988E-2,9.000961E-1,6.6869673E-3,7.3999714E-4,-9.237496E-2,4.9101966E-3,-3.579656E-1,5.2698026E-4,-2.396524E-4,-5.2378913E-3,-2.6709489E-3,-7.4092597E-3],"split_indices":[21,16,51,15,15,0,0,51,0,3,0,0,0,0,0],"split_type":[0,0,0,0,0,0,0,0,0,0,0,0,0,0,0],"sum_hessian":[1.247902E3,9.5943835E2,2.8846356E2,6.155005E2,3.439379E2,1.00561806E2,1.8790175E2,4.8059918E2,1.3490128E2,2.1774971E2,1.261882E2,3.6813934E2,1.12459854E2,1.02330956E2,1.1541875E2],"tree_param":{"num_deleted":"0","num_feature":"52","num_nodes":"15","size_leaf_vector":"1"}},{"base_weights":[1.33339735E-2,-2.4712536E-1,1.2582003E-1,-9.326281E-5,-4.799899E-3,2.893709E-1,-8.104319E-2,7.4136457E-3,1.6161834E-1,1.2357421E-3,-2.6000506E-1,1.784518E-4,4.515485E-3,-4.548158E-3,-5.816164E-4],"categories":[],"categories_nodes":[],"categories_segments":[],"categories_sizes":[],"default_left":[0,0,0,0,0,0,0,0,0,0,0,0,0,0,0],"id":64,"left_children":[1,3,5,-1,-1,7,9,-1,11,-1,13,-1,-1,-1,-1],"loss_changes":[3.6813972E1,2.0695194E1,2.9929665E1,0E0,0E0,2.7795578E1,1.4371297E1,0E0,1.59244175E1,0E0,7.92336E0,0E0,0E0,0E0,0E0],"parents":[2147483647,0,0,1,1,2,2,5,5,6,6,8,8,10,10],"right_children":[2,4,6,-1,-1,8,10,-1,12,-1,14,-1,-1,-1,-1],"split_conditions":[-3.8459784E-1,-3.4477034E-1,3.1924313E-1,-9.326281E-5,-4.799899E-3,5.889378E-2,4.0425666E-2,7.4136457E-3,1.0280726E0,1.2357421E-3,-7.600081E-2,1.784518E-4,4.515485E-3,-4.548158E-3,-5.816164E-4],"split_indices":[21,43,1,0,0,22,39,0,21,0,6,0,0,0,0],"split_type":[0,0,0,0,0,0,0,0,0,0,0,0,0,0,0],"sum_hessian":[1.2544812E3,3.7630807E2,8.7817316E2,1.8827289E2,1.8803519E2,4.9133313E2,3.8684003E2,1.052906E2,3.860425E2,1.7946848E2,2.0737155E2,2.606411E2,1.254014E2,1.02988045E2,1.0438351E2],"tree_param":{"num_deleted":"0","num_feature":"52","num_nodes":"15","size_leaf_vector":"1"}},{"base_weights":[4.702975E-3,-7.996345E-2,2.7152708E-1,4.6465956E-2,-3.097085E-1,6.0362862E-3,8.648698E-4,-1.7814364E-1,2.400547E-1,-1.6399555E-1,-5.5781524E-3,1.3807217E-3,-3.7329884E-3,4.793245E-3,-1.0011512E-3,-4.1674683E-3,9.330414E-4],"categories":[],"categories_nodes":[],"categories_segments":[],"categories_sizes":[],"default_left":[0,0,0,0,0,0,0,0,0,0,0,0,0,0,0,0,0],"id":65,"left_children":[1,3,5,7,9,-1,-1,11,13,15,-1,-1,-1,-1,-1,-1,-1],"loss_changes":[2.8601816E1,2.7944715E1,1.8315647E1,2.6959616E1,1.1791492E1,0E0,0E0,1.7853203E1,2.7439222E1,1.4485687E1,0E0,0E0,0E0,0E0,0E0,0E0,0E0],"parents":[2147483647,0,0,1,1,2,2,3,3,4,4,7,7,8,8,9,9],"right_children":[2,4,6,8,10,-1,-1,12,14,16,-1,-1,-1,-1,-1,-1,-1],"split_conditions":[1.0095549E0,