{"learner":{"attributes":{"best_iteration":"1","best_score":"0.6936280239174599"},"feature_names":["RSI_14","MACD","MACD_hist","BB_width","ATR_14","ADX_14","Stoch_K","Stoch_D","CCI","MFI","OBV_pct","RSI_4h","MACD_4h","MACD_hist_4h","BB_width_4h","ATR_4h","ADX_4h","RSI_1d","MACD_1d","MACD_hist_1d","BB_width_1d","ATR_1d","ADX_1d","volume_ma_ratio","buy_sell_volume_ratio","realized_vol","parkinson_vol","garman_klass_vol","funding_rate","funding_rate_ma24","eth_btc_corr","eth_momentum","return_lag_2","return_lag_6","return_lag_12","return_lag_24","hour_sin","hour_cos","dow_sin","dow_cos","ma_ratio_5","ma_ratio_10","ma_ratio_20","ma_ratio_50","RSI_x_Vol","MACD_norm","BB_position","MA_cross","Momentum_accel","Vol_change","HL_ratio","Close_position","Return_skew_12"],"feature_types":[],"gradient_booster":{"model":{"cats":{"enc":[],"feature_segments":[],"sorted_idx":[]},"gbtree_model_param":{"num_parallel_tree":"1","num_trees":"102"},"iteration_indptr":[0,1,2,3,4,5,6,7,8,9,10,11,12,13,14,15,16,17,18,19,20,21,22,23,24,25,26,27,28,29,30,31,32,33,34,35,36,37,38,39,40,41,42,43,44,45,46,47,48,49,50,51,52,53,54,55,56,57,58,59,60,61,62,63,64,65,66,67,68,69,70,71,72,73,74,75,76,77,78,79,80,81,82,83,84,85,86,87,88,89,90,91,92,93,94,95,96,97,98,99,100,101,102],"tree_info":[0,0,0,0,0,0,0,0,0,0,0,0,0,0,0,0,0,0,0,0,0,0,0,0,0,0,0,0,0,0,0,0,0,0,0,0,0,0,0,0,0,0,0,0,0,0,0,0,0,0,0,0,0,0,0,0,0,0,0,0,0,0,0,0,0,0,0,0,0,0,0,0,0,0,0,0,0,0,0,0,0,0,0,0,0,0,0,0,0,0,0,0,0,0,0,0,0,0,0,0,0,0],"trees":[{"base_weights":[9.948478E-3,-4.326482E-2,5.1472173E-3,3.230621E-1,-1.1297247E-1,6.808959E-3,-3.197333E-4,-4.7855237E-1,-9.329849E-3,-2.0027265E-3,-6.7937463E-3,3.261084E-3,-8.98168E-4],"categories":[],"categories_nodes":[],"categories_segments":[],"categories_sizes":[],"default_left":[0,0,0,0,0,0,0,0,0,0,0,0,0],"id":0,"left_children":[1,3,-1,5,7,-1,-1,9,11,-1,-1,-1,-1],"loss_changes":[3.9611095E1,3.3817223E1,0E0,2.721049E1,4.2042473E1,0E0,0E0,1.3005512E1,2.3505104E1,0E0,0E0,0E0,0E0],"parents":[2147483647,0,0,1,1,3,3,4,4,7,7,8,8],"right_children":[2,4,-1,6,8,-1,-1,10,12,-1,-1,-1,-1],"split_conditions":[1.4244894E0,-1.0087546E0,5.1472173E-3,4.6651545E-1,-6.4491504E-1,6.808959E-3,-3.197333E-4,-3.2689473E-1,-7.5301987E-1,-2.0027265E-3,-6.7937463E-3,3.261084E-3,-8.98168E-4],"split_indices":[14,16,0,18,30,0,0,21,1,0,0,0,0],"split_type":[0,0,0,0,0,0,0,0,0,0,0,0,0],"sum_hessian":[1.4622544E3,1.3235623E3,1.3869215E2,2.0928548E2,1.1142767E3,1.0401912E2,1.0526635E2,2.4345963E2,8.7081714E2,1.04767456E2,1.3869215E2,1.6613126E2,7.046859E2],"tree_param":{"num_deleted":"0","num_feature":"53","num_nodes":"13","size_leaf_vector":"1"}},{"base_weights":[-3.6978894E-3,-3.7857333E-1,8.451149E-2,-1.374804E-3,-5.592502E-3,2.8946903E-1,-1.45696355E-2,8.2508825E-2,5.7708435E-3,-1.6512392E-1,2.2306156E-1,3.1269342E-3,-1.5985466E-3,-4.072978E-3,1.8815463E-4,-4.6515543E-5,5.9254137E-3],"categories":[],"categories_nodes":[],"categories_segments":[],"categories_sizes":[],"default_left":[0,0,0,0,0,0,0,0,0,0,0,0,0,0,0,0,0],"id":1,"left_children":[1,3,5,-1,-1,7,9,11,-1,13,15,-1,-1,-1,-1,-1,-1],"loss_changes":[4.9462948E1,1.1919209E1,2.4642307E1,0E0,0E0,2.3078194E1,2.9146387E1,1.3173047E1,0E0,2.2499481E1,2.6805923E1,0E0,0E0,0E0,0E0,0E0,0E0],"parents":[2147483647,0,0,1,1,2,2,5,5,6,6,7,7,9,9,10,10],"right_children":[2,4,6,-1,-1,8,10,12,-1,14,16,-1,-1,-1,-1,-1,-1],"split_conditions":[-8.412954E-1,-1.0249048E-1,-3.785365E-1,-1.374804E-3,-5.592502E-3,-5.2049124E-1,4.8015118E-1,-1.17272E0,5.7708435E-3,1.0733795E-1,5.188933E-1,3.1269342E-3,-1.5985466E-3,-4.072978E-3,1.8815463E-4,-4.6515543E-5,5.9254137E-3],"split_indices":[30,6,35,0,0,13,30,13,0,17,13,0,0,0,0,0,0],"split_type":[0,0,0,0,0,0,0,0,0,0,0,0,0,0,0,0,0],"sum_hessian":[1.4874347E3,2.831554E2,1.2042793E3,1.23991684E2,1.5916371E2,3.9284668E2,8.114327E2,2.3096364E2,1.6188303E2,4.9838733E2,3.1304532E2,1.19218544E2,1.117451E2,2.1526282E2,2.831245E2,1.940639E2,1.1898143E2],"tree_param":{"num_deleted":"0","num_feature":"53","num_nodes":"17","size_leaf_vector":"1"}},{"base_weights":[-3.995568E-3,-1.5348181E-1,1.7535019E-1,2.0836243E-2,-3.0869457E-1,5.385178E-3,4.4927843E-2,-1.5977155E-1,3.9279344E-3,-5.0405477E-4,-5.282658E-1,2.269919E-1,-1.1332836E-1,-4.469574E-3,2.486349E-3,-7.695972E-3,-2.144434E-3,5.1580644E-3,-6.755983E-4,2.103285E-3,-3.180666E-3],"categories":[],"categories_nodes":[],"categories_segments":[],"categories_sizes":[],"default_left":[0,0,0,0,0,0,0,0,0,0,0,0,0,0,0,0,0,0,0,0,0],"id":2,"left_children":[1,3,5,7,9,-1,11,13,-1,-1,15,17,19,-1,-1,-1,-1,-1,-1,-1,-1],"loss_changes":[3.9867283E1,2.2146944E1,3.1616842E1,2.5982895E1,2.4133575E1,0E0,1.4503498E1,3.063438E1,0E0,0E0,1.6749779E1,2.0240005E1,1.789013E1,0E0,0E0,0E0,0E0,0E0,0E0,0E0,0E0],"parents":[2147483647,0,0,1,1,2,2,3,3,4,4,6,6,7,7,10,10,11,11,12,12],"right_children":[2,4,6,8,10,-1,12,14,-1,-1,16,18,20,-1,-1,-1,-1,-1,-1,-1,-1],"split_conditions":[-5.0930254E-2,9.0071075E-2,-3.6356667E-1,-1.9283411E-1,-1.0180034E-1,5.385178E-3,5.6645405E-1,1.08348794E-1,3.9279344E-3,-5.0405477E-4,-5.63499E-1,-7.411357E-2,-4.4685E-1,-4.469574E-3,2.486349E-3,-7.695972E-3,-2.144434E-3,5.1580644E-3,-6.755983E-4,2.103285E-3,-3.180666E-3],"split_indices":[25,12,29,12,46,0,38,29,0,0,3,52,19,0,0,0,0,0,0,0,0],"split_type":[0,0,0,0,0,0,0,0,0,0,0,0,0,0,0,0,0,0,0,0,0],"sum_hessian":[1.4834457E3,8.107526E2,6.7269305E2,3.8117197E2,4.295807E2,1.7508057E2,4.976125E2,2.5644772E2,1.2472424E2,1.9956357E2,2.3001712E2,2.3246571E2,2.651468E2,1.5117735E2,1.0527037E2,1.2748354E2,1.0253358E2,1.1747452E2,1.1499119E2,1.017695E2,1.6337727E2],"tree_param":{"num_deleted":"0","num_feature":"53","num_nodes":"21","size_leaf_vector":"1"}},{"base_weights":[9.202177E-3,-1.2114161E-1,2.0135055E-1,-5.872566E-2,-5.6805233E-3,3.3513528E-1,-1.9692585E-3,-1.3801795E-1,2.024396E-3,1.3232209E-1,5.740244E-1,2.5456117E-3,-2.4003263E-3,3.7794148E-3,-6.333243E-4,8.033815E-3,3.339378E-3],"categories":[],"categories_nodes":[],"categories_segments":[],"categories_sizes":[],"default_left":[0,0,0,0,0,0,0,0,0,0,0,0,0,0,0,0,0],"id":3,"left_children":[1,3,5,7,-1,9,-1,11,-1,13,15,-1,-1,-1,-1,-1,-1],"loss_changes":[3.7485695E1,2.4428028E1,3.2480316E1,1.6250458E1,0E0,2.1547192E1,0E0,2.4294289E1,0E0,1.2214355E1,1.0307663E1,0E0,0E0,0E0,0E0,0E0,0E0],"parents":[2147483647,0,0,1,1,2,2,3,3,5,5,7,7,9,9,10,10],"right_children":[2,4,6,8,-1,10,-1,12,-1,14,16,-1,-1,-1,-1,-1,-1],"split_conditions":[6.267327E-2,2.3508905E-1,7.925118E-1,4.8015118E-1,-5.6805233E-3,3.9075854E-1,-1.9692585E-3,-3.3512273E-1,2.024396E-3,-1.0582133E-1,1.2958251E0,2.5456117E-3,-2.4003263E-3,3.7794148E-3,-6.333243E-4,8.033815E-3,3.339378E-3],"split_indices":[26,4,24,30,0,15,0,39,0,29,4,0,0,0,0,0,0],"split_type":[0,0,0,0,0,0,0,0,0,0,0,0,0,0,0,0,0],"sum_hessian":[1.491164E3,8.873603E2,6.0380365E2,7.81585E2,1.0577525E2,4.5315662E2,1.5064702E2,6.017465E2,1.7983849E2,2.4789684E2,2.0525978E2,1.2248816E2,4.7925836E2,1.10220795E2,1.3767604E2,1.0151064E2,1.03749146E2],"tree_param":{"num_deleted":"0","num_feature":"53","num_nodes":"17","size_leaf_vector":"1"}},{"base_weights":[-2.2078666E-3,-3.021472E-1,8.014089E-2,-2.6581594E-4,-5.4811607E-3,6.1897454E-3,2.5868693E-2,-9.114902E-2,2.0536795E-1,3.905964E-3,-1.8869842E-3,6.4530782E-3,6.283338E-4],"categories":[],"categories_nodes":[],"categories_segments":[],"categories_sizes":[],"default_left":[0,0,0,0,0,0,0,0,0,0,0,0,0],"id":4,"left_children":[1,3,5,-1,-1,-1,7,9,11,-1,-1,-1,-1],"loss_changes":[3.7014996E1,2.1586912E1,3.3889874E1,0E0,0E0,0E0,2.250176E1,3.0380236E1,2.6108227E1,0E0,0E0,0E0,0E0],"parents":[2147483647,0,0,1,1,2,2,6,6,7,7,8,8],"right_children":[2,4,6,-1,-1,-1,8,10,12,-1,-1,-1,-1],"split_conditions":[-7.19314E-1,-5.6007788E-2,-7.3368174E-1,-2.6581594E-4,-5.4811607E-3,6.1897454E-3,3.4471172E-1,-8.589869E-1,-6.862359E-1,3.905964E-3,-1.8869842E-3,6.4530782E-3,6.283338E-4],"split_indices":[30,38,18,0,0,0,17,29,9,0,0,0,0],"split_type":[0,0,0,0,0,0,0,0,0,0,0,0,0],"sum_hessian":[1.4901505E3,3.211516E2,1.1689989E3,1.5346715E2,1.6768448E2,1.0422208E2,1.0647769E3,6.4348206E2,4.2129474E2,1.0648326E2,5.369988E2,1.00508316E2,3.2078644E2],"tree_param":{"num_deleted":"0","num_feature":"53","num_nodes":"13","size_leaf_vector":"1"}},{"base_weights":[1.8212704E-2,-1.12798326E-1,2.689324E-1,2.7171916E-1,-2.4389884E-1,8.111551E-2,4.468746E-1,5.9909117E-3,-1.5088032E-3,1.131686E-2,-3.7990078E-1,3.291453E-3,-1.6326915E-3,7.4695903E-3,-2.5231324E-4,2.7213965E-3,-3.5418714E-3,-1.6781795E-3,-5.902136E-3],"categories":[],"categories_nodes":[],"categories_segments":[],"categories_sizes":[],"default_left":[0,0,0,0,0,0,0,0,0,0,0,0,0,0,0,0,0,0,0],"id":5,"left_children":[1,3,5,7,9,11,13,-1,-1,15,17,-1,-1,-1,-1,-1,-1,-1,-1],"loss_changes":[4.895414E1,4.932898E1,1.6773129E1,3.4740227E1,2.5531464E1,1.5518314E1,3.7385437E1,0E0,0E0,2.44083E1,2.0724213E1,0E0,0E0,0E0,0E0,0E0,0E0,0E0,0E0],"parents":[2147483647,0,0,1,1,2,2,3,3,4,4,5,5,6,6,9,9,10,10],"right_children":[2,4,6,8,10,12,14,-1,-1,16,18,-1,-1,-1,-1,-1,-1,-1,-1],"split_conditions":[2.605225E-1,-8.285523E-1,-1.3099621E-1,9.0071075E-2,-4.5668146E-1,8.140777E-1,4.301507E-1,5.9909117E-3,-1.5088032E-3,3.5387546E-1,-4.5051983E-1,3.291453E-3,-1.6326915E-3,7.4695903E-3,-2.5231324E-4,2.7213965E-3,-3.5418714E-3,-1.6781795E-3,-5.902136E-3],"split_indices":[25,16,20,12,8,44,45,0,0,36,21,0,0,0,0,0,0,0,0],"split_type":[0,0,0,0,0,0,0,0,0,0,0,0,0,0,0,0,0,0,0],"sum_hessian":[1.4841427E3,9.7419366E2,5.0994907E2,2.4618234E2,7.2801135E2,2.5087433E2,2.5907474E2,1.3891667E2,1.0726567E2,2.5244345E2,4.7556787E2,1.2517973E2,1.2569459E2,1.5833014E2,1.007446E2,1.4841425E2,1.040292E2,2.3976169E2,2.3580618E2],"tree_param":{"num_deleted":"0","num_feature":"53","num_nodes":"19","size_leaf_vector":"1"}},{"base_weights":[-5.9865424E-3,-1.543549E-1,1.6517025E-1,2.4130102E-3,-2.8616723E-1,3.741294E-1,-6.485299E-2,5.506248E-4,-4.5102134E-1,5.299999E-1,9.654317E-4,-2.8863733E-3,1.677592E-3,-1.8395473E-3,-8.753884E-3,3.2806944E-3,6.9446266E-3],"categories":[],"categories_nodes":[],"categories_segments":[],"categories_sizes":[],"default_left":[0,0,0,0,0,0,0,0,0,0,0,0,0,0,0,0,0],"id":6,"left_children":[1,3,5,-1,7,9,11,-1,13,15,-1,-1,-1,-1,-1,-1,-1],"loss_changes":[3.7607677E1,4.1617676E1,3.31873E1,0E0,3.3894787E1,1.520462E1,1.7190619E1,0E0,4.499238E1,6.6579514E0,0E0,0E0,0E0,0E0,0E0,0E0,0E0],"parents":[2147483647,0,0,1,1,2,2,4,4,5,5,6,6,8,8,9,9],"right_children":[2,4,6,-1,8,10,12,-1,14,16,-1,-1,-1,-1,-1,-1,-1],"split_conditions":[-6.3705765E-2,-8.285523E-1,4.546651E-1,2.4130102E-3,-6.9069564E-1,5.314118E-1,4.038395E-1,5.506248E-4,1.9137686E-1,-3.9625508E-1,9.654317E-4,-2.8863733E-3,1.677592E-3,-1.8395473E-3,-8.753884E-3,3.2806944E-3,6.9446266E-3],"split_indices":[25,16,28,0,22,0,15,0,24,22,0,0,0,0,0,0,0],"split_type":[0,0,0,0,0,0,0,0,0,0,0,0,0,0,0,0,0],"sum_hessian":[1.4771575E3,7.9292395E2,6.842336E2,1.9678563E2,5.961383E2,3.590153E2,3.2521826E2,1.936348E2,4.0250354E2,2.2759569E2,1.3141962E2,1.6660443E2,1.5861385E2,2.4951907E2,1.5298445E2,1.0621395E2,1.2138173E2],"tree_param":{"num_deleted":"0","num_feature":"53","num_nodes":"17","size_leaf_vector":"1"}},{"base_weights":[1.7447349E-2,-1.4398022E-1,1.4127214E-1,2.7277588E-3,-2.4865483E-1,-2.6322077E-3,1.9880573E-1,-7.081356E-2,-5.508166E-3,2.737178E-1,-1.1483957E-3,-2.9376564E-3,3.0174076E-3,4.214394E-3,1.1947375E-3],"categories":[],"categories_nodes":[],"categories_segments":[],"categories_sizes":[],"default_left":[0,0,0,0,0,0,0,0,0,0,0,0,0,0,0],"id":7,"left_children":[1,3,5,-1,7,-1,9,11,-1,13,-1,-1,-1,-1,-1],"loss_changes":[2.9933931E1,2.8411373E1,1.9833208E1,0E0,2.7569431E1,0E0,1.7660995E1,2.7654564E1,0E0,1.3385094E1,0E0,0E0,0E0,0E0,0E0],"parents":[2147483647,0,0,1,1,2,2,4,4,6,6,7,7,9,9],"right_children":[2,4,6,-1,8,-1,10,12,-1,14,-1,-1,-1,-1,-1],"split_conditions":[-4.1331545E-1,-1.0087546E0,-8.0084795E-1,2.7277588E-3,2.3225626E-1,-2.6322077E-3,9.0499324E-1,-3.3551866E-1,-5.508166E-3,9.783693E-2,-1.1483957E-3,-2.9376564E-3,3.0174076E-3,4.214394E-3,1.1947375E-3],"split_indices":[3,16,20,0,24,0,16,15,0,12,0,0,0,0,0],"split_type":[0,0,0,0,0,0,0,0,0,0,0,0,0,0,0],"sum_hessian":[1.4935726E3,6.4644867E2,8.4712396E2,1.2816766E2,5.18281E2,1.0351508E2,7.436089E2,3.2885345E2,1.8942754E2,6.017369E2,1.4187204E2,2.0683801E2,1.2201546E2,3.0394168E2,2.977952E2],"tree_param":{"num_deleted":"0","num_feature":"53","num_nodes":"15","size_leaf_vector":"1"}},{"base_weights":[-2.3782864E-2,-3.411078E-1,6.342163E-2,4.7515295E-4,-5.212846E-1,1.1697384E-3,5.126096E-3,-2.762894E-3,-7.45012E-3,3.3530511E-3,-6.850944E-2,-3.1845293E-3,5.524186E-4],"categories":[],"categories_nodes":[],"categories_segments":[],"categories_sizes":[],"default_left":[0,0,0,0,0,0,0,0,0,0,0,0,0],"id":8,"left_children":[1,3,5,-1,7,9,-1,-1,-1,-1,11,-1,-1],"loss_changes":[4.105664E1,2.2690876E1,3.2154465E1,0E0,1.1117664E1,2.3951138E1,0E0,0E0,0E0,0E0,2.6311611E1,0E0,0E0],"parents":[2147483647,0,0,1,1,2,2,4,4,5,5,10,10],"right_children":[2,4,6,-1,8,10,-1,-1,-1,-1,12,-1,-1],"split_conditions":[-7.19314E-1,9.783693E-2,1.298279E0,4.7515295E-4,-4.4953782E-2,-7.157955E-1,5.126096E-3,-2.762894E-3,-7.45012E-3,3.3530511E-3,-1.0511496E-1,-3.1845293E-3,5.524186E-4],"split_indices":[30,12,44,0,15,17,0,0,0,0,17,0,0],"split_type":[0,0,0,0,0,0,0,0,0,0,0,0,0],"sum_hessian":[1.4750996E3,3.1796823E2,1.1571313E3,1.0030913E2,2.1765909E2,1.0190254E3,1.3810597E2,1.0709178E2,1.1056731E2,1.757579E2,8.4326746E2,2.7954913E2,5.637183E2],"tree_param":{"num_deleted":"0","num_feature":"53","num_nodes":"13","size_leaf_vector":"1"}},{"base_weights":[-2.5956847E-2,2.3827454E-1,-1.0057265E-1,6.314925E-3,-2.3136393E-3,-2.8323156E-1,8.937888E-2,-6.4137554E-1,-9.585123E-2,4.3781614E-3,-2.191657E-3,-5.039626E-3,-7.6128915E-3,3.3695335E-3,-3.4899511E-3,3.290102E-3,-1.0835226E-3],"categories":[],"categories_nodes":[],"categories_segments":[],"categories_sizes":[],"default_left":[0,0,0,0,0,0,0,0,0,0,0,0,0,0,0,0,0],"id":9,"left_children":[1,3,5,-1,-1,7,9,11,13,-1,15,-1,-1,-1,-1,-1,-1],"loss_changes":[2.9189598E1,6.057814E1,4.033313E1,0E0,0E0,3.925447E1,1.8341022E1,1.9312744E0,4.3199783E1,0E0,1.5804527E1,0E0,0E0,0E0,0E0,0E0,0E0],"parents":[2147483647,0,0,1,1,2,2,5,5,6,6,7,7,8,8,10,10],"right_children":[2,4,6,-1,-1,8,10,12,14,-1,16,-1,-1,-1,-1,-1,-1],"split_conditions":[-8.285523E-1,9.0071075E-2,-5.0930254E-2,6.314925E-3,-2.3136393E-3,1.9378703E-3,-5.2649343E-1,-6.646984E-2,-6.9069564E-1,4.3781614E-3,-9.0125567E-1,-5.039626E-3,-7.6128915E-3,3.3695335E-3,-3.4899511E-3,3.290102E-3,-1.0835226E-3],"split_indices":[16,12,25,0,0,18,18,45,22,0,22,0,0,0,0,0,0],"split_type":[0,0,0,0,0,0,0,0,0,0,0,0,0,0,0,0,0],"sum_hessian":[1.4795764E3,3.2336838E2,1.156208E3,1.7620837E2,1.4715999E2,5.902597E2,5.659483E2,2.0016536E2,3.9009433E2,1.1734269E2,4.4860562E2,1.0006858E2,1.0009677E2,1.4298798E2,2.4710635E2,1.0672736E2,3.4187827E2],"tree_param":{"num_deleted":"0","num_feature":"53","num_nodes":"17","size_leaf_vector":"1"}},{"base_weights":[6.735908E-3,2.6898998E-1,-7.094893E-2,9.6759744E-2,5.4940437E-3,-1.7678863E-1,2.0170774E-1,3.2804543E-3,-1.1876238E-3,4.857176E-2,-3.6757085E-1,-4.392328E-4,4.1222307E-3,1.7412106E-3,-2.7712658E-3,-6.9444685E-4,-4.9709184E-3],"categories":[],"categories_nodes":[],"categories_segments":[],"categories_sizes":[],"default_left":[0,0,0,0,0,0,0,0,0,0,0,0,0,0,0,0,0],"id":10,"left_children":[1,3,5,7,-1,9,11,-1,-1,13,15,-1,-1,-1,-1,-1,-1],"loss_changes":[3.0286108E1,1.5994507E1,3.300783E1,1.08601055E1,0E0,3.566066E1,1.6709745E1,0E0,0E0,1.5531889E1,1.6952168E1,0E0,0E0,0E0,0E0,0E0,0E0],"parents":[2147483647,0,0,1,1,2,2,3,3,5,5,6,6,9,9,10,10],"right_children":[2,4,6,8,-1,10,12,-1,-1,14,16,-1,-1,-1,-1,-1,-1],"split_conditions":[-5.2353716E-1,5.4773714E-2,5.292678E-1,-6.519041E-1,5.4940437E-3,1.5917616E-2,-1.9151337E-1,3.2804543E-3,-1.1876238E-3,2.5161427E-1,-6.9069564E-1,-4.392328E-4,4.1222307E-3,1.7412106E-3,-2.7712658E-3,-6.9444685E-4,-4.9709184E-3],"split_indices":[42,20,30,52,0,52,14,0,0,14,22,0,0,0,0,0,0],"split_type":[0,0,0,0,0,0,0,0,0,0,0,0,0,0,0,0,0],"sum_hessian":[1.4778348E3,3.3806882E2,1.139766E3,2.1220558E2,1.2586324E2,8.2287854E2,3.1688748E2,1.02974815E2,1.09230774E2,3.767339E2,4.4614468E2,1.4588051E2,1.7100699E2,2.7369617E2,1.03037704E2,1.3722302E2,3.0892166E2],"tree_param":{"num_deleted":"0","num_feature":"53","num_nodes":"17","size_leaf_vector":"1"}},{"base_weights":[2.6915316E-3,-1.1870928E-1,2.1009183E-1,1.9306155E-1,-2.647937E-1,4.9892077E-1,4.07123E-2,-1.38262585E-5,4.7041536E-3,2.0927778E-3,-3.7957326E-1,1.723732E-3,8.1184395E-3,2.524286E-3,-1.4789078E-3,8.258115E-4,-5.024283E-3],"categories":[],"categories_nodes":[],"categories_segments":[],"categories_sizes":[],"default_left":[0,0,0,0,0,0,0,0,0,0,0,0,0,0,0,0,0],"id":11,"left_children":[1,3,5,7,9,11,13,-1,-1,-1,15,-1,-1,-1,-1,-1,-1],"loss_changes":[3.7644146E1,4.2969856E1,2.6736471E1,1.6421267E1,3.519446E1,1.9981606E1,1.4172897E1,0E0,0E0,0E0,2.9741959E1,0E0,0E0,0E0,0E0,0E0,0E0],"parents":[2147483647,0,0,1,1,2,2,3,3,4,4,5,5,6,6,10,10],"right_children":[2,4,6,8,10,12,14,-1,-1,-1,16,-1,-1,-1,-1,-1,-1],"split_conditions":[1.3273545E-1,-6.9069564E-1,-4.6829876E-1,2.2757769E-1,-1.0026302E0,-1.3145654E-1,1.5365824E-1,-1.38262585E-5,4.7041536E-3,2.0927778E-3,-5.57462E-1,1.723732E-3,8.1184395E-3,2.524286E-3,-1.4789078E-3,8.258115E-4,-5.024283E-3],"split_indices":[26,22,7,28,16,20,28,0,0,0,2,0,0,0,0,0,0],"split_type":[0,0,0,0,0,0,0,0,0,0,0,0,0,0,0,0,0],"sum_hessian":[1.4892913E3,9.3843E2,5.508612E2,2.981205E2,6.403095E2,2.010996E2,3.4976163E2,1.753649E2,1.2275562E2,1.2363983E2,5.166697E2,1.00707214E2,1.0039237E2,1.6571385E2,1.8404778E2,1.07786385E2,4.0888327E2],"tree_param":{"num_deleted":"0","num_feature":"53","num_nodes":"17","size_leaf_vector":"1"}},{"base_weights":[5.8218907E-3,5.350676E-3,-4.197345E-2,1.0172687E-1,-1.8668686E-1,-4.8653267E-2,3.1834498E-1,-3.102203E-1,8.8051766E-2,2.6655027E-3,-2.340829E-3,-0E0,5.018199E-3,-1.8029782E-3,-7.6655024E-3,3.5944625E-3,-1.7715183E-3],"categories":[],"categories_nodes":[],"categories_segments":[],"categories_sizes":[],"default_left":[0,0,0,0,0,0,0,0,0,0,0,0,0,0,0,0,0],"id":12,"left_children":[1,-1,3,5,7,9,11,13,15,-1,-1,-1,-1,-1,-1,-1,-1],"loss_changes":[3.7943874E1,0E0,2.8491116E1,2.2481731E1,2.3351097E1,2.376395E1,1.6720823E1,2.7289944E1,1.5491153E1,0E0,0E0,0E0,0E0,0E0,0E0,0E0,0E0],"parents":[2147483647,0,0,2,2,3,3,4,4,5,5,6,6,7,7,8,8],"right_children":[2,-1,4,6,8,10,12,14,16,-1,-1,-1,-1,-1,-1,-1,-1],"split_conditions":[-7.576313E-1,5.350676E-3,1.3854137E-2,3.4471172E-1,4.8015118E-1,-3.5724542E-1,-4.9226734E-1,6.7183554E-1,-8.202443E-2,2.6655027E-3,-2.340829E-3,-0E0,5.018199E-3,-1.8029782E-3,-7.6655024E-3,3.5944625E-3,-1.7715183E-3],"split_indices":[18,0,35,17,30,28,30,16,28,0,0,0,0,0,0,0,0],"split_type":[0,0,0,0,0,0,0,0,0,0,0,0,0,0,0,0,0],"sum_hessian":[1.4865037E3,1.2230223E2,1.3642014E3,6.8306116E2,6.811403E2,4.027249E2,2.803362E2,4.7094586E2,2.1019444E2,1.4784258E2,2.5488235E2,1.02314026E2,1.7802217E2,3.6960184E2,1.01344055E2,1.0446522E2,1.0572922E2],"tree_param":{"num_deleted":"0","num_feature":"53","num_nodes":"17","size_leaf_vector":"1"}},{"base_weights":[-6.6409674E-3,-1.6283026E-1,1.1805274E-1,1.5932451E-1,-3.220653E-1,2.7487227E-1,-1.3773039E-1,-2.8550227E-3,5.5923043E-3,9.300352E-4,-4.7882843E-1,7.758715E-2,5.806908E-3,2.0009011E-3,-3.3892875E-3,6.3039945E-4,-7.3000547E-3,2.9779498E-3,-2.3676078E-3],"categories":[],"categories_nodes":[],"categories_segments":[],"categories_sizes":[],"default_left":[0,0,0,0,0,0,0,0,0,0,0,0,0,0,0,0,0,0,0],"id":13,"left_children":[1,3,5,7,9,11,13,-1,-1,-1,15,17,-1,-1,-1,-1,-1,-1,-1],"loss_changes":[2.9054869E1,3.42212E1,3.3324944E1,3.9552273E1,2.9284946E1,3.0633484E1,2.1582607E1,0E0,0E0,0E0,4.4624397E1,2.2056767E1,0E0,0E0,0E0,0E0,0E0,0E0,0E0],"parents":[2147483647,0,0,1,1,2,2,3,3,4,4,5,5,6,6,10,10,11,11],"right_children":[2,4,6,8,10,12,14,-1,-1,-1,16,18,-1,-1,-1,-1,-1,-1,-1],"split_conditions":[-3.7739745E-1,-6.8726605E-1,4.6614906E-1,-9.927828E-1,-3.9455286E-1,5.4773714E-2,-6.070091E-1,-2.8550227E-3,5.5923043E-3,9.300352E-4,-3.2983223E-1,6.2708646E-1,5.806908E-3,2.0009011E-3,-3.3892875E-3,6.3039945E-4,-7.3000547E-3,2.9779498E-3,-2.3676078E-3],"split_indices":[3,22,35,22,17,20,21,0,0,0,2,28,0,0,0,0,0,0,0],"split_type":[0,0,0,0,0,0,0,0,0,0,0,0,0,0,0,0,0,0,0],"sum_hessian":[1.4867194E3,6.615149E2,8.252045E2,2.1777814E2,4.4373676E2,5.1268506E2,3.1251947E2,1.0277757E2,1.15000565E2,1.20995476E2,3.2274127E2,3.141607E2,1.9852434E2,1.1572996E2,1.9678952E2,1.0206413E2,2.2067715E2,1.857409E2,1.284198E2],"tree_param":{"num_deleted":"0","num_feature":"53","num_nodes":"19","size_leaf_vector":"1"}},{"base_weights":[-1.3109401E-2,-1.3504936E-1,1.6158244E-1,1.7807789E-3,-1.9778335E-1,5.169108E-1,-7.252323E-2,5.048989E-2,-3.1495997E-1,7.978058E-3,1.7255654E-3,3.4127226E-3,-2.854289E-1,-1.206225E-3,2.3617612E-3,-6.663713E-3,-9.978338E-4,-8.40161E-5,-6.2502422E-3],"categories":[],"categories_nodes":[],"categories_segments":[],"categories_sizes":[],"default_left":[0,0,0,0,0,0,0,0,0,0,0,0,0,0,0,0,0,0,0],"id":14,"left_children":[1,3,5,-1,7,9,11,13,15,-1,-1,-1,17,-1,-1,-1,-1,-1,-1],"loss_changes":[3.1816256E1,1.7396933E1,5.1258022E1,0E0,2.1595364E1,2.2880722E1,3.2782562E1,7.631079E0,3.7451763E1,0E0,0E0,0E0,2.2846857E1,0E0,0E0,0E0,0E0,0E0,0E0],"parents":[2147483647,0,0,1,1,2,2,4,4,5,5,6,6,7,7,8,8,12,12],"right_children":[2,4,6,-1,8,10,12,14,16,-1,-1,-1,18,-1,-1,-1,-1,-1,-1],"split_conditions":[5.4773714E-2,-7.9525095E-1,9.0071075E-2,1.7807789E-3,-7.2668284E-1,-3.5313662E-2,-1.8217668E-1,1.7898948E-1,-7.242871E-2,7.978058E-3,1.7255654E-3,3.4127226E-3,-2.722867E-1,-1.206225E-3,2.3617612E-3,-6.663713E-3,-9.978338E-4,-8.40161E-5,-6.2502422E-3],"split_indices":[20,2,12,0,26,19,42,17,25,0,0,0,21,0,0,0,0,0,0],"split_type":[0,0,0,0,0,0,0,0,0,0,0,0,0,0,0,0,0,0,0],"sum_hessian":[1.4901608E3,8.795355E2,6.106252E2,1.4485689E2,7.3467865E2,2.4241084E2,3.6821432E2,2.3456169E2,5.0011697E2,1.3125693E2,1.1115392E2,1.2388391E2,2.4433043E2,1.2103467E2,1.13527016E2,1.8745734E2,3.1265964E2,1.3650078E2,1.0782965E2],"tree_param":{"num_deleted":"0","num_feature":"53","num_nodes":"19","size_leaf_vector":"1"}},{"base_weights":[-1.14445845E-2,-3.3249086E-1,6.662425E-2,-3.7403154E-4,-5.017511E-3,-5.990167E-2,1.8948616E-1,6.9254376E-2,-3.4706912E-3,3.692511E-1,-5.024994E-2,-8.670484E-4,4.1084555E-3,5.222167E-3,9.0328505E-4,-2.5878586E-3,9.5510326E-4],"categories":[],"categories_nodes":[],"categories_segments":[],"categories_sizes":[],"default_left":[0,0,0,0,0,0,0,0,0,0,0,0,0,0,0,0,0],"id":15,"left_children":[1,3,5,-1,-1,7,9,11,-1,13,15,-1,-1,-1,-1,-1,-1],"loss_changes":[3.7625114E1,1.436927E1,1.8776985E1,0E0,0E0,2.2137093E1,2.6590857E1,2.200563E1,0E0,1.4593517E1,8.125782E0,0E0,0E0,0E0,0E0,0E0,0E0],"parents":[2147483647,0,0,1,1,2,2,5,5,6,6,7,7,9,9,10,10],"right_children":[2,4,6,-1,-1,8,10,12,-1,14,16,-1,-1,-1,-1,-1,-1],"split_conditions":[-7.958704E-1,-6.7846966E-1,-5.601073E-2,-3.7403154E-4,-5.017511E-3,-4.1536397E-1,4.546651E-1,4.9901676E-1,-3.4706912E-3,2.8697267E-1,-3.2221702E-1,-8.670484E-4,4.1084555E-3,5.222167E-3,9.0328505E-4,-2.5878586E-3,9.5510326E-4],"split_indices":[30,38,25,0,0,25,28,28,0,5,31,0,0,0,0,0,0],"split_type":[0,0,0,0,0,0,0,0,0,0,0,0,0,0,0,0,0],"sum_hessian":[1.4921078E3,2.918413E2,1.2002665E3,1.0834648E2,1.8349483E2,5.898161E2,6.104504E2,4.066833E2,1.831328E2,3.494341E2,2.610163E2,2.7922638E2,1.274569E2,2.2338763E2,1.2604647E2,1.0815739E2,1.528589E2],"tree_param":{"num_deleted":"0","num_feature":"53","num_nodes":"17","size_leaf_vector":"1"}},{"base_weights":[1.4832987E-3,-4.37589E-3,4.8281126E-2,-6.293565E-2,2.166927E-1,2.6890787E-3,-1.2858376E-1,6.3441384E-1,-4.6385214E-2,1.3577166E-3,-2.1991862E-3,8.819503E-3,3.7110155E-3,3.2553552E-3,-2.214759E-3],"categories":[],"categories_nodes":[],"categories_segments":[],"categories_sizes":[],"default_left":[0,0,0,0,0,0,0,0,0,0,0,0,0,0,0],"id":16,"left_children":[1,-1,3,5,7,-1,9,11,13,-1,-1,-1,-1,-1,-1],"loss_changes":[2.9963478E1,0E0,2.4965172E1,1.7408783E1,5.8613342E1,0E0,1.6273815E1,1.2128647E1,2.1348545E1,0E0,0E0,0E0,0E0,0E0,0E0],"parents":[2147483647,0,0,2,2,3,3,4,4,6,6,7,7,8,8],"right_children":[2,-1,4,6,8,-1,10,12,14,-1,-1,-1,-1,-1,-1],"split_conditions":[-1.6312532E0,-4.37589E-3,5.4773714E-2,-7.9525095E-1,-1.499932E-1,2.6890787E-3,-7.080936E-1,4.5286566E-1,9.783693E-2,1.3577166E-3,-2.1991862E-3,8.819503E-3,3.7110155E-3,3.2553552E-3,-2.214759E-3],"split_indices":[30,0,20,2,47,0,16,20,12,0,0,0,0,0,0],"split_type":[0,0,0,0,0,0,0,0,0,0,0,0,0,0,0],"sum_hessian":[1.4636619E3,1.3833864E2,1.3253231E3,7.971678E2,5.281554E2,1.293764E2,6.677914E2,2.0373611E2,3.2441928E2,1.6982123E2,4.9797015E2,1.0161312E2,1.0212299E2,1.02377945E2,2.2204135E2],"tree_param":{"num_deleted":"0","num_feature":"53","num_nodes":"15","size_leaf_vector":"1"}},{"base_weights":[1.3046042E-4,-1.6327311E-1,1.3129888E-1,-2.5745636E-1,2.4988023E-3,2.53272E-1,-1.4033341E-1,-9.0258315E-2,-4.890587E-1,-1.6046566E-3,3.7589377E-1,3.0666497E-3,-4.433756E-3,1.5783054E-3,-2.129012E-3,-8.236005E-3,-1.8063609E-3,1.9332043E-4,5.6727654E-3],"categories":[],"categories_nodes":[],"categories_segments":[],"categories_sizes":[],"default_left":[0,0,0,0,0,0,0,0,0,0,0,0,0,0,0,0,0,0,0],"id":17,"left_children":[1,3,5,7,-1,9,11,13,15,-1,17,-1,-1,-1,-1,-1,-1,-1,-1],"loss_changes":[3.154776E1,2.5582893E1,2.7249075E1,2.0323635E1,0E0,2.898933E1,3.4704723E1,9.653909E0,2.2150318E1,0E0,2.9630512E1,0E0,0E0,0E0,0E0,0E0,0E0,0E0,0E0],"parents":[2147483647,0,0,1,1,2,2,3,3,5,5,6,6,7,7,8,8,10,10],"right_children":[2,4,6,8,-1,10,12,14,16,-1,18,-1,-1,-1,-1,-1,-1,-1,-1],"split_conditions":[-3.7739745E-1,5.9043175E-1,7.485811E-1,1.6438118E-1,2.4988023E-3,-1.308906E0,-5.164337E-1,-7.080936E-1,-2.5200713E-1,-1.6046566E-3,-4.9413607E-1,3.0666497E-3,-4.433756E-3,1.5783054E-3,-2.129012E-3,-8.236005E-3,-1.8063609E-3,1.9332043E-4,5.6727654E-3],"split_indices":[3,30,35,52,0,45,21,16,20,0,21,0,0,0,0,0,0,0,0],"split_type":[0,0,0,0,0,0,0,0,0,0,0,0,0,0,0,0,0,0,0],"sum_hessian":[1.4686432E3,6.520491E2,8.1659406E2,5.3260034E2,1.1944872E2,5.64906E2,2.5168811E2,3.1217422E2,2.2042613E2,1.2807472E2,4.3683127E2,1.01014366E2,1.5067374E2,1.0173279E2,2.1044145E2,1.0335571E2,1.1707041E2,1.5425543E2,2.8257584E2],"tree_param":{"num_deleted":"0","num_feature":"53","num_nodes":"19","size_leaf_vector":"1"}},{"base_weights":[-2.2115298E-3,-1.0916499E-1,2.4759519E-1,-3.7097475E-1,-2.711469E-2,3.6895365E-1,-1.7053394E-4,1.7723361E-4,-6.3711796E-3,-2.4369565E-1,1.0511035E-1,1.0840349E-3,5.891748E-3,9.1503724E-4,-5.838412E-3,3.889958E-3,-8.113913E-4],"categories":[],"categories_nodes":[],"categories_segments":[],"categories_sizes":[],"default_left":[0,0,0,0,0,0,0,0,0,0,0,0,0,0,0,0,0],"id":18,"left_children":[1,3,5,7,9,11,-1,-1,-1,13,15,-1,-1,-1,-1,-1,-1],"loss_changes":[3.994789E1,2.2339254E1,1.456501E1,2.6087563E1,2.3121061E1,1.7211979E1,0E0,0E0,0E0,3.5298946E1,2.658323E1,0E0,0E0,0E0,0E0,0E0,0E0],"parents":[2147483647,0,0,1,1,2,2,3,3,4,4,5,5,9,9,10,10],"right_children":[2,4,6,8,10,12,-1,-1,-1,14,16,-1,-1,-1,-1,-1,-1],"split_conditions":[3.8998082E-1,-7.958704E-1,5.941418E-1,-6.7846966E-1,-1.313104E-1,3.9075854E-1,-1.7053394E-4,1.7723361E-4,-6.3711796E-3,8.468627E-1,-2.7960834E-1,1.0840349E-3,5.891748E-3,9.1503724E-4,-5.838412E-3,3.889958E-3,-8.113913E-4],"split_indices":[25,30,24,38,17,15,0,0,0,39,46,0,0,0,0,0,0],"split_type":[0,0,0,0,0,0,0,0,0,0,0,0,0,0,0,0,0],"sum_hessian":[1.4937522E3,1.0481288E3,4.4562338E2,2.469651E2,8.0116364E2,3.0627676E2,1.3934663E2,1.00367714E2,1.4659738E2,3.0449863E2,4.96665E2,1.426996E2,1.6357716E2,1.5336037E2,1.5113828E2,1.9696071E2,2.997043E2],"tree_param":{"num_deleted":"0","num_feature":"53","num_nodes":"17","size_leaf_vector":"1"}},{"base_weights":[3.9726932E-4,2.914429E-1,-7.367066E-2,7.445622E-4,5.601149E-3,1.7310458E-1,-1.805872E-1,-3.0163222E-3,3.652849E-1,1.0332669E-1,-3.107172E-1,6.6296556E-3,6.570553E-4,3.2221202E-3,-2.134563E-3,-3.5313595E-5,-4.160346E-3],"categories":[],"categories_nodes":[],"categories_segments":[],"categories_sizes":[],"default_left":[0,0,0,0,0,0,0,0,0,0,0,0,0,0,0,0,0],"id":19,"left_children":[1,3,5,-1,-1,7,9,-1,11,13,15,-1,-1,-1,-1,-1,-1],"loss_changes":[3.1976084E1,1.7161886E1,3.1121178E1,0E0,0E0,3.2677654E1,3.0596928E1,0E0,2.2257572E1,1.8160992E1,1.8113625E1,0E0,0E0,0E0,0E0,0E0,0E0],"parents":[2147483647,0,0,1,1,2,2,5,5,6,6,8,8,9,9,10,10],"right_children":[2,4,6,-1,-1,8,10,-1,12,14,16,-1,-1,-1,-1,-1,-1],"split_conditions":[-6.648401E-1,-1.402842E-1,-6.9069564E-1,7.445622E-4,5.601149E-3,-1.5814875E-1,-4.385347E-1,-3.0163222E-3,2.5389898E-1,-5.7767827E-2,-3.565352E-1,6.6296556E-3,6.570553E-4,3.2221202E-3,-2.134563E-3,-3.5313595E-5,-4.160346E-3],"split_indices":[2,22,22,0,0,17,18,0,47,5,1,0,0,0,0,0,0],"split_type":[0,0,0,0,0,0,0,0,0,0,0,0,0,0,0,0,0],"sum_hessian":[1.474274E3,2.9925397E2,1.17502E3,1.6799335E2,1.3126062E2,3.5340573E2,8.216143E2,1.00760216E2,2.5264551E2,2.5714734E2,5.6446704E2,1.2467031E2,1.2797519E2,1.5298468E2,1.0416267E2,1.4585558E2,4.1861145E2],"tree_param":{"num_deleted":"0","num_feature":"53","num_nodes":"17","size_leaf_vector":"1"}},{"base_weights":[-1.847766E-2,-1.6437137E-1,1.0977881E-1,-2.8448778E-1,1.8012249E-3,1.7992058E-1,-2.3406344E-3,-1.19008906E-1,-5.398041E-3,6.682821E-2,5.830831E-3,-2.9944496E-3,8.7408733E-4,1.801643E-3,-3.5103792E-3],"categories":[],"categories_nodes":[],"categories_segments":[],"categories_sizes":[],"default_left":[0,0,0,0,0,0,0,0,0,0,0,0,0,0,0],"id":20,"left_children":[1,3,5,7,-1,9,-1,11,-1,13,-1,-1,-1,-1,-1],"loss_changes":[2.763529E1,2.8788273E1,1.8953981E1,2.1297672E1,0E0,2.9375406E1,0E0,1.1934809E1,0E0,2.4348938E1,0E0,0E0,0E0,0E0,0E0],"parents":[2147483647,0,0,1,1,2,2,3,3,5,5,7,7,9,9],"right_children":[2,4,6,8,-1,10,-1,12,-1,14,-1,-1,-1,-1,-1],"split_conditions":[-3.3577198E-1,4.4297418E-1,1.0808948E0,2.1226725E-1,1.8012249E-3,4.3128633E-1,-2.3406344E-3,2.820897E-1,-5.398041E-3,1.5056325E-1,5.830831E-3,-2.9944496E-3,8.7408733E-4,1.801643E-3,-3.5103792E-3],"split_indices":[3,30,13,52,0,13,0,29,0,47,0,0,0,0,0],"split_type":[0,0,0,0,0,0,0,0,0,0,0,0,0,0,0],"sum_hessian":[1.4715028E3,6.899778E2,7.81525E2,5.129312E2,1.7704655E2,6.5111005E2,1.3041496E2,3.1418695E2,1.9874426E2,5.112652E2,1.3984486E2,1.684556E2,1.4573134E2,4.0401904E2,1.07246155E2],"tree_param":{"num_deleted":"0","num_feature":"53","num_nodes":"15","size_leaf_vector":"1"}},{"base_weights":[-2.0927482E-3,1.9316797E-1,-9.793765E-2,3.6757973E-1,-4.6224643E-2,-1.9659087E-1,1.4703193E-1,1.3383686E-3,5.807391E-3,-3.679008E-3,2.7585125E-3,6.059347E-2,-3.051629E-1,-5.6684256E-4,4.1173375E-3,-1.6671426E-3,2.7665242E-3,-1.0106957E-3,-4.2185416E-3],"categories":[],"categories_nodes":[],"categories_segments":[],"categories_sizes":[],"default_left":[0,0,0,0,0,0,0,0,0,0,0,0,0,0,0,0,0,0,0],"id":21,"left_children":[1,3,5,7,9,11,13,-1,-1,-1,-1,15,17,-1,-1,-1,-1,-1,-1],"loss_changes":[2.8102835E1,2.0801146E1,2.4506516E1,1.3784374E1,2.185926E1,2.0341787E1,1.5853456E1,0E0,0E0,0E0,0E0,1.0699236E1,1.1797817E1,0E0,0E0,0E0,0E0,0E0,0E0],"parents":[2147483647,0,0,1,1,2,2,3,3,4,4,5,5,6,6,11,11,12,12],"right_children":[2,4,6,8,10,12,14,-1,-1,-1,-1,16,18,-1,-1,-1,-1,-1,-1],"split_conditions":[-3.1218386E-1,4.4307464E-1,4.9885905E-1,-2.6350486E-1,4.3184468E-1,-6.8849486E-1,8.468627E-1,1.3383686E-3,5.807391E-3,-3.679008E-3,2.7585125E-3,-1.2160789E0,-7.08355E-1,-5.6684256E-4,4.1173375E-3,-1.6671426E-3,2.7665242E-3,-1.0106957E-3,-4.2185416E-3],"split_indices":[35,5,30,22,3,21,39,0,0,0,0,21,5,0,0,0,0,0,0],"split_type":[0,0,0,0,0,0,0,0,0,0,0,0,0,0,0,0,0,0,0],"sum_hessian":[1.5001641E3,4.9153442E2,1.00862964E3,2.8494946E2,2.0658495E2,7.207913E2,2.878383E2,1.3858432E2,1.4636514E2,1.03990944E2,1.0259401E2,2.1285684E2,5.079345E2,1.6247743E2,1.2536086E2,1.0282305E2,1.1003379E2,1.876868E2,3.202477E2],"tree_param":{"num_deleted":"0","num_feature":"53","num_nodes":"19","size_leaf_vector":"1"}},{"base_weights":[1.2465755E-2,-1.09711915E-1,2.4243069E-1,2.4743253E-1,-2.2600994E-1,4.666541E-1,6.5294944E-2,6.0269963E-3,-1.933958E-3,-1.2875947E-1,-5.753696E-3,6.8571465E-3,2.753338E-3,4.2690486E-3,-1.2765952E-3,-2.711537E-3,2.8110885E-3],"categories":[],"categories_nodes":[],"categories_segments":[],"categories_sizes":[],"default_left":[0,0,0,0,0,0,0,0,0,0,0,0,0,0,0,0,0],"id":22,"left_children":[1,3,5,7,9,11,13,-1,-1,15,-1,-1,-1,-1,-1,-1,-1],"loss_changes":[4.170016E1,4.024113E1,2.0148008E1,3.7600296E1,2.4339802E1,8.611305E0,2.0602335E1,0E0,0E0,3.3741844E1,0E0,0E0,0E0,0E0,0E0,0E0,0E0],"parents":[2147483647,0,0,1,1,2,2,3,3,4,4,5,5,6,6,9,9],"right_children":[2,4,6,8,10,12,14,-1,-1,16,-1,-1,-1,-1,-1,-1,-1],"split_conditions":[2.4983026E-1,-8.285523E-1,8.4895976E-2,9.0071075E-2,1.9935182E-1,-1.1083927E-2,-6.111035E-1,6.0269963E-3,-1.933958E-3,2.2460938E-1,-5.753696E-3,6.8571465E-3,2.753338E-3,4.2690486E-3,-1.2765952E-3,-2.711537E-3,2.8110885E-3],"split_indices":[25,16,28,12,22,36,35,0,0,20,0,0,0,0,0,0,0],"split_type":[0,0,0,0,0,0,0,0,0,0,0,0,0,0,0,0,0],"sum_hessian":[1.477917E3,9.644093E2,5.1350775E2,2.3529073E2,7.291186E2,2.2394293E2,2.8956482E2,1.3051083E2,1.0477989E2,5.736119E2,1.5550671E2,1.0077475E2,1.2316818E2,1.008087E2,1.887561E2,4.2712067E2,1.4649118E2],"tree_param":{"num_deleted":"0","num_feature":"53","num_nodes":"17","size_leaf_vector":"1"}},{"base_weights":[6.201137E-3,2.3493238E-1,-9.043745E-2,5.3728234E-2,4.7505167E-3,1.3819347E-1,-1.9485167E-1,3.3587674E-3,-2.5197708E-3,3.9787516E-3,-1.3607317E-3,-2.9346043E-1,2.5529023E-3,-6.0695307E-3,-1.3505582E-3],"categories":[],"categories_nodes":[],"categories_segments":[],"categories_sizes":[],"default_left":[0,0,0,0,0,0,0,0,0,0,0,0,0,0,0],"id":23,"left_children":[1,3,5,7,-1,9,11,-1,-1,-1,-1,13,-1,-1,-1],"loss_changes":[3.3470955E1,1.9277157E1,2.5404627E1,2.2643572E1,0E0,2.3901054E1,3.25951E1,0E0,0E0,0E0,0E0,2.9314281E1,0E0,0E0,0E0],"parents":[2147483647,0,0,1,1,2,2,3,3,5,5,6,6,11,11],"right_children":[2,4,6,8,-1,10,12,-1,-1,-1,-1,14,-1,-1,-1],"split_conditions":[-3.785365E-1,-5.2049124E-1,-6.9069564E-1,-1.1549107E0,4.7505167E-3,-4.8918542E-1,9.63783E-1,3.3587674E-3,-2.5197708E-3,3.9787516E-3,-1.3607317E-3,-6.660951E-1,2.5529023E-3,-6.0695307E-3,-1.3505582E-3],"split_indices":[35,13,22,13,0,15,22,0,0,0,0,14,0,0,0],"split_type":[0,0,0,0,0,0,0,0,0,0,0,0,0,0,0],"sum_hessian":[1.5070397E3,4.4829477E2,1.0587449E3,2.5807233E2,1.9022246E2,3.3022693E2,7.28518E2,1.3495486E2,1.2311745E2,1.70097E2,1.6012991E2,5.990878E2,1.2943016E2,1.9813884E2,4.00949E2],"tree_param":{"num_deleted":"0","num_feature":"53","num_nodes":"15","size_leaf_vector":"1"}},{"base_weights":[2.1030609E-2,-2.9044178E-1,9.601275E-2,-4.084933E-4,-5.248967E-3,5.9647593E-3,4.5515597E-2,-7.3828265E-2,2.2795753E-1,-1.6649595E-3,3.8362646E-3,6.0070143E-3,9.803928E-4],"categories":[],"categories_nodes":[],"categories_segments":[],"categories_sizes":[],"default_left":[0,0,0,0,0,0,0,0,0,0,0,0,0],"id":24,"left_children":[1,3,5,-1,-1,-1,7,9,11,-1,-1,-1,-1],"loss_changes":[3.4624763E1,1.6480686E1,2.992894E1,0E0,0E0,0E0,2.3893597E1,2.8005497E1,2.0554832E1,0E0,0E0,0E0,0E0],"parents":[2147483647,0,0,1,1,2,2,6,6,7,7,8,8],"right_children":[2,4,6,-1,-1,-1,8,10,12,-1,-1,-1,-1],"split_conditions":[-8.694923E-1,4.2601302E-2,-7.576313E-1,-4.084933E-4,-5.248967E-3,5.9647593E-3,3.5883078E-1,1.3728957E0,-6.3733995E-1,-1.6649595E-3,3.8362646E-3,6.0070143E-3,9.803928E-4],"split_indices":[30,7,18,0,0,0,17,39,9,0,0,0,0],"split_type":[0,0,0,0,0,0,0,0,0,0,0,0,0],"sum_hessian":[1.4823248E3,2.8520035E2,1.1971245E3,1.4031114E2,1.448892E2,1.0683059E2,1.090294E3,6.5819055E2,4.3210333E2,5.492856E2,1.08905E2,1.0881373E2,3.232896E2],"tree_param":{"num_deleted":"0","num_feature":"53","num_nodes":"13","size_leaf_vector":"1"}},{"base_weights":[1.513691E-2,-2.85508E-2,5.1766806E-3,2.1856625E-1,-1.2534118E-1,-1.0806179E-3,3.5043386E-1,-6.723677E-2,-5.901793E-3,5.6439967E-5,6.054455E-3,1.7804264E-3,-1.7791039E-3],"categories":[],"categories_nodes":[],"categories_segments":[],"categories_sizes":[],"default_left":[0,0,0,0,0,0,0,0,0,0,0,0,0],"id":25,"left_children":[1,3,-1,5,7,-1,9,11,-1,-1,-1,-1,-1],"loss_changes":[3.2634514E1,3.246728E1,0E0,1.6616377E1,2.6002968E1,0E0,2.370306E1,2.374593E1,0E0,0E0,0E0,0E0,0E0],"parents":[2147483647,0,0,1,1,3,3,4,4,6,6,7,7],"right_children":[2,4,-1,6,8,-1,10,12,-1,-1,-1,-1,-1],"split_conditions":[1.6393774E0,-4.3254653E-1,5.1766806E-3,-5.4775673E-1,1.2155533E0,-1.0806179E-3,-5.0132573E-2,-6.9069564E-1,-5.901793E-3,5.6439967E-5,6.054455E-3,1.7804264E-3,-1.7791039E-3],"split_indices":[25,2,0,30,21,0,17,22,0,0,0,0,0],"split_type":[0,0,0,0,0,0,0,0,0,0,0,0,0],"sum_hessian":[1.4719799E3,1.355068E3,1.1691186E2,3.7921246E2,9.7585547E2,1.0807835E2,2.7113412E2,8.704187E2,1.0543674E2,1.1697815E2,1.5415598E2,2.688491E2,6.0156964E2],"tree_param":{"num_deleted":"0","num_feature":"53","num_nodes":"13","size_leaf_vector":"1"}},{"base_weights":[-3.393541E-3,2.8337783E-1,-7.462283E-2,5.1478683E-3,-9.500069E-4,-3.661733E-1,2.0348474E-2,-1.4751183E-3,-7.239334E-3,-1.9571152E-1,1.4391614E-1,-3.3717498E-3,8.913876E-4,5.027161E-3,3.3936996E-4],"categories":[],"categories_nodes":[],"categories_segments":[],"categories_sizes":[],"default_left":[0,0,0,0,0,0,0,0,0,0,0,0,0,0,0],"id":26,"left_children":[1,3,5,-1,-1,7,9,-1,-1,11,13,-1,-1,-1,-1],"loss_changes":[2.9918787E1,2.5791952E1,3.2824593E1,0E0,0E0,2.2116154E1,2.378317E1,0E0,0E0,1.3202546E1,2.2135223E1,0E0,0E0,0E0,0E0],"parents":[2147483647,0,0,1,1,2,2,5,5,6,6,9,9,10,10],"right_children":[2,4,6,-1,-1,8,10,-1,-1,12,14,-1,-1,-1,-1],"split_conditions":[-6.191444E-1,2.9408407E-1,-1.313104E-1,5.1478683E-3,-9.500069E-4,-3.8779315E-1,-4.349384E-1,-1.4751183E-3,-7.239334E-3,1.2029186E-1,-7.3460066E-1,-3.3717498E-3,8.913876E-4,5.027161E-3,3.3936996E-4],"split_indices":[17,52,17,0,0,17,30,0,0,44,9,0,0,0,0],"split_type":[0,0,0,0,0,0,0,0,0,0,0,0,0,0,0],"sum_hessian":[1.4657424E3,2.8904834E2,1.1766941E3,1.797296E2,1.09318756E2,2.8901288E2,8.876812E2,1.8199844E2,1.0701445E2,3.2107047E2,5.666108E2,2.1545718E2,1.05613266E2,1.3018903E2,4.3642175E2],"tree_param":{"num_deleted":"0","num_feature":"53","num_nodes":"15","size_leaf_vector":"1"}},{"base_weights":[1.1238422E-2,1.56609E-1,-1.3723063E-1,5.8473647E-3,1.9380828E-2,-3.998904E-1,6.972777E-2,-1.1305733E-1,5.248532E-3,-1.638976E-3,-6.555682E-3,4.2686993E-3,-1.4290029E-1,1.2513308E-3,-4.507693E-3,-4.1420325E-3,1.2652618E-3],"categories":[],"categories_nodes":[],"categories_segments":[],"categories_sizes":[],"default_left":[0,0,0,0,0,0,0,0,0,0,0,0,0,0,0,0,0],"id":27,"left_children":[1,3,5,-1,7,9,11,13,-1,-1,-1,-1,15,-1,-1,-1,-1],"loss_changes":[3.2042473E1,4.382894E1,4.0046707E1,0E0,3.8621155E1,1.8938862E1,3.1429546E1,3.68084E1,0E0,0E0,0E0,0E0,1.9098E1,0E0,0E0,0E0,0E0],"parents":[2147483647,0,0,1,1,2,2,4,4,5,5,6,6,7,7,12,12],"right_children":[2,4,6,-1,8,10,12,14,-1,-1,-1,-1,16,-1,-1,-1,-1],"split_conditions":[9.0071075E-2,-8.285523E-1,6.0947853E-1,5.8473647E-3,2.6096347E-1,-8.903691E-2,-3.4987275E-2,-5.1439154E-1,5.248532E-3,-1.638976E-3,-6.555682E-3,4.2686993E-3,-4.1230705E-2,1.2513308E-3,-4.507693E-3,-4.1420325E-3,1.2652618E-3],"split_indices":[12,16,12,0,20,29,42,12,0,0,0,0,26,0,0,0,0],"split_type":[0,0,0,0,0,0,0,0,0,0,0,0,0,0,0,0,0],"sum_hessian":[1.4801735E3,7.4953705E2,7.306365E2,1.7946681E2,5.700702E2,3.2223093E2,4.0840552E2,4.5216306E2,1.1790715E2,1.7028973E2,1.5194121E2,1.5253514E2,2.5587038E2,2.6502066E2,1.8714238E2,1.2788041E2,1.27989975E2],"tree_param":{"num_deleted":"0","num_feature":"53","num_nodes":"17","size_leaf_vector":"1"}},{"base_weights":[-1.6593143E-2,1.9024579E-1,-1.1801256E-1,-5.5578273E-2,6.1711334E-3,-2.260022E-1,1.2895118E-1,1.7916333E-3,-3.3759633E-3,2.2417339E-2,-3.350985E-1,-7.736251E-5,3.1712386E-3,-2.7170698E-3,3.4056269E-3,-5.466338E-4,-5.1726433E-3],"categories":[],"categories_nodes":[],"categories_segments":[],"categories_sizes":[],"default_left":[0,0,0,0,0,0,0,0,0,0,0,0,0,0,0,0,0],"id":28,"left_children":[1,3,5,7,-1,9,11,-1,-1,13,15,-1,-1,-1,-1,-1,-1],"loss_changes":[3.1350597E1,5.184107E1,2.6919418E1,2.0886517E1,0E0,1.9186745E1,8.0233135E0,0E0,0E0,2.0298637E1,2.4641064E1,0E0,0E0,0E0,0E0,0E0,0E0],"parents":[2147483647,0,0,1,1,2,2,3,3,5,5,6,6,9,9,10,10],"right_children":[2,4,6,8,-1,10,12,-1,-1,14,16,-1,-1,-1,-1,-1,-1],"split_conditions":[-3.2167315E-1,5.4773714E-2,4.8015118E-1,2.8139837E-3,6.1711334E-3,-6.9069564E-1,-7.508542E-2,1.7916333E-3,-3.3759633E-3,-1.0016037E0,-6.446948E-2,-7.736251E-5,3.1712386E-3,-2.7170698E-3,3.4056269E-3,-5.466338E-4,-5.1726433E-3],"split_indices":[35,20,30,48,0,22,20,0,0,22,52,0,0,0,0,0,0],"split_type":[0,0,0,0,0,0,0,0,0,0,0,0,0,0,0,0,0],"sum_hessian":[1.4920691E3,4.8870413E2,1.003365E3,3.1047586E2,1.7822826E2,6.996319E2,3.0373312E2,1.6887059E2,1.4160527E2,2.125797E2,4.870522E2,1.7550679E2,1.2822635E2,1.09794945E2,1.02784744E2,1.9389914E2,2.9315305E2],"tree_param":{"num_deleted":"0","num_feature":"53","num_nodes":"17","size_leaf_vector":"1"}},{"base_weights":[-6.8329824E-3,2.6651132E-1,-8.059498E-2,5.697549E-3,-1.0083482E-3,-2.2412927E-1,1.6412991E-1,-3.899037E-3,-4.1642094E-1,1.1278989E-2,4.016068E-3,1.6783737E-3,-2.003307E-3,-1.4747692E-3,-6.7538936E-3,-3.03779E-3,2.7799408E-3],"categories":[],"categories_nodes":[],"categories_segments":[],"categories_sizes":[],"default_left":[0,0,0,0,0,0,0,0,0,0,0,0,0,0,0,0,0],"id":29,"left_children":[1,3,5,-1,-1,7,9,11,13,15,-1,-1,-1,-1,-1,-1,-1],"loss_changes":[2.9655464E1,3.5116966E1,4.0962555E1,0E0,0E0,3.0925926E1,1.5388733E1,1.1755187E1,2.6644379E1,2.2414303E1,0E0,0E0,0E0,0E0,0E0,0E0,0E0],"parents":[2147483647,0,0,1,1,2,2,5,5,6,6,7,7,8,8,9,9],"right_children":[2,4,6,-1,-1,8,10,12,14,16,-1,-1,-1,-1,-1,-1,-1],"split_conditions":[-8.285523E-1,4.6651545E-1,2.6967308E-1,5.697549E-3,-1.0083482E-3,-6.2058937E-2,8.468627E-1,8.468627E-1,-4.5051983E-1,4.496184E-1,4.016068E-3,1.6783737E-3,-2.003307E-3,-1.4747692E-3,-6.7538936E-3,-3.03779E-3,2.7799408E-3],"split_indices":[16,18,25,0,0,34,39,39,21,15,0,0,0,0,0,0,0],"split_type":[0,0,0,0,0,0,0,0,0,0,0,0,0,0,0,0,0],"sum_hessian":[1.4713082E3,3.1011E2,1.1611982E3,1.7001884E2,1.4009116E2,7.3331244E2,4.2788574E2,3.439872E2,3.8932526E2,2.6288284E2,1.6500288E2,1.8232751E2,1.616597E2,1.9347116E2,1.9585408E2,1.1953234E2,1.4335052E2],"tree_param":{"num_deleted":"0","num_feature":"53","num_nodes":"17","size_leaf_vector":"1"}},{"base_weights":[2.4368684E-3,-2.8098392E-1,7.7400036E-2,-1.1531172E-4,-5.223617E-3,-2.8267765E-2,2.4988987E-1,-3.1016737E-3,3.1166412E-2,5.104166E-1,-2.3433095E-2,3.719935E-3,-4.8036317E-4,2.8752189E-3,7.7132825E-3,1.9661183E-3,-2.7330553E-3],"categories":[],"categories_nodes":[],"categories_segments":[],"categories_sizes":[],"default_left":[0,0,0,0,0,0,0,0,0,0,0,0,0,0,0,0,0],"id":30,"left_children":[1,3,5,-1,-1,7,9,-1,11,13,15,-1,-1,-1,-1,-1,-1],"loss_changes":[3.154389E1,1.9893991E1,2.1619047E1,0E0,0E0,1.2411091E1,3.2310093E1,0E0,1.6510506E1,1.2484924E1,1.22738E1,0E0,0E0,0E0,0E0,0E0,0E0],"parents":[2147483647,0,0,1,1,2,2,5,5,6,6,8,8,9,9,10,10],"right_children":[2,4,6,-1,-1,8,10,-1,12,14,16,-1,-1,-1,-1,-1,-1],"split_conditions":[-7.353947E-1,-5.6007788E-2,2.9547593E-2,-1.1531172E-4,-5.223617E-3,-1.2607661E0,8.616166E-2,-3.1016737E-3,-4.4823328E-1,1.3273545E-1,2.8334805E-1,3.719935E-3,-4.8036317E-4,2.8752189E-3,7.7132825E-3,1.9661183E-3,-2.7330553E-3],"split_indices":[30,38,20,0,0,21,35,0,18,26,31,0,0,0,0,0,0],"split_type":[0,0,0,0,0,0,0,0,0,0,0,0,0,0,0,0,0],"sum_hessian":[1.4854333E3,3.0816318E2,1.1772701E3,1.4758232E2,1.6058086E2,7.292828E2,4.4798737E2,1.2698085E2,6.0230194E2,2.2941107E2,2.185763E2,1.13369026E2,4.889329E2,1.2701958E2,1.02391495E2,1.15387764E2,1.0318853E2],"tree_param":{"num_deleted":"0","num_feature":"53","num_nodes":"17","size_leaf_vector":"1"}},{"base_weights":[1.4966461E-2,-8.976677E-2,2.6239693E-1,1.982817E-1,-1.8206795E-1,4.3271118E-1,8.311541E-2,6.0994783E-3,-2.877831E-3,-1.15221284E-1,-6.136371E-3,6.16431E-3,2.6587995E-3,-1.4365072E-3,3.3992182E-3,1.253078E-3,-2.1462082E-3],"categories":[],"categories_nodes":[],"categories_segments":[],"categories_sizes":[],"default_left":[0,0,0,0,0,0,0,0,0,0,0,0,0,0,0,0,0],"id":31,"left_children":[1,3,5,7,9,11,13,-1,-1,15,-1,-1,-1,-1,-1,-1,-1],"loss_changes":[3.8425518E1,2.7668747E1,1.3147388E1,5.0857212E1,2.2246294E1,6.110359E0,1.2945513E1,0E0,0E0,1.6508152E1,0E0,0E0,0E0,0E0,0E0,0E0,0E0],"parents":[2147483647,0,0,1,1,2,2,3,3,4,4,5,5,6,6,9,9],"right_children":[2,4,6,8,10,12,14,-1,-1,16,-1,-1,-1,-1,-1,-1,-1],"split_conditions":[3.8998082E-1,-8.285523E-1,4.4194406E-1,4.23502E-1,5.1744956E-1,2.174006E-2,-1.3099621E-1,6.0994783E-3,-2.877831E-3,-3.752843E-1,-6.136371E-3,6.16431E-3,2.6587995E-3,-1.4365072E-3,3.3992182E-3,1.253078E-3,-2.1462082E-3],"split_indices":[25,16,28,18,22,40,20,0,0,2,0,0,0,0,0,0,0],"split_type":[0,0,0,0,0,0,0,0,0,0,0,0,0,0,0,0,0],"sum_hessian":[1.4756495E3,1.0362681E3,4.393815E2,2.4960402E2,7.86664E2,2.2244583E2,2.1693565E2,1.3542584E2,1.14178185E2,6.843553E2,1.0230872E2,1.01873085E2,1.2057275E2,1.1464005E2,1.022956E2,1.9849101E2,4.858643E2],"tree_param":{"num_deleted":"0","num_feature":"53","num_nodes":"17","size_leaf_vector":"1"}},{"base_weights":[-2.6607892E-2,-2.1437865E-1,7.1445026E-2,-3.284439E-1,1.2832478E-3,1.8115158E-1,-1.14648245E-1,2.4024314E-4,-5.0054234E-1,-1.8233994E-2,4.6876398E-1,3.5972215E-2,-3.6029038E-3,-6.678988E-3,-2.345777E-3,-1.3985124E-3,2.8497833E-3,7.929175E-3,2.0168037E-3,2.3097717E-3,-1.9122766E-3],"categories":[],"categories_nodes":[],"categories_segments":[],"categories_sizes":[],"default_left":[0,0,0,0,0,0,0,0,0,0,0,0,0,0,0,0,0,0,0,0,0],"id":32,"left_children":[1,3,5,7,-1,9,11,-1,13,15,17,19,-1,-1,-1,-1,-1,-1,-1,-1,-1],"loss_changes":[2.7077242E1,1.9919872E1,1.9719961E1,2.3339928E1,0E0,3.5099506E1,1.3375116E1,0E0,1.0660278E1,1.3277989E1,2.0823658E1,9.921777E0,0E0,0E0,0E0,0E0,0E0,0E0,0E0,0E0,0E0],"parents":[2147483647,0,0,1,1,2,2,3,3,5,5,6,6,8,8,9,9,10,10,11,11],"right_children":[2,4,6,8,-1,10,12,-1,14,16,18,20,-1,-1,-1,-1,-1,-1,-1,-1,-1],"split_conditions":[-5.6941754E-1,4.1699585E-1,4.6614906E-1,-8.8828677E-1,1.2832478E-3,5.4773714E-2,1.5915245E-1,2.4024314E-4,2.9547593E-2,-1.656882E-1,2.245434E-2,7.6429373E-1,-3.6029038E-3,-6.678988E-3,-2.345777E-3,-1.3985124E-3,2.8497833E-3,7.929175E-3,2.0168037E-3,2.3097717E-3,-1.9122766E-3],"split_indices":[3,30,35,5,0,20,16,0,20,0,12,44,0,0,0,0,0,0,0,0,0],"split_type":[0,0,0,0,0,0,0,0,0,0,0,0,0,0,0,0,0,0,0,0,0],"sum_hessian":[1.4631271E3,5.0286673E2,9.602603E2,3.7844687E2,1.2441988E2,6.058417E2,3.5441864E2,1.2377121E2,2.5467564E2,3.5787897E2,2.4796269E2,2.1949962E2,1.3491902E2,1.5330626E2,1.0136938E2,2.5737387E2,1.005051E2,1.0938946E2,1.3857324E2,1.19285065E2,1.00214554E2],"tree_param":{"num_deleted":"0","num_feature":"53","num_nodes":"21","size_leaf_vector":"1"}},{"base_weights":[-2.0910658E-4,-4.551112E-2,3.988814E-3,1.4495294E-3,-4.2116763E-3,1.4435296E-1,-1.5861987E-1,-1.4557657E-5,4.44934E-3,-3.3652456E-3,1.011046E-3],"categories":[],"categories_nodes":[],"categories_segments":[],"categories_sizes":[],"default_left":[0,0,0,0,0,0,0,0,0,0,0],"id":33,"left_children":[1,3,-1,5,-1,7,9,-1,-1,-1,-1],"loss_changes":[2.6532814E1,2.363567E1,0E0,2.7055819E1,0E0,2.7690067E1,2.5894688E1,0E0,0E0,0E0,0E0],"parents":[2147483647,0,0,1,1,3,3,5,5,6,6],"right_children":[2,4,-1,6,-1,8,10,-1,-1,-1,-1],"split_conditions":[1.2225533E0,5.6103575E-1,3.988814E-3,8.173402E-2,-4.2116763E-3,5.4773714E-2,9.24445E-1,-1.4557657E-5,4.44934E-3,-3.3652456E-3,1.011046E-3],"split_indices":[22,22,0,35,0,20,45,0,0,0,0],"split_type":[0,0,0,0,0,0,0,0,0,0,0],"sum_hessian":[1.4733196E3,1.3258436E3,1.4747589E2,1.1791055E3,1.4673814E2,6.2470996E2,5.5439557E2,4.2087485E2,2.0383511E2,3.298146E2,2.2458096E2],"tree_param":{"num_deleted":"0","num_feature":"53","num_nodes":"11","size_leaf_vector":"1"}},{"base_weights":[-8.5209473E-4,4.960715E-3,-3.8683143E-2,1.3764195E-1,-1.3226077E-1,-6.762286E-2,5.210357E-3,-3.332746E-1,-2.393989E-2,1.6409627E-3,-3.7978229E-3,-5.3907814E-3,-3.4395035E-4,-1.7982143E-3,1.8409386E-3],"categories":[],"categories_nodes":[],"categories_segments":[],"categories_sizes":[],"default_left":[0,0,0,0,0,0,0,0,0,0,0,0,0,0,0],"id":34,"left_children":[1,-1,3,5,7,9,-1,11,13,-1,-1,-1,-1,-1,-1],"loss_changes":[2.7337E1,0E0,2.2531343E1,3.7431236E1,1.9263233E1,2.2528759E1,0E0,1.8815357E1,1.9017715E1,0E0,0E0,0E0,0E0,0E0,0E0],"parents":[2147483647,0,0,2,2,3,3,4,4,5,5,7,7,8,8],"right_children":[2,-1,4,6,8,10,-1,12,14,-1,-1,-1,-1,-1,-1],"split_conditions":[-1.1565521E0,4.960715E-3,-2.9784617E-1,5.4773714E-2,-5.0132573E-2,3.5387546E-1,5.210357E-3,-7.341021E-2,9.8769985E-2,1.6409627E-3,-3.7978229E-3,-5.3907814E-3,-3.4395035E-4,-1.7982143E-3,1.8409386E-3],"split_indices":[29,0,35,20,17,36,0,15,44,0,0,0,0,0,0],"split_type":[0,0,0,0,0,0,0,0,0,0,0,0,0,0,0],"sum_hessian":[1.4622856E3,1.0080009E2,1.3614856E3,4.6985983E2,8.916257E2,3.062435E2,1.6361635E2,3.0915305E2,5.8247266E2,1.753938E2,1.308497E2,1.8114163E2,1.280114E2,3.34502E2,2.4797066E2],"tree_param":{"num_deleted":"0","num_feature":"53","num_nodes":"15","size_leaf_vector":"1"}},{"base_weights":[2.3289597E-2,2.4215393E-1,-8.3193995E-2,8.467459E-3,6.2312577E-3,-1.7012997E-1,1.6967861E-1,-2.117583E-3,3.1088837E-3,6.756559E-2,-3.2342008E-1,4.606103E-3,-2.398617E-4,-2.278751E-3,3.3305213E-3,-5.6774647E-4,-5.128292E-3],"categories":[],"categories_nodes":[],"categories_segments":[],"categories_sizes":[],"default_left":[0,0,0,0,0,0,0,0,0,0,0,0,0,0,0,0,0],"id":35,"left_children":[1,3,5,7,-1,9,11,-1,-1,13,15,-1,-1,-1,-1,-1,-1],"loss_changes":[3.4889034E1,4.3326935E1,2.2119976E1,2.0611334E1,0E0,2.7472763E1,1.468E1,0E0,0E0,2.3275373E1,2.2744972E1,0E0,0E0,0E0,0E0,0E0,0E0],"parents":[2147483647,0,0,1,1,2,2,3,3,5,5,6,6,9,9,10,10],"right_children":[2,4,6,8,-1,10,12,-1,-1,14,16,-1,-1,-1,-1,-1,-1],"split_conditions":[-3.2167315E-1,5.4773714E-2,4.2574477E-1,-4.6779567E-1,6.2312577E-3,-5.9699523E-1,-2.6068726E-1,-2.117583E-3,3.1088837E-3,-1.1583841E0,-1.6373321E-1,4.606103E-3,-2.398617E-4,-2.278751E-3,3.3305213E-3,-5.6774647E-4,-5.128292E-3],"split_indices":[35,20,25,13,0,21,5,0,0,21,19,0,0,0,0,0,0],"split_type":[0,0,0,0,0,0,0,0,0,0,0,0,0,0,0,0,0],"sum_hessian":[1.4898934E3,4.883322E2,1.0015613E3,3.047542E2,1.83578E2,7.4728217E2,2.542791E2,1.757313E2,1.2902293E2,2.9213965E2,4.5514252E2,1.015505E2,1.5272859E2,1.3751225E2,1.546274E2,1.9120631E2,2.6393622E2],"tree_param":{"num_deleted":"0","num_feature":"53","num_nodes":"17","size_leaf_vector":"1"}},{"base_weights":[7.090115E-3,3.164377E-1,-6.733832E-2,-4.8108803E-4,5.2525084E-3,-2.8395566E-1,1.6341716E-2,-7.5110915E-4,-5.3394656E-3,2.6444015E-1,-1.160616E-1,5.2890275E-3,5.8429628E-6,3.3485177E-3,-3.2780953E-3],"categories":[],"categories_nodes":[],"categories_segments":[],"categories_sizes":[],"default_left":[0,0,0,0,0,0,0,0,0,0,0,0,0,0,0],"id":36,"left_children":[1,3,5,-1,-1,7,9,-1,-1,11,13,-1,-1,-1,-1],"loss_changes":[3.422146E1,2.2250252E1,2.1760134E1,0E0,0E0,1.705787E1,2.8401287E1,0E0,0E0,2.0762362E1,5.3792667E1,0E0,0E0,0E0,0E0],"parents":[2147483647,0,0,1,1,2,2,5,5,6,6,9,9,10,10],"right_children":[2,4,6,-1,-1,8,10,-1,-1,12,14,-1,-1,-1,-1],"split_conditions":[-6.191444E-1,-6.3705765E-2,-5.0132573E-2,-4.8108803E-4,5.2525084E-3,-3.8779315E-1,-6.9069564E-1,-7.5110915E-4,-5.3394656E-3,-4.7766805E-1,-4.3254653E-1,5.2890275E-3,5.8429628E-6,3.3485177E-3,-3.2780953E-3],"split_indices":[17,25,17,0,0,17,22,0,0,4,2,0,0,0,0],"split_type":[0,0,0,0,0,0,0,0,0,0,0,0,0,0,0],"sum_hessian":[1.4770616E3,2.8649884E2,1.1905629E3,1.0402919E2,1.8246964E2,3.3209012E2,8.584728E2,1.8344199E2,1.4864815E2,2.9934308E2,5.591297E2,1.4754988E2,1.517932E2,1.7753918E2,3.8159048E2],"tree_param":{"num_deleted":"0","num_feature":"53","num_nodes":"15","size_leaf_vector":"1"}},{"base_weights":[-9.411914E-3,-4.8983265E-2,4.650265E-3,1.994094E-3,-4.076043E-3,4.5526577E-3,-5.7417225E-2,-3.2659757E-3,5.209681E-4],"categories":[],"categories_nodes":[],"categories_segments":[],"categories_sizes":[],"default_left":[0,0,0,0,0,0,0,0,0],"id":37,"left_children":[1,3,-1,5,-1,-1,7,-1,-1],"loss_changes":[2.8068323E1,2.5628996E1,0E0,3.3062256E1,0E0,0E0,3.1950108E1,0E0,0E0],"parents":[2147483647,0,0,1,1,3,3,6,6],"right_children":[2,4,-1,6,-1,-1,8,-1,-1],"split_conditions":[1.6800358E0,1.2155533E0,4.650265E-3,-1.059028E0,-4.076043E-3,4.5526577E-3,-7.078055E-1,-3.2659757E-3,5.209681E-4],"split_indices":[25,21,0,16,0,0,3,0,0],"split_type":[0,0,0,0,0,0,0,0,0],"sum_hessian":[1.5017037E3,1.3887224E3,1.1298138E2,1.2164069E3,1.7231548E2,1.4039207E2,1.0760149E3,3.113449E2,7.646699E2],"tree_param":{"num_deleted":"0","num_feature":"53","num_nodes":"9","size_leaf_vector":"1"}},{"base_weights":[-7.287416E-3,2.7934808E-1,-7.120188E-2,6.399688E-3,2.5978065E-4,-2.81211E-1,1.5963942E-2,1.174274E-3,-4.4523475E-1,-2.430318E-1,1.3248648E-1,-1.8634017E-3,-8.111209E-3,-6.520387E-5,-4.430604E-3,4.5288815E-3,3.1970014E-4],"categories":[],"categories_nodes":[],"categories_segments":[],"categories_sizes":[],"default_left":[0,0,0,0,0,0,0,0,0,0,0,0,0,0,0,0,0],"id":38,"left_children":[1,3,5,-1,-1,7,9,-1,11,13,15,-1,-1,-1,-1,-1,-1],"loss_changes":[2.6944187E1,2.4100449E1,2.2263489E1,0E0,0E0,2.3562538E1,2.5788544E1,0E0,2.3231602E1,1.2279713E1,1.878741E1,0E0,0E0,0E0,0E0,0E0,0E0],"parents":[2147483647,0,0,1,1,2,2,5,5,6,6,8,8,9,9,10,10],"right_children":[2,4,6,-1,-1,8,10,-1,12,14,16,-1,-1,-1,-1,-1,-1],"split_conditions":[-6.313181E-1,-2.8612614E-1,-5.0132573E-2,6.399688E-3,2.5978065E-4,-7.392873E-1,-6.4491504E-1,1.174274E-3,-2.463989E-1,-5.6007788E-2,-7.3460066E-1,-1.8634017E-3,-8.111209E-3,-6.520387E-5,-4.430604E-3,4.5288815E-3,3.1970014E-4],"split_indices":[17,29,17,0,0,16,30,0,19,38,9,0,0,0,0,0,0],"split_type":[0,0,0,0,0,0,0,0,0,0,0,0,0,0,0,0,0],"sum_hessian":[1.4722499E3,2.6577438E2,1.2064755E3,1.0760106E2,1.5817331E2,3.5425378E2,8.522217E2,1.02546844E2,2.5170692E2,2.6243735E2,5.8978436E2,1.4997346E2,1.0173346E2,1.22344055E2,1.4009328E2,1.3798003E2,4.5180432E2],"tree_param":{"num_deleted":"0","num_feature":"53","num_nodes":"17","size_leaf_vector":"1"}},{"base_weights":[6.6830753E-3,-2.6003936E-1,7.744894E-2,8.8187173E-4,-4.5595826E-3,2.9139277E-2,4.8124236E-3,2.617337E-1,-8.215356E-2,7.1056106E-4,5.123331E-3,8.9284143E-4,-2.2745961E-3],"categories":[],"categories_nodes":[],"categories_segments":[],"categories_sizes":[],"default_left":[0,0,0,0,0,0,0,0,0,0,0,0,0],"id":39,"left_children":[1,3,5,-1,-1,7,-1,9,11,-1,-1,-1,-1],"loss_changes":[2.7757442E1,2.1270958E1,2.248941E1,0E0,0E0,2.7206884E1,0E0,1.59018345E1,1.7733627E1,0E0,0E0,0E0,0E0],"parents":[2147483647,0,0,1,1,2,2,5,5,7,7,8,8],"right_children":[2,4,6,-1,-1,8,-1,10,12,-1,-1,-1,-1],"split_conditions":[-7.353947E-1,-6.7846966E-1,9.287941E-1,8.8187173E-4,-4.5595826E-3,-3.785365E-1,4.8124236E-3,-5.2049124E-1,-5.757273E-1,7.1056106E-4,5.123331E-3,8.9284143E-4,-2.2745961E-3],"split_indices":[30,38,22,0,0,35,0,13,22,0,0,0,0],"split_type":[0,0,0,0,0,0,0,0,0,0,0,0,0],"sum_hessian":[1.471308E3,3.059064E2,1.1654016E3,1.0961831E2,1.9628809E2,1.0438933E3,1.2150833E2,3.3841602E2,7.0547723E2,1.9477599E2,1.4364001E2,3.2241254E2,3.830647E2],"tree_param":{"num_deleted":"0","num_feature":"53","num_nodes":"13","size_leaf_vector":"1"}},{"base_weights":[7.5427974E-3,-2.600867E-1,8.144873E-2,3.7761305E-7,-4.85331E-3,2.4384452E-2,5.689364E-3,1.4645034E-1,-1.3300937E-1,3.7348887E-3,3.4119285E-4,-5.2513657E-3,-2.1814745E-5],"categories":[],"categories_nodes":[],"categories_segments":[],"categories_sizes":[],"default_left":[0,0,0,0,0,0,0,0,0,0,0,0,0],"id":40,"left_children":[1,3,5,-1,-1,7,-1,9,11,-1,-1,-1,-1],"loss_changes":[2.9560482E1,1.9163532E1,3.238843E1,0E0,0E0,2.0328842E1,0E0,1.500489E1,2.335284E1,0E0,0E0,0E0,0E0],"parents":[2147483647,0,0,1,1,2,2,5,5,7,7,8,8],"right_children":[2,4,6,-1,-1,8,-1,10,12,-1,-1,-1,-1],"split_conditions":[-7.353947E-1,-5.6007788E-2,9.287941E-1,3.7761305E-7,-4.85331E-3,1.5409689E-1,5.689364E-3,-6.9069564E-1,-8.033429E-1,3.7348887E-3,3.4119285E-4,-5.2513657E-3,-2.1814745E-5],"split_indices":[30,38,22,0,0,52,0,22,14,0,0,0,0],"split_type":[0,0,0,0,0,0,0,0,0,0,0,0,0],"sum_hessian":[1.4948818E3,3.2092798E2,1.1739539E3,1.4883037E2,1.7209761E2,1.0537319E3,1.2022192E2,5.9533734E2,4.5839465E2,1.9404375E2,4.0129358E2,1.1221268E2,3.4618198E2],"tree_param":{"num_deleted":"0","num_feature":"53","num_nodes":"13","size_leaf_vector":"1"}},{"base_weights":[2.4827358E-3,-1.18706204E-1,1.7659919E-1,7.220648E-2,-2.5891948E-1,4.0138087E-1,-9.9364564E-2,-8.355212E-2,3.2895547E-3,-5.636684E-3,-7.377445E-2,7.4160323E-3,1.6712198E-1,1.442591E-3,-3.077689E-3,-3.2792715E-3,1.2042568E-3,2.1751174E-3,-3.4802046E-3,-2.055434E-3,5.4857265E-3],"categories":[],"categories_nodes":[],"categories_segments":[],"categories_sizes":[],"default_left":[0,0,0,0,0,0,0,0,0,0,0,0,0,0,0,0,0,0,0,0,0],"id":41,"left_children":[1,3,5,7,9,11,13,15,-1,-1,17,-1,19,-1,-1,-1,-1,-1,-1,-1,-1],"loss_changes":[3.147668E1,2.3608334E1,3.827455E1,1.503187E1,2.8239468E1,2.6346931E1,1.4179113E1,1.1725861E1,0E0,0E0,2.5707502E1,0E0,2.9459686E1,0E0,0E0,0E0,0E0,0E0,0E0,0E0,0E0],"parents":[2147483647,0,0,1,1,2,2,3,3,4,4,5,5,6,6,7,7,10,10,12,12],"right_children":[2,4,6,8,10,12,14,16,-1,-1,18,-1,20,-1,-1,-1,-1,-1,-1,-1,-1],"split_conditions":[5.4773714E-2,-6.9069564E-1,3.5674906E-1,1.3042513E-1,-4.9439487E-1,-4.9832746E-2,7.630536E-3,-8.2838154E-1,3.2895547E-3,-5.636684E-3,-1.2377384E-1,7.4160323E-3,-3.446865E-1,1.442591E-3,-3.077689E-3,-3.2792715E-3,1.2042568E-3,2.1751174E-3,-3.4802046E-3,-2.055434E-3,5.4857265E-3],"split_indices":[20,22,11,19,3,19,37,20,0,0,16,0,3,0,0,0,0,0,0,0,0],"split_type":[0,0,0,0,0,0,0,0,0,0,0,0,0,0,0,0,0,0,0,0,0],"sum_hessian":[1.4863572E3,8.750604E2,6.1129675E2,3.694398E2,5.0562064E2,3.3738684E2,2.739099E2,2.2957077E2,1.3986902E2,1.8852263E2,3.1709802E2,1.3494118E2,2.0244566E2,1.25461945E2,1.4844798E2,1.0500534E2,1.2456544E2,1.5308824E2,1.6400977E2,1.0220556E2,1.00240105E2],"tree_param":{"num_deleted":"0","num_feature":"53","num_nodes":"21","size_leaf_vector":"1"}},{"base_weights":[-8.706999E-3,-3.3102405E-1,6.875324E-2,1.0343684E-3,-5.6660436E-3,4.7459085E-3,2.9079448E-2,-1.7576034E-1,1.5651229E-1,-7.5821226E-5,-6.581324E-3,8.831278E-6,2.982237E-3],"categories":[],"categories_nodes":[],"categories_segments":[],"categories_sizes":[],"default_left":[0,0,0,0,0,0,0,0,0,0,0,0,0],"id":42,"left_children":[1,3,5,-1,-1,-1,7,9,11,-1,-1,-1,-1],"loss_changes":[3.724024E1,2.9951874E1,1.899819E1,0E0,0E0,0E0,2.8600256E1,3.36463E1,1.4779482E1,0E0,0E0,0E0,0E0],"parents":[2147483647,0,0,1,1,2,2,6,6,7,7,8,8],"right_children":[2,4,6,-1,-1,-1,8,10,12,-1,-1,-1,-1],"split_conditions":[-8.412954E-1,-6.7846966E-1,-1.0437442E0,1.0343684E-3,-5.6660436E-3,4.7459085E-3,-1.4055935E-1,-3.9105356E-1,3.6218628E-1,-7.5821226E-5,-6.581324E-3,8.831278E-6,2.982237E-3],"split_indices":[30,38,17,0,0,0,17,17,12,0,0,0,0],"split_type":[0,0,0,0,0,0,0,0,0,0,0,0,0],"sum_hessian":[1.4825176E3,2.872325E2,1.195285E3,1.0063651E2,1.86596E2,1.0336807E2,1.091917E3,4.1697516E2,6.7494183E2,3.114549E2,1.0552025E2,3.2431546E2,3.5062637E2],"tree_param":{"num_deleted":"0","num_feature":"53","num_nodes":"13","size_leaf_vector":"1"}},{"base_weights":[-2.0855462E-2,-3.129408E-1,4.872457E-2,9.6207914E-5,-4.9663237E-3,-3.2853372E-2,2.587232E-1,-1.1338502E-1,1.9139071E-1,4.6149674E-3,-0E0,3.490371E-4,-2.7326862E-3,3.732855E-3,1.2615509E-5],"categories":[],"categories_nodes":[],"categories_segments":[],"categories_sizes":[],"default_left":[0,0,0,0,0,0,0,0,0,0,0,0,0,0,0],"id":43,"left_children":[1,3,5,-1,-1,7,9,11,13,-1,-1,-1,-1,-1,-1],"loss_changes":[3.0093225E1,1.7139017E1,2.0511639E1,0E0,0E0,1.5479481E1,1.7541018E1,1.5155447E1,7.6114817E0,0E0,0E0,0E0,0E0,0E0,0E0],"parents":[2147483647,0,0,1,1,2,2,5,5,6,6,7,7,8,8],"right_children":[2,4,6,-1,-1,8,10,12,14,-1,-1,-1,-1,-1,-1],"split_conditions":[-8.146896E-1,-6.7846966E-1,5.0891554E-1,9.6207914E-5,-4.9663237E-3,8.033866E-1,4.09282E-1,8.468627E-1,-2.9907292E-1,4.6149674E-3,-0E0,3.490371E-4,-2.7326862E-3,3.732855E-3,1.2615509E-5],"split_indices":[30,38,25,0,0,29,28,39,25,0,0,0,0,0,0],"split_type":[0,0,0,0,0,0,0,0,0,0,0,0,0,0,0],"sum_hessian":[1.4707239E3,2.8298615E2,1.1877378E3,1.02380226E2,1.8060593E2,8.549301E2,3.3280762E2,6.313978E2,2.2353229E2,1.8558759E2,1.4722003E2,3.2676562E2,3.0463223E2,1.1191132E2,1.1162096E2],"tree_param":{"num_deleted":"0","num_feature":"53","num_nodes":"15","size_leaf_vector":"1"}},{"base_weights":[1.7655268E-2,-9.486454E-2,1.8172292E-1,-1.3497804E-2,-3.805665E-3,7.182765E-3,6.933465E-2,-1.3523327E-1,4.0314845E-3,3.811125E-1,-1.4775503E-1,1.5241743E-4,-6.6366144E-3,6.4426064E-3,1.0497844E-3,-4.083298E-3,5.4774905E-4],"categories":[],"categories_nodes":[],"categories_segments":[],"categories_sizes":[],"default_left":[0,0,0,0,0,0,0,0,0,0,0,0,0,0,0,0,0],"id":44,"left_children":[1,3,5,7,-1,-1,9,11,-1,13,15,-1,-1,-1,-1,-1,-1],"loss_changes":[2.803152E1,2.0661514E1,3.6803352E1,3.5588894E1,0E0,0E0,3.5043446E1,4.374509E1,0E0,1.4941473E1,1.6250305E1,0E0,0E0,0E0,0E0,0E0,0E0],"parents":[2147483647,0,0,1,1,2,2,3,3,6,6,7,7,9,9,10,10],"right_children":[2,4,6,8,-1,-1,10,12,-1,14,16,-1,-1,-1,-1,-1,-1],"split_conditions":[5.4773714E-2,5.8053505E-1,-5.369365E-1,2.7715194E-1,-3.805665E-3,7.182765E-3,9.590209E-2,6.2708646E-1,4.0314845E-3,4.802769E-1,9.2561406E-1,1.5241743E-4,-6.6366144E-3,6.4426064E-3,1.0497844E-3,-4.083298E-3,5.4774905E-4],"split_indices":[20,18,1,18,0,0,19,28,0,45,19,0,0,0,0,0,0],"split_type":[0,0,0,0,0,0,0,0,0,0,0,0,0,0,0,0,0],"sum_hessian":[1.5122096E3,8.957134E2,6.164962E2,7.001564E2,1.9555705E2,1.04131325E2,5.1236487E2,5.4381555E2,1.5634079E2,2.1064081E2,3.017241E2,4.2405728E2,1.1975827E2,1.0556412E2,1.050767E2,1.3214409E2,1.6957999E2],"tree_param":{"num_deleted":"0","num_feature":"53","num_nodes":"17","size_leaf_vector":"1"}},{"base_weights":[-8.209183E-3,2.6557084E-2,-4.3359958E-3,-9.044158E-2,2.2043335E-1,-8.86159E-3,-3.5446333E-3,4.4881344E-1,-4.042888E-3,-1.1940997E-3,4.6359156E-3,7.145746E-3,1.1887252E-3,-2.874128E-3,3.200233E-3],"categories":[],"categories_nodes":[],"categories_segments":[],"categories_sizes":[],"default_left":[0,0,0,0,0,0,0,0,0,0,0,0,0,0,0],"id":45,"left_children":[1,3,-1,5,7,9,-1,11,13,-1,-1,-1,-1,-1,-1],"loss_changes":[2.1851988E1,3.07854E1,0E0,1.7976482E1,2.6434729E1,3.377041E1,0E0,2.1732311E1,2.392396E1,0E0,0E0,0E0,0E0,0E0,0E0],"parents":[2147483647,0,0,1,1,3,3,4,4,5,5,7,7,8,8],"right_children":[2,4,-1,6,8,10,-1,12,14,-1,-1,-1,-1,-1,-1],"split_conditions":[1.3457607E0,5.4773714E-2,-4.3359958E-3,5.165998E-1,9.590209E-2,2.7715194E-1,-3.5446333E-3,3.881914E-1,-1.655428E-1,-1.1940997E-3,4.6359156E-3,7.145746E-3,1.1887252E-3,-2.874128E-3,3.200233E-3],"split_indices":[19,20,0,18,19,18,0,45,25,0,0,0,0,0,0],"split_type":[0,0,0,0,0,0,0,0,0,0,0,0,0,0,0],"sum_hessian":[1.4602415E3,1.3505625E3,1.09678894E2,8.4133154E2,5.0923093E2,6.4575946E2,1.9557208E2,2.5253389E2,2.5669705E2,5.2537976E2,1.2037975E2,1.3773999E2,1.1479391E2,1.3789127E2,1.1880578E2],"tree_param":{"num_deleted":"0","num_feature":"53","num_nodes":"15","size_leaf_vector":"1"}},{"base_weights":[1.0033376E-2,-1.07603006E-1,2.933028E-1,2.6683859E-3,-1.6265838E-1,5.6330908E-2,5.261032E-1,-2.913459E-1,2.3359234E-2,3.806932E-3,-2.2245054E-3,7.563524E-3,2.4645647E-3,-5.708966E-3,-1.3218051E-3,4.2350465E-3,-1.7046254E-3],"categories":[],"categories_nodes":[],"categories_segments":[],"categories_sizes":[],"default_left":[0,0,0,0,0,0,0,0,0,0,0,0,0,0,0,0,0],"id":46,"left_children":[1,3,5,-1,7,9,11,13,15,-1,-1,-1,-1,-1,-1,-1,-1],"loss_changes":[4.9357502E1,2.15461E1,2.364899E1,0E0,2.1982264E1,2.0041761E1,1.3171696E1,2.356403E1,2.921866E1,0E0,0E0,0E0,0E0,0E0,0E0,0E0,0E0],"parents":[2147483647,0,0,1,1,2,2,4,4,5,5,6,6,7,7,8,8],"right_children":[2,4,6,-1,8,10,12,14,16,-1,-1,-1,-1,-1,-1,-1,-1],"split_conditions":[3.8998082E-1,-1.1440732E0,-1.3099621E-1,2.6683859E-3,3.571584E-1,1.7096503E-1,3.231917E-1,-7.2031415E-1,-7.1059483E-1,3.806932E-3,-2.2245054E-3,7.563524E-3,2.4645647E-3,-5.708966E-3,-1.3218051E-3,4.2350465E-3,-1.7046254E-3],"split_indices":[25,16,20,0,29,29,47,3,44,0,0,0,0,0,0,0,0],"split_type":[0,0,0,0,0,0,0,0,0,0,0,0,0,0,0,0,0],"sum_hessian":[1.4745131E3,1.0414811E3,4.3303204E2,1.3135263E2,9.101284E2,2.1688867E2,2.1614336E2,5.3888306E2,3.712454E2,1.0074003E2,1.1614864E2,1.1569099E2,1.0045238E2,1.9248909E2,3.4639395E2,1.2121222E2,2.5003319E2],"tree_param":{"num_deleted":"0","num_feature":"53","num_nodes":"17","size_leaf_vector":"1"}},{"base_weights":[7.6258667E-3,2.260108E-1,-8.848049E-2,1.730983E-2,5.750591E-3,-2.1258248E-1,2.0458283E-1,3.229114E-3,-2.6635462E-3,-3.4750295E-3,-3.7700874E-1,2.3817319E-4,4.1786474E-3,3.077802E-3,-1.941251E-3,-8.148311E-4,-5.047632E-3],"categories":[],"categories_nodes":[],"categories_segments":[],"categories_sizes":[],"default_left":[0,0,0,0,0,0,0,0,0,0,0,0,0,0,0,0,0],"id":47,"left_children":[1,3,5,7,-1,9,11,-1,-1,13,15,-1,-1,-1,-1,-1,-1],"loss_changes":[3.1241577E1,3.2862244E1,3.754804E1,2.5165565E1,0E0,2.4758457E1,1.1564615E1,0E0,0E0,1.9217937E1,1.49112015E1,0E0,0E0,0E0,0E0,0E0,0E0],"parents":[2147483647,0,0,1,1,2,2,3,3,5,5,6,6,9,9,10,10],"right_children":[2,4,6,8,-1,10,12,-1,-1,14,16,-1,-1,-1,-1,-1,-1],"split_conditions":[-3.4139073E-1,5.4773714E-2,4.9338433E-1,-4.3254653E-1,5.750591E-3,7.553058E-3,4.3128633E-1,3.229114E-3,-2.6635462E-3,9.0071075E-2,-6.9069564E-1,2.3817319E-4,4.1786474E-3,3.077802E-3,-1.941251E-3,-8.148311E-4,-5.047632E-3],"split_indices":[35,20,30,2,0,52,13,0,0,12,22,0,0,0,0,0,0],"split_type":[0,0,0,0,0,0,0,0,0,0,0,0,0,0,0,0,0],"sum_hessian":[1.4813501E3,4.5345404E2,1.0278961E3,2.8598886E2,1.6746518E2,7.2369293E2,3.0420312E2,1.3838635E2,1.4760251E2,3.208008E2,4.0289212E2,1.6712512E2,1.37078E2,1.203941E2,2.0040671E2,1.23770874E2,2.7912125E2],"tree_param":{"num_deleted":"0","num_feature":"53","num_nodes":"17","size_leaf_vector":"1"}},{"base_weights":[2.7710984E-2,-9.650304E-2,1.8348204E-1,2.3506227E-1,-2.100115E-1,-2.8763637E-3,3.7505144E-1,5.176615E-3,-5.0563214E-4,1.1106024E-1,-4.1177168E-1,3.3791873E-3,-2.7300976E-3,7.29547E-3,1.6755986E-1,-2.423832E-3,3.753862E-3,-6.8642567E-3,-2.8759337E-3,3.856909E-3,-5.7351525E-4],"categories":[],"categories_nodes":[],"categories_segments":[],"categories_sizes":[],"default_left":[0,0,0,0,0,0,0,0,0,0,0,0,0,0,0,0,0,0,0,0,0],"id":48,"left_children":[1,3,5,7,9,11,13,-1,-1,15,17,-1,-1,-1,19,-1,-1,-1,-1,-1,-1],"loss_changes":[2.8786245E1,3.1134281E1,2.3775454E1,1.7253887E1,4.019483E1,3.1044167E1,2.3369034E1,0E0,0E0,2.2541702E1,1.20829315E1,0E0,0E0,0E0,1.0503035E1,0E0,0E0,0E0,0E0,0E0,0E0],"parents":[2147483647,0,0,1,1,2,2,3,3,4,4,5,5,6,6,9,9,10,10,14,14],"right_children":[2,4,6,8,10,12,14,-1,-1,16,18,-1,-1,-1,20,-1,-1,-1,-1,-1,-1],"split_conditions":[-2.4587877E-2,-8.285523E-1,-1.3099621E-1,6.458931E-2,-4.0275115E-1,-1.9620144E-1,-4.7030038E-1,5.176615E-3,-5.0563214E-4,-2.3312315E-1,1.9378703E-3,3.3791873E-3,-2.7300976E-3,7.29547E-3,5.379017E-1,-2.423832E-3,3.753862E-3,-6.8642567E-3,-2.8759337E-3,3.856909E-3,-5.7351525E-4],"split_indices":[25,16,20,12,8,16,17,0,0,16,18,0,0,0,20,0,0,0,0,0,0],"split_type":[0,0,0,0,0,0,0,0,0,0,0,0,0,0,0,0,0,0,0,0,0],"sum_hessian":[1.4816641E3,8.229685E2,6.586955E2,2.0821442E2,6.147541E2,3.3356448E2,3.25131E2,1.047249E2,1.03489525E2,2.3662346E2,3.781306E2,1.4645142E2,1.8711307E2,1.1729421E2,2.078368E2,1.0050613E2,1.3611732E2,1.1365962E2,2.64471E2,1.05911545E2,1.0192526E2],"tree_param":{"num_deleted":"0","num_feature":"53","num_nodes":"21","size_leaf_vector":"1"}},{"base_weights":[-9.073674E-3,-1.4714009E-1,1.04421E-1,-2.713018E-3,-3.5900673E-1,2.9078993E-1,-1.7696738E-2,3.0761478E-3,-2.0047703E-1,-6.5612877E-3,-1.6737866E-3,5.7913647E-3,1.4786448E-1,2.5954645E-3,-1.203549E-1,-3.983987E-3,2.1734727E-4,-6.876674E-4,3.4105428E-3,-3.308539E-3,1.0009878E-3],"categories":[],"categories_nodes":[],"categories_segments":[],"categories_sizes":[],"default_left":[0,0,0,0,0,0,0,0,0,0,0,0,0,0,0,0,0,0,0,0,0],"id":49,"left_children":[1,3,5,7,9,11,13,-1,15,-1,-1,-1,17,-1,19,-1,-1,-1,-1,-1,-1],"loss_changes":[2.3254354E1,2.0344791E1,1.8623627E1,2.476171E1,1.4771053E1,1.2781424E1,1.3959775E1,0E0,1.1109709E1,0E0,0E0,0E0,9.385134E0,0E0,1.6925022E1,0E0,0E0,0E0,0E0,0E0,0E0],"parents":[2147483647,0,0,1,1,2,2,3,3,4,4,5,5,6,6,8,8,12,12,14,14],"right_children":[2,4,6,8,10,12,14,-1,16,-1,-1,-1,18,-1,20,-1,-1,-1,-1,-1,-1],"split_conditions":[-3.6910537E-1,-2.4063869E-1,-7.83783E-2,-6.7846966E-1,-5.3742224E-1,-3.7323594E-1,-6.63681E-1,3.0761478E-3,-5.798222E-1,-6.5612877E-3,-1.6737866E-3,5.7913647E-3,9.0057686E-2,2.5954645E-3,-8.073985E-3,-3.983987E-3,2.1734727E-4,-6.876674E-4,3.4105428E-3,-3.308539E-3,1.0009878E-3],"split_indices":[3,21,5,38,4,12,52,0,14,0,0,0,26,0,19,0,0,0,0,0,0],"split_type":[0,0,0,0,0,0,0,0,0,0,0,0,0,0,0,0,0,0,0,0,0],"sum_hessian":[1.4786993E3,6.688523E2,8.0984705E2,4.0033444E2,2.6851782E2,3.2111386E2,4.8873322E2,1.5440526E2,2.459292E2,1.023561E2,1.6616173E2,1.0323629E2,2.1787758E2,1.2992497E2,3.5880823E2,1.3042519E2,1.15504005E2,1.0209475E2,1.1578283E2,1.8419609E2,1.7461215E2],"tree_param":{"num_deleted":"0","num_feature":"53","num_nodes":"21","size_leaf_vector":"1"}},{"base_weights":[-8.835037E-3,-2.7259785E-1,6.338569E-2,9.787354E-4,-4.4787294E-1,-2.5469153E-3,1.12375304E-1,-6.50639E-3,-2.012346E-3,2.820432E-1,1.36984745E-2,1.8116592E-4,6.352067E-3,-1.4830948E-3,2.377509E-3],"categories":[],"categories_nodes":[],"categories_segments":[],"categories_sizes":[],"default_left":[0,0,0,0,0,0,0,0,0,0,0,0,0,0,0],"id":50,"left_children":[1,3,5,-1,7,-1,9,-1,-1,11,13,-1,-1,-1,-1],"loss_changes":[2.820828E1,2.0950855E1,1.8013607E1,0E0,1.0191967E1,0E0,1.6674679E1,0E0,0E0,3.3922554E1,2.3330317E1,0E0,0E0,0E0,0E0],"parents":[2147483647,0,0,1,1,2,2,4,4,6,6,9,9,10,10],"right_children":[2,4,6,-1,8,-1,10,-1,-1,12,14,-1,-1,-1,-1],"split_conditions":[-7.19314E-1,1.1640098E-1,-8.556614E-1,9.787354E-4,2.6752198E-2,-2.5469153E-3,-2.9784617E-1,-6.50639E-3,-2.012346E-3,-4.9384046E-1,4.8015118E-1,1.8116592E-4,6.352067E-3,-1.4830948E-3,2.377509E-3],"split_indices":[30,12,20,0,5,0,35,0,0,13,30,0,0,0,0],"split_type":[0,0,0,0,0,0,0,0,0,0,0,0,0,0,0],"sum_hessian":[1.4715109E3,3.1660132E2,1.1549097E3,1.0104898E2,2.1555232E2,1.5165405E2,1.00325555E3,1.1538709E2,1.0016524E2,3.6569138E2,6.3756415E2,2.1130045E2,1.5439095E2,3.691114E2,2.684528E2],"tree_param":{"num_deleted":"0","num_feature":"53","num_nodes":"15","size_leaf_vector":"1"}},{"base_weights":[1.1386237E-2,2.5777996E-1,-5.648276E-2,6.4452356E-3,-2.1247359E-3,-2.0615591E-1,9.117014E-2,7.612395E-4,-3.4449258E-1,-7.3030055E-2,3.6821076E-1,-1.574181E-3,-6.4254985E-3,1.6915759E-3,-3.7791338E-3,5.9693507E-3,1.2201077E-3],"categories":[],"categories_nodes":[],"categories_segments":[],"categories_sizes":[],"default_left":[0,0,0,0,0,0,0,0,0,0,0,0,0,0,0,0,0],"id":51,"left_children":[1,3,5,-1,-1,7,9,-1,11,13,15,-1,-1,-1,-1,-1,-1],"loss_changes":[2.4879683E1,5.8975464E1,2.5740738E1,0E0,0E0,2.2779959E1,2.6761896E1,0E0,2.113483E1,2.7340843E1,1.1812708E1,0E0,0E0,0E0,0E0,0E0,0E0],"parents":[2147483647,0,0,1,1,2,2,5,5,6,6,8,8,9,9,10,10],"right_children":[2,4,6,-1,-1,8,10,-1,12,14,16,-1,-1,-1,-1,-1,-1],"split_conditions":[-8.285523E-1,9.783693E-2,-7.970124E-2,6.4452356E-3,-2.1247359E-3,-4.967064E-1,3.731416E-1,7.612395E-4,-2.9268882E-1,-4.7638294E-1,1.1369622E0,-1.574181E-3,-6.4254985E-3,1.6915759E-3,-3.7791338E-3,5.9693507E-3,1.2201077E-3],"split_indices":[16,12,26,0,0,8,13,0,21,1,43,0,0,0,0,0,0],"split_type":[0,0,0,0,0,0,0,0,0,0,0,0,0,0,0,0,0],"sum_hessian":[1.4780371E3,3.1958316E2,1.1584539E3,1.7553918E2,1.4404399E2,5.765794E2,5.818745E2,1.8873843E2,3.8784097E2,3.6513144E2,2.1674307E2,2.4119173E2,1.4664923E2,2.0307045E2,1.62061E2,1.09829445E2,1.0691362E2],"tree_param":{"num_deleted":"0","num_feature":"53","num_nodes":"17","size_leaf_vector":"1"}},{"base_weights":[2.886296E-2,-2.5513485E-1,1.0335262E-1,2.4723812E-4,-4.372574E-3,6.1159484E-2,4.6867505E-3,1.8467444E-1,-1.0554234E-1,5.349263E-4,4.5517324E-3,-2.928567E-3,1.7407702E-3],"categories":[],"categories_nodes":[],"categories_segments":[],"categories_sizes":[],"default_left":[0,0,0,0,0,0,0,0,0,0,0,0,0],"id":52,"left_children":[1,3,5,-1,-1,7,-1,9,11,-1,-1,-1,-1],"loss_changes":[3.1251863E1,1.5843279E1,1.7774044E1,0E0,0E0,2.1821394E1,0E0,2.1307436E1,2.367698E1,0E0,0E0,0E0,0E0],"parents":[2147483647,0,0,1,1,2,2,5,5,7,7,8,8],"right_children":[2,4,6,-1,-1,8,-1,10,12,-1,-1,-1,-1],"split_conditions":[-7.525311E-1,-3.5313662E-2,9.287941E-1,2.4723812E-4,-4.372574E-3,9.3285896E-2,4.6867505E-3,5.4773714E-2,9.081787E-1,5.349263E-4,4.5517324E-3,-2.928567E-3,1.7407702E-3],"split_indices":[30,19,22,0,0,35,0,20,45,0,0,0,0],"split_type":[0,0,0,0,0,0,0,0,0,0,0,0,0],"sum_hessian":[1.4763817E3,3.0437292E2,1.1720088E3,1.1958923E2,1.847837E2,1.0539819E3,1.18026794E2,6.07011E2,4.4697098E2,4.1162985E2,1.9538113E2,2.6867896E2,1.7829202E2],"tree_param":{"num_deleted":"0","num_feature":"53","num_nodes":"13","size_leaf_vector":"1"}},{"base_weights":[4.143032E-3,4.182457E-3,-3.7269197E-2,-1.579087E-1,1.2670499E-1,8.7671965E-2,-2.8391692E-1,-4.97234E-2,3.2135952E-1,5.560326E-3,-2.207484E-3,-4.590206E-3,-5.8828143E-4,1.2266698E-3,-3.9473586E-3,7.837578E-3,3.196737E-4],"categories":[],"categories_nodes":[],"categories_segments":[],"categories_sizes":[],"default_left":[0,0,0,0,0,0,0,0,0,0,0,0,0,0,0,0,0],"id":53,"left_children":[1,-1,3,5,7,9,11,13,15,-1,-1,-1,-1,-1,-1,-1,-1],"loss_changes":[2.5992174E1,0E0,2.709468E1,2.4598919E1,2.0042816E1,3.9144173E1,2.034055E1,1.8311539E1,3.6577484E1,0E0,0E0,0E0,0E0,0E0,0E0,0E0,0E0],"parents":[2147483647,0,0,2,2,3,3,4,4,5,5,6,6,7,7,8,8],"right_children":[2,-1,4,6,8,10,12,14,16,-1,-1,-1,-1,-1,-1,-1,-1],"split_conditions":[-1.2103837E0,4.182457E-3,9.0057686E-2,-6.9069564E-1,4.038395E-1,-7.501246E-1,-4.560628E-1,-2.4063869E-1,1.0680788E0,5.560326E-3,-2.207484E-3,-4.590206E-3,-5.8828143E-4,1.2266698E-3,-3.9473586E-3,7.837578E-3,3.196737E-4],"split_indices":[16,0,26,22,15,21,15,21,4,0,0,0,0,0,0,0,0],"split_type":[0,0,0,0,0,0,0,0,0,0,0,0,0,0,0,0,0],"sum_hessian":[1.5007489E3,1.3588072E2,1.3648682E3,7.8813947E2,5.767287E2,2.6612402E2,5.2201544E2,3.019614E2,2.747673E2,1.0567051E2,1.604535E2,2.911898E2,2.3082564E2,2.0124577E2,1.00715614E2,1.0378793E2,1.7097939E2],"tree_param":{"num_deleted":"0","num_feature":"53","num_nodes":"17","size_leaf_vector":"1"}},{"base_weights":[2.1331639E-3,5.0907102E-3,-4.9795907E-2,-2.0074597E-1,1.1586588E-1,7.970822E-2,-3.4854406E-1,3.0684724E-1,-9.604323E-2,-2.7976024E-3,3.9268453E-3,-1.8010455E-3,-7.923395E-3,6.633055E-3,1.0686226E-3,1.4849777E-3,-3.7803089E-3],"categories":[],"categories_nodes":[],"categories_segments":[],"categories_sizes":[],"default_left":[0,0,0,0,0,0,0,0,0,0,0,0,0,0,0,0,0],"id":54,"left_children":[1,-1,3,5,7,9,11,13,15,-1,-1,-1,-1,-1,-1,-1,-1],"loss_changes":[3.910102E1,0E0,3.3562435E1,2.9317385E1,2.5979822E1,2.7612232E1,3.3743603E1,2.3512688E1,2.1097424E1,0E0,0E0,0E0,0E0,0E0,0E0,0E0,0E0],"parents":[2147483647,0,0,2,2,3,3,4,4,5,5,6,6,7,7,8,8],"right_children":[2,-1,4,6,8,10,12,14,16,-1,-1,-1,-1,-1,-1,-1,-1],"split_conditions":[-1.1836641E0,5.0907102E-3,-5.601073E-2,-6.9069564E-1,4.546651E-1,-9.927828E-1,5.500661E-1,-6.162211E-1,2.3591495E-1,-2.7976024E-3,3.9268453E-3,-1.8010455E-3,-7.923395E-3,6.633055E-3,1.0686226E-3,1.4849777E-3,-3.7803089E-3],"split_indices":[16,0,25,22,28,22,24,17,16,0,0,0,0,0,0,0,0],"split_type":[0,0,0,0,0,0,0,0,0,0,0,0,0,0,0,0,0],"sum_hessian":[1.4726804E3,1.3609795E2,1.3365825E3,7.007017E2,6.358808E2,2.4097607E2,4.5972565E2,3.3522522E2,3.0065555E2,1.11512856E2,1.2946321E2,3.3609967E2,1.2362599E2,1.1791566E2,2.1730957E2,1.605765E2,1.4007904E2],"tree_param":{"num_deleted":"0","num_feature":"53","num_nodes":"17","size_leaf_vector":"1"}},{"base_weights":[2.137975E-3,-2.4885154E-1,6.568294E-2,1.0481105E-3,-4.3977466E-3,2.9596428E-3,3.3816737E-1,3.0478606E-1,-1.0257484E-1,6.438629E-3,6.170982E-4,5.741512E-3,9.410979E-4,-3.1201981E-3,2.4866496E-4],"categories":[],"categories_nodes":[],"categories_segments":[],"categories_sizes":[],"default_left":[0,0,0,0,0,0,0,0,0,0,0,0,0,0,0],"id":55,"left_children":[1,3,5,-1,-1,7,9,11,13,-1,-1,-1,-1,-1,-1],"loss_changes":[2.3766735E1,2.055885E1,2.0255146E1,0E0,0E0,3.1223114E1,1.8341053E1,1.3991598E1,1.945044E1,0E0,0E0,0E0,0E0,0E0,0E0],"parents":[2147483647,0,0,1,1,2,2,5,5,6,6,7,7,8,8],"right_children":[2,4,6,-1,-1,8,10,12,14,-1,-1,-1,-1,-1,-1],"split_conditions":[-7.958704E-1,-6.7846966E-1,7.7929515E-1,1.0481105E-3,-4.3977466E-3,-6.281417E-1,4.148357E-2,-2.591541E-1,-1.313104E-1,6.438629E-3,6.170982E-4,5.741512E-3,9.410979E-4,-3.1201981E-3,2.4866496E-4],"split_indices":[30,38,19,0,0,17,35,29,17,0,0,0,0,0,0],"split_type":[0,0,0,0,0,0,0,0,0,0,0,0,0,0,0],"sum_hessian":[1.4918524E3,2.9862894E2,1.1932234E3,1.04092705E2,1.9453624E2,9.7308527E2,2.2013818E2,2.5234514E2,7.207401E2,1.0241989E2,1.177183E2,1.0819104E2,1.441541E2,2.7303845E2,4.4770166E2],"tree_param":{"num_deleted":"0","num_feature":"53","num_nodes":"15","size_leaf_vector":"1"}},{"base_weights":[-2.6122876E-2,2.3189655E-1,-1.0553496E-1,5.7146065E-3,-1.5783678E-3,-3.485595E-1,-1.8541023E-4,4.373123E-4,-5.7046884E-1,2.1354173E-1,-1.221788E-1,-8.864319E-3,-2.1350975E-3,-3.6955133E-4,3.7149584E-3,2.396519E-3,-2.2226886E-3],"categories":[],"categories_nodes":[],"categories_segments":[],"categories_sizes":[],"default_left":[0,0,0,0,0,0,0,0,0,0,0,0,0,0,0,0,0],"id":56,"left_children":[1,3,5,-1,-1,7,9,-1,11,13,15,-1,-1,-1,-1,-1,-1],"loss_changes":[3.0182226E1,4.6173325E1,2.8750008E1,0E0,0E0,2.99291E1,2.0644754E1,0E0,2.3686562E1,1.1545289E1,1.8447525E1,0E0,0E0,0E0,0E0,0E0,0E0],"parents":[2147483647,0,0,1,1,2,2,5,5,6,6,8,8,9,9,10,10],"right_children":[2,4,6,-1,-1,8,10,-1,12,14,16,-1,-1,-1,-1,-1,-1],"split_conditions":[-7.909925E-1,9.0071075E-2,-5.4689425E-1,5.7146065E-3,-1.5783678E-3,-6.75459E-1,-4.5441455E-1,4.373123E-4,-3.946295E-1,-4.315569E-1,-9.0125567E-1,-8.864319E-3,-2.1350975E-3,-3.6955133E-4,3.7149584E-3,2.396519E-3,-2.2226886E-3],"split_indices":[16,12,14,0,0,22,7,0,3,15,22,0,0,0,0,0,0],"split_type":[0,0,0,0,0,0,0,0,0,0,0,0,0,0,0,0,0],"sum_hessian":[1.471727E3,3.4397482E2,1.1277523E3,1.8400586E2,1.5996898E2,3.3820477E2,7.895475E2,1.21958885E2,2.1624588E2,2.8486932E2,5.0467816E2,1.12393364E2,1.03852516E2,1.0953158E2,1.7533774E2,1.0766813E2,3.9701004E2],"tree_param":{"num_deleted":"0","num_feature":"53","num_nodes":"17","size_leaf_vector":"1"}},{"base_weights":[6.2935962E-3,-9.490779E-2,1.5193571E-1,5.7268017E-3,-4.564635E-3,3.6431366E-1,-1.598062E-1,5.0444067E-3,-8.178003E-2,1.3287248E-1,7.719984E-3,-3.951702E-3,1.4100933E-3,-1.9313286E-3,3.3890572E-3,4.4045663E-3,-1.0526698E-3],"categories":[],"categories_nodes":[],"categories_segments":[],"categories_sizes":[],"default_left":[0,0,0,0,0,0,0,0,0,0,0,0,0,0,0,0,0],"id":57,"left_children":[1,3,5,7,-1,9,11,-1,13,15,-1,-1,-1,-1,-1,-1,-1],"loss_changes":[2.1784616E1,3.1847727E1,4.0416702E1,2.9998056E1,0E0,3.3564465E1,1.7688236E1,0E0,2.7223957E1,1.7440859E1,0E0,0E0,0E0,0E0,0E0,0E0,0E0],"parents":[2147483647,0,0,1,1,2,2,3,3,5,5,6,6,8,8,9,9],"right_children":[2,4,6,8,-1,10,12,-1,14,16,-1,-1,-1,-1,-1,-1,-1],"split_conditions":[5.4773714E-2,5.8053505E-1,3.793321E-1,-8.285523E-1,-4.564635E-3,-3.7833918E-2,3.892283E-1,5.0444067E-3,3.111767E-1,5.917425E-2,7.719984E-3,-3.951702E-3,1.4100933E-3,-1.9313286E-3,3.3890572E-3,4.4045663E-3,-1.0526698E-3],"split_indices":[20,18,45,16,0,4,29,0,17,12,0,0,0,0,0,0,0],"split_type":[0,0,0,0,0,0,0,0,0,0,0,0,0,0,0,0,0],"sum_hessian":[1.4721157E3,8.6696027E2,6.051554E2,6.786514E2,1.8830888E2,3.6069452E2,2.4446088E2,1.007347E2,5.779167E2,2.3255318E2,1.2814134E2,1.377317E2,1.06729164E2,4.5875702E2,1.1915969E2,1.01654854E2,1.3089833E2],"tree_param":{"num_deleted":"0","num_feature":"53","num_nodes":"17","size_leaf_vector":"1"}},{"base_weights":[-2.5506543E-2,-1.3233784E-1,1.861444E-1,1.8574704E-1,-2.3738113E-1,4.147119E-1,1.0365417E-2,4.3857596E-3,-1.314768E-3,-1.5943566E-1,-6.156477E-3,1.9487444E-3,6.345079E-3,1.7019829E-3,-2.5975043E-3,-4.6065254E-3,1.0929414E-4],"categories":[],"categories_nodes":[],"categories_segments":[],"categories_sizes":[],"default_left":[0,0,0,0,0,0,0,0,0,0,0,0,0,0,0,0,0],"id":58,"left_children":[1,3,5,7,9,11,13,-1,-1,15,-1,-1,-1,-1,-1,-1,-1],"loss_changes":[3.2903454E1,3.2495953E1,1.9347647E1,1.956068E1,2.0957726E1,9.506763E0,1.2072236E1,0E0,0E0,3.1516747E1,0E0,0E0,0E0,0E0,0E0,0E0,0E0],"parents":[2147483647,0,0,1,1,2,2,3,3,4,4,5,5,6,6,9,9],"right_children":[2,4,6,8,10,12,14,-1,-1,16,-1,-1,-1,-1,-1,-1,-1],"split_conditions":[2.605225E-1,-8.285523E-1,5.6645405E-1,4.910613E-1,1.3435093E-1,-1.442009E-1,3.586527E-1,4.3857596E-3,-1.314768E-3,1.9378703E-3,-6.156477E-3,1.9487444E-3,6.345079E-3,1.7019829E-3,-2.5975043E-3,-4.6065254E-3,1.0929414E-4],"split_indices":[25,16,38,18,4,20,5,0,0,18,0,0,0,0,0,0,0],"split_type":[0,0,0,0,0,0,0,0,0,0,0,0,0,0,0,0,0],"sum_hessian":[1.4522114E3,9.6715137E2,4.8506E2,2.3853613E2,7.2861523E2,2.0844868E2,2.766113E2,1.3319232E2,1.0534383E2,6.075819E2,1.2103332E2,1.0723827E2,1.012104E2,1.7540913E2,1.0120217E2,2.1932594E2,3.8825598E2],"tree_param":{"num_deleted":"0","num_feature":"53","num_nodes":"17","size_leaf_vector":"1"}},{"base_weights":[-9.904264E-5,-1.1317971E-1,1.286149E-1,2.7772181E-3,-1.8818446E-1,3.2663852E-1,-8.713752E-2,-3.8656436E-2,-5.713088E-3,5.903068E-3,1.7096712E-1,-4.5082597E-3,1.1205434E-1,1.988446E-3,-2.6592738E-3,-9.3247154E-4,5.0036674E-3,-1.0355788E-3,3.4976373E-3],"categories":[],"categories_nodes":[],"categories_segments":[],"categories_sizes":[],"default_left":[0,0,0,0,0,0,0,0,0,0,0,0,0,0,0,0,0,0,0],"id":59,"left_children":[1,3,5,-1,7,9,11,13,-1,-1,15,-1,17,-1,-1,-1,-1,-1,-1],"loss_changes":[2.1679798E1,2.3376137E1,2.9860512E1,0E0,3.800463E1,1.4354179E1,2.4385223E1,2.6298445E1,0E0,0E0,2.0559664E1,0E0,1.1255522E1,0E0,0E0,0E0,0E0,0E0,0E0],"parents":[2147483647,0,0,1,1,2,2,4,4,5,5,6,6,7,7,10,10,12,12],"right_children":[2,4,6,-1,8,10,12,14,-1,-1,16,-1,18,-1,-1,-1,-1,-1,-1],"split_conditions":[-6.3705765E-2,-6.890666E-1,4.546651E-1,2.7772181E-3,-4.4130215E-1,-6.162211E-1,2.7201143E-1,9.783693E-2,-5.713088E-3,5.903068E-3,6.1433643E-1,-4.5082597E-3,-8.1514835E-2,1.988446E-3,-2.6592738E-3,-9.3247154E-4,5.0036674E-3,-1.0355788E-3,3.4976373E-3],"split_indices":[25,2,28,0,25,17,18,12,0,0,30,0,13,0,0,0,0,0,0],"split_type":[0,0,0,0,0,0,0,0,0,0,0,0,0,0,0,0,0,0,0],"sum_hessian":[1.4860326E3,7.932525E2,6.927801E2,1.25759766E2,6.6749274E2,3.6190402E2,3.3087607E2,4.8263425E2,1.8485847E2,1.3108426E2,2.3081976E2,1.1708448E2,2.137916E2,2.35052E2,2.4758224E2,1.280365E2,1.02783264E2,1.1159533E2,1.0219627E2],"tree_param":{"num_deleted":"0","num_feature":"53","num_nodes":"19","size_leaf_vector":"1"}},{"base_weights":[-1.3919033E-2,-1.635112E-1,1.1349847E-1,1.5515818E-1,-3.1879127E-1,2.3872507E-1,-8.076227E-2,-2.2626305E-3,5.064298E-3,1.1989474E-3,-4.5023522E-1,5.555602E-2,5.2867387E-3,1.4269949E-3,-2.4419383E-3,-7.0748893E-3,-1.1866546E-3,-8.906507E-4,3.330845E-3],"categories":[],"categories_nodes":[],"categories_segments":[],"categories_sizes":[],"default_left":[0,0,0,0,0,0,0,0,0,0,0,0,0,0,0,0,0,0,0],"id":60,"left_children":[1,3,5,7,9,11,13,-1,-1,-1,15,17,-1,-1,-1,-1,-1,-1,-1],"loss_changes":[2.8472431E1,3.423625E1,1.9683289E1,3.0619E1,2.7054688E1,2.5731964E1,1.1631084E1,0E0,0E0,0E0,3.001271E1,1.2393608E1,0E0,0E0,0E0,0E0,0E0,0E0,0E0],"parents":[2147483647,0,0,1,1,2,2,3,3,4,4,5,5,6,6,10,10,11,11],"right_children":[2,4,6,8,10,12,14,-1,-1,-1,16,18,-1,-1,-1,-1,-1,-1,-1],"split_conditions":[-3.446865E-1,-6.9069564E-1,4.6614906E-1,-9.927828E-1,-9.361013E-1,5.4773714E-2,-3.0558062E-1,-2.2626305E-3,5.064298E-3,1.1989474E-3,-4.7250724E-1,-4.9221212E-1,5.2867387E-3,1.4269949E-3,-2.4419383E-3,-7.0748893E-3,-1.1866546E-3,-8.906507E-4,3.330845E-3],"split_indices":[3,22,35,22,16,20,15,0,0,0,15,11,0,0,0,0,0,0,0],"split_type":[0,0,0,0,0,0,0,0,0,0,0,0,0,0,0,0,0,0,0],"sum_hessian":[1.4885205E3,6.862265E2,8.02294E2,2.2377394E2,4.6245258E2,4.8911267E2,3.1318134E2,1.06941734E2,1.168322E2,1.05782364E2,3.566702E2,3.0226855E2,1.8684412E2,1.3110896E2,1.8207239E2,1.9871696E2,1.5795325E2,1.9842506E2,1.0384348E2],"tree_param":{"num_deleted":"0","num_feature":"53","num_nodes":"19","size_leaf_vector":"1"}},{"base_weights":[-2.1231527E-2,-2.0984693E-1,8.853037E-2,-3.3375973E-1,1.7355881E-3,2.4218102E-1,-6.2021956E-2,2.6146555E-4,-4.9207526E-1,4.0878722E-1,2.868767E-2,1.9743748E-2,-3.5700833E-3,-2.5984899E-3,-6.1349086E-3,6.408813E-3,2.3292804E-3,2.309784E-3,-1.7427033E-3,-2.522456E-3,1.4223738E-3],"categories":[],"categories_nodes":[],"categories_segments":[],"categories_sizes":[],"default_left":[0,0,0,0,0,0,0,0,0,0,0,0,0,0,0,0,0,0,0,0,0],"id":61,"left_children":[1,3,5,7,-1,9,11,-1,13,15,17,19,-1,-1,-1,-1,-1,-1,-1,-1,-1],"loss_changes":[3.0557339E1,2.6016888E1,2.1628216E1,2.3757736E1,0E0,1.6198172E1,1.1508732E1,0E0,7.3505554E0,9.80093E0,8.569044E0,1.228509E1,0E0,0E0,0E0,0E0,0E0,0E0,0E0,0E0,0E0],"parents":[2147483647,0,0,1,1,2,2,3,3,5,5,6,6,8,8,9,9,10,10,11,11],"right_children":[2,4,6,8,-1,10,12,-1,14,16,18,20,-1,-1,-1,-1,-1,-1,-1,-1,-1],"split_conditions":[-5.3809714E-1,4.3579078E-1,-2.032749E-2,-9.1772753E-1,1.7355881E-3,3.5387546E-1,6.7183554E-1,2.6146555E-4,-2.664332E-1,6.650207E-2,3.586527E-1,4.8109084E-1,-3.5700833E-3,-2.5984899E-3,-6.1349086E-3,6.408813E-3,2.3292804E-3,2.309784E-3,-1.7427033E-3,-2.522456E-3,1.4223738E-3],"split_indices":[3,30,35,5,0,36,16,0,2,28,5,0,0,0,0,0,0,0,0,0,0],"split_type":[0,0,0,0,0,0,0,0,0,0,0,0,0,0,0,0,0,0,0,0,0],"sum_hessian":[1.4692769E3,5.414971E2,9.277797E2,4.1041748E2,1.3107962E2,4.6020636E2,4.675734E2,1.2492683E2,2.8549063E2,2.561445E2,2.0406186E2,3.6623093E2,1.0134246E2,1.01587364E2,1.8390327E2,1.0691252E2,1.4923198E2,1.0329445E2,1.0076741E2,1.1179558E2,2.5443535E2],"tree_param":{"num_deleted":"0","num_feature":"53","num_nodes":"21","size_leaf_vector":"1"}},{"base_weights":[2.167453E-2,-1.2173865E-1,1.8888415E-1,2.7842356E-3,-2.0632295E-1,3.837115E-1,7.898173E-2,-8.062549E-2,-5.5254186E-3,5.987718E-3,1.6491701E-3,-4.060331E-2,3.0208915E-3,2.4889475E-3,-2.6542768E-3,2.0110458E-3,-2.1129255E-3],"categories":[],"categories_nodes":[],"categories_segments":[],"categories_sizes":[],"default_left":[0,0,0,0,0,0,0,0,0,0,0,0,0,0,0,0,0],"id":62,"left_children":[1,3,5,-1,7,9,11,13,-1,-1,-1,15,-1,-1,-1,-1,-1],"loss_changes":[3.554539E1,2.7012714E1,1.438014E1,0E0,2.8276394E1,1.0947578E1,1.1954802E1,2.9792292E1,0E0,0E0,0E0,1.198163E1,0E0,0E0,0E0,0E0,0E0],"parents":[2147483647,0,0,1,1,2,2,4,4,5,5,6,6,7,7,11,11],"right_children":[2,4,6,-1,8,10,12,14,-1,-1,-1,16,-1,-1,-1,-1,-1],"split_conditions":[-5.0930254E-2,-6.281263E-1,-1.6682336E-1,2.7842356E-3,-4.1536397E-1,2.5704664E-1,2.996108E-1,-6.8990797E-1,-5.5254186E-3,5.987718E-3,1.6491701E-3,-4.3388316E-1,3.0208915E-3,2.4889475E-3,-2.6542768E-3,2.0110458E-3,-2.1129255E-3],"split_indices":[25,2,29,0,25,6,13,22,0,0,0,19,0,0,0,0,0],"split_type":[0,0,0,0,0,0,0,0,0,0,0,0,0,0,0,0,0],"sum_hessian":[1.4769713E3,7.937433E2,6.83228E2,1.3667049E2,6.570728E2,2.4297203E2,4.40256E2,4.8492642E2,1.7214638E2,1.19627525E2,1.233445E2,2.8623154E2,1.5402446E2,1.7301846E2,3.1190796E2,1.1710997E2,1.6912157E2],"tree_param":{"num_deleted":"0","num_feature":"53","num_nodes":"17","size_leaf_vector":"1"}},{"base_weights":[9.262413E-3,-1.93311E-1,7.940998E-2,2.034406E-3,-3.6695778E-1,2.2359896E-1,-3.4754127E-2,-1.4642343E-3,-6.642431E-3,5.649976E-3,1.2496025E-1,-3.0099925E-1,1.2868766E-1,-2.344528E-3,2.5906211E-3,4.7026516E-4,-6.178925E-3,4.258474E-3,-1.285387E-4],"categories":[],"categories_nodes":[],"categories_segments":[],"categories_sizes":[],"default_left":[0,0,0,0,0,0,0,0,0,0,0,0,0,0,0,0,0,0,0],"id":63,"left_children":[1,3,5,-1,7,9,11,-1,-1,-1,13,15,17,-1,-1,-1,-1,-1,-1],"loss_changes":[2.082426E1,2.6146538E1,1.8104504E1,0E0,1.6658321E1,1.5854925E1,2.6703365E1,0E0,0E0,0E0,1.8457993E1,2.6123055E1,1.6122238E1,0E0,0E0,0E0,0E0,0E0,0E0],"parents":[2147483647,0,0,1,1,2,2,4,4,5,5,6,6,10,10,11,11,12,12],"right_children":[2,4,6,-1,8,10,12,-1,-1,-1,14,16,18,-1,-1,-1,-1,-1,-1],"split_conditions":[-7.2031415E-1,-1.1535447E0,6.650207E-2,2.034406E-3,2.4463688E-1,-7.291606E-1,6.8478417E-3,-1.4642343E-3,-6.642431E-3,5.649976E-3,-2.570735E-1,5.6645405E-1,-7.501246E-1,-2.344528E-3,2.5906211E-3,4.7026516E-4,-6.178925E-3,4.258474E-3,-1.285387E-4],"split_indices":[3,27,28,0,7,17,17,0,0,0,12,38,21,0,0,0,0,0,0],"split_type":[0,0,0,0,0,0,0,0,0,0,0,0,0,0,0,0,0,0,0],"sum_hessian":[1.4653091E3,3.7416095E2,1.0911482E3,1.1292503E2,2.6123593E2,4.8325757E2,6.0789056E2,1.5265744E2,1.0857848E2,1.0507104E2,3.7818652E2,2.3174924E2,3.7614136E2,1.0134407E2,2.7684247E2,1.1050895E2,1.2124029E2,1.2120095E2,2.549404E2],"tree_param":{"num_deleted":"0","num_feature":"53","num_nodes":"19","size_leaf_vector":"1"}},{"base_weights":[2.1276059E-2,5.1852576E-3,-1.6644819E-2,1.5759436E-2,-4.0928954E-3,3.7275937E-3,-1.6464131E-2,-2.765653E-3,3.57212E-4],"categories":[],"categories_nodes":[],"categories_segments":[],"categories_sizes":[],"default_left":[0,0,0,0,0,0,0,0,0],"id":64,"left_children":[1,-1,3,5,-1,-1,7,-1,-1],"loss_changes":[2.8055824E1,0E0,1.7643812E1,1.47603855E1,0E0,0E0,1.5916741E1,0E0,0E0],"parents":[2147483647,0,0,2,2,3,3,6,6],"right_children":[2,-1,4,6,-1,-1,8,-1,-1],"split_conditions":[-1.0951629E0,5.1852576E-3,1.5833751E0,-1.0346633E0,-4.0928954E-3,3.7275937E-3,-7.7495015E-1,-2.765653E-3,3.57212E-4],"split_indices":[29,0,21,12,0,0,13,0,0],"split_type":[0,0,0,0,0,0,0,0,0],"sum_hessian":[1.4716637E3,1.0341669E2,1.3682471E3,1.2645337E3,1.03713356E2,1.0422474E2,1.160309E3,1.9406009E2,9.662489E2],"tree_param":{"num_deleted":"0","num_feature":"53","num_nodes":"9","size_leaf_vector":"1"}},{"base_weights":[9.652964E-3,-3.2888378E-3,5.1924244E-2,8.4588025E-3,4.3641096E-3,2.8231826E-1,-6.759749E-2,5.795439E-3,-1.9568834E-4,1.383526E-3,-2.127436E-3],"categories":[],"categories_nodes":[],"categories_segments":[],"categories_sizes":[],"default_left":[0,0,0,0,0,0,0,0,0,0,0],"id":65,"left_children":[1,-1,3,5,-1,7,9,-1,-1,-1,-1],"loss_changes":[2.101706E1,0E0,2.1748854E1,2.4823107E1,0E0,2.3572472E1,2.7820183E1,0E0,0E0,0E0,0E0],"parents":[2147483647,0,0,2,2,3,3,5,5,6,6],"right_children":[2,-1,4,6,-1,8,10,-1,-1,-1,-1],"split_conditions":[-1.4339098E0,-3.2888378E-3,1.4629427E0,-8.285523E-1,4.3641096E-3,-3.8454664E-1,-4.6829876E-1,5.795439E-3,-1.9568834E-4,1.383526E-3,-2.127436E-3],"split_indices":[30,0,44,16,0,15,7,0,0,0,0],"split_type":[0,0,0,0,0,0,0,0,0,0,0],"sum_hessian":[1.4739485E3,1.6079614E2,1.3131523E3,1.1827853E3,1.3036703E2,2.5733548E2,9.2544977E2,1.2957654E2,1.2775895E2,3.8120328E2,5.442465E2],"tree_param":{"num_deleted":"0","num_feature":"53","num_nodes":"11","size_leaf_vector":"1"}},{"base_weights":[2.2731591E-2,-1.04410954E-1,1.2348029E-1,1.8096198E-1,-2.9492202E-1,3.8378723E-2,5.2562994E-3,-6.3398504E-4,4.5182467E-3,-4.4240174E-1,-5.9814633E-5,1.187105E-1,-4.0893257E-3,-1.2221634E-3,-6.3701007E-3,5.1916526E-3,6.736676E-5],"categories":[],"categories_nodes":[],"categories_segments":[],"categories_sizes":[],"default_left":[0,0,0,0,0,0,0,0,0,0,0,0,0,0,0,0,0],"id":66,"left_children":[1,3,5,7,9,11,-1,-1,-1,13,-1,15,-1,-1,-1,-1,-1],"loss_changes":[1.912132E1,3.591542E1,2.8233494E1,1.7688606E1,1.6651833E1,2.4812199E1,0E0,0E0,0E0,1.5734596E1,0E0,2.6141542E1,0E0,0E0,0E0,0E0,0E0],"parents":[2147483647,0,0,1,1,2,2,3,3,4,4,5,5,9,9,11,11],"right_children":[2,4,6,8,10,12,-1,-1,-1,14,-1,16,-1,-1,-1,-1,-1],"split_conditions":[3.1839482E-2,9.783693E-2,7.7929515E-1,-9.593603E-2,1.049983E0,2.6768714E-1,5.2562994E-3,-6.3398504E-4,4.5182467E-3,-1.8389191E-2,-5.9814633E-5,-6.4122045E-1,-4.0893257E-3,-1.2221634E-3,-6.3701007E-3,5.1916526E-3,6.736676E-5],"split_indices":[30,12,19,22,11,19,0,0,0,47,0,44,0,0,0,0,0],"split_type":[0,0,0,0,0,0,0,0,0,0,0,0,0,0,0,0,0],"sum_hessian":[1.4879943E3,6.556029E2,8.3239136E2,2.6144754E2,3.9415536E2,6.8984326E2,1.4254814E2,1.3728287E2,1.2416467E2,2.5910928E2,1.3504607E2,5.870102E2,1.0283302E2,1.0015368E2,1.5895561E2,1.2570609E2,4.6130414E2],"tree_param":{"num_deleted":"0","num_feature":"53","num_nodes":"17","size_leaf_vector":"1"}},{"base_weights":[-1.800488E-2,1.612247E-1,-9.359538E-2,-1.3684582E-2,4.726379E-3,-1.8497322E-1,1.19103506E-1,-3.164922E-3,1.7045656E-3,-1.2238269E-1,-5.1098093E-3,3.6195316E-3,-1.2503995E-3,-3.1766817E-3,6.915538E-4],"categories":[],"categories_nodes":[],"categories_segments":[],"categories_sizes":[],"default_left":[0,0,0,0,0,0,0,0,0,0,0,0,0,0,0],"id":67,"left_children":[1,3,5,7,-1,9,11,-1,-1,13,-1,-1,-1,-1,-1],"loss_changes":[2.0154106E1,2.4216324E1,2.047955E1,1.59471445E1,0E0,1.4590721E1,1.8886932E1,0E0,0E0,2.3432467E1,0E0,0E0,0E0,0E0,0E0],"parents":[2147483647,0,0,1,1,2,2,3,3,5,5,6,6,9,9],"right_children":[2,4,6,8,-1,10,12,-1,-1,14,-1,-1,-1,-1,-1],"split_conditions":[-3.785365E-1,5.4773714E-2,4.8015118E-1,-1.240573E-1,4.726379E-3,9.228662E-1,-8.202443E-2,-3.164922E-3,1.7045656E-3,-5.3809714E-1,-5.1098093E-3,3.6195316E-3,-1.2503995E-3,-3.1766817E-3,6.915538E-4],"split_indices":[35,20,30,3,0,16,28,0,0,3,0,0,0,0,0],"split_type":[0,0,0,0,0,0,0,0,0,0,0,0,0,0,0],"sum_hessian":[1.4858699E3,4.381381E2,1.0477318E3,2.8075497E2,1.5738312E2,7.3470544E2,3.1302634E2,1.0665155E2,1.7410342E2,6.1996277E2,1.14742714E2,1.5747186E2,1.5555447E2,3.0761884E2,3.123439E2],"tree_param":{"num_deleted":"0","num_feature":"53","num_nodes":"15","size_leaf_vector":"1"}},{"base_weights":[-1.0731827E-2,-2.65188E-1,5.2221373E-2,2.2546003E-4,-4.2093545E-3,-2.3555772E-3,1.0105136E-1,4.7988985E-3,5.4421633E-2,-1.8096425E-3,1.3091529E-3],"categories":[],"categories_nodes":[],"categories_segments":[],"categories_sizes":[],"default_left":[0,0,0,0,0,0,0,0,0,0,0],"id":68,"left_children":[1,3,5,-1,-1,-1,7,-1,9,-1,-1],"loss_changes":[2.3847727E1,1.3461094E1,1.66582E1,0E0,0E0,0E0,1.7655966E1,0E0,1.6397871E1,0E0,0E0],"parents":[2147483647,0,0,1,1,2,2,6,6,8,8],"right_children":[2,4,6,-1,-1,-1,8,-1,10,-1,-1],"split_conditions":[-8.146896E-1,-6.7846966E-1,-8.5213375E-1,2.2546003E-4,-4.2093545E-3,-2.3555772E-3,-7.1038675E-1,4.7988985E-3,-6.1544776E-1,-1.8096425E-3,1.3091529E-3],"split_indices":[30,38,20,0,0,0,20,0,28,0,0],"split_type":[0,0,0,0,0,0,0,0,0,0,0],"sum_hessian":[1.4783546E3,2.9350955E2,1.1848451E3,1.02551674E2,1.9095787E2,1.6928397E2,1.0155611E3,1.0808991E2,9.074712E2,2.2029933E2,6.871719E2],"tree_param":{"num_deleted":"0","num_feature":"53","num_nodes":"11","size_leaf_vector":"1"}},{"base_weights":[1.4278531E-2,-1.13469E-1,1.2758625E-1,1.3072512E-1,-2.3838079E-1,2.6228234E-1,-1.6641887E-1,-2.4531318E-3,4.468325E-3,-4.1624677E-1,-1.2252536E-2,1.2259979E-1,5.20256E-3,1.0092106E-3,-3.638028E-3,-1.7803641E-3,-5.7943277E-3,2.6999998E-3,-2.9301888E-3,3.1203225E-3,-1.4807427E-3],"categories":[],"categories_nodes":[],"categories_segments":[],"categories_sizes":[],"default_left":[0,0,0,0,0,0,0,0,0,0,0,0,0,0,0,0,0,0,0,0,0],"id":69,"left_children":[1,3,5,7,9,11,13,-1,-1,15,17,19,-1,-1,-1,-1,-1,-1,-1,-1,-1],"loss_changes":[2.1318518E1,2.1166222E1,3.1111855E1,2.8073439E1,1.8221655E1,1.8951462E1,1.3176706E1,0E0,0E0,9.343323E0,1.6432508E1,1.828168E1,0E0,0E0,0E0,0E0,0E0,0E0,0E0,0E0,0E0],"parents":[2147483647,0,0,1,1,2,2,3,3,4,4,5,5,6,6,9,9,10,10,11,11],"right_children":[2,4,6,8,10,12,14,-1,-1,16,18,20,-1,-1,-1,-1,-1,-1,-1,-1,-1],"split_conditions":[-3.2459855E-1,-6.8726605E-1,7.485811E-1,-9.927828E-1,-4.617363E-1,4.689797E-1,-2.5702864E-1,-2.4531318E-3,4.468325E-3,-6.5014774E-1,1.8774416E-1,4.881867E-1,5.20256E-3,1.0092106E-3,-3.638028E-3,-1.7803641E-3,-5.7943277E-3,2.6999998E-3,-2.9301888E-3,3.1203225E-3,-1.4807427E-3],"split_indices":[3,22,35,22,15,15,15,0,0,5,22,28,0,0,0,0,0,0,0,0,0],"split_type":[0,0,0,0,0,0,0,0,0,0,0,0,0,0,0,0,0,0,0,0,0],"sum_hessian":[1.4683162E3,6.881046E2,7.802116E2,2.3148032E2,4.566243E2,5.363867E2,2.4382486E2,1.0520072E2,1.26279594E2,2.5340813E2,2.0321619E2,3.5114453E2,1.852422E2,1.02899895E2,1.4092496E2,1.05967834E2,1.4744029E2,1.0049005E2,1.0272613E2,2.0748022E2,1.436643E2],"tree_param":{"num_deleted":"0","num_feature":"53","num_nodes":"21","size_leaf_vector":"1"}},{"base_weights":[-2.3765776E-3,-3.5360698E-2,4.2883665E-3,2.5519814E-2,-4.8235357E-3,3.7620202E-1,-6.0335442E-2,5.9860013E-3,8.152277E-4,-2.0792754E-3,9.5519866E-4],"categories":[],"categories_nodes":[],"categories_segments":[],"categories_sizes":[],"default_left":[0,0,0,0,0,0,0,0,0,0,0],"id":70,"left_children":[1,3,-1,5,-1,7,9,-1,-1,-1,-1],"loss_changes":[2.1018326E1,3.798518E1,0E0,3.69725E1,0E0,1.5396404E1,2.2676556E1,0E0,0E0,0E0,0E0],"parents":[2147483647,0,0,1,1,3,3,5,5,6,6],"right_children":[2,4,-1,6,-1,8,10,-1,-1,-1,-1],"split_conditions":[1.7113776E0,1.2155533E0,4.2883665E-3,-8.044272E-1,-4.8235357E-3,3.9454848E-1,-1.850614E-1,5.9860013E-3,8.152277E-4,-2.0792754E-3,9.5519866E-4],"split_indices":[25,21,0,16,0,18,25,0,0,0,0],"split_type":[0,0,0,0,0,0,0,0,0,0,0],"sum_hessian":[1.4874503E3,1.3845404E3,1.0290997E2,1.2192461E3,1.652943E2,2.3960828E2,9.796378E2,1.344088E2,1.0519948E2,5.0446173E2,4.751761E2],"tree_param":{"num_deleted":"0","num_feature":"53","num_nodes":"11","size_leaf_vector":"1"}},{"base_weights":[-3.3925287E-3,2.6259714E-1,-8.195203E-2,5.3258613E-3,-6.030258E-4,-3.8029665E-1,-1.8796552E-3,-1.2186606E-3,-5.8063273E-3,-4.6080933E-3,5.805714E-2,-2.4204166E-3,1.7625733E-3],"categories":[],"categories_nodes":[],"categories_segments":[],"categories_sizes":[],"default_left":[0,0,0,0,0,0,0,0,0,0,0,0,0],"id":71,"left_children":[1,3,5,-1,-1,7,9,-1,-1,-1,11,-1,-1],"loss_changes":[3.072138E1,2.9484232E1,2.7034174E1,0E0,0E0,1.1923901E1,2.5062685E1,0E0,0E0,0E0,2.837703E1,0E0,0E0],"parents":[2147483647,0,0,1,1,2,2,5,5,6,6,10,10],"right_children":[2,4,6,-1,-1,8,10,-1,-1,-1,12,-1,-1],"split_conditions":[-7.909925E-1,9.0071075E-2,-7.19314E-1,5.3258613E-3,-6.030258E-4,-3.2689473E-1,-1.4106854E0,-1.2186606E-3,-5.8063273E-3,-4.6080933E-3,-5.272601E-1,-2.4204166E-3,1.7625733E-3],"split_indices":[16,12,30,0,0,21,21,0,0,0,28,0,0],"split_type":[0,0,0,0,0,0,0,0,0,0,0,0,0],"sum_hessian":[1.4704655E3,3.3275644E2,1.137709E3,1.8136218E2,1.5139427E2,2.3782922E2,8.998798E2,1.0635075E2,1.3147847E2,1.03367966E2,7.9651184E2,2.2328564E2,5.732262E2],"tree_param":{"num_deleted":"0","num_feature":"53","num_nodes":"13","size_leaf_vector":"1"}},{"base_weights":[-1.6143816E-2,-2.174159E-1,5.355015E-2,1.0547694E-3,-4.039426E-1,1.6735634E-2,3.7705123E-3,-9.40631E-4,-7.764791E-3,1.0479736E-1,-1.5169173E-1,1.7221719E-3,-1.5188511E-3,1.868074E-3,-3.0351027E-3],"categories":[],"categories_nodes":[],"categories_segments":[],"categories_sizes":[],"default_left":[0,0,0,0,0,0,0,0,0,0,0,0,0,0,0],"id":72,"left_children":[1,3,5,-1,7,9,-1,-1,-1,11,13,-1,-1,-1,-1],"loss_changes":[2.1008846E1,2.3454006E1,1.2970386E1,0E0,2.7789505E1,1.4796994E1,0E0,0E0,0E0,1.1447372E1,1.770613E1,0E0,0E0,0E0,0E0],"parents":[2147483647,0,0,1,1,2,2,4,4,5,5,9,9,10,10],"right_children":[2,4,6,-1,8,10,-1,-1,-1,12,14,-1,-1,-1,-1],"split_conditions":[-7.2031415E-1,-6.8726605E-1,1.6800358E0,1.0547694E-3,1.9365376E-1,4.2074913E-1,3.7705123E-3,-9.40631E-4,-7.764791E-3,5.6103575E-1,-5.719166E-1,1.7221719E-3,-1.5188511E-3,1.868074E-3,-3.0351027E-3],"split_indices":[3,22,25,0,19,2,0,0,0,22,15,0,0,0,0],"split_type":[0,0,0,0,0,0,0,0,0,0,0,0,0,0,0],"sum_hessian":[1.4881945E3,3.8352676E2,1.1046677E3,1.3976707E2,2.4375969E2,9.950767E2,1.09590965E2,1.3517061E2,1.0858908E2,6.5587744E2,3.3919928E2,5.215057E2,1.3437181E2,1.0386483E2,2.3533444E2],"tree_param":{"num_deleted":"0","num_feature":"53","num_nodes":"15","size_leaf_vector":"1"}},{"base_weights":[4.9793515E-3,-1.0601343E-1,2.1717688E-1,1.8807454E-1,-2.0242156E-1,3.539287E-1,-1.2443349E-3,5.454144E-3,-2.6906922E-3,8.072495E-3,-3.5388634E-1,1.0627619E-3,4.719328E-1,-3.1963203E-3,1.8936928E-3,-4.9182405E-3,-1.2618405E-3,6.312369E-3,2.4347822E-3],"categories":[],"categories_nodes":[],"categories_segments":[],"categories_sizes":[],"default_left":[0,0,0,0,0,0,0,0,0,0,0,0,0,0,0,0,0,0,0],"id":73,"left_children":[1,3,5,7,9,11,-1,-1,-1,13,15,-1,17,-1,-1,-1,-1,-1,-1],"loss_changes":[3.466024E1,2.7392109E1,2.3846573E1,3.9237564E1,2.337739E1,1.02188225E1,0E0,0E0,0E0,1.8180023E1,1.2902264E1,0E0,8.131794E0,0E0,0E0,0E0,0E0,0E0,0E0],"parents":[2147483647,0,0,1,1,2,2,3,3,4,4,5,5,9,9,10,10,12,12],"right_children":[2,4,6,8,10,12,-1,-1,-1,14,16,-1,18,-1,-1,-1,-1,-1,-1],"split_conditions":[2.4983026E-1,-8.285523E-1,6.927625E-1,9.0071075E-2,-2.7960834E-1,4.419648E-2,-1.2443349E-3,5.454144E-3,-2.6906922E-3,-1.0889885E-1,7.8035986E-1,1.0627619E-3,6.153979E-1,-3.1963203E-3,1.8936928E-3,-4.9182405E-3,-1.2618405E-3,6.312369E-3,2.4347822E-3],"split_indices":[25,16,24,12,46,4,0,0,0,18,9,0,29,0,0,0,0,0,0],"split_type":[0,0,0,0,0,0,0,0,0,0,0,0,0,0,0,0,0,0,0],"sum_hessian":[1.4653077E3,9.611892E2,5.041185E2,2.3555452E2,7.256347E2,3.6099734E2,1.4312115E2,1.326064E2,1.0294812E2,3.0305902E2,4.2257568E2,1.19094635E2,2.4190271E2,1.06418106E2,1.9664093E2,2.603468E2,1.6222888E2,1.3915411E2,1.0274859E2],"tree_param":{"num_deleted":"0","num_feature":"53","num_nodes":"19","size_leaf_vector":"1"}},