{"learner":{"attributes":{"best_iteration":"261","best_score":"0.4945179955632394"},"feature_names":[],"feature_types":[],"gradient_booster":{"model":{"cats":{"enc":[],"feature_segments":[],"sorted_idx":[]},"gbtree_model_param":{"num_parallel_tree":"1","num_trees":"312"},"iteration_indptr":[0,1,2,3,4,5,6,7,8,9,10,11,12,13,14,15,16,17,18,19,20,21,22,23,24,25,26,27,28,29,30,31,32,33,34,35,36,37,38,39,40,41,42,43,44,45,46,47,48,49,50,51,52,53,54,55,56,57,58,59,60,61,62,63,64,65,66,67,68,69,70,71,72,73,74,75,76,77,78,79,80,81,82,83,84,85,86,87,88,89,90,91,92,93,94,95,96,97,98,99,100,101,102,103,104,105,106,107,108,109,110,111,112,113,114,115,116,117,118,119,120,121,122,123,124,125,126,127,128,129,130,131,132,133,134,135,136,137,138,139,140,141,142,143,144,145,146,147,148,149,150,151,152,153,154,155,156,157,158,159,160,161,162,163,164,165,166,167,168,169,170,171,172,173,174,175,176,177,178,179,180,181,182,183,184,185,186,187,188,189,190,191,192,193,194,195,196,197,198,199,200,201,202,203,204,205,206,207,208,209,210,211,212,213,214,215,216,217,218,219,220,221,222,223,224,225,226,227,228,229,230,231,232,233,234,235,236,237,238,239,240,241,242,243,244,245,246,247,248,249,250,251,252,253,254,255,256,257,258,259,260,261,262,263,264,265,266,267,268,269,270,271,272,273,274,275,276,277,278,279,280,281,282,283,284,285,286,287,288,289,290,291,292,293,294,295,296,297,298,299,300,301,302,303,304,305,306,307,308,309,310,311,312],"tree_info":[0,0,0,0,0,0,0,0,0,0,0,0,0,0,0,0,0,0,0,0,0,0,0,0,0,0,0,0,0,0,0,0,0,0,0,0,0,0,0,0,0,0,0,0,0,0,0,0,0,0,0,0,0,0,0,0,0,0,0,0,0,0,0,0,0,0,0,0,0,0,0,0,0,0,0,0,0,0,0,0,0,0,0,0,0,0,0,0,0,0,0,0,0,0,0,0,0,0,0,0,0,0,0,0,0,0,0,0,0,0,0,0,0,0,0,0,0,0,0,0,0,0,0,0,0,0,0,0,0,0,0,0,0,0,0,0,0,0,0,0,0,0,0,0,0,0,0,0,0,0,0,0,0,0,0,0,0,0,0,0,0,0,0,0,0,0,0,0,0,0,0,0,0,0,0,0,0,0,0,0,0,0,0,0,0,0,0,0,0,0,0,0,0,0,0,0,0,0,0,0,0,0,0,0,0,0,0,0,0,0,0,0,0,0,0,0,0,0,0,0,0,0,0,0,0,0,0,0,0,0,0,0,0,0,0,0,0,0,0,0,0,0,0,0,0,0,0,0,0,0,0,0,0,0,0,0,0,0,0,0,0,0,0,0,0,0,0,0,0,0,0,0,0,0,0,0,0,0,0,0,0,0,0,0,0,0,0,0,0,0,0,0,0,0,0,0,0,0,0,0,0,0,0,0,0,0,0,0,0,0,0,0],"trees":[{"base_weights":[-5.7028705E-4,-3.8054153E-1,9.767424E-1,-6.8801904E-1,3.9276877E-1,3.35153E-1,1.4919691E0,-7.846902E-1,5.9586022E-2,9.5367867E-1,8.132714E-2,4.0784672E-2,9.86413E-1,1.0847987E0,1.9557962E0,-9.684706E-1,-4.830819E-1,-1.780435E-2,1.8813695E-1,4.2985365E-1,1.1604155E0,-9.669887E-2,6.177597E-1,-3.0828232E-1,3.5942337E-1,7.722972E-1,5.395161E-2,6.9654167E-1,1.7595615E0,2.1240206E0,1.2689035E0,-6.923669E-1,-1.0801135E0,-1.06459424E-1,-6.4667845E-1,3.7592584E-1,-2.1830367E-1,3.0170428E-3,2.5864484E-2,6.268395E-2,9.7456807E-1,-2.185869E-1,6.882911E-1,3.6314783E-1,3.334821E-2,-4.9580547E-1,-1.1598026E-2,1.2214895E-2,8.0777454E-1,3.5342895E-3,1.202024E0,4.4600177E-1,1.020552E0,1.2811973E0,6.911373E-2,1.8631786E0,7.284653E-2,2.3778407E-2,5.0337587E-2,-2.8036343E-2,-1.6006967E-2,-3.8198277E-2,-2.8994389E-2,-1.5628958E-2,3.0226524E-3,-2.2535292E-2,-1.0186771E-2,3.2884588E-3,2.0030485E-2,-1.30263185E-2,-0E0,2.171178E-2,3.9964285E-2,-1.226974E-2,4.9142973E-3,1.3140754E-2,2.6908161E-2,3.7968725E-3,2.1023434E-2,-1.8913537E-2,-2.7415992E-3,-8.775663E-3,1.0889997E-2,-5.2052266E-3,4.730111E-3,1.161885E-2,3.6824126E-2,2.5800731E-2,5.0308987E-2,8.2316814E-4,1.678907E-2,2.0419518E-2,3.5568606E-2,2.3037847E-2,4.826923E-2,3.132692E-2,6.773653E-2],"categories":[],"categories_nodes":[],"categories_segments":[],"categories_sizes":[],"default_left":[0,0,0,0,0,0,0,0,0,0,0,0,0,0,0,0,0,0,0,0,0,0,0,0,0,0,0,0,0,0,0,0,0,0,0,0,0,0,0,0,0,0,0,0,0,0,0,0,0,0,0,0,0,0,0,0,0,0,0,0,0,0,0,0,0,0,0,0,0,0,0,0,0,0,0,0,0,0,0,0,0,0,0,0,0,0,0,0,0,0,0,0,0,0,0,0,0],"id":0,"left_children":[1,3,5,7,9,11,13,15,17,19,21,23,25,27,29,31,33,-1,35,37,39,41,43,45,47,49,-1,51,53,55,57,59,61,63,65,67,69,-1,-1,-1,71,73,75,77,-1,79,81,83,85,-1,87,89,91,93,-1,95,-1,-1,-1,-1,-1,-1,-1,-1,-1,-1,-1,-1,-1,-1,-1,-1,-1,-1,-1,-1,-1,-1,-1,-1,-1,-1,-1,-1,-1,-1,-1,-1,-1,-1,-1,-1,-1,-1,-1,-1,-1],"loss_changes":[2.9311448E3,1.3523097E3,7.284861E2,2.9449023E2,2.8197687E2,1.886453E2,2.2548071E2,1.9807031E2,3.9235565E1,6.0680847E1,9.999602E1,7.615291E1,4.925284E1,1.6847168E2,5.8700684E1,6.654248E1,8.385605E1,0E0,3.0196278E1,2.3133291E1,6.549341E1,7.510112E1,3.1259277E1,1.7871864E1,5.5369793E1,6.843207E1,0E0,3.25231E1,5.432306E1,2.4812012E1,1.9005875E1,2.3292084E1,3.1260864E1,3.621778E1,2.954013E1,2.0443424E1,6.0102086E0,0E0,0E0,0E0,2.8197845E1,4.983213E1,4.046982E0,1.3449919E1,0E0,1.03419E1,1.378734E1,5.5757318E0,2.5732506E1,0E0,1.9922775E1,1.1175407E1,7.6144714E0,1.8510406E1,0E0,7.5665405E1,0E0,0E0,0E0,0E0,0E0,0E0,0E0,0E0,0E0,0E0,0E0,0E0,0E0,0E0,0E0,0E0,0E0,0E0,0E0,0E0,0E0,0E0,0E0,0E0,0E0,0E0,0E0,0E0,0E0,0E0,0E0,0E0,0E0,0E0,0E0,0E0,0E0,0E0,0E0,0E0,0E0],"parents":[2147483647,0,0,1,1,2,2,3,3,4,4,5,5,6,6,7,7,8,8,9,9,10,10,11,11,12,12,13,13,14,14,15,15,16,16,18,18,19,19,20,20,21,21,22,22,23,23,24,24,25,25,27,27,28,28,29,29,30,30,31,31,32,32,33,33,34,34,35,35,36,36,40,40,41,41,42,42,43,43,45,45,46,46,47,47,48,48,50,50,51,51,52,52,53,53,55,55],"right_children":[2,4,6,8,10,12,14,16,18,20,22,24,26,28,30,32,34,-1,36,38,40,42,44,46,48,50,-1,52,54,56,58,60,62,64,66,68,70,-1,-1,-1,72,74,76,78,-1,80,82,84,86,-1,88,90,92,94,-1,96,-1,-1,-1,-1,-1,-1,-1,-1,-1,-1,-1,-1,-1,-1,-1,-1,-1,-1,-1,-1,-1,-1,-1,-1,-1,-1,-1,-1,-1,-1,-1,-1,-1,-1,-1,-1,-1,-1,-1,-1,-1],"split_conditions":[3E-1,4.5333335E-1,3.6666665E-2,5.334E0,5E0,5.4E-1,4.8E-1,-2.8E-1,-8.9E-1,1E0,3.9555E0,-5.85E-1,7.8E-1,1.3E-1,6E0,5E0,5E0,-1.780435E-2,8E0,1.055E0,2E0,1.6E0,1.2366667E0,1.2E-1,1.2E-1,8E-2,5.395161E-2,6.666667E-1,3.6E-1,6.6E-1,6.5166664E-1,-9.5666665E-1,1.4E0,1E0,1.5E-1,8.12E0,5.21E1,3.0170428E-3,2.5864484E-2,6.268395E-2,1.0183333E0,1.2E-1,7E-2,1.5E-1,3.334821E-2,2.013E0,3.6E-1,9E-2,3.6E-1,3.5342895E-3,1E-1,1.676E0,6.28E0,5.833333E-1,6.911373E-2,1E-1,7.284653E-2,2.3778407E-2,5.0337587E-2,-2.8036343E-2,-1.6006967E-2,-3.8198277E-2,-2.8994389E-2,-1.5628958E-2,3.0226524E-3,-2.2535292E-2,-1.0186771E-2,3.2884588E-3,2.0030485E-2,-1.30263185E-2,-0E0,2.171178E-2,3.9964285E-2,-1.226974E-2,4.9142973E-3,1.3140754E-2,2.6908161E-2,3.7968725E-3,2.1023434E-2,-1.8913537E-2,-2.7415992E-3,-8.775663E-3,1.0889997E-2,-5.2052266E-3,4.730111E-3,1.161885E-2,3.6824126E-2,2.5800731E-2,5.0308987E-2,8.2316814E-4,1.678907E-2,2.0419518E-2,3.5568606E-2,2.3037847E-2,4.826923E-2,3.132692E-2,6.773653E-2],"split_indices":[27,17,17,25,22,27,27,17,17,22,25,17,27,37,22,22,22,0,22,17,22,17,17,37,37,37,0,40,27,27,17,17,33,22,27,25,10,0,0,0,17,27,27,27,0,33,27,37,27,0,37,33,2,17,0,37,0,0,0,0,0,0,0,0,0,0,0,0,0,0,0,0,0,0,0,0,0,0,0,0,0,0,0,0,0,0,0,0,0,0,0,0,0,0,0,0,0],"split_type":[0,0,0,0,0,0,0,0,0,0,0,0,0,0,0,0,0,0,0,0,0,0,0,0,0,0,0,0,0,0,0,0,0,0,0,0,0,0,0,0,0,0,0,0,0,0,0,0,0,0,0,0,0,0,0,0,0,0,0,0,0,0,0,0,0,0,0,0,0,0,0,0,0,0,0,0,0,0,0,0,0,0,0,0,0,0,0,0,0,0,0,0,0,0,0,0,0],"sum_hessian":[7.8899995E3,5.6824443E3,2.2075554E3,4.066444E3,1.6159999E3,9.85111E2,1.2224443E3,3.601333E3,4.6511108E2,5.7488885E2,1.0411111E3,6.804444E2,3.0466666E2,6.551111E2,5.673333E2,2.2339998E3,1.3673333E3,7.4666664E1,3.9044443E2,1.651111E2,4.0977774E2,7.8222217E2,2.588889E2,3.2399997E2,3.5644443E2,2.4466666E2,5.9999996E1,4.1888885E2,2.3622221E2,4.5177774E2,1.1555555E2,6.486666E2,1.5853333E3,4.1599997E2,9.5133325E2,2.6799997E2,1.22444435E2,9.577777E1,6.933333E1,6.444444E1,3.453333E2,6.7888885E2,1.0333333E2,1.7377777E2,8.511111E1,1.9666666E2,1.2733333E2,2.0266666E2,1.5377777E2,9.8444435E1,1.4622221E2,2.3977777E2,1.791111E2,1.2977777E2,1.06444435E2,2.5177776E2,1.9999998E2,5.6666664E1,5.8888885E1,2.5177776E2,3.9688885E2,5.7799994E2,1.00733325E3,1.3844444E2,2.7755554E2,7.064444E2,2.4488887E2,1.4244444E2,1.2555555E2,6.133333E1,6.1111107E1,2.0733333E2,1.3799998E2,4.5399997E2,2.2488887E2,5.0888885E1,5.2444443E1,1.04666664E2,6.911111E1,1.4577777E2,5.0888885E1,7.377777E1,5.3555553E1,8.733333E1,1.1533333E2,7.933333E1,7.444444E1,8.8888885E1,5.733333E1,5.2666664E1,1.871111E2,6.2888885E1,1.1622221E2,5.3777775E1,7.599999E1,8.4666664E1,1.671111E2],"tree_param":{"num_deleted":"0","num_feature":"41","num_nodes":"97","size_leaf_vector":"1"}},{"base_weights":[3.07145E-3,-6.03798E-1,1.0462152E0,-2.6903555E-1,-9.3407476E-1,5.8611155E-1,1.7547162E0,-4.692744E-1,3.2658166E-1,-1.1202027E0,-5.630277E-1,1.0781908E0,2.3303396E-1,2.1873658E0,1.3377134E0,-8.99034E-1,-1.9917312E-1,-5.9850637E-2,5.377078E-1,-1.1849396E0,-5.89888E-1,-7.437918E-1,-2.1665964E-1,1.729971E0,8.06656E-1,6.70186E-1,7.644312E-2,1.931791E0,7.510681E-2,1.0301018E0,1.8845756E0,-1.0401592E0,-6.7767835E-1,-3.988601E-1,-3.0125773E-2,-3.4813735E-1,1.5343008E-2,8.730177E-1,3.2959983E-1,-1.2634742E0,-9.741472E-1,-4.902785E-1,-2.3842428E-2,-5.3443307E-1,-8.532745E-1,1.7401645E-1,-4.6387795E-1,3.843321E-2,5.9611484E-2,4.2062622E-1,1.2365147E0,2.680929E-1,1.0354327E0,-2.4961719E-1,4.0786216E-1,7.077418E-2,1.3055052E0,1.4507684E0,5.773537E-1,6.4652376E-2,4.321518E-2,-3.2896604E-2,-2.213567E-2,-1.1647118E-2,-2.282276E-2,-7.962371E-3,-1.6895225E-2,4.713042E-3,-1.3270986E-2,-5.937752E-3,-1.791916E-2,3.7606426E-2,1.906476E-2,1.9348515E-2,5.9094485E-3,-4.091973E-2,-3.5209507E-2,-3.3014175E-2,-2.0884309E-2,-8.9909835E-3,-1.8683642E-2,-2.4634762E-2,-9.460995E-3,-3.0385857E-2,-2.0713361E-2,-6.54991E-4,1.229311E-2,-2.6203971E-2,-5.0405506E-3,1.8484125E-2,3.4545057E-3,3.04467E-2,4.330165E-2,1.6426291E-2,-1.6519198E-3,4.518438E-2,2.0456063E-2,-9.3663036E-4,-1.6693806E-2,3.3217135E-3,2.098847E-2,1.5978193E-2,5.338171E-2,5.3723015E-2,2.7466353E-2,2.6734758E-3,2.5121411E-2],"categories":[],"categories_nodes":[],"categories_segments":[],"categories_sizes":[],"default_left":[0,0,0,0,0,0,0,0,0,0,0,0,0,0,0,0,0,0,0,0,0,0,0,0,0,0,0,0,0,0,0,0,0,0,0,0,0,0,0,0,0,0,0,0,0,0,0,0,0,0,0,0,0,0,0,0,0,0,0,0,0,0,0,0,0,0,0,0,0,0,0,0,0,0,0,0,0,0,0,0,0,0,0,0,0,0,0,0,0,0,0,0,0,0,0,0,0,0,0,0,0,0,0,0,0,0,0],"id":1,"left_children":[1,3,5,7,9,11,13,15,17,19,21,23,25,27,29,31,33,35,37,39,41,43,45,47,49,51,53,55,-1,57,59,61,63,65,67,69,-1,71,73,75,77,79,-1,81,83,85,87,-1,-1,89,91,93,95,97,99,-1,101,103,105,-1,-1,-1,-1,-1,-1,-1,-1,-1,-1,-1,-1,-1,-1,-1,-1,-1,-1,-1,-1,-1,-1,-1,-1,-1,-1,-1,-1,-1,-1,-1,-1,-1,-1,-1,-1,-1,-1,-1,-1,-1,-1,-1,-1,-1,-1,-1,-1],"loss_changes":[5.000537E3,5.509784E2,9.4389746E2,2.9655988E2,1.7137671E2,3.0548566E2,1.9851025E2,2.149996E2,5.1325027E1,5.5043457E1,5.2044037E1,1.2623181E2,7.0083115E1,3.3121094E1,9.349109E1,2.0115784E1,3.842781E1,3.6822723E1,2.711628E1,2.1009521E1,2.3837814E0,1.1065765E1,2.862537E1,1.799353E1,8.507825E1,3.855555E1,8.262686E1,7.702551E1,0E0,6.987433E1,1.7039734E1,4.8372498E0,5.7145233E0,1.0768227E1,4.843066E1,4.9524975E0,0E0,1.1304001E1,9.960758E0,5.224121E0,1.209668E1,2.5076084E0,0E0,1.1272152E1,7.0546875E0,5.4896107E0,2.1107948E1,0E0,0E0,1.619749E1,7.1321106E0,1.224706E1,2.02388E1,2.5443909E1,3.2331955E1,0E0,4.595172E1,3.0962616E1,2.3178467E1,0E0,0E0,0E0,0E0,0E0,0E0,0E0,0E0,0E0,0E0,0E0,0E0,0E0,0E0,0E0,0E0,0E0,0E0,0E0,0E0,0E0,0E0,0E0,0E0,0E0,0E0,0E0,0E0,0E0,0E0,0E0,0E0,0E0,0E0,0E0,0E0,0E0,0E0,0E0,0E0,0E0,0E0,0E0,0E0,0E0,0E0,0E0,0E0],"parents":[2147483647,0,0,1,1,2,2,3,3,4,4,5,5,6,6,7,7,8,8,9,9,10,10,11,11,12,12,13,13,14,14,15,15,16,16,17,17,18,18,19,19,20,20,21,21,22,22,23,23,24,24,25,25,26,26,27,27,29,29,30,30,31,31,32,32,33,33,34,34,35,35,37,37,38,38,39,39,40,40,41,41,43,43,44,44,45,45,46,46,49,49,50,50,51,51,52,52,53,53,54,54,56,56,57,57,58,58],"right_children":[2,4,6,8,10,12,14,16,18,20,22,24,26,28,30,32,34,36,38,40,42,44,46,48,50,52,54,56,-1,58,60,62,64,66,68,70,-1,72,74,76,78,80,-1,82,84,86,88,-1,-1,90,92,94,96,98,100,-1,102,104,106,-1,-1,-1,-1,-1,-1,-1,-1,-1,-1,-1,-1,-1,-1,-1,-1,-1,-1,-1,-1,-1,-1,-1,-1,-1,-1,-1,-1,-1,-1,-1,-1,-1,-1,-1,-1,-1,-1,-1,-1,-1,-1,-1,-1,-1,-1,-1,-1],"split_conditions":[1.2E1,4E0,1.8E1,3.8166666E-1,8E0,3E0,3E0,5E0,5E0,6.8666667E-1,-1.6666667E-3,3E0,3E0,2.4E1,2.4E1,-4.2333335E-1,-5.1E-1,1.2133334E0,2E0,5E0,6E0,5E0,3E0,-5.65E-1,6.8666667E-1,-5.35E-1,4.5333335E-1,4E0,7.510681E-2,4E0,5E0,5.3E-1,9E-2,6.78222E0,3E0,6.26E0,1.5343008E-2,5.93E0,6.590909E0,3E0,-1.65E-1,6.27E0,-2.3842428E-2,-7.5666666E-1,1E1,4E0,5.6166667E-1,3.843321E-2,5.9611484E-2,4.355E1,1.1933334E0,1.9E-1,1.7E-1,5E0,1.5E1,7.077418E-2,5.733333E-1,1.9E-1,4.5333335E-1,6.4652376E-2,4.321518E-2,-3.2896604E-2,-2.213567E-2,-1.1647118E-2,-2.282276E-2,-7.962371E-3,-1.6895225E-2,4.713042E-3,-1.3270986E-2,-5.937752E-3,-1.791916E-2,3.7606426E-2,1.906476E-2,1.9348515E-2,5.9094485E-3,-4.091973E-2,-3.5209507E-2,-3.3014175E-2,-2.0884309E-2,-8.9909835E-3,-1.8683642E-2,-2.4634762E-2,-9.460995E-3,-3.0385857E-2,-2.0713361E-2,-6.54991E-4,1.229311E-2,-2.6203971E-2,-5.0405506E-3,1.8484125E-2,3.4545057E-3,3.04467E-2,4.330165E-2,1.6426291E-2,-1.6519198E-3,4.518438E-2,2.0456063E-2,-9.3663036E-4,-1.6693806E-2,3.3217135E-3,2.098847E-2,1.5978193E-2,5.338171E-2,5.3723015E-2,2.7466353E-2,2.6734758E-3,2.5121411E-2],"split_indices":[19,20,19,17,19,20,20,19,19,17,17,1,1,19,19,17,17,17,20,19,20,20,1,17,17,17,17,1,0,1,20,23,8,36,1,4,0,2,24,19,17,2,0,17,19,31,17,0,0,3,17,8,8,20,19,0,17,8,17,0,0,0,0,0,0,0,0,0,0,0,0,0,0,0,0,0,0,0,0,0,0,0,0,0,0,0,0,0,0,0,0,0,0,0,0,0,0,0,0,0,0,0,0,0,0,0,0],"split_type":[0,0,0,0,0,0,0,0,0,0,0,0,0,0,0,0,0,0,0,0,0,0,0,0,0,0,0,0,0,0,0,0,0,0,0,0,0,0,0,0,0,0,0,0,0,0,0,0,0,0,0,0,0,0,0,0,0,0,0,0,0,0,0,0,0,0,0,0,0,0,0,0,0,0,0,0,0,0,0,0,0,0,0,0,0,0,0,0,0,0,0,0,0,0,0,0,0,0,0,0,0,0,0,0,0,0,0],"sum_hessian":[7.8947495E3,4.9913164E3,2.9034336E3,2.4813794E3,2.5099368E3,1.7629357E3,1.1404978E3,1.8580055E3,6.233739E2,1.6678899E3,8.4204694E2,7.341866E2,1.028749E3,5.549917E2,5.8550616E2,7.1455884E2,1.1434467E3,2.1991672E2,4.034572E2,1.4833959E3,1.8449402E2,5.508359E2,2.9121103E2,2.1221399E2,5.219726E2,2.6874512E2,7.6000397E2,3.15654E2,2.3933769E2,3.789995E2,2.0650664E2,4.3046146E2,2.8409735E2,5.21614E2,6.2183264E2,1.4726097E2,7.265576E1,1.5114122E2,2.5231598E2,1.0717397E3,4.1165613E2,1.3034375E2,5.415026E1,1.947514E2,3.5608447E2,1.1230559E2,1.7890546E2,8.234668E1,1.2986731E2,2.7770392E2,2.4426869E2,1.3022253E2,1.3852257E2,3.825875E2,3.7741647E2,1.8386258E2,1.3179141E2,1.9360252E2,1.85397E2,1.22844406E2,8.366223E1,3.569622E2,7.349929E1,6.7232475E1,2.168649E2,2.9240814E2,2.2920587E2,4.2763748E2,1.9419511E2,9.5365005E1,5.1895958E1,5.3988487E1,9.715274E1,7.129296E1,1.8102303E2,4.8975095E2,5.819888E2,2.7773663E2,1.3391948E2,5.7681423E1,7.266233E1,8.0980545E1,1.1377086E2,1.7300867E2,1.8307582E2,6.117728E1,5.112831E1,7.268534E1,1.0622011E2,1.670912E2,1.1061272E2,1.2479934E2,1.1946935E2,6.991876E1,6.0303776E1,5.6014416E1,8.2508156E1,2.2574557E2,1.5684192E2,1.8919862E2,1.8821785E2,5.2107666E1,7.9683754E1,1.1495309E2,7.864944E1,6.602805E1,1.1936894E2],"tree_param":{"num_deleted":"0","num_feature":"41","num_nodes":"107","size_leaf_vector":"1"}},{"base_weights":[-5.692808E-3,1.6152896E0,-3.385693E-1,1.8969623E0,7.352181E-1,-6.8336475E-1,2.534608E-1,1.1398677E0,2.1212292E0,-3.1022138E-3,1.063506E0,-3.9003778E-1,-1.1035355E0,6.02252E-1,-3.4980324E-1,5.006786E-2,8.1199706E-1,7.1435176E-2,1.9151009E0,6.238219E-1,1.5616723E0,-1.01466246E-1,-7.1049696E-1,-9.0981877E-1,-1.2437726E0,8.6657006E-1,1.461122E-1,-4.8825502E-1,5.849676E-1,1.5301015E-2,3.0313382E-2,3.6271255E-2,2.0034552E0,2.5968408E-2,7.7060675E-3,3.8306862E-2,5.4518927E-2,-3.499167E-1,1.1775521E-1,-9.1383827E-1,-4.7776863E-1,-1.0406464E0,-7.2791165E-1,-1.168757E0,-4.071536E-2,4.8126385E-1,1.1947073E0,3.6925933E-1,-3.0974674E-1,-1.6583781E-1,-8.26168E-1,2.8498443E-2,6.285022E-3,5.5148162E-2,6.6030756E-2,-1.2381132E-2,8.94493E-4,1.3418063E-2,-1.104288E-3,-2.3447173E-2,-3.4185823E-2,-1.058403E-2,-2.243034E-2,-3.2849446E-2,-2.1478249E-2,-1.7755464E-2,-2.6837783E-2,-3.945411E-2,-3.267768E-2,1.7967355E-2,1.8076148E-3,3.1007845E-2,4.9895123E-2,5.489392E-3,2.270107E-2,-2.6065232E-3,-1.9998921E-2,-9.76321E-3,5.840112E-3,-2.0047706E-2,-2.844929E-2],"categories":[],"categories_nodes":[],"categories_segments":[],"categories_sizes":[],"default_left":[0,0,0,0,0,0,0,0,0,0,0,0,0,0,0,0,0,0,0,0,0,0,0,0,0,0,0,0,0,0,0,0,0,0,0,0,0,0,0,0,0,0,0,0,0,0,0,0,0,0,0,0,0,0,0,0,0,0,0,0,0,0,0,0,0,0,0,0,0,0,0,0,0,0,0,0,0,0,0,0,0],"id":2,"left_children":[1,3,5,7,9,11,13,15,17,-1,19,21,23,25,27,-1,29,-1,31,33,35,37,39,41,43,45,47,49,51,-1,-1,-1,53,-1,-1,-1,-1,55,57,59,61,63,65,67,-1,69,71,73,75,77,79,-1,-1,-1,-1,-1,-1,-1,-1,-1,-1,-1,-1,-1,-1,-1,-1,-1,-1,-1,-1,-1,-1,-1,-1,-1,-1,-1,-1,-1,-1],"loss_changes":[4.2649717E3,3.2969702E2,1.3393906E3,1.6644653E2,9.1602036E1,5.0936243E2,5.0866266E2,3.7257294E1,3.0677246E1,0E0,4.906662E1,2.2557626E2,4.2914062E1,1.8387646E2,1.15116196E2,0E0,7.26635E0,0E0,2.14906E1,1.0548771E1,1.7952576E0,7.044827E1,5.320587E1,1.4829163E1,3.9077148E0,1.20459656E2,5.772586E1,8.342169E1,1.4736382E1,0E0,0E0,0E0,2.7596436E0,0E0,0E0,0E0,0E0,1.4668617E1,3.5158237E1,1.559845E1,1.730729E1,4.8454285E0,5.2532806E0,3.0003662E0,0E0,2.186168E1,3.453534E1,2.6745678E1,1.4301975E1,2.3132965E1,5.1774597E0,0E0,0E0,0E0,0E0,0E0,0E0,0E0,0E0,0E0,0E0,0E0,0E0,0E0,0E0,0E0,0E0,0E0,0E0,0E0,0E0,0E0,0E0,0E0,0E0,0E0,0E0,0E0,0E0,0E0,0E0],"parents":[2147483647,0,0,1,1,2,2,3,3,4,4,5,5,6,6,7,7,8,8,10,10,11,11,12,12,13,13,14,14,16,16,18,18,19,19,20,20,21,21,22,22,23,23,24,24,25,25,26,26,27,27,28,28,32,32,37,37,38,38,39,39,40,40,41,41,42,42,43,43,45,45,46,46,47,47,48,48,49,49,50,50],"right_children":[2,4,6,8,10,12,14,16,18,-1,20,22,24,26,28,-1,30,-1,32,34,36,38,40,42,44,46,48,50,52,-1,-1,-1,54,-1,-1,-1,-1,56,58,60,62,64,66,68,-1,70,72,74,76,78,80,-1,-1,-1,-1,-1,-1,-1,-1,-1,-1,-1,-1,-1,-1,-1,-1,-1,-1,-1,-1,-1,-1,-1,-1,-1,-1,-1,-1,-1,-1],"split_conditions":[2E0,5E0,2.4166666E-1,-3.1E-1,-4.9333334E-1,5E0,5E0,2E0,2E0,-3.1022138E-3,6E-2,4E0,4E0,4E0,1.5616666E0,5.006786E-2,5.029091E0,7.1435176E-2,5.9408164E0,2.4E-1,5.516667E-1,-4.75E-1,-5.0166667E-1,-4.2333335E-1,6E0,7.5E-1,4E0,4E0,3E0,1.5301015E-2,3.0313382E-2,3.6271255E-2,7.9833335E-1,2.5968408E-2,7.7060675E-3,3.8306862E-2,5.4518927E-2,2.7E-1,2E0,4E0,4E0,2.1E-1,6E0,-8.666667E-1,-4.071536E-2,3.1666667E0,1.525E0,1E0,1.6666668E-2,9.866667E-1,6E0,2.8498443E-2,6.285022E-3,5.5148162E-2,6.6030756E-2,-1.2381132E-2,8.94493E-4,1.3418063E-2,-1.104288E-3,-2.3447173E-2,-3.4185823E-2,-1.058403E-2,-2.243034E-2,-3.2849446E-2,-2.1478249E-2,-1.7755464E-2,-2.6837783E-2,-3.945411E-2,-3.267768E-2,1.7967355E-2,1.8076148E-3,3.1007845E-2,4.9895123E-2,5.489392E-3,2.270107E-2,-2.6065232E-3,-1.9998921E-2,-9.76321E-3,5.840112E-3,-2.0047706E-2,-2.844929E-2],"split_indices":[0,20,17,17,17,0,0,20,20,0,34,20,20,20,17,0,24,0,24,8,17,17,17,17,20,17,0,20,20,0,0,0,17,0,0,0,0,34,20,0,0,27,0,17,0,38,17,40,32,17,0,0,0,0,0,0,0,0,0,0,0,0,0,0,0,0,0,0,0,0,0,0,0,0,0,0,0,0,0,0,0],"split_type":[0,0,0,0,0,0,0,0,0,0,0,0,0,0,0,0,0,0,0,0,0,0,0,0,0,0,0,0,0,0,0,0,0,0,0,0,0,0,0,0,0,0,0,0,0,0,0,0,0,0,0,0,0,0,0,0,0,0,0,0,0,0,0,0,0,0,0,0,0,0,0,0,0,0,0,0,0,0,0,0,0],"sum_hessian":[7.901298E3,1.3445656E3,6.556732E3,1.0163856E3,3.2818002E2,4.143888E3,2.412844E3,2.355603E2,7.808253E2,9.228389E1,2.3589612E2,2.4432607E3,1.7006272E3,1.5294114E3,8.8343274E2,8.641433E1,1.4914597E2,3.349271E2,4.458982E2,1.2822885E2,1.0766726E2,1.2877991E3,1.1554618E3,7.219296E2,9.786976E2,9.6647504E2,5.629363E2,7.7076294E2,1.1266984E2,6.297774E1,8.616823E1,5.3488327E1,3.9240985E2,7.483702E1,5.3391834E1,5.752662E1,5.0140644E1,6.041667E2,6.836324E2,6.123941E2,5.430676E2,4.1283115E2,3.0909848E2,6.05315E2,3.7338254E2,4.4748502E2,5.1899005E2,3.789255E2,1.8401076E2,3.96708E2,3.740549E2,5.4905766E1,5.7764072E1,2.2632503E2,1.6608484E2,5.1942456E2,8.4742165E1,2.1810541E2,4.65527E2,3.9313672E2,2.1925739E2,3.7562198E2,1.6744568E2,3.482686E2,6.456257E1,1.768423E2,1.3225616E2,1.99892E2,4.05423E2,3.481613E2,9.932372E1,3.917431E2,1.2724694E2,2.5875378E2,1.2017173E2,1.1566783E2,6.8342926E1,2.7606934E2,1.2063867E2,1.7056956E2,2.0348534E2],"tree_param":{"num_deleted":"0","num_feature":"41","num_nodes":"81","size_leaf_vector":"1"}},{"base_weights":[8.324825E-3,-5.6457126E-1,9.6872073E-1,-9.4871855E-1,-2.777531E-1,1.5749433E0,4.5629317E-1,-6.723943E-1,-1.1632823E0,1.2779057E-2,-6.2648034E-1,1.8229945E0,7.723256E-1,7.299748E-1,2.1556232E-2,1.3432129E-1,-7.872373E-1,-8.449107E-1,-1.2358048E0,4.9466068E-1,-1.6131264E-1,-3.0724484E-1,-8.076982E-1,1.2223083E0,2.0720775E0,2.3530495E-1,1.2016193E0,1.1882541E0,4.6787575E-1,2.5816196E-1,-2.745756E-1,9.980053E-3,-2.6331705E-3,-1.0704443E0,-6.390862E-1,-9.2988294E-1,-1.734338E-2,-1.329538E0,-1.1439096E0,9.259941E-1,1.7421657E-1,-3.1821117E-1,6.2150095E-2,1.0944408E-1,-5.026181E-1,-6.560315E-1,-1.0205017E0,1.6857226E0,9.0781087E-1,6.786643E-2,1.9072709E0,2.1598969E-2,-3.0447522E-3,4.3701857E-2,1.767911E-2,1.3574362E0,1.26886405E-2,6.4394814E-1,2.0725098E-1,-1.4705978E-1,4.7968006E-1,-1.5221827E-1,-2.0390203E-2,-3.4176562E-2,-2.4132958E-2,-1.2993858E-2,-2.4197074E-2,-2.3019923E-2,-3.1757113E-2,-4.1855503E-2,-3.481054E-2,-2.8554011E-2,-3.656982E-2,4.0492218E-2,2.0076957E-2,8.641628E-3,-5.2237045E-3,-3.2351378E-3,-1.2878445E-2,-6.96059E-3,8.774657E-3,-5.84914E-3,1.4183329E-2,-5.216944E-3,-1.8511916E-2,-1.1413435E-2,-2.381436E-2,-2.1375466E-2,-3.2524582E-2,5.653595E-2,4.097997E-2,1.9568061E-2,3.3765752E-2,5.2635442E-2,6.4663574E-2,2.8336301E-2,4.7231976E-2,3.33728E-2,1.3025106E-2,2.3800377E-3,1.7276075E-2,-1.070168E-2,3.711437E-3,2.0475676E-2,6.8477145E-3,9.124717E-4,-1.0146936E-2],"categories":[],"categories_nodes":[],"categories_segments":[],"categories_sizes":[],"default_left":[0,0,0,0,0,0,0,0,0,0,0,0,0,0,0,0,0,0,0,0,0,0,0,0,0,0,0,0,0,0,0,0,0,0,0,0,0,0,0,0,0,0,0,0,0,0,0,0,0,0,0,0,0,0,0,0,0,0,0,0,0,0,0,0,0,0,0,0,0,0,0,0,0,0,0,0,0,0,0,0,0,0,0,0,0,0,0,0,0,0,0,0,0,0,0,0,0,0,0,0,0,0,0,0,0,0,0],"id":3,"left_children":[1,3,5,7,9,11,13,15,17,19,21,23,25,27,29,31,33,35,37,39,41,43,45,47,49,51,53,55,57,59,61,-1,-1,63,65,67,-1,69,71,73,75,77,79,81,83,85,87,89,91,-1,93,-1,-1,-1,-1,95,-1,97,99,101,103,105,-1,-1,-1,-1,-1,-1,-1,-1,-1,-1,-1,-1,-1,-1,-1,-1,-1,-1,-1,-1,-1,-1,-1,-1,-1,-1,-1,-1,-1,-1,-1,-1,-1,-1,-1,-1,-1,-1,-1,-1,-1,-1,-1,-1,-1],"loss_changes":[4.334545E3,5.4248535E2,9.119971E2,1.2247266E2,2.8688718E2,2.6409692E2,1.89785E2,8.641614E1,2.417627E1,1.2986526E2,7.335922E1,1.4697534E2,7.294995E1,1.1579712E2,4.3597374E1,5.3208456E0,3.1857819E1,3.3172455E0,3.9699707E0,5.5942696E1,3.9964165E1,3.856923E1,2.4233032E1,4.032013E1,1.1929932E1,2.4296432E1,2.5056335E1,4.387854E1,2.8105743E1,3.1436352E1,1.3034521E1,0E0,0E0,2.2237854E0,1.728833E1,9.6562195E-1,0E0,5.826416E-1,3.81427E0,1.6124588E1,9.63355E0,1.5259064E1,3.1915798E1,1.7008114E1,1.1471695E1,1.7214615E1,4.134552E0,9.147339E-1,8.079651E0,0E0,5.6936035E0,0E0,0E0,0E0,0E0,2.1655212E1,0E0,3.4863083E1,1.1704965E1,7.2048435E0,1.07325325E1,7.483377E0,0E0,0E0,0E0,0E0,0E0,0E0,0E0,0E0,0E0,0E0,0E0,0E0,0E0,0E0,0E0,0E0,0E0,0E0,0E0,0E0,0E0,0E0,0E0,0E0,0E0,0E0,0E0,0E0,0E0,0E0,0E0,0E0,0E0,0E0,0E0,0E0,0E0,0E0,0E0,0E0,0E0,0E0,0E0,0E0,0E0],"parents":[2147483647,0,0,1,1,2,2,3,3,4,4,5,5,6,6,7,7,8,8,9,9,10,10,11,11,12,12,13,13,14,14,15,15,16,16,17,17,18,18,19,19,20,20,21,21,22,22,23,23,24,24,25,25,26,26,27,27,28,28,29,29,30,30,33,33,34,34,35,35,37,37,38,38,39,39,40,40,41,41,42,42,43,43,44,44,45,45,46,46,47,47,48,48,50,50,55,55,57,57,58,58,59,59,60,60,61,61],"right_children":[2,4,6,8,10,12,14,16,18,20,22,24,26,28,30,32,34,36,38,40,42,44,46,48,50,52,54,56,58,60,62,-1,-1,64,66,68,-1,70,72,74,76,78,80,82,84,86,88,90,92,-1,94,-1,-1,-1,-1,96,-1,98,100,102,104,106,-1,-1,-1,-1,-1,-1,-1,-1,-1,-1,-1,-1,-1,-1,-1,-1,-1,-1,-1,-1,-1,-1,-1,-1,-1,-1,-1,-1,-1,-1,-1,-1,-1,-1,-1,-1,-1,-1,-1,-1,-1,-1,-1,-1,-1],"split_conditions":[1.2E1,5E0,2E0,4E0,4E0,5E0,4E0,2E0,3E0,3E0,4E0,5.2E0,5.39E0,2E0,3E0,2.6666667E0,2.055E1,9.831921E-1,3E0,2.5E0,3E-1,4E0,4E0,2E0,2E0,1.9E-1,2.2E-1,3.1666667E0,3.1666667E0,1.5E1,2.2E-1,9.980053E-3,-2.6331705E-3,2.055E1,2.6666667E0,2.6666667E0,-1.734338E-2,4.53E0,5E0,2E0,3E0,3E0,2.444E1,9E-2,2E0,5E0,2E0,4E0,2.361E1,6.786643E-2,6.51E0,2.1598969E-2,-3.0447522E-3,4.3701857E-2,1.767911E-2,1.5E1,1.26886405E-2,2E0,4.891667E0,1.3E-1,2.8333333E0,3.3333333E0,-2.0390203E-2,-3.4176562E-2,-2.4132958E-2,-1.2993858E-2,-2.4197074E-2,-2.3019923E-2,-3.1757113E-2,-4.1855503E-2,-3.481054E-2,-2.8554011E-2,-3.656982E-2,4.0492218E-2,2.0076957E-2,8.641628E-3,-5.2237045E-3,-3.2351378E-3,-1.2878445E-2,-6.96059E-3,8.774657E-3,-5.84914E-3,1.4183329E-2,-5.216944E-3,-1.8511916E-2,-1.1413435E-2,-2.381436E-2,-2.1375466E-2,-3.2524582E-2,5.653595E-2,4.097997E-2,1.9568061E-2,3.3765752E-2,5.2635442E-2,6.4663574E-2,2.8336301E-2,4.7231976E-2,3.33728E-2,1.3025106E-2,2.3800377E-3,1.7276075E-2,-1.070168E-2,3.711437E-3,2.0475676E-2,6.8477145E-3,9.124717E-4,-1.0146936E-2],"split_indices":[19,19,0,20,20,20,20,16,16,16,16,2,2,16,16,38,3,39,19,38,27,0,0,20,20,8,8,38,38,19,8,0,0,5,38,38,0,2,20,20,38,29,3,27,16,20,30,35,5,0,2,0,0,0,0,19,0,20,18,27,38,38,0,0,0,0,0,0,0,0,0,0,0,0,0,0,0,0,0,0,0,0,0,0,0,0,0,0,0,0,0,0,0,0,0,0,0,0,0,0,0,0,0,0,0,0,0],"split_type":[0,0,0,0,0,0,0,0,0,0,0,0,0,0,0,0,0,0,0,0,0,0,0,0,0,0,0,0,0,0,0,0,0,0,0,0,0,0,0,0,0,0,0,0,0,0,0,0,0,0,0,0,0,0,0,0,0,0,0,0,0,0,0,0,0,0,0,0,0,0,0,0,0,0,0,0,0,0,0,0,0,0,0,0,0,0,0,0,0,0,0,0,0,0,0,0,0,0,0,0,0,0,0,0,0,0,0],"sum_hessian":[7.8736694E3,4.931958E3,2.9417117E3,2.10555E3,2.8264077E3,1.3451829E3,1.5965288E3,9.249536E2,1.1805964E3,1.5421239E3,1.2842838E3,1.0251821E3,3.2000076E2,9.7820636E2,6.1832245E2,1.1468123E2,8.102724E2,2.25009E2,9.5558746E2,4.09056E2,1.1330679E3,4.6799982E2,8.16284E2,3.045513E2,7.2063086E2,1.4405615E2,1.7594461E2,3.5264056E2,6.255658E2,3.4478683E2,2.7353558E2,6.1242443E1,5.343878E1,2.7285486E2,5.3741754E2,1.6546532E2,5.9543686E1,4.570348E2,4.9855264E2,1.7208348E2,2.3697252E2,6.664952E2,4.6657272E2,1.4885172E2,3.191481E2,4.82744E2,3.3354E2,1.18957115E2,1.855942E2,3.2137494E2,3.992559E2,5.873865E1,8.53175E1,1.21676025E2,5.426858E1,2.8699484E2,6.564574E1,3.7044278E2,2.5512303E2,1.2130304E2,2.234838E2,2.1314288E2,6.0392723E1,2.1009293E2,6.2761913E1,2.4557997E2,2.918376E2,8.098263E1,8.448269E1,3.1670377E2,1.4033104E2,1.4965663E2,3.4889603E2,6.098169E1,1.1110178E2,1.799472E2,5.702532E1,2.3321564E2,4.3327954E2,2.0393634E2,2.626364E2,8.074823E1,6.8103485E1,8.484827E1,2.3429985E2,1.6462282E2,3.1812115E2,6.264847E1,2.7089154E2,6.6348335E1,5.260878E1,9.011281E1,9.548139E1,2.5837766E2,1.4087823E2,1.033416E2,1.8365324E2,1.11175354E2,2.5926743E2,1.9220996E2,6.2913067E1,6.904931E1,5.2253735E1,1.20693214E2,1.0279059E2,1.0703609E2,1.0610679E2],"tree_param":{"num_deleted":"0","num_feature":"41","num_nodes":"107","size_leaf_vector":"1"}},{"base_weights":[-3.5070132E-3,-5.6253237E-1,9.168274E-1,-9.259955E-1,-2.926203E-1,1.4977453E0,4.32501E-1,-1.0076051E0,-9.952293E-2,-7.7447207E-3,-6.3234246E-1,7.199637E-1,1.7334762E0,1.2326476E-1,9.1659415E-1,-7.84348E-1,-1.1767199E0,3.5119662E-1,-1.9668054E-2,-1.7350733E-1,4.857518E-1,-8.490432E-1,-3.734739E-1,1.1455723E0,1.496847E-1,1.9222027E0,1.0432955E0,2.7971166E-1,-3.2437545E-1,1.1588613E0,4.267275E-1,-9.542556E-1,-5.31022E-1,-1.232273E0,-9.022396E-1,2.7532943E-3,1.8104758E-2,-1.4820865E-2,-3.583174E-1,8.1230927E-1,2.7764636E-1,-7.093673E-1,-1.0671628E0,1.7141996E-1,-5.0757337E-1,9.0252566E-1,4.338741E-2,1.5363695E-2,-8.924625E-3,6.434394E-2,1.7463979E0,1.2254051E0,1.1773849E-2,6.163075E-2,4.4769132E-1,-4.9571526E-1,-9.5691726E-2,7.915166E-1,1.3604618E0,1.9380837E-3,6.2484235E-1,-3.215451E-2,-2.4375299E-2,-8.730094E-3,-1.9816812E-2,-3.970644E-2,-3.415941E-2,-2.1598436E-2,-3.128549E-2,-4.2966707E-3,1.5715994E-2,-5.7370523E-3,-1.6135309E-2,3.5997238E-2,1.7543744E-2,4.2252615E-3,2.0998249E-2,-2.58386E-2,-1.4497716E-2,-2.4962489E-2,-3.420113E-2,-4.6405746E-3,1.3591428E-2,-2.049201E-2,-6.575662E-3,2.0675855E-2,3.1927433E-2,4.4793077E-2,5.8166113E-2,2.618327E-2,4.474661E-2,1.4613366E-2,-2.5162802E-3,5.683202E-3,2.037635E-2,-1.9687664E-2,-1.0513916E-2,3.1834377E-3,-9.356753E-3,2.7683208E-2,1.5373264E-2,2.9352514E-2,5.057401E-2,8.56687E-3,2.9151192E-2],"categories":[],"categories_nodes":[],"categories_segments":[],"categories_sizes":[],"default_left":[0,0,0,0,0,0,0,0,0,0,0,0,0,0,0,0,0,0,0,0,0,0,0,0,0,0,0,0,0,0,0,0,0,0,0,0,0,0,0,0,0,0,0,0,0,0,0,0,0,0,0,0,0,0,0,0,0,0,0,0,0,0,0,0,0,0,0,0,0,0,0,0,0,0,0,0,0,0,0,0,0,0,0,0,0,0,0,0,0,0,0,0,0,0,0,0,0,0,0,0,0,0,0,0,0],"id":4,"left_children":[1,3,5,7,9,11,13,15,17,19,21,23,25,27,29,31,33,35,-1,37,39,41,43,45,47,49,51,53,55,57,59,61,63,65,67,-1,-1,69,71,73,75,77,79,81,83,85,-1,-1,-1,-1,87,89,-1,91,93,95,97,99,101,-1,103,-1,-1,-1,-1,-1,-1,-1,-1,-1,-1,-1,-1,-1,-1,-1,-1,-1,-1,-1,-1,-1,-1,-1,-1,-1,-1,-1,-1,-1,-1,-1,-1,-1,-1,-1,-1,-1,-1,-1,-1,-1,-1,-1,-1],"loss_changes":[4.0534192E3,4.7974036E2,8.3531714E2,1.4002515E2,2.7226385E2,2.4420435E2,2.4277371E2,6.886755E1,4.8320988E1,1.255666E2,7.0774414E1,7.62964E1,1.2942456E2,6.988131E1,7.33595E1,3.378369E1,1.310376E1,6.4754295E0,0E0,3.356237E1,2.5214294E1,1.8808716E1,4.342607E1,9.481552E0,2.292179E1,2.2278564E1,2.5176514E1,2.678564E1,9.715937E0,2.8006714E1,1.4881577E1,5.4902344E0,9.62291E0,3.336792E0,2.4861145E0,0E0,0E0,4.3043926E1,1.5335213E1,1.07684555E1,1.32209835E1,1.332756E1,1.6809998E0,1.1053806E1,2.3259567E1,1.3350677E0,0E0,0E0,0E0,0E0,1.5155884E1,1.274234E1,0E0,2.0431604E1,2.4193169E1,2.4347916E0,5.1520185E0,4.0187073E0,2.8763092E1,0E0,1.49142E1,0E0,0E0,0E0,0E0,0E0,0E0,0E0,0E0,0E0,0E0,0E0,0E0,0E0,0E0,0E0,0E0,0E0,0E0,0E0,0E0,0E0,0E0,0E0,0E0,0E0,0E0,0E0,0E0,0E0,0E0,0E0,0E0,0E0,0E0,0E0,0E0,0E0,0E0,0E0,0E0,0E0,0E0,0E0,0E0],"parents":[2147483647,0,0,1,1,2,2,3,3,4,4,5,5,6,6,7,7,8,8,9,9,10,10,11,11,12,12,13,13,14,14,15,15,16,16,17,17,19,19,20,20,21,21,22,22,23,23,24,24,25,25,26,26,27,27,28,28,29,29,30,30,31,31,32,32,33,33,34,34,37,37,38,38,39,39,40,40,41,41,42,42,43,43,44,44,45,45,50,50,51,51,53,53,54,54,55,55,56,56,57,57,58,58,60,60],"right_children":[2,4,6,8,10,12,14,16,18,20,22,24,26,28,30,32,34,36,-1,38,40,42,44,46,48,50,52,54,56,58,60,62,64,66,68,-1,-1,70,72,74,76,78,80,82,84,86,-1,-1,-1,-1,88,90,-1,92,94,96,98,100,102,-1,104,-1,-1,-1,-1,-1,-1,-1,-1,-1,-1,-1,-1,-1,-1,-1,-1,-1,-1,-1,-1,-1,-1,-1,-1,-1,-1,-1,-1,-1,-1,-1,-1,-1,-1,-1,-1,-1,-1,-1,-1,-1,-1,-1,-1],"split_conditions":[1.2E1,5E0,2E0,9.716667E-1,4E0,-3.5833332E-1,7.866667E-1,4E0,4E0,4.2333335E-1,-2.8E-1,4E0,5E0,5E0,4E0,-2.7E-1,1.9E-1,1.4116666E0,-1.9668054E-2,4E0,2.5E0,4E0,3E0,-3.3333334E-1,2E-1,2E0,2.4E-1,1.5E1,2.4166666E-1,1.5E1,1.5E1,2.055E1,2E0,3E0,4.023E1,2.7532943E-3,1.8104758E-2,-4E-2,1.3E-1,2E0,1.2366667E0,-7.5666666E-1,6.75918E0,3.117E1,5.2666664E-1,1.5E-1,4.338741E-2,1.5363695E-2,-8.924625E-3,6.434394E-2,5E-1,5.76E0,1.1773849E-2,2E0,3.3333334E-1,4E-2,3E0,1.6666668E-2,1.2366667E0,1.9380837E-3,1.3333334E0,-3.215451E-2,-2.4375299E-2,-8.730094E-3,-1.9816812E-2,-3.970644E-2,-3.415941E-2,-2.1598436E-2,-3.128549E-2,-4.2966707E-3,1.5715994E-2,-5.7370523E-3,-1.6135309E-2,3.5997238E-2,1.7543744E-2,4.2252615E-3,2.0998249E-2,-2.58386E-2,-1.4497716E-2,-2.4962489E-2,-3.420113E-2,-4.6405746E-3,1.3591428E-2,-2.049201E-2,-6.575662E-3,2.0675855E-2,3.1927433E-2,4.4793077E-2,5.8166113E-2,2.618327E-2,4.474661E-2,1.4613366E-2,-2.5162802E-3,5.683202E-3,2.037635E-2,-1.9687664E-2,-1.0513916E-2,3.1834377E-3,-9.356753E-3,2.7683208E-2,1.5373264E-2,2.9352514E-2,5.057401E-2,8.56687E-3,2.9151192E-2],"split_indices":[19,19,0,17,20,17,17,20,20,17,17,20,20,20,20,17,17,17,0,0,38,0,0,40,8,20,8,19,17,19,19,3,20,19,3,0,0,17,8,20,17,17,36,3,17,34,0,0,0,0,40,4,0,20,40,34,0,32,17,0,40,0,0,0,0,0,0,0,0,0,0,0,0,0,0,0,0,0,0,0,0,0,0,0,0,0,0,0,0,0,0,0,0,0,0,0,0,0,0,0,0,0,0,0,0],"split_type":[0,0,0,0,0,0,0,0,0,0,0,0,0,0,0,0,0,0,0,0,0,0,0,0,0,0,0,0,0,0,0,0,0,0,0,0,0,0,0,0,0,0,0,0,0,0,0,0,0,0,0,0,0,0,0,0,0,0,0,0,0,0,0,0,0,0,0,0,0,0,0,0,0,0,0,0,0,0,0,0,0,0,0,0,0,0,0,0,0,0,0,0,0,0,0,0,0,0,0,0,0,0,0,0,0],"sum_hessian":[7.8748545E3,4.8999004E3,2.9749543E3,2.085225E3,2.814675E3,1.3502274E3,1.6247268E3,1.896876E3,1.883492E2,1.5328304E3,1.2818447E3,3.1642606E2,1.0338014E3,9.93577E2,6.311498E2,8.2369995E2,1.073176E3,1.0394015E2,8.440906E1,1.1491482E3,3.8368222E2,6.942183E2,5.8762634E2,1.795389E2,1.3688715E2,8.084422E2,2.2535925E2,7.3764343E2,2.5593361E2,4.1978836E2,2.1136137E2,4.8853104E2,3.351689E2,8.8521356E2,1.8796243E2,5.356836E1,5.0371788E1,6.208896E2,5.2825867E2,1.4614432E2,2.375379E2,4.2979187E2,2.6442648E2,1.1520838E2,4.7241797E2,1.0462935E2,7.490955E1,7.6063995E1,6.0823147E1,3.456076E2,4.6283456E2,1.7410822E2,5.1251045E1,3.234423E2,4.1420114E2,1.4372603E2,1.1220758E2,1.531181E2,2.6667026E2,7.6573074E1,1.347883E2,2.579451E2,2.3058592E2,1.2111339E2,2.1405553E2,4.3222653E2,4.5298703E2,8.8728294E1,9.923414E1,5.033157E2,1.17573875E2,2.77194E2,2.5106467E2,5.0080994E1,9.606333E1,1.8232423E2,5.521366E1,2.5238751E2,1.7740434E2,7.007518E1,1.9435132E2,5.2983345E1,6.2225037E1,2.9091403E2,1.8150392E2,5.098675E1,5.3642593E1,2.0852583E2,2.5430875E2,7.937662E1,9.473159E1,8.210297E1,2.4133932E2,1.9853725E2,2.156639E2,6.3292763E1,8.0433266E1,5.736624E1,5.484134E1,9.978263E1,5.3335476E1,1.2703949E2,1.3963078E2,7.07112E1,6.407711E1],"tree_param":{"num_deleted":"0","num_feature":"41","num_nodes":"105","size_leaf_vector":"1"}},{"base_weights":[4.7527187E-4,-5.522673E-1,8.9933723E-1,-9.094487E-1,-2.9082093E-1,5.166383E-1,1.468736E0,-1.0182216E0,-2.54598E-1,-4.6224737E-1,1.3327233E-1,7.682843E-1,1.4889853E-1,1.2103735E0,1.8652594E0,-1.1575356E0,-8.5969603E-1,-4.3055284E-1,1.4103852E-2,-6.185874E-1,-5.3185053E-2,-8.85539E-2,4.9323875E-1,3.7259993E-1,1.0281186E0,-4.800629E-2,3.8387144E-1,1.3897498E0,2.60544E-1,3.914033E-2,1.9354267E0,-1.23268E0,-9.7745335E-1,-9.6769065E-1,-5.8221483E-1,-6.0180634E-1,5.7951664E-3,-7.5741374E-1,-5.0978285E-1,-3.642708E-1,2.6053E-1,-1.9230641E-1,1.36880865E-2,7.0485365E-1,1.2488538E-1,-2.71393E-3,4.6046817E-1,1.2868356E0,8.072993E-1,-1.9406626E-1,1.1736008E-2,2.581809E-1,2.130211E-2,1.2176454E0,5.442559E-2,1.36257745E-2,-0E0,4.774492E-2,6.114279E-2,-3.8661115E-2,-3.2562952E-2,-3.1743806E-2,-2.0937938E-2,-3.1141337E-2,-1.8951358E-2,-2.1397334E-2,-3.1384863E-3,-1.2553132E-2,-2.216553E-2,-1.4479986E-2,-2.4641143E-2,-8.8411905E-3,-1.7866757E-2,-1.7208086E-2,-2.9396173E-3,3.3401197E-3,1.8235167E-2,5.299255E-3,-9.953231E-3,2.7387448E-2,8.848232E-3,-4.003675E-3,1.0451669E-2,2.2316767E-2,1.0046752E-2,2.5489524E-2,4.6557177E-2,4.7590123E-3,2.9958962E-2,-8.513788E-3,5.7532857E-3,1.4843091E-2,2.997163E-3,1.6098112E-2,3.9228156E-2],"categories":[],"categories_nodes":[],"categories_segments":[],"categories_sizes":[],"default_left":[0,0,0,0,0,0,0,0,0,0,0,0,0,0,0,0,0,0,0,0,0,0,0,0,0,0,0,0,0,0,0,0,0,0,0,0,0,0,0,0,0,0,0,0,0,0,0,0,0,0,0,0,0,0,0,0,0,0,0,0,0,0,0,0,0,0,0,0,0,0,0,0,0,0,0,0,0,0,0,0,0,0,0,0,0,0,0,0,0,0,0,0,0,0,0],"id":5,"left_children":[1,3,5,7,9,11,13,15,17,19,21,23,25,27,29,31,33,35,-1,37,39,41,43,45,47,49,51,53,55,-1,57,59,61,63,65,67,-1,69,71,73,75,77,-1,79,81,-1,83,85,87,89,-1,91,-1,93,-1,-1,-1,-1,-1,-1,-1,-1,-1,-1,-1,-1,-1,-1,-1,-1,-1,-1,-1,-1,-1,-1,-1,-1,-1,-1,-1,-1,-1,-1,-1,-1,-1,-1,-1,-1,-1,-1,-1,-1,-1],"loss_changes":[3.8967979E3,4.523507E2,6.483247E2,1.4490564E2,2.0439824E2,1.6494296E2,1.1677246E2,3.580713E1,3.80552E1,1.2754547E2,6.487975E1,1.0765411E2,3.4001274E1,1.23232544E2,1.1759399E1,9.040161E0,2.3010925E1,2.5997334E1,0E0,2.044159E1,5.452975E1,2.838116E1,2.3540459E1,1.7544708E1,3.336725E1,2.5588E1,1.2860367E1,3.900061E1,5.9829025E0,0E0,6.227417E0,1.3363037E0,4.0667725E0,1.1897156E1,1.4412651E1,3.5490875E0,0E0,9.614563E0,1.4313034E1,1.521196E1,1.3875305E1,2.197611E1,0E0,1.5516563E1,6.9127417E0,0E0,1.1708229E1,2.9737183E1,4.2671097E1,1.0572082E1,0E0,8.802467E0,0E0,2.4913086E1,0E0,0E0,0E0,0E0,0E0,0E0,0E0,0E0,0E0,0E0,0E0,0E0,0E0,0E0,0E0,0E0,0E0,0E0,0E0,0E0,0E0,0E0,0E0,0E0,0E0,0E0,0E0,0E0,0E0,0E0,0E0,0E0,0E0,0E0,0E0,0E0,0E0,0E0,0E0,0E0,0E0],"parents":[2147483647,0,0,1,1,2,2,3,3,4,4,5,5,6,6,7,7,8,8,9,9,10,10,11,11,12,12,13,13,14,14,15,15,16,16,17,17,19,19,20,20,21,21,22,22,23,23,24,24,25,25,26,26,27,27,28,28,30,30,31,31,32,32,33,33,34,34,35,35,37,37,38,38,39,39,40,40,41,41,43,43,44,44,46,46,47,47,48,48,49,49,51,51,53,53],"right_children":[2,4,6,8,10,12,14,16,18,20,22,24,26,28,30,32,34,36,-1,38,40,42,44,46,48,50,52,54,56,-1,58,60,62,64,66,68,-1,70,72,74,76,78,-1,80,82,-1,84,86,88,90,-1,92,-1,94,-1,-1,-1,-1,-1,-1,-1,-1,-1,-1,-1,-1,-1,-1,-1,-1,-1,-1,-1,-1,-1,-1,-1,-1,-1,-1,-1,-1,-1,-1,-1,-1,-1,-1,-1,-1,-1,-1,-1,-1,-1],"split_conditions":[1.2E1,5E0,1.8E1,6.6333336E-1,2.4166666E-1,2.8333333E0,2.4E1,6E-2,1.6E0,3E-1,2E-1,1.8E-1,2.8E-1,3.5E0,1E-2,-2.3E-1,-1.2666667E-1,1.1E-1,1.4103852E-2,5E-2,-5.85E-1,1.3116666E0,2.6666667E0,-2.5E-1,3E0,6.4E-1,5.6166667E-1,5.2E-1,2E0,3.914033E-2,3.7333333E-1,4E0,2E1,2.2E-1,1.6E-1,2.6666667E0,5.7951664E-3,2.3333333E0,2.5E0,5.0784616E0,4.8E-1,3E0,1.36880865E-2,6.79295E0,5.6166667E-1,-2.71393E-3,2E0,-5.65E-1,4.5333335E-1,4E0,1.1736008E-2,3.1666667E0,2.130211E-2,-1.6E-1,5.442559E-2,1.36257745E-2,-0E0,4.774492E-2,6.114279E-2,-3.8661115E-2,-3.2562952E-2,-3.1743806E-2,-2.0937938E-2,-3.1141337E-2,-1.8951358E-2,-2.1397334E-2,-3.1384863E-3,-1.2553132E-2,-2.216553E-2,-1.4479986E-2,-2.4641143E-2,-8.8411905E-3,-1.7866757E-2,-1.7208086E-2,-2.9396173E-3,3.3401197E-3,1.8235167E-2,5.299255E-3,-9.953231E-3,2.7387448E-2,8.848232E-3,-4.003675E-3,1.0451669E-2,2.2316767E-2,1.0046752E-2,2.5489524E-2,4.6557177E-2,4.7590123E-3,2.9958962E-2,-8.513788E-3,5.7532857E-3,1.4843091E-2,2.997163E-3,1.6098112E-2,3.9228156E-2],"split_indices":[19,19,19,17,17,38,19,27,17,27,27,27,27,38,27,17,17,27,0,27,17,17,38,27,1,17,17,27,13,0,17,19,22,27,27,38,0,38,38,24,27,1,0,36,17,0,16,17,17,15,0,38,0,27,0,0,0,0,0,0,0,0,0,0,0,0,0,0,0,0,0,0,0,0,0,0,0,0,0,0,0,0,0,0,0,0,0,0,0,0,0,0,0,0,0],"split_type":[0,0,0,0,0,0,0,0,0,0,0,0,0,0,0,0,0,0,0,0,0,0,0,0,0,0,0,0,0,0,0,0,0,0,0,0,0,0,0,0,0,0,0,0,0,0,0,0,0,0,0,0,0,0,0,0,0,0,0,0,0,0,0,0,0,0,0,0,0,0,0,0,0,0,0,0,0,0,0,0,0,0,0,0,0,0,0,0,0,0,0,0,0,0,0],"sum_hessian":[7.838827E3,4.8540884E3,2.9847388E3,2.0485466E3,2.8055417E3,1.7878192E3,1.1969196E3,1.7551388E3,2.9340793E2,1.9986493E3,8.0689246E2,1.0593577E3,7.284615E2,7.3038745E2,4.6653207E2,9.2578845E2,8.2935034E2,2.3729684E2,5.6111076E1,1.4443751E3,5.542742E2,4.9931363E2,3.075788E2,4.2260013E2,6.3675757E2,3.9604413E2,3.3241733E2,6.131422E2,1.1724525E2,5.7051163E1,4.094809E2,6.4300836E2,2.8278015E2,5.9212195E2,2.3722835E2,1.8686269E2,5.043416E1,6.273747E2,8.1700037E2,2.7894177E2,2.753324E2,4.2129654E2,7.801709E1,1.9332901E2,1.14249794E2,6.648353E1,3.561166E2,2.8772864E2,3.4902893E2,2.988988E2,9.714534E1,2.4365013E2,8.8767204E1,4.425918E2,1.705504E2,6.624177E1,5.1003483E1,1.0284073E2,3.0664017E2,4.5209787E2,1.9091045E2,2.1373407E2,6.904608E1,4.8491367E2,1.072083E2,1.8456033E2,5.266801E1,8.495123E1,1.0191145E2,1.23171135E2,5.0420358E2,2.3712553E2,5.798749E2,1.5382793E2,1.2511385E2,1.9545293E2,7.987948E1,1.1443973E2,3.068568E2,1.25801414E2,6.7527596E1,5.2330822E1,6.1918972E1,1.05093315E2,2.510233E2,1.1249158E2,1.7523706E2,8.092945E1,2.6809946E2,2.4398544E2,5.4913353E1,9.46929E1,1.4895723E2,5.391505E1,3.8867676E2],"tree_param":{"num_deleted":"0","num_feature":"41","num_nodes":"95","size_leaf_vector":"1"}},{"base_weights":[-5.944866E-3,1.3749558E0,-3.0668747E-1,1.604979E0,6.285248E-1,-6.2675947E-1,2.230235E-1,9.1305065E-1,1.7703823E0,-6.433375E-3,8.9708674E-1,-3.5005233E-1,-1.030705E0,5.2482074E-1,-3.0528888E-1,4.0072147E-2,6.4405E-1,5.9470765E-2,1.6051084E0,8.722508E-3,1.12689E0,-6.838319E-2,-6.6616684E-1,-8.359671E-1,-1.1752557E0,7.565461E-1,1.1849148E-1,-4.1635904E-1,2.2186244E-2,9.182286E-3,2.604982E-2,1.439323E0,5.5892393E-2,8.9959145E-1,4.235478E-2,-3.1686017E-1,1.290983E-1,-8.651526E-1,-4.7490507E-1,-9.5102084E-1,-5.6735414E-1,-3.8703613E-2,-1.0889341E0,5.6135374E-1,1.1911312E0,3.0205506E-1,-2.6568487E-1,-1.1455481E-1,-7.530741E-1,4.793056E-2,3.7301045E-2,2.1024676E-2,3.2100793E-2,-2.6053542E-3,-1.2097243E-2,1.177212E-2,1.1887117E-4,-1.9519582E-2,-2.9135004E-2,-1.0316953E-2,-2.298903E-2,-3.283728E-2,-2.5555653E-2,-1.995538E-2,-6.7986976E-3,-2.722755E-2,-3.48978E-2,8.31896E-3,2.0954859E-2,2.9064663E-2,4.4284362E-2,5.5279452E-3,2.3106985E-2,-1.6796552E-2,-3.7052433E-3,-8.986798E-3,5.835543E-3,-2.5041273E-2,-1.2808495E-2],"categories":[],"categories_nodes":[],"categories_segments":[],"categories_sizes":[],"default_left":[0,0,0,0,0,0,0,0,0,0,0,0,0,0,0,0,0,0,0,0,0,0,0,0,0,0,0,0,0,0,0,0,0,0,0,0,0,0,0,0,0,0,0,0,0,0,0,0,0,0,0,0,0,0,0,0,0,0,0,0,0,0,0,0,0,0,0,0,0,0,0,0,0,0,0,0,0,0,0],"id":6,"left_children":[1,3,5,7,9,11,13,15,17,-1,19,21,23,25,27,-1,29,-1,31,-1,33,35,37,39,41,43,45,47,-1,-1,-1,49,-1,51,-1,53,55,57,59,61,63,-1,65,67,69,71,73,75,77,-1,-1,-1,-1,-1,-1,-1,-1,-1,-1,-1,-1,-1,-1,-1,-1,-1,-1,-1,-1,-1,-1,-1,-1,-1,-1,-1,-1,-1,-1],"loss_changes":[3.2536646E3,2.3742236E2,1.0914688E3,1.177937E2,7.630553E1,4.4705212E2,3.870087E2,2.1280258E1,2.1979492E1,0E0,3.403055E1,2.1189111E2,4.289441E1,1.4480011E2,1.02826096E2,0E0,9.002251E0,0E0,1.416394E1,0E0,8.150574E0,6.221042E1,4.1235138E1,1.9874298E1,5.209717E0,8.1118286E1,3.99557E1,8.059856E1,0E0,0E0,0E0,4.270752E0,0E0,1.2814865E0,0E0,1.0841915E1,2.3017586E1,1.0352936E1,2.0988953E1,4.103546E0,6.4838333E0,0E0,4.206909E0,2.5710815E1,1.5045807E1,2.0387344E1,7.155901E0,2.444375E1,8.681534E0,0E0,0E0,0E0,0E0,0E0,0E0,0E0,0E0,0E0,0E0,0E0,0E0,0E0,0E0,0E0,0E0,0E0,0E0,0E0,0E0,0E0,0E0,0E0,0E0,0E0,0E0,0E0,0E0,0E0,0E0],"parents":[2147483647,0,0,1,1,2,2,3,3,4,4,5,5,6,6,7,7,8,8,10,10,11,11,12,12,13,13,14,14,16,16,18,18,20,20,21,21,22,22,23,23,24,24,25,25,26,26,27,27,31,31,33,33,35,35,36,36,37,37,38,38,39,39,40,40,42,42,43,43,44,44,45,45,46,46,47,47,48,48],"right_children":[2,4,6,8,10,12,14,16,18,-1,20,22,24,26,28,-1,30,-1,32,-1,34,36,38,40,42,44,46,48,-1,-1,-1,50,-1,52,-1,54,56,58,60,62,64,-1,66,68,70,72,74,76,78,-1,-1,-1,-1,-1,-1,-1,-1,-1,-1,-1,-1,-1,-1,-1,-1,-1,-1,-1,-1,-1,-1,-1,-1,-1,-1,-1,-1,-1,-1],"split_conditions":[2E0,5E0,2.4166666E-1,-4.1333333E-1,-5.65E-1,5E0,5E0,2E0,2E0,-6.433375E-3,-1.6E-1,4E0,4E0,4E0,1.6783333E0,4.0072147E-2,2.188E1,5.9470765E-2,4.563E1,8.722508E-3,5.833333E-1,-5.1E-1,-5.65E-1,-2.3E-1,4.32E0,1.1116667E0,4E0,4E0,2.2186244E-2,9.182286E-3,2.604982E-2,6.78088E0,5.5892393E-2,3.404E1,4.235478E-2,2E0,2E0,3E0,4E0,-9.166667E-1,5.53E0,-3.8703613E-2,5E0,4.8666668E-1,1.525E0,1.3333334E0,5.4E-1,9.533333E-1,2.47E0,4.793056E-2,3.7301045E-2,2.1024676E-2,3.2100793E-2,-2.6053542E-3,-1.2097243E-2,1.177212E-2,1.1887117E-4,-1.9519582E-2,-2.9135004E-2,-1.0316953E-2,-2.298903E-2,-3.283728E-2,-2.5555653E-2,-1.995538E-2,-6.7986976E-3,-2.722755E-2,-3.48978E-2,8.31896E-3,2.0954859E-2,2.9064663E-2,4.4284362E-2,5.5279452E-3,2.3106985E-2,-1.6796552E-2,-3.7052433E-3,-8.986798E-3,5.835543E-3,-2.5041273E-2,-1.2808495E-2],"split_indices":[0,20,17,17,17,0,0,20,20,0,27,20,20,20,17,0,5,0,3,0,17,17,17,17,2,17,0,20,0,0,0,36,0,5,0,20,20,0,0,17,18,0,20,17,17,40,17,17,25,0,0,0,0,0,0,0,0,0,0,0,0,0,0,0,0,0,0,0,0,0,0,0,0,0,0,0,0,0,0],"split_type":[0,0,0,0,0,0,0,0,0,0,0,0,0,0,0,0,0,0,0,0,0,0,0,0,0,0,0,0,0,0,0,0,0,0,0,0,0,0,0,0,0,0,0,0,0,0,0,0,0,0,0,0,0,0,0,0,0,0,0,0,0,0,0,0,0,0,0,0,0,0,0,0,0,0,0,0,0,0,0],"sum_hessian":[7.8318286E3,1.3990579E3,6.432771E3,1.0672114E3,3.318464E2,4.0102185E3,2.4225525E3,2.0899406E2,8.582174E2,7.982632E1,2.520201E2,2.3828862E3,1.6273323E3,1.5424125E3,8.8013995E2,7.7471405E1,1.3152266E2,3.650273E2,4.9319006E2,7.1107895E1,1.809122E2,1.2622191E3,1.1206672E3,7.005628E2,9.267694E2,9.803658E2,5.620467E2,7.970875E2,8.3052414E1,5.5239136E1,7.628353E1,3.0943103E2,1.8375905E2,1.0623546E2,7.467674E1,5.595278E2,7.026913E2,5.4450824E2,5.76159E2,4.8561798E2,2.1494484E2,3.831898E2,5.4357965E2,6.804693E2,2.9989642E2,3.8149387E2,1.8055284E2,4.2253058E2,3.7455698E2,1.6180707E2,1.4762396E2,5.511523E1,5.1120228E1,1.5543541E2,4.0409235E2,2.237077E2,4.7898358E2,1.8638477E2,3.5812347E2,4.0165707E2,1.7450192E2,1.8814133E2,2.9747665E2,1.6437907E2,5.0565765E1,1.676579E2,3.7592172E2,2.2471571E2,4.5575363E2,1.7441037E2,1.2548607E2,3.0788684E2,7.360701E1,5.5766003E1,1.24786835E2,2.6536655E2,1.5716403E2,2.9584845E2,7.870853E1],"tree_param":{"num_deleted":"0","num_feature":"41","num_nodes":"79","size_leaf_vector":"1"}},{"base_weights":[-2.612018E-4,1.3384957E0,-2.9803804E-1,7.379799E-1,1.6106722E0,2.635173E-1,-5.6255347E-1,1.7520437E-1,9.900096E-1,2.194313E-2,1.6931473E0,5.705005E-1,-2.8471878E-1,-2.9183298E-1,-9.679173E-1,-7.441448E-3,1.4125754E-2,7.5604755E-1,1.2019812E0,5.474274E-2,1.4607495E0,3.9367348E-1,9.275485E-1,-4.9092704E-1,8.417319E-2,-4.9418437E-1,6.785021E-3,-1.0895619E0,-7.4297756E-1,3.1541806E-2,1.6751964E-2,4.2124573E-2,3.0644152E-2,3.92186E-2,4.9909398E-2,1.9492438E-1,7.0609E-1,1.1066817E0,5.2034104E-1,-6.544718E-1,-1.7498878E-1,-3.7394892E-2,1.7470848E-2,-3.5575557E-1,-7.646507E-1,-3.6829755E-1,9.6400015E-2,-1.2062305E0,-9.7408193E-1,-4.6104306E-1,-8.4869117E-1,7.6024067E-3,-6.339532E-3,2.666017E-2,1.34268105E-2,3.0055836E-2,4.59688E-2,2.5025211E-2,-0E0,-1.2089671E-2,-2.3825752E-2,7.495758E-4,-9.40956E-3,-5.722421E-3,6.271141E-3,2.0195257E-4,-1.4004257E-2,-1.4866118E-2,-2.5679436E-2,-1.589815E-2,-4.621368E-3,-1.0506135E-5,1.2193096E-2,-3.785105E-2,-2.9842297E-2,-2.6567588E-2,-3.3416975E-2,-1.9982487E-2,-5.418821E-3,-2.1938156E-2,-2.9558087E-2],"categories":[],"categories_nodes":[],"categories_segments":[],"categories_sizes":[],"default_left":[0,0,0,0,0,0,0,0,0,0,0,0,0,0,0,0,0,0,0,0,0,0,0,0,0,0,0,0,0,0,0,0,0,0,0,0,0,0,0,0,0,0,0,0,0,0,0,0,0,0,0,0,0,0,0,0,0,0,0,0,0,0,0,0,0,0,0,0,0,0,0,0,0,0,0,0,0,0,0,0,0],"id":7,"left_children":[1,3,5,7,9,11,13,15,17,-1,19,21,23,25,27,-1,-1,29,31,-1,33,35,37,39,41,43,45,47,49,-1,-1,-1,-1,-1,-1,51,53,55,57,59,61,63,-1,65,67,69,71,73,75,77,79,-1,-1,-1,-1,-1,-1,-1,-1,-1,-1,-1,-1,-1,-1,-1,-1,-1,-1,-1,-1,-1,-1,-1,-1,-1,-1,-1,-1,-1,-1],"loss_changes":[3.1284858E3,2.298274E2,9.5424023E2,6.2838364E1,6.739526E1,3.466358E2,4.779602E2,1.812777E1,1.2551666E1,0E0,2.0375244E1,8.19353E1,5.650562E1,1.5865715E2,4.5260742E1,0E0,0E0,6.9885483E0,1.6794891E0,0E0,4.5861816E0,5.435472E1,2.9745422E1,2.391124E1,1.6416157E1,5.7439545E1,3.5559956E1,1.175647E1,1.7065308E1,0E0,0E0,0E0,0E0,0E0,0E0,1.3099272E1,1.4734863E1,9.014496E0,2.267133E1,9.701675E0,4.7593236E0,8.186796E0,0E0,4.2071762E1,1.141394E1,6.550192E0,2.594378E1,2.8202515E0,4.196533E0,9.395939E0,4.8827515E0,0E0,0E0,0E0,0E0,0E0,0E0,0E0,0E0,0E0,0E0,0E0,0E0,0E0,0E0,0E0,0E0,0E0,0E0,0E0,0E0,0E0,0E0,0E0,0E0,0E0,0E0,0E0,0E0,0E0,0E0],"parents":[2147483647,0,0,1,1,2,2,3,3,4,4,5,5,6,6,7,7,8,8,10,10,11,11,12,12,13,13,14,14,17,17,18,18,20,20,21,21,22,22,23,23,24,24,25,25,26,26,27,27,28,28,35,35,36,36,37,37,38,38,39,39,40,40,41,41,43,43,44,44,45,45,46,46,47,47,48,48,49,49,50,50],"right_children":[2,4,6,8,10,12,14,16,18,-1,20,22,24,26,28,-1,-1,30,32,-1,34,36,38,40,42,44,46,48,50,-1,-1,-1,-1,-1,-1,52,54,56,58,60,62,64,-1,66,68,70,72,74,76,78,80,-1,-1,-1,-1,-1,-1,-1,-1,-1,-1,-1,-1,-1,-1,-1,-1,-1,-1,-1,-1,-1,-1,-1,-1,-1,-1,-1,-1,-1,-1],"split_conditions":[2E0,5.18E0,3E0,4E-2,-7E-2,5E0,5E0,2.135E1,-3.3333334E-1,2.194313E-2,1.5E-1,1.1666666E0,1.1666666E0,1.5E-1,1.4E-1,-7.441448E-3,1.4125754E-2,3.226E1,1.2E-1,5.474274E-2,8.333333E-1,3E-1,4E0,1.2E-1,7.04E0,4E0,5.0784616E0,4.43E0,4E0,3.1541806E-2,1.6751964E-2,4.2124573E-2,3.0644152E-2,3.92186E-2,4.9909398E-2,3.5E0,2.8333333E0,5E-1,1.6E-1,6E0,3.404E1,3.0366666E0,1.7470848E-2,4E0,3E0,-3.3333334E-1,4.891667E0,-3.3333334E-1,5E0,1.5E-1,6E0,7.6024067E-3,-6.339532E-3,2.666017E-2,1.34268105E-2,3.0055836E-2,4.59688E-2,2.5025211E-2,-0E0,-1.2089671E-2,-2.3825752E-2,7.495758E-4,-9.40956E-3,-5.722421E-3,6.271141E-3,2.0195257E-4,-1.4004257E-2,-1.4866118E-2,-2.5679436E-2,-1.589815E-2,-4.621368E-3,-1.0506135E-5,1.2193096E-2,-3.785105E-2,-2.9842297E-2,-2.6567588E-2,-3.3416975E-2,-1.9982487E-2,-5.418821E-3,-2.1938156E-2,-2.9558087E-2],"split_indices":[0,2,16,34,34,0,0,5,40,0,8,40,40,34,34,0,0,7,8,0,40,27,0,27,2,0,24,2,16,0,0,0,0,0,0,38,38,27,8,0,5,18,0,16,15,40,18,40,16,27,0,0,0,0,0,0,0,0,0,0,0,0,0,0,0,0,0,0,0,0,0,0,0,0,0,0,0,0,0,0,0],"split_type":[0,0,0,0,0,0,0,0,0,0,0,0,0,0,0,0,0,0,0,0,0,0,0,0,0,0,0,0,0,0,0,0,0,0,0,0,0,0,0,0,0,0,0,0,0,0,0,0,0,0,0,0,0,0,0,0,0,0,0,0,0,0,0,0,0,0,0,0,0,0,0,0,0,0,0,0,0,0,0,0,0],"sum_hessian":[7.844988E3,1.4258636E3,6.419124E3,4.475883E2,9.7827545E2,2.0548596E3,4.364264E3,1.4010712E2,3.0748117E2,8.610826E1,8.921672E2,1.317795E3,7.3706476E2,2.6195095E3,1.7447549E3,5.7056713E1,8.30504E1,1.5162189E2,1.5585927E2,5.5947284E2,3.3269434E2,8.850714E2,4.3272357E2,4.7322742E2,2.6383734E2,1.5616554E3,1.057854E3,1.1259465E3,6.1880835E2,5.630971E1,9.531218E1,6.581669E1,9.004258E1,1.9930157E2,1.3339276E2,5.4390515E2,3.4116626E2,2.972834E2,1.3544017E2,3.093615E2,1.638659E2,2.1276468E2,5.1072655E1,1.0372529E3,5.244025E2,2.0172736E2,8.5612665E2,5.485401E2,5.7740643E2,1.7296603E2,4.4584232E2,4.771851E2,6.672006E1,1.9596223E2,1.4520404E2,2.4486115E2,5.242225E1,8.405918E1,5.138099E1,1.14542625E2,1.9481888E2,6.629362E1,9.757229E1,1.3268016E2,8.008451E1,2.4263757E2,7.946153E2,1.3751842E2,3.8688412E2,1.11971054E2,8.975631E1,6.5279877E2,2.0332785E2,4.2481833E2,1.2372176E2,3.6477228E2,2.1263412E2,9.729222E1,7.5673805E1,2.485383E2,1.9730402E2],"tree_param":{"num_deleted":"0","num_feature":"41","num_nodes":"81","size_leaf_vector":"1"}},{"base_weights":[-3.3126783E-3,-5.171836E-1,8.0000883E-1,-2.24287E-1,-8.21163E-1,1.2973859E0,3.738936E-1,-6.0431325E-1,-4.156225E-3,-9.9531376E-1,-4.852616E-1,1.577164E0,7.8826374E-1,9.1533646E-2,7.7252537E-1,-7.321676E-1,2.2434816E-1,-2.22205E-1,3.054968E-1,-1.0976931E0,-6.561866E-1,-6.9854635E-1,-3.021112E-1,8.763511E-1,1.7030714E0,2.6370892E-1,1.1355265E0,3.1387466E-1,-2.0302065E-1,9.229155E-1,6.2256526E-2,-9.8967E-1,-5.979454E-1,-2.581454E-3,1.7755074E-2,3.0300641E-2,-3.2794866E-1,6.629127E-1,8.53922E-2,-3.76729E-2,-1.0076139E0,-7.3314875E-1,-5.730959E-3,-4.964812E-1,-7.997923E-1,-3.088167E-2,-4.7806054E-1,3.530658E-2,1.7283408E-2,5.5794843E-2,1.5321989E0,-1.5870682E-3,5.423454E-1,1.302576E0,2.039744E-2,5.661307E-1,1.9170755E-1,-3.8910297E-1,3.957396E-2,1.2629966E0,7.7350694E-1,-3.9050232E-3,8.087882E-3,-3.2264624E-2,-1.8237181E-2,-4.909677E-3,-2.0738894E-2,-5.251986E-3,1.0228989E-2,-6.059832E-3,-1.3809195E-2,3.01032E-2,1.3983256E-2,-3.7837966E-4,1.7885627E-2,-2.5267903E-2,-3.259129E-2,-2.50926E-2,-1.4655382E-2,-2.0301905E-2,-6.206397E-3,-1.7936436E-2,-3.0513277E-2,6.55103E-3,-8.619601E-3,-1.6904507E-2,-3.5745774E-3,3.7604056E-2,5.0896578E-2,9.342533E-3,2.1846684E-2,3.4816474E-2,4.564034E-2,2.3525026E-2,6.565351E-3,-0E0,1.02296965E-2,-6.2847445E-3,-1.5956167E-2,-5.529045E-3,1.3115069E-2,2.804896E-2,4.51645E-2,2.73891E-2,1.3222473E-2],"categories":[],"categories_nodes":[],"categories_segments":[],"categories_sizes":[],"default_left":[0,0,0,0,0,0,0,0,0,0,0,0,0,0,0,0,0,0,0,0,0,0,0,0,0,0,0,0,0,0,0,0,0,0,0,0,0,0,0,0,0,0,0,0,0,0,0,0,0,0,0,0,0,0,0,0,0,0,0,0,0,0,0,0,0,0,0,0,0,0,0,0,0,0,0,0,0,0,0,0,0,0,0,0,0,0,0,0,0,0,0,0,0,0,0,0,0,0,0,0,0,0,0,0,0],"id":8,"left_children":[1,3,5,7,9,11,13,15,17,19,21,23,25,27,29,31,33,35,37,39,41,43,45,47,49,51,53,55,57,59,61,63,65,-1,-1,67,69,71,73,-1,75,77,-1,79,81,83,85,-1,-1,-1,87,-1,89,91,-1,93,95,97,99,101,103,-1,-1,-1,-1,-1,-1,-1,-1,-1,-1,-1,-1,-1,-1,-1,-1,-1,-1,-1,-1,-1,-1,-1,-1,-1,-1,-1,-1,-1,-1,-1,-1,-1,-1,-1,-1,-1,-1,-1,-1,-1,-1,-1,-1],"loss_changes":[3.2213335E3,4.2289233E2,6.433661E2,2.0277782E2,1.3483289E2,1.9621265E2,1.8434346E2,9.4832886E1,1.0407876E2,5.0951782E1,3.0399734E1,7.540137E1,9.019766E1,6.3361584E1,7.2047485E1,2.4693665E1,1.4033306E1,2.4354633E1,4.9566357E1,1.3059448E1,1.2212906E1,6.0792847E0,2.0531513E1,1.0602493E1,1.3034668E1,1.8232744E1,2.0149384E1,1.6399254E1,1.8948927E1,2.5512512E1,4.9905457E0,6.371475E0,2.0168045E1,0E0,0E0,1.7288176E1,1.0152519E1,1.4503014E1,2.0177261E1,0E0,7.1063232E0,6.323822E0,0E0,6.045784E0,8.507599E0,1.1337564E1,7.5969315E0,0E0,0E0,0E0,1.157959E1,0E0,3.7107735E0,1.8791809E0,0E0,1.2601707E1,1.0762108E1,5.4664536E0,1.6388279E1,9.242889E0,1.688028E1,0E0,0E0,0E0,0E0,0E0,0E0,0E0,0E0,0E0,0E0,0E0,0E0,0E0,0E0,0E0,0E0,0E0,0E0,0E0,0E0,0E0,0E0,0E0,0E0,0E0,0E0,0E0,0E0,0E0,0E0,0E0,0E0,0E0,0E0,0E0,0E0,0E0,0E0,0E0,0E0,0E0,0E0,0E0,0E0],"parents":[2147483647,0,0,1,1,2,2,3,3,4,4,5,5,6,6,7,7,8,8,9,9,10,10,11,11,12,12,13,13,14,14,15,15,16,16,17,17,18,18,19,19,20,20,21,21,22,22,23,23,24,24,25,25,26,26,27,27,28,28,29,29,30,30,31,31,32,32,35,35,36,36,37,37,38,38,40,40,41,41,43,43,44,44,45,45,46,46,50,50,52,52,53,53,55,55,56,56,57,57,58,58,59,59,60,60],"right_children":[2,4,6,8,10,12,14,16,18,20,22,24,26,28,30,32,34,36,38,40,42,44,46,48,50,52,54,56,58,60,62,64,66,-1,-1,68,70,72,74,-1,76,78,-1,80,82,84,86,-1,-1,-1,88,-1,90,92,-1,94,96,98,100,102,104,-1,-1,-1,-1,-1,-1,-1,-1,-1,-1,-1,-1,-1,-1,-1,-1,-1,-1,-1,-1,-1,-1,-1,-1,-1,-1,-1,-1,-1,-1,-1,-1,-1,-1,-1,-1,-1,-1,-1,-1,-1,-1,-1,-1],"split_conditions":[1.2E1,4E0,2E0,5E0,8E0,4E0,7.5E-1,8.5333335E-1,3.6666665E-2,2.2166666E-1,-4.1333333E-1,-5.233333E-1,5.37E0,4E0,5E0,2.055E1,1.385E0,2E0,2.5E0,3E0,1.2633333E0,5E0,5E0,2E0,2E0,1E-2,6E0,2E0,2.6166666E-1,2E0,1.6E1,2.105E1,2.3333333E0,-2.581454E-3,1.7755074E-2,4E-1,4E0,2E0,1.2366667E0,-3.76729E-2,5E0,6E0,-5.730959E-3,-7.5666666E-1,3E0,4E0,7.366667E-1,3.530658E-2,1.7283408E-2,5.5794843E-2,2.33325E0,-1.5870682E-3,-5.75E-1,4.615E1,2.039744E-2,3.5E0,1.5E1,3E0,2E-1,1.2366667E0,2.8333333E0,-3.9050232E-3,8.087882E-3,-3.2264624E-2,-1.8237181E-2,-4.909677E-3,-2.0738894E-2,-5.251986E-3,1.0228989E-2,-6.059832E-3,-1.3809195E-2,3.01032E-2,1.3983256E-2,-3.7837966E-4,1.7885627E-2,-2.5267903E-2,-3.259129E-2,-2.50926E-2,-1.4655382E-2,-2.0301905E-2,-6.206397E-3,-1.7936436E-2,-3.0513277E-2,6.55103E-3,-8.619601E-3,-1.6904507E-2,-3.5745774E-3,3.7604056E-2,5.0896578E-2,9.342533E-3,2.1846684E-2,3.4816474E-2,4.564034E-2,2.3525026E-2,6.565351E-3,-0E0,1.02296965E-2,-6.2847445E-3,-1.5956167E-2,-5.529045E-3,1.3115069E-2,2.804896E-2,4.51645E-2,2.73891E-2,1.3222473E-2],"split_indices":[19,20,0,19,19,20,17,17,17,17,17,17,2,20,20,3,17,20,38,19,17,20,20,20,20,27,20,20,17,20,19,5,38,0,0,27,29,20,17,0,20,19,0,17,0,0,17,0,0,0,33,0,17,5,0,38,19,0,27,17,38,0,0,0,0,0,0,0,0,0,0,0,0,0,0,0,0,0,0,0,0,0,0,0,0,0,0,0,0,0,0,0,0,0,0,0,0,0,0,0,0,0,0,0,0],"split_type":[0,0,0,0,0,0,0,0,0,0,0,0,0,0,0,0,0,0,0,0,0,0,0,0,0,0,0,0,0,0,0,0,0,0,0,0,0,0,0,0,0,0,0,0,0,0,0,0,0,0,0,0,0,0,0,0,0,0,0,0,0,0,0,0,0,0,0,0,0,0,0,0,0,0,0,0,0,0,0,0,0,0,0,0,0,0,0,0,0,0,0,0,0,0,0,0,0,0,0,0,0,0,0,0,0],"sum_hessian":[7.799888E3,4.7577637E3,3.0421248E3,2.4256606E3,2.332103E3,1.4012603E3,1.6408644E3,8.875914E2,1.5380692E3,1.5322705E3,7.998326E2,9.0097144E2,5.0028888E2,9.6268567E2,6.7817865E2,7.696744E2,1.1791697E2,9.03811E2,6.3425824E2,1.1723893E3,3.5988116E2,3.656559E2,4.341767E2,1.4024498E2,7.6072644E2,2.0125043E2,2.9903845E2,5.494818E2,4.132039E2,5.5859973E2,1.19578926E2,2.5808057E2,5.1159384E2,6.401669E1,5.390028E1,2.6580142E2,6.380096E2,2.3932922E2,3.94929E2,4.141717E2,7.5821765E2,3.0687924E2,5.300193E1,1.2764658E2,2.3800934E2,1.728766E2,2.6130008E2,6.633709E1,7.390788E1,3.849147E2,3.7581174E2,9.412415E1,1.0712627E2,2.1528809E2,8.375039E1,1.7557857E2,3.7390323E2,2.3432104E2,1.7888286E2,1.6493185E2,3.9366788E2,6.1155617E1,5.8423306E1,2.0667712E2,5.1403427E1,9.243384E1,4.1916E2,1.5957632E2,1.062251E2,3.3143732E2,3.0657224E2,8.372433E1,1.556049E2,3.3216852E2,6.276048E1,2.5423143E2,5.039862E2,2.1094745E2,9.593179E1,7.596539E1,5.168119E1,1.2845961E2,1.0954972E2,8.682896E1,8.6047646E1,2.0901877E2,5.228131E1,1.4692862E2,2.288831E2,5.13596E1,5.576667E1,1.3957191E2,7.571617E1,1.0543036E2,7.014822E1,1.6453009E2,2.0937314E2,1.07507576E2,1.2681347E2,1.14324844E2,6.455801E1,7.510493E1,8.982693E1,2.73888E2,1.19779884E2],"tree_param":{"num_deleted":"0","num_feature":"41","num_nodes":"105","size_leaf_vector":"1"}},{"base_weights":[4.3775053E-3,1.241336E0,-2.762493E-1,5.426856E-1,1.4430381E0,-5.779487E-1,2.1132709E-1,1.0372478E0,1.9262102E-1,1.657574E0,1.0201309E0,-3.143897E-1,-9.748216E-1,4.735776E-1,-2.587927E-1,2.1858424E-2,3.617632E-2,5.1691276E-1,-6.379739E-3,5.3935964E-2,1.4996295E0,6.019573E-1,1.1858555E0,-5.6671944E-2,-6.158036E-1,-7.912333E-1,-1.1152881E0,6.8914115E-1,9.563102E-2,2.9365424E-2,-6.011563E-1,6.629044E-3,2.2841472E-2,3.3988893E-2,1.5942705E0,9.575167E-3,2.4879698E-2,1.4180213E0,8.2926834E-1,-2.960433E-1,1.3247333E-1,-8.0380297E-1,-4.117705E-1,-8.820106E-1,-4.8862284E-1,-1.1485566E0,-2.2675654E-2,4.8297882E-1,1.0321143E0,4.189062E-1,-9.954928E-2,-2.0650437E-1,4.087193E-1,-7.137705E-1,-1.1003241E-4,4.2548478E-2,5.180241E-2,3.5503343E-2,4.6879563E-2,1.889177E-2,3.0470619E-2,-1.4650874E-2,-5.1049567E-3,-1.1624875E-3,9.016284E-3,-2.0817924E-2,-2.977566E-2,-8.446003E-3,-2.118119E-2,-3.0528301E-2,-2.3363847E-2,-1.7527571E-2,-8.719877E-3,-2.9949686E-2,-3.6027085E-2,6.4372965E-3,1.9184358E-2,3.5053898E-2,2.164009E-2,1.7550573E-2,-2.713794E-6,-6.9069555E-3,1.2748442E-2,-0E0,-1.480838E-2,6.8938937E-3,2.3072395E-2,-1.7652351E-2,-2.5870528E-2],"categories":[],"categories_nodes":[],"categories_segments":[],"categories_sizes":[],"default_left":[0,0,0,0,0,0,0,0,0,0,0,0,0,0,0,0,0,0,0,0,0,0,0,0,0,0,0,0,0,0,0,0,0,0,0,0,0,0,0,0,0,0,0,0,0,0,0,0,0,0,0,0,0,0,0,0,0,0,0,0,0,0,0,0,0,0,0,0,0,0,0,0,0,0,0,0,0,0,0,0,0,0,0,0,0,0,0,0,0],"id":9,"left_children":[1,3,5,7,9,11,13,15,17,19,21,23,25,27,29,-1,-1,31,-1,-1,33,35,37,39,41,43,45,47,49,51,53,-1,-1,-1,55,-1,-1,57,59,61,63,65,67,69,71,73,-1,75,77,79,81,83,85,87,-1,-1,-1,-1,-1,-1,-1,-1,-1,-1,-1,-1,-1,-1,-1,-1,-1,-1,-1,-1,-1,-1,-1,-1,-1,-1,-1,-1,-1,-1,-1,-1,-1,-1,-1],"loss_changes":[2.7056477E3,2.0056201E2,9.347738E2,5.554165E1,9.659839E1,4.0928992E2,2.997925E2,4.2674255E0,2.5912117E1,9.287476E0,2.413974E1,1.830988E2,3.763025E1,1.26608E2,8.618177E1,0E0,0E0,7.074175E0,0E0,0E0,7.529358E0,6.180439E0,1.892157E1,5.795807E1,4.045459E1,1.731482E1,7.8341064E0,6.842523E1,3.6203403E1,4.2653946E1,2.6458313E1,0E0,0E0,0E0,6.793213E-2,0E0,0E0,3.630371E-1,2.0772934E0,1.318869E1,2.0681404E1,9.447876E0,1.9306229E1,4.85672E0,2.331379E0,2.7965088E0,0E0,2.5533615E1,1.30460205E1,1.5319649E1,2.4500725E1,1.7156391E1,1.0951998E1,4.4938507E0,0E0,0E0,0E0,0E0,0E0,0E0,0E0,0E0,0E0,0E0,0E0,0E0,0E0,0E0,0E0,0E0,0E0,0E0,0E0,0E0,0E0,0E0,0E0,0E0,0E0,0E0,0E0,0E0,0E0,0E0,0E0,0E0,0E0,0E0,0E0],"parents":[2147483647,0,0,1,1,2,2,3,3,4,4,5,5,6,6,7,7,8,8,9,9,10,10,11,11,12,12,13,13,14,14,17,17,20,20,21,21,22,22,23,23,24,24,25,25,26,26,27,27,28,28,29,29,30,30,34,34,37,37,38,38,39,39,40,40,41,41,42,42,43,43,44,44,45,45,47,47,48,48,49,49,50,50,51,51,52,52,53,53],"right_children":[2,4,6,8,10,12,14,16,18,20,22,24,26,28,30,-1,-1,32,-1,-1,34,36,38,40,42,44,46,48,50,52,54,-1,-1,-1,56,-1,-1,58,60,62,64,66,68,70,72,74,-1,76,78,80,82,84,86,88,-1,-1,-1,-1,-1,-1,-1,-1,-1,-1,-1,-1,-1,-1,-1,-1,-1,-1,-1,-1,-1,-1,-1,-1,-1,-1,-1,-1,-1,-1,-1,-1,-1,-1,-1],"split_conditions":[2E0,-4.0333334E-1,2.4166666E-1,3E0,4E0,5E0,5E0,-9.166667E-1,1.9E-1,2E0,3.6E1,4E0,4E0,4E0,4E0,2.1858424E-2,3.617632E-2,5.0784616E0,-6.379739E-3,5.3935964E-2,7.5E-2,1.875E0,1.9E-1,-5.1E-1,-5.1E-1,-1.2666667E-1,2.667E0,1.0016667E0,3E0,1.055E0,1.3616667E0,6.629044E-3,2.2841472E-2,3.3988893E-2,4.382E1,9.575167E-3,2.4879698E-2,5.833333E-1,8.25E-1,1.5955E0,3E-1,4E0,4E0,2.025E1,1.5E-1,5E0,-2.2675654E-2,4.8666668E-1,4E0,6E0,1.2633333E0,6E0,1.6783333E0,7.1292834E0,-1.1003241E-4,4.2548478E-2,5.180241E-2,3.5503343E-2,4.6879563E-2,1.889177E-2,3.0470619E-2,-1.4650874E-2,-5.1049567E-3,-1.1624875E-3,9.016284E-3,-2.0817924E-2,-2.977566E-2,-8.446003E-3,-2.118119E-2,-3.0528301E-2,-2.3363847E-2,-1.7527571E-2,-8.719877E-3,-2.9949686E-2,-3.6027085E-2,6.4372965E-3,1.9184358E-2,3.5053898E-2,2.164009E-2,1.7550573E-2,-2.713794E-6,-6.9069555E-3,1.2748442E-2,-0E0,-1.480838E-2,6.8938937E-3,2.3072395E-2,-1.7652351E-2,-2.5870528E-2],"split_indices":[0,17,17,20,20,0,0,17,8,20,3,20,20,20,20,0,0,24,0,0,17,33,8,17,17,17,25,17,0,17,17,0,0,0,3,0,0,17,17,33,27,0,0,5,27,20,0,17,0,20,17,0,17,24,0,0,0,0,0,0,0,0,0,0,0,0,0,0,0,0,0,0,0,0,0,0,0,0,0,0,0,0,0,0,0,0,0,0,0],"split_type":[0,0,0,0,0,0,0,0,0,0,0,0,0,0,0,0,0,0,0,0,0,0,0,0,0,0,0,0,0,0,0,0,0,0,0,0,0,0,0,0,0,0,0,0,0,0,0,0,0,0,0,0,0,0,0,0,0,0,0,0,0,0,0,0,0,0,0,0,0,0,0,0,0,0,0,0,0,0,0,0,0,0,0,0,0,0,0,0,0],"sum_hessian":[7.789111E3,1.4393998E3,6.3497114E3,3.2467136E2,1.1147284E3,3.922949E3,2.4267622E3,1.3234435E2,1.9232701E2,7.349005E2,3.7982788E2,2.3603262E3,1.5626227E3,1.5584495E3,8.683128E2,5.1568295E1,8.077605E1,1.07217606E2,8.51094E1,3.7652618E2,3.5837433E2,1.11290306E2,2.6853757E2,1.274568E3,1.0857583E3,6.8463605E2,8.7798663E2,9.905277E2,5.6792175E2,4.7168033E2,3.9663248E2,5.115024E1,5.606736E1,7.992958E1,2.7844476E2,5.272303E1,5.8567276E1,1.5818893E2,1.1034864E2,5.6325635E2,7.1131165E2,5.607472E2,5.250111E2,5.2243427E2,1.6220175E2,7.983141E2,7.967257E1,6.2257184E2,3.6795584E2,2.1390396E2,3.540178E2,2.9059262E2,1.810877E2,3.3269946E2,6.3933037E1,1.312596E2,1.4718515E2,6.865676E1,8.953218E1,5.8822887E1,5.1525757E1,2.1897319E2,3.4428317E2,3.5163892E2,3.5967273E2,3.6199652E2,1.9875066E2,3.6783017E2,1.5718097E2,2.1604399E2,3.063903E2,1.05034035E2,5.7167717E1,2.1912354E2,5.7919055E2,2.3222891E2,3.9034293E2,2.5079498E2,1.1716084E2,1.5346356E2,6.0440388E1,2.8506662E2,6.895117E1,1.709702E2,1.1962244E2,1.2412246E2,5.6965252E1,1.8765706E2,1.4504239E2],"tree_param":{"num_deleted":"0","num_feature":"41","num_nodes":"89","size_leaf_vector":"1"}},{"base_weights":[6.9521302E-3,-4.8387012E-1,7.6159734E-1,-8.196262E-1,-2.368309E-1,1.2211685E0,3.6738664E-1,-5.6018597E-1,-1.0309113E0,8.427229E-3,-5.4487556E-1,1.4132547E0,5.728184E-1,2.1309838E-1,9.3687564E-1,-6.4578575E-1,9.166544E-3,-1.0864588E0,-5.6802833E-1,1.2611455E-1,-3.06912E-1,-3.270395E-1,-6.516035E-1,9.365047E-1,1.6078956E0,1.739803E-1,8.754981E-1,4.3264693E-1,-1.16933405E-1,1.2914013E0,6.077755E-1,-8.893174E-1,-4.776218E-1,-3.6422975E-2,-9.8813874E-1,-2.0276586E-2,-1.2017335E-2,-1.3166775E-1,3.4814596E-1,-4.0190333E-1,6.8749567E-3,-5.8232665E-1,-1.2154087E-1,-7.8069776E-1,-4.551897E-1,1.3070614E0,6.82863E-1,1.7031863E0,1.4114002E0,-4.0976373E-3,1.1633632E-2,1.1398047E-2,1.0527736E0,5.5830604E-1,9.2761025E-2,-3.668792E-1,3.962101E-2,4.349777E-2,3.2719973E-2,8.3503234E-1,2.759527E-3,-2.8641747E-2,-1.5113177E-2,-1.6413946E-2,1.711146E-3,-2.3752159E-2,-3.19562E-2,5.705095E-3,-6.3489713E-3,2.2274325E-2,6.8277763E-3,-1.849346E-2,-9.396986E-3,-2.3156501E-2,-9.170878E-3,-7.3795184E-3,6.5041315E-3,-1.9757595E-2,-2.7017426E-2,-8.755268E-3,-2.4913892E-2,4.561638E-2,3.1890467E-2,1.6803887E-2,2.910795E-2,3.816718E-2,5.2708194E-2,3.3498567E-2,4.6232197E-2,3.6731582E-2,2.2963924E-2,9.291056E-3,2.3244562E-2,1.1655024E-2,-1.8575162E-3,-1.467592E-2,-2.2660997E-3,5.1893895E-3,-8.241298E-3,1.23592885E-2,3.397661E-2],"categories":[],"categories_nodes":[],"categories_segments":[],"categories_sizes":[],"default_left":[0,0,0,0,0,0,0,0,0,0,0,0,0,0,0,0,0,0,0,0,0,0,0,0,0,0,0,0,0,0,0,0,0,0,0,0,0,0,0,0,0,0,0,0,0,0,0,0,0,0,0,0,0,0,0,0,0,0,0,0,0,0,0,0,0,0,0,0,0,0,0,0,0,0,0,0,0,0,0,0,0,0,0,0,0,0,0,0,0,0,0,0,0,0,0,0,0,0,0,0,0],"id":10,"left_children":[1,3,5,7,9,11,13,15,17,19,21,23,25,27,29,31,-1,33,35,37,39,41,43,45,47,49,51,53,55,57,59,61,63,-1,65,-1,-1,67,69,71,-1,73,75,77,79,81,83,85,87,-1,-1,-1,89,91,93,95,97,-1,-1,99,-1,-1,-1,-1,-1,-1,-1,-1,-1,-1,-1,-1,-1,-1,-1,-1,-1,-1,-1,-1,-1,-1,-1,-1,-1,-1,-1,-1,-1,-1,-1,-1,-1,-1,-1,-1,-1,-1,-1,-1,-1],"loss_changes":[2.8661155E3,3.8792285E2,5.508115E2,1.0688513E2,2.0459941E2,1.7257178E2,1.4356587E2,6.701083E1,2.598645E1,5.590402E1,2.6976837E1,9.623193E1,3.84599E1,9.428247E1,3.8245544E1,3.1930542E1,0E0,8.682983E0,1.1243515E0,6.314824E1,2.1094154E1,2.0494282E1,1.8997833E1,2.7255157E1,7.9711914E0,9.768951E0,1.4632965E1,3.29093E1,2.0503017E1,8.39386E-1,2.1150291E1,6.636383E0,1.8476448E1,0E0,5.881531E0,0E0,0E0,1.3199394E1,2.7341751E1,5.786213E0,0E0,8.260456E0,9.605665E0,5.0519714E0,1.883133E1,2.0851593E0,5.015579E0,5.694824E0,5.2991943E0,0E0,0E0,0E0,3.7139282E0,2.9573288E1,1.00083E1,6.8181953E0,1.3446519E1,0E0,0E0,1.440387E1,0E0,0E0,0E0,0E0,0E0,0E0,0E0,0E0,0E0,0E0,0E0,0E0,0E0,0E0,0E0,0E0,0E0,0E0,0E0,0E0,0E0,0E0,0E0,0E0,0E0,0E0,0E0,0E0,0E0,0E0,0E0,0E0,0E0,0E0,0E0,0E0,0E0,0E0,0E0,0E0,0E0],"parents":[2147483647,0,0,1,1,2,2,3,3,4,4,5,5,6,6,7,7,8,8,9,9,10,10,11,11,12,12,13,13,14,14,15,15,17,17,18,18,19,19,20,20,21,21,22,22,23,23,24,24,25,25,26,26,27,27,28,28,29,29,30,30,31,31,32,32,34,34,37,37,38,38,39,39,41,41,42,42,43,43,44,44,45,45,46,46,47,47,48,48,52,52,53,53,54,54,55,55,56,56,59,59],"right_children":[2,4,6,8,10,12,14,16,18,20,22,24,26,28,30,32,-1,34,36,38,40,42,44,46,48,50,52,54,56,58,60,62,64,-1,66,-1,-1,68,70,72,-1,74,76,78,80,82,84,86,88,-1,-1,-1,90,92,94,96,98,-1,-1,100,-1,-1,-1,-1,-1,-1,-1,-1,-1,-1,-1,-1,-1,-1,-1,-1,-1,-1,-1,-1,-1,-1,-1,-1,-1,-1,-1,-1,-1,-1,-1,-1,-1,-1,-1,-1,-1,-1,-1,-1,-1],"split_conditions":[1.2E1,6E0,2E0,4E0,4E0,5E0,1.3333334E0,1.1666666E0,6.666667E-1,2.8333333E0,2.5E0,5.2E0,5.39E0,4E0,3E0,5.292627E0,9.166544E-3,4.32E0,9.831921E-1,5.830247E0,4.2E-1,4.5E0,6.383858E0,2E0,3E0,2.222E1,-7E-2,3.5E0,1.5E1,2E0,4E0,-1.6666667E-1,2.4E-1,-3.6422975E-2,5E0,-2.0276586E-2,-1.2017335E-2,2.1666667E0,2.3333333E0,2.735E1,6.8749567E-3,7E-2,2E-1,4E0,3.1666667E0,2.5E0,0E0,0E0,5.91E0,-4.0976373E-3,1.1633632E-2,1.1398047E-2,2E0,1.5E1,6.931608E0,2E-1,6E0,4.349777E-2,3.2719973E-2,6.47E0,2.759527E-3,-2.8641747E-2,-1.5113177E-2,-1.6413946E-2,1.711146E-3,-2.3752159E-2,-3.19562E-2,5.705095E-3,-6.3489713E-3,2.2274325E-2,6.8277763E-3,-1.849346E-2,-9.396986E-3,-2.3156501E-2,-9.170878E-3,-7.3795184E-3,6.5041315E-3,-1.9757595E-2,-2.7017426E-2,-8.755268E-3,-2.4913892E-2,4.561638E-2,3.1890467E-2,1.6803887E-2,2.910795E-2,3.816718E-2,5.2708194E-2,3.3498567E-2,4.6232197E-2,3.6731582E-2,2.2963924E-2,9.291056E-3,2.3244562E-2,1.1655024E-2,-1.8575162E-3,-1.467592E-2,-2.2660997E-3,5.1893895E-3,-8.241298E-3,1.23592885E-2,3.397661E-2],"split_indices":[19,19,0,20,20,20,40,40,40,38,38,2,2,20,20,24,0,2,39,24,27,2,24,20,20,5,34,38,19,20,0,40,27,0,20,0,0,38,38,5,0,27,27,30,38,38,40,40,2,0,0,0,13,19,24,34,20,0,0,2,0,0,0,0,0,0,0,0,0,0,0,0,0,0,0,0,0,0,0,0,0,0,0,0,0,0,0,0,0,0,0,0,0,0,0,0,0,0,0,0,0],"split_type":[0,0,0,0,0,0,0,0,0,0,0,0,0,0,0,0,0,0,0,0,0,0,0,0,0,0,0,0,0,0,0,0,0,0,0,0,0,0,0,0,0,0,0,0,0,0,0,0,0,0,0,0,0,0,0,0,0,0,0,0,0,0,0,0,0,0,0,0,0,0,0,0,0,0,0,0,0,0,0,0,0,0,0,0,0,0,0,0,0,0,0,0,0,0,0,0,0,0,0,0,0],"sum_hessian":[7.733597E3,4.6859224E3,3.047675E3,1.9834777E3,2.7024446E3,1.4046587E3,1.6430165E3,8.9462415E2,1.0888535E3,1.5047328E3,1.1977118E3,1.0812013E3,3.234574E2,1.2956265E3,3.4739E2,8.1511523E2,7.950886E1,9.6881775E2,1.2003575E2,1.0978074E3,4.0692545E2,3.9806287E2,7.996489E2,3.1756195E2,7.6363934E2,1.4163191E2,1.8182549E2,7.7858075E2,5.1704565E2,1.6368825E2,1.8370177E2,3.2822964E2,4.8688562E2,4.0946405E2,5.593537E2,6.74995E1,5.253625E1,5.0733948E2,5.9046783E2,3.4689072E2,6.0034744E1,1.7480513E2,2.2325772E2,4.7738763E2,3.2226132E2,1.2486433E2,1.9269763E2,5.02211E2,2.614283E2,5.7089603E1,8.454231E1,5.0305714E1,1.3151978E2,5.664152E2,2.1216554E2,1.9932373E2,3.1772195E2,8.3114296E1,8.057395E1,1.259855E2,5.7716278E1,2.7698914E2,5.1240532E1,4.3165567E2,5.522993E1,1.6581767E2,3.93536E2,9.917518E1,4.081643E2,1.3486328E2,4.5560455E2,9.6312256E1,2.5057845E2,1.005303E2,7.4274826E1,1.6470363E2,5.8554104E1,2.4499597E2,2.3239165E2,2.2793459E2,9.432672E1,5.9929604E1,6.493472E1,1.4038474E2,5.231289E1,6.219838E1,4.4001263E2,8.691815E1,1.7451016E2,7.716504E1,5.4354736E1,2.670049E2,2.9941028E2,7.293169E1,1.3923386E2,1.3821901E2,6.110472E1,2.2482663E2,9.289532E1,5.4681667E1,7.130383E1],"tree_param":{"num_deleted":"0","num_feature":"41","num_nodes":"101","size_leaf_vector":"1"}},{"base_weights":[2.6040482E-3,-4.8017535E-1,7.3894554E-1,-8.068641E-1,-2.4163713E-1,1.1852304E0,3.5700664E-1,-9.552597E-1,-4.0522486E-1,9.914771E-2,-4.4388074E-1,6.943764E-1,1.4093324E0,1.6498944E-1,8.4814405E-1,-7.2647446E-1,-1.1241744E0,-1.2981749E-1,-6.916227E-1,-7.217466E-2,4.590441E-1,-5.923299E-1,-4.8577573E-2,1.0022274E0,2.5791055E-1,1.5501268E0,8.5975736E-1,3.0286923E-1,-2.5735778E-1,4.468716E-1,1.0598788E0,-7.912855E-1,-5.205671E-3,-3.669869E-2,-1.0257143E0,-2.7481234E-1,1.2429402E-2,-7.758068E-1,-1.0195615E-2,-2.8862518E-1,1.4518745E-1,2.8432397E-2,3.09178E-1,-4.4209546E-1,-7.990116E-1,4.6277058E-1,-2.0410824E-1,8.615912E-1,3.9703E-2,-0E0,1.6132666E-2,4.9641788E-2,1.3421947E0,1.0565099E-2,1.0434984E0,1.593327E-1,5.3036374E-1,-3.48392E-1,2.9545035E-3,1.647382E-3,6.314123E-1,8.5668063E-1,4.083942E-2,-2.6643978E-2,-1.5192654E-2,-2.4630737E-2,-3.3166315E-2,-5.678671E-4,-1.6109621E-2,-1.9032948E-2,-3.0174904E-2,-1.6365154E-2,-4.0908456E-3,-3.0824607E-3,1.1773025E-2,5.9326217E-3,2.0311525E-2,-1.9537149E-2,-8.454837E-3,-1.7268758E-2,-2.6321873E-2,5.45381E-3,2.0878345E-2,-1.310038E-2,8.0595305E-4,3.303688E-2,1.8498711E-2,3.4371212E-2,4.543876E-2,2.4076845E-2,3.7619706E-2,7.15454E-3,-7.0526088E-3,2.7431218E-2,1.1609005E-2,-1.9674588E-2,-6.3482197E-3,1.1969429E-2,2.5568577E-2,3.0394763E-2,1.3713667E-2],"categories":[],"categories_nodes":[],"categories_segments":[],"categories_sizes":[],"default_left":[0,0,0,0,0,0,0,0,0,0,0,0,0,0,0,0,0,0,0,0,0,0,0,0,0,0,0,0,0,0,0,0,0,0,0,0,0,0,0,0,0,0,0,0,0,0,0,0,0,0,0,0,0,0,0,0,0,0,0,0,0,0,0,0,0,0,0,0,0,0,0,0,0,0,0,0,0,0,0,0,0,0,0,0,0,0,0,0,0,0,0,0,0,0,0,0,0,0,0,0,0],"id":11,"left_children":[1,3,5,7,9,11,13,15,17,19,21,23,25,27,29,31,33,35,37,39,41,43,45,47,49,51,53,55,57,59,61,63,-1,-1,65,67,-1,69,-1,71,73,-1,75,77,79,81,83,85,-1,-1,-1,-1,87,-1,89,91,93,95,-1,-1,97,99,-1,-1,-1,-1,-1,-1,-1,-1,-1,-1,-1,-1,-1,-1,-1,-1,-1,-1,-1,-1,-1,-1,-1,-1,-1,-1,-1,-1,-1,-1,-1,-1,-1,-1,-1,-1,-1,-1,-1],"loss_changes":[2.7583523E3,3.642505E2,5.2218445E2,1.1630786E2,1.8718307E2,1.5271497E2,1.5569992E2,5.310498E1,4.180146E1,6.2584045E1,9.957614E1,5.909987E1,7.112952E1,6.983431E1,3.782263E1,2.1414948E1,4.404541E0,2.203847E1,6.6769333E0,3.241161E1,2.2749947E1,3.7088562E1,3.728898E1,8.442566E0,1.3505462E1,1.07717285E1,1.748964E1,2.8991203E1,9.736073E0,1.1518608E1,1.5070618E1,1.3643005E1,0E0,0E0,4.2170715E0,1.4521662E1,0E0,4.6934967E0,0E0,1.3017782E1,2.120628E1,0E0,9.712969E0,2.3377228E1,7.3140564E0,6.4518356E0,1.962469E1,8.861969E0,0E0,0E0,0E0,0E0,4.3251343E0,0E0,4.4254303E0,1.7541096E1,1.7768723E1,9.218279E0,0E0,0E0,4.3974E0,1.0025223E1,0E0,0E0,0E0,0E0,0E0,0E0,0E0,0E0,0E0,0E0,0E0,0E0,0E0,0E0,0E0,0E0,0E0,0E0,0E0,0E0,0E0,0E0,0E0,0E0,0E0,0E0,0E0,0E0,0E0,0E0,0E0,0E0,0E0,0E0,0E0,0E0,0E0,0E0,0E0],"parents":[2147483647,0,0,1,1,2,2,3,3,4,4,5,5,6,6,7,7,8,8,9,9,10,10,11,11,12,12,13,13,14,14,15,15,16,16,17,17,18,18,19,19,20,20,21,21,22,22,23,23,24,24,25,25,26,26,27,27,28,28,29,29,30,30,31,31,34,34,35,35,37,37,39,39,40,40,42,42,43,43,44,44,45,45,46,46,47,47,52,52,54,54,55,55,56,56,57,57,60,60,61,61],"right_children":[2,4,6,8,10,12,14,16,18,20,22,24,26,28,30,32,34,36,38,40,42,44,46,48,50,52,54,56,58,60,62,64,-1,-1,66,68,-1,70,-1,72,74,-1,76,78,80,82,84,86,-1,-1,-1,-1,88,-1,90,92,94,96,-1,-1,98,100,-1,-1,-1,-1,-1,-1,-1,-1,-1,-1,-1,-1,-1,-1,-1,-1,-1,-1,-1,-1,-1,-1,-1,-1,-1,-1,-1,-1,-1,-1,-1,-1,-1,-1,-1,-1,-1,-1,-1],"split_conditions":[1.2E1,6E0,2E0,1.9E-1,3E0,5.18E0,1.0366666E0,4E0,4E0,2.9E-1,2.2166666E-1,4E0,5E0,5E0,1.5E1,2.7E-1,3E0,1.3616667E0,1.2133334E0,3E-1,2.3333333E0,4E0,4E0,0E0,7E-2,3E0,-7E-2,4.9666667E-1,1.8E1,3E0,1.525E0,-2.7E-1,-5.205671E-3,-3.669869E-2,5E0,2.6666667E0,1.2429402E-2,4.5E1,-1.0195615E-2,6.15E-1,-5.1E-1,2.8432397E-2,1.2366667E0,-7.6666665E-1,4E0,2.196E0,7E-1,2E0,3.9703E-2,-0E0,1.6132666E-2,4.9641788E-2,3.2E-1,1.0565099E-2,5.95E-1,4E0,2E0,-7E-2,2.9545035E-3,1.647382E-3,2.2E-1,6.8E0,4.083942E-2,-2.6643978E-2,-1.5192654E-2,-2.4630737E-2,-3.3166315E-2,-5.678671E-4,-1.6109621E-2,-1.9032948E-2,-3.0174904E-2,-1.6365154E-2,-4.0908456E-3,-3.0824607E-3,1.1773025E-2,5.9326217E-3,2.0311525E-2,-1.9537149E-2,-8.454837E-3,-1.7268758E-2,-2.6321873E-2,5.45381E-3,2.0878345E-2,-1.310038E-2,8.0595305E-4,3.303688E-2,1.8498711E-2,3.4371212E-2,4.543876E-2,2.4076845E-2,3.7619706E-2,7.15454E-3,-7.0526088E-3,2.7431218E-2,1.1609005E-2,-1.9674588E-2,-6.3482197E-3,1.1969429E-2,2.5568577E-2,3.0394763E-2,1.3713667E-2],"split_indices":[19,19,0,17,20,2,17,20,20,17,17,20,20,20,19,27,19,17,17,27,38,0,0,40,27,20,34,17,19,31,17,17,0,0,20,38,0,3,0,25,17,0,17,17,20,25,17,20,0,0,0,0,27,0,17,0,20,27,0,0,27,2,0,0,0,0,0,0,0,0,0,0,0,0,0,0,0,0,0,0,0,0,0,0,0,0,0,0,0,0,0,0,0,0,0,0,0,0,0,0,0],"split_type":[0,0,0,0,0,0,0,0,0,0,0,0,0,0,0,0,0,0,0,0,0,0,0,0,0,0,0,0,0,0,0,0,0,0,0,0,0,0,0,0,0,0,0,0,0,0,0,0,0,0,0,0,0,0,0,0,0,0,0,0,0,0,0,0,0,0,0,0,0,0,0,0,0,0,0,0,0,0,0,0,0,0,0,0,0,0,0,0,0,0,0,0,0,0,0,0,0,0,0,0,0],"sum_hessian":[7.754925E3,4.683937E3,3.070988E3,1.973829E3,2.710108E3,1.4136558E3,1.6573322E3,1.4383815E3,5.354475E2,1.00880206E3,1.7013059E3,4.4637726E2,9.672785E2,1.1941515E3,4.631807E2,6.1668256E2,8.216989E2,2.7533286E2,2.6011465E2,6.8359717E2,3.2520483E2,1.2351902E3,4.6611575E2,2.5956268E2,1.8681456E2,7.663883E2,2.0089018E2,9.01573E2,2.9257855E2,1.6294858E2,3.0023212E2,5.5040393E2,6.627863E1,3.9557013E2,4.2612878E2,2.1890889E2,5.6423973E1,2.067933E2,5.3321346E1,3.4334085E2,3.4025632E2,7.3040596E1,2.5216425E2,7.2030566E2,5.148845E2,1.0703716E2,3.590786E2,1.8672758E2,7.28351E1,9.868071E1,8.813384E1,4.9903168E2,2.673566E2,5.566615E1,1.4522404E2,5.562245E2,3.4534848E2,2.341288E2,5.844976E1,5.3858757E1,1.0908983E2,1.849199E2,1.1531219E2,4.0628546E2,1.4411847E2,1.2765177E2,2.9847702E2,1.1283409E2,1.0607481E2,1.3407753E2,7.271577E1,1.2463069E2,2.1871017E2,1.6946518E2,1.7079115E2,1.969461E2,5.5218136E1,3.0849072E2,4.118149E2,1.3973146E2,3.7515305E2,5.112941E1,5.5907753E1,1.7911159E2,1.7996703E2,8.982494E1,9.690264E1,1.3346252E2,1.3389407E2,7.33108E1,7.191324E1,4.6497238E2,9.1252106E1,9.0025246E1,2.5532323E2,6.8631966E1,1.6549683E2,5.6992043E1,5.2097782E1,1.2977402E2,5.514589E1],"tree_param":{"num_deleted":"0","num_feature":"41","num_nodes":"101","size_leaf_vector":"1"}},{"base_weights":[-2.4514293E-6,-4.624414E-1,6.95872E-1,-7.9881173E-1,-2.293383E-1,1.1456586E0,3.1152523E-1,-9.5269394E-1,-3.8997757E-1,6.5062237E-3,-5.2797997E-1,6.5391624E-1,1.3624817E0,6.1562184E-2,6.595295E-1,-8.068462E-1,-1.1603587E0,-1.104973E-1,-6.7835724E-1,-2.0662618E-1,3.0681115E-1,-7.3595595E-1,-2.9872146E-1,1.0842922E0,3.1384864E-1,1.5553482E0,9.6888864E-1,1.8559788E-1,-2.977495E-1,7.91569E-1,5.1185157E-2,-9.7077966E-1,-6.372309E-1,-3.558328E-2,-2.5609946E-2,-2.6562434E-1,1.420785E-2,-7.6784676E-1,-1.0596933E-2,-1.5547371E-1,-1.8522691E-2,5.899807E-1,1.1532759E-1,-9.3366367E-1,-6.1801136E-1,2.8791687E-2,-4.7670382E-1,2.6134077E-2,3.7849862E-2,5.40365E-1,4.7021373E-3,1.4569167E0,5.0966527E-2,1.2708877E-2,1.1060804E0,-1.4627745E-2,3.391879E-1,-4.1503137E-1,1.2701384E-3,6.923794E-1,3.6868095E-2,7.0894766E-3,-4.238121E-3,-3.2327354E-2,-2.292344E-2,-2.1306636E-2,-3.1772607E-3,-1.2229936E-3,-1.4558884E-2,-1.895139E-2,-2.962071E-2,-6.0812104E-3,6.324648E-3,2.881214E-2,1.1608397E-2,6.6907117E-3,-6.822142E-3,-2.2792619E-2,-3.2431316E-2,-2.4026508E-2,-1.50727015E-2,1.1617946E-2,-6.2383525E-3,-2.0210067E-2,-5.565423E-3,9.322394E-3,2.404011E-2,7.6552005E-3,-6.6536036E-3,4.6487898E-2,3.730131E-2,2.9173484E-2,4.2553045E-2,9.105862E-3,-3.8534885E-3,3.5289833E-3,1.6306078E-2,-2.2606876E-2,-7.974519E-3,1.7299237E-2,2.9823355E-2],"categories":[],"categories_nodes":[],"categories_segments":[],"categories_sizes":[],"default_left":[0,0,0,0,0,0,0,0,0,0,0,0,0,0,0,0,0,0,0,0,0,0,0,0,0,0,0,0,0,0,0,0,0,0,0,0,0,0,0,0,0,0,0,0,0,0,0,0,0,0,0,0,0,0,0,0,0,0,0,0,0,0,0,0,0,0,0,0,0,0,0,0,0,0,0,0,0,0,0,0,0,0,0,0,0,0,0,0,0,0,0,0,0,0,0,0,0,0,0,0,0],"id":12,"left_children":[1,3,5,7,9,11,13,15,17,19,21,23,25,27,29,31,33,35,37,39,41,43,45,47,49,51,53,55,57,59,61,63,65,-1,-1,67,-1,69,-1,71,-1,73,75,77,79,81,83,-1,-1,85,87,89,-1,-1,91,93,95,97,-1,99,-1,-1,-1,-1,-1,-1,-1,-1,-1,-1,-1,-1,-1,-1,-1,-1,-1,-1,-1,-1,-1,-1,-1,-1,-1,-1,-1,-1,-1,-1,-1,-1,-1,-1,-1,-1,-1,-1,-1,-1,-1],"loss_changes":[2.4822847E3,3.6253027E2,5.308911E2,1.1783508E2,1.9334717E2,1.4834766E2,1.4428873E2,3.8785156E1,4.1577026E1,9.827953E1,5.6763794E1,6.277104E1,7.0207886E1,4.3344383E1,5.5280334E1,2.0637573E1,1.3875732E0,2.4491877E1,6.3438416E0,1.8264336E1,3.4106903E1,1.281311E1,3.4080196E1,3.9947205E0,1.7110804E1,2.717041E0,2.2897003E1,2.2447554E1,1.0152956E1,2.205658E1,4.6272254E0,6.469269E0,1.5271423E1,0E0,0E0,1.0280308E1,0E0,3.8536148E0,0E0,1.3942717E1,0E0,1.782557E1,1.4279636E1,3.350998E0,7.072754E0,1.766739E1,2.0949135E1,0E0,0E0,7.476513E0,6.254031E0,2.7510376E0,0E0,0E0,6.930084E0,1.1395303E1,1.8167511E1,8.506672E0,0E0,1.4480576E1,0E0,0E0,0E0,0E0,0E0,0E0,0E0,0E0,0E0,0E0,0E0,0E0,0E0,0E0,0E0,0E0,0E0,0E0,0E0,0E0,0E0,0E0,0E0,0E0,0E0,0E0,0E0,0E0,0E0,0E0,0E0,0E0,0E0,0E0,0E0,0E0,0E0,0E0,0E0,0E0,0E0],"parents":[2147483647,0,0,1,1,2,2,3,3,4,4,5,5,6,6,7,7,8,8,9,9,10,10,11,11,12,12,13,13,14,14,15,15,16,16,17,17,18,18,19,19,20,20,21,21,22,22,23,23,24,24,25,25,26,26,27,27,28,28,29,29,30,30,31,31,32,32,35,35,37,37,39,39,41,41,42,42,43,43,44,44,45,45,46,46,49,49,50,50,51,51,54,54,55,55,56,56,57,57,59,59],"right_children":[2,4,6,8,10,12,14,16,18,20,22,24,26,28,30,32,34,36,38,40,42,44,46,48,50,52,54,56,58,60,62,64,66,-1,-1,68,-1,70,-1,72,-1,74,76,78,80,82,84,-1,-1,86,88,90,-1,-1,92,94,96,98,-1,100,-1,-1,-1,-1,-1,-1,-1,-1,-1,-1,-1,-1,-1,-1,-1,-1,-1,-1,-1,-1,-1,-1,-1,-1,-1,-1,-1,-1,-1,-1,-1,-1,-1,-1,-1,-1,-1,-1,-1,-1,-1],"split_conditions":[1.2E1,5E0,2E0,1.9E-1,4E0,5.18E0,7.5E-1,5E0,4E0,3.6666665E-2,-3.1E-1,3E0,4E0,5E0,5E0,5.267857E0,2.196E0,1.385E0,1.1733333E0,3.1666667E0,2.5E0,8E0,4E0,-5.65E-1,1.9E-1,8.4E-1,-7E-2,1.5E1,2.1E-1,4.8E-1,4.348E1,2.025E1,2.2E-1,-3.558328E-2,-2.5609946E-2,2.6666667E0,1.420785E-2,7.192118E0,-1.0596933E-2,5.4E-1,-1.8522691E-2,2E0,3E0,4E0,-4E-2,5E0,5.6166667E-1,2.6134077E-2,3.7849862E-2,-5.4333335E-1,4E0,3E0,5.0966527E-2,1.2708877E-2,2.2E-1,2E0,3.3333334E-1,-1.1666667E-1,1.2701384E-3,1.525E0,3.6868095E-2,7.0894766E-3,-4.238121E-3,-3.2327354E-2,-2.292344E-2,-2.1306636E-2,-3.1772607E-3,-1.2229936E-3,-1.4558884E-2,-1.895139E-2,-2.962071E-2,-6.0812104E-3,6.324648E-3,2.881214E-2,1.1608397E-2,6.6907117E-3,-6.822142E-3,-2.2792619E-2,-3.2431316E-2,-2.4026508E-2,-1.50727015E-2,1.1617946E-2,-6.2383525E-3,-2.0210067E-2,-5.565423E-3,9.322394E-3,2.404011E-2,7.6552005E-3,-6.6536036E-3,4.6487898E-2,3.730131E-2,2.9173484E-2,4.2553045E-2,9.105862E-3,-3.8534885E-3,3.5289833E-3,1.6306078E-2,-2.2606876E-2,-7.974519E-3,1.7299237E-2,2.9823355E-2],"split_indices":[19,19,0,17,20,2,17,20,20,17,17,20,20,20,20,24,25,17,17,38,38,19,0,17,8,17,34,19,27,27,5,5,27,0,0,38,0,24,0,27,0,20,38,30,27,20,17,0,0,17,29,13,0,0,34,20,40,17,0,17,0,0,0,0,0,0,0,0,0,0,0,0,0,0,0,0,0,0,0,0,0,0,0,0,0,0,0,0,0,0,0,0,0,0,0,0,0,0,0,0,0],"split_type":[0,0,0,0,0,0,0,0,0,0,0,0,0,0,0,0,0,0,0,0,0,0,0,0,0,0,0,0,0,0,0,0,0,0,0,0,0,0,0,0,0,0,0,0,0,0,0,0,0,0,0,0,0,0,0,0,0,0,0,0,0,0,0,0,0,0,0,0,0,0,0,0,0,0,0,0,0,0,0,0,0,0,0,0,0,0,0,0,0,0,0,0,0,0,0,0,0,0,0,0,0],"sum_hessian":[7.710125E3,4.63281E3,3.077315E3,1.8934878E3,2.7393223E3,1.4155212E3,1.6617938E3,1.372867E3,5.206207E2,1.5307411E3,1.208581E3,4.3631702E2,9.792042E2,9.693347E2,6.9245905E2,8.1362067E2,5.5924634E2,2.6667523E2,2.539455E2,8.9470795E2,6.3603314E2,6.302433E2,5.7833777E2,1.9000592E2,2.4631111E2,6.5236304E2,3.268412E2,7.223391E2,2.4699564E2,5.677962E2,1.2466286E2,4.0743723E2,4.0618344E2,5.091333E2,5.0113033E1,2.1225081E2,5.4424442E1,1.9579309E2,5.815241E1,7.991694E2,9.553856E1,2.5385463E2,3.8217853E2,2.2874007E2,4.0150323E2,2.032309E2,3.751069E2,9.294729E1,9.705863E1,1.4035654E2,1.05954575E2,4.022794E2,2.5008363E2,6.8080414E1,2.5876077E2,3.1293695E2,4.0940216E2,1.8442474E2,6.257088E1,4.6797467E2,9.982155E1,6.463253E1,6.0030323E1,2.6146936E2,1.459679E2,3.5570416E2,5.047927E1,1.0718384E2,1.0506697E2,1.2704008E2,6.875301E1,7.0988837E2,8.928099E1,8.63645E1,1.6749013E2,2.9244232E2,8.97362E1,1.1212933E2,1.1661073E2,1.4922711E2,2.5227612E2,8.1166595E1,1.2206429E2,2.2116408E2,1.5394281E2,7.801325E1,6.234329E1,5.1241535E1,5.471304E1,2.7016714E2,1.3211226E2,1.8811084E2,7.064992E1,8.041989E1,2.3251706E2,1.9911687E2,2.102853E2,5.291711E1,1.3150764E2,3.4364072E2,1.2433395E2],"tree_param":{"num_deleted":"0","num_feature":"41","num_nodes":"101","size_leaf_vector":"1"}},{"base_weights":[1.3739899E-3,-4.5048454E-1,6.8410075E-1,-7.859293E-1,-2.1918774E-1,1.1137005E0,3.1267375E-1,-9.4521093E-1,-3.7320602E-1,4.509865E-3,-5.071805E-1,1.3496543E0,6.8669224E-1,-2.4873544E-2,5.9616244E-1,-8.0077565E-1,-3.4377784E-2,-7.962296E-2,-6.87163E-1,-1.348213E-1,4.1397357E-1,-7.2487736E-1,-2.7407253E-1,7.5133115E-1,1.4575279E0,2.399636E-1,9.856434E-1,1.0570827E-1,-3.9914885E-1,8.022247E-1,2.001873E-1,-9.7413504E-1,-6.763865E-1,-2.2691837E-1,1.2619533E-2,-7.666884E-1,-1.1166819E-2,1.0158483E-1,-2.4141723E-1,5.9307534E-1,2.1997836E-1,-5.9293586E-1,-9.3900067E-1,3.915592E-2,-4.3836E-1,2.916775E-2,1.5289634E-2,4.7702204E-2,1.3105235E0,-6.072913E-3,4.1635945E-1,1.1330996E0,1.7834837E-2,-1.0061005E-1,2.6336128E-1,-1.9536508E-2,-1.7180495E-1,6.360347E-1,1.1013194E0,-8.641806E-2,3.5924742E-1,-2.4525493E-2,-3.280499E-2,-1.579102E-2,-2.435157E-2,3.648085E-3,-1.038166E-2,-1.9264162E-2,-2.959633E-2,-8.861306E-3,6.1655277E-3,-2.8379734E-3,-1.2911443E-2,2.5504103E-2,1.2934339E-2,1.6006655E-3,1.6199896E-2,-2.2606768E-2,-1.0293472E-2,-3.2035477E-2,-2.4011243E-2,1.3886651E-2,-3.764791E-3,-1.8460983E-2,-5.5279396E-3,4.1819178E-2,2.8753169E-2,3.4526507E-3,1.9611072E-2,3.905046E-2,2.7475467E-2,-8.004691E-3,3.3073155E-3,2.4977147E-3,1.1838561E-2,-1.1098687E-2,6.290382E-4,2.7210353E-2,1.4783411E-2,2.1180494E-2,3.8698252E-2,-9.036236E-3,3.8039405E-3,5.8384766E-3,1.9338546E-2],"categories":[],"categories_nodes":[],"categories_segments":[],"categories_sizes":[],"default_left":[0,0,0,0,0,0,0,0,0,0,0,0,0,0,0,0,0,0,0,0,0,0,0,0,0,0,0,0,0,0,0,0,0,0,0,0,0,0,0,0,0,0,0,0,0,0,0,0,0,0,0,0,0,0,0,0,0,0,0,0,0,0,0,0,0,0,0,0,0,0,0,0,0,0,0,0,0,0,0,0,0,0,0,0,0,0,0,0,0,0,0,0,0,0,0,0,0,0,0,0,0,0,0,0,0],"id":13,"left_children":[1,3,5,7,9,11,13,15,17,19,21,23,25,27,29,31,-1,33,35,37,39,41,43,45,47,49,51,53,55,57,59,61,63,65,-1,67,-1,69,71,73,75,77,79,81,83,-1,-1,-1,85,-1,87,89,-1,91,93,-1,95,97,99,101,103,-1,-1,-1,-1,-1,-1,-1,-1,-1,-1,-1,-1,-1,-1,-1,-1,-1,-1,-1,-1,-1,-1,-1,-1,-1,-1,-1,-1,-1,-1,-1,-1,-1,-1,-1,-1,-1,-1,-1,-1,-1,-1,-1,-1],"loss_changes":[2.3690903E3,3.576372E2,4.8665344E2,1.224884E2,1.7667212E2,1.3988538E2,1.5761443E2,3.653723E1,4.8248283E1,8.8237854E1,5.9905396E1,5.5425537E1,6.690541E1,3.695879E1,7.215198E1,1.5050873E1,0E0,2.0457998E1,5.2325745E0,2.9131334E1,1.2985756E1,1.555835E1,3.023066E1,5.946289E0,9.345703E0,1.646191E1,1.5304749E1,1.8274597E1,1.0584192E1,2.6894958E1,1.4312687E1,3.3675232E0,8.068588E0,9.147059E0,0E0,3.3951569E0,0E0,1.4835861E1,2.1727268E1,7.0265274E0,9.945139E0,1.4534836E1,1.4728394E0,1.4331779E1,1.6625404E1,0E0,0E0,0E0,7.2369995E0,0E0,1.0173265E1,4.4694824E0,0E0,8.605814E0,7.214344E0,0E0,4.265706E0,1.3272766E1,1.2522751E1,5.2465734E0,8.754635E0,0E0,0E0,0E0,0E0,0E0,0E0,0E0,0E0,0E0,0E0,0E0,0E0,0E0,0E0,0E0,0E0,0E0,0E0,0E0,0E0,0E0,0E0,0E0,0E0,0E0,0E0,0E0,0E0,0E0,0E0,0E0,0E0,0E0,0E0,0E0,0E0,0E0,0E0,0E0,0E0,0E0,0E0,0E0,0E0],"parents":[2147483647,0,0,1,1,2,2,3,3,4,4,5,5,6,6,7,7,8,8,9,9,10,10,11,11,12,12,13,13,14,14,15,15,17,17,18,18,19,19,20,20,21,21,22,22,23,23,24,24,25,25,26,26,27,27,28,28,29,29,30,30,31,31,32,32,33,33,35,35,37,37,38,38,39,39,40,40,41,41,42,42,43,43,44,44,48,48,50,50,51,51,53,53,54,54,56,56,57,57,58,58,59,59,60,60],"right_children":[2,4,6,8,10,12,14,16,18,20,22,24,26,28,30,32,-1,34,36,38,40,42,44,46,48,50,52,54,56,58,60,62,64,66,-1,68,-1,70,72,74,76,78,80,82,84,-1,-1,-1,86,-1,88,90,-1,92,94,-1,96,98,100,102,104,-1,-1,-1,-1,-1,-1,-1,-1,-1,-1,-1,-1,-1,-1,-1,-1,-1,-1,-1,-1,-1,-1,-1,-1,-1,-1,-1,-1,-1,-1,-1,-1,-1,-1,-1,-1,-1,-1,-1,-1,-1,-1,-1,-1],"split_conditions":[1.2E1,5E0,2E0,1.9E-1,4E0,4E0,5.0666666E-1,5E0,4E0,4.3333334E-1,-3.1E-1,-5.233333E-1,5.39E0,5E0,4E0,2.055E1,-3.4377784E-2,1.3616667E0,1.2133334E0,2E0,5E0,4E0,4E0,2E0,2E0,-8.55E-1,6E0,1.5E1,5E-2,1.2883333E0,1.5E1,4.9261084E0,6E0,6E0,1.2619533E-2,4.531E1,-1.1166819E-2,2.029E1,4E0,2E0,1.3116666E0,-7.5666666E-1,3.393E1,3E0,5.6166667E-1,2.916775E-2,1.5289634E-2,4.7702204E-2,3E0,-6.072913E-3,1E-2,3E0,1.7834837E-2,4E0,5.477226E-1,-1.9536508E-2,8.333334E-3,2E0,1.5E1,4.636E1,1.1933334E0,-2.4525493E-2,-3.280499E-2,-1.579102E-2,-2.435157E-2,3.648085E-3,-1.038166E-2,-1.9264162E-2,-2.959633E-2,-8.861306E-3,6.1655277E-3,-2.8379734E-3,-1.2911443E-2,2.5504103E-2,1.2934339E-2,1.6006655E-3,1.6199896E-2,-2.2606768E-2,-1.0293472E-2,-3.2035477E-2,-2.4011243E-2,1.3886651E-2,-3.764791E-3,-1.8460983E-2,-5.5279396E-3,4.1819178E-2,2.8753169E-2,3.4526507E-3,1.9611072E-2,3.905046E-2,2.7475467E-2,-8.004691E-3,3.3073155E-3,2.4977147E-3,1.1838561E-2,-1.1098687E-2,6.290382E-4,2.7210353E-2,1.4783411E-2,2.1180494E-2,3.8698252E-2,-9.036236E-3,3.8039405E-3,5.8384766E-3,1.9338546E-2],"split_indices":[19,19,0,17,20,20,17,20,20,17,17,17,2,20,20,3,0,17,17,20,0,0,0,13,20,17,20,19,34,17,19,24,0,0,0,3,0,3,0,20,17,17,6,16,17,0,0,0,15,0,34,35,0,35,39,0,17,20,19,3,17,0,0,0,0,0,0,0,0,0,0,0,0,0,0,0,0,0,0,0,0,0,0,0,0,0,0,0,0,0,0,0,0,0,0,0,0,0,0,0,0,0,0,0,0],"split_type":[0,0,0,0,0,0,0,0,0,0,0,0,0,0,0,0,0,0,0,0,0,0,0,0,0,0,0,0,0,0,0,0,0,0,0,0,0,0,0,0,0,0,0,0,0,0,0,0,0,0,0,0,0,0,0,0,0,0,0,0,0,0,0,0,0,0,0,0,0,0,0,0,0,0,0,0,0,0,0,0,0,0,0,0,0,0,0,0,0,0,0,0,0,0,0,0,0,0,0,0,0,0,0,0,0],"sum_hessian":[7.6751094E3,4.6183984E3,3.056711E3,1.882007E3,2.7363916E3,1.4148846E3,1.6418264E3,1.3552036E3,5.2680334E2,1.5402439E3,1.1961477E3,9.0777765E2,5.0710693E2,7.494839E2,8.923425E2,7.953428E2,5.5986084E2,2.7435352E2,2.5244981E2,1.1492878E3,3.909561E2,6.1522876E2,5.8091895E2,1.418069E2,7.6597076E2,2.0542067E2,3.0168628E2,5.557027E2,1.9378122E2,5.84736E2,3.076065E2,3.2488E2,4.704628E2,2.1356575E2,6.0787766E1,1.9799657E2,5.4453247E1,3.5573962E2,7.935482E2,1.9980179E2,1.911543E2,3.8677423E2,2.2845448E2,1.993399E2,3.8157907E2,6.9844315E1,7.196259E1,3.9068106E2,3.752897E2,5.7666237E1,1.4775443E2,2.1540895E2,8.627733E1,2.3964052E2,3.1606213E2,8.908252E1,1.046987E2,3.8097473E2,2.0376129E2,1.089903E2,1.9861623E2,1.491139E2,1.7576608E2,2.2951447E2,2.4094833E2,5.3326656E1,1.6023909E2,1.3285124E2,6.514533E1,7.205133E1,2.836883E2,4.497537E2,3.4379453E2,7.274035E1,1.2706145E2,1.282662E2,6.288808E1,2.3174098E2,1.5503326E2,1.0958526E2,1.18869225E2,5.561805E1,1.4372185E2,2.2207053E2,1.5950854E2,2.97451E2,7.783869E1,6.7345695E1,8.040874E1,1.14372955E2,1.01035995E2,1.3503493E2,1.04605606E2,1.362228E2,1.7983936E2,5.2001656E1,5.2697044E1,1.2685848E2,2.5411624E2,6.974044E1,1.3402084E2,5.505181E1,5.3938488E1,1.2919765E2,6.941857E1],"tree_param":{"num_deleted":"0","num_feature":"41","num_nodes":"105","size_leaf_vector":"1"}},{"base_weights":[1.9438653E-3,-4.4604278E-1,6.72097E-1,-1.8029696E-1,-7.381623E-1,3.7126458E-1,1.1163318E0,-5.306457E-1,2.0179918E-2,-9.11269E-1,-4.2060867E-1,5.963148E-1,7.990816E-3,1.2685328E0,5.596128E-1,-6.166377E-1,9.024056E-3,2.7065182E-1,-1.8967214E-1,-1.1578397E0,-8.1235445E-1,-1.5540424E-1,-5.8891696E-1,7.2481954E-1,1.232435E-1,1.6094942E-1,-2.0177308E-1,1.0945529E0,1.5131869E0,3.5039017E-1,2.8137626E-2,-8.849001E-1,-4.888621E-1,6.628753E-1,1.2879044E-1,-1.3184957E-1,-1.8691102E-2,-3.6230303E-2,-2.7454287E-2,-6.591143E-1,-9.147566E-1,-3.035641E-1,6.618859E-3,-3.3657372E-1,-7.203348E-1,9.787598E-1,5.6302917E-1,1.3998609E-2,1.3951315E-2,-7.7858016E-2,3.444782E-1,3.0715272E-3,-3.0780423E-1,1.2099544E0,1.2590029E-2,4.737892E-2,3.7827015E-2,1.8682158E-2,8.8569097E-4,-3.0487299E-2,-2.1040596E-2,-5.7754708E-3,-1.8816402E-2,2.5577841E-2,7.4511385E-3,6.1674356E-3,-6.818471E-3,-5.584779E-4,-1.0124727E-2,-2.1424485E-2,-8.702897E-3,-2.9180054E-2,-2.0230856E-2,-2.9736427E-3,-1.5825758E-2,-1.5848598E-2,-2.543977E-3,-2.7680377E-2,-1.6827881E-2,3.128527E-2,2.1571986E-2,2.400186E-2,1.4173461E-2,-7.536032E-3,6.0344078E-3,-1.1703313E-2,3.3119768E-3,1.8759638E-2,7.3889117E-3,-5.751821E-3,-1.9241164E-2,4.170367E-2,2.7648434E-2],"categories":[],"categories_nodes":[],"categories_segments":[],"categories_sizes":[],"default_left":[0,0,0,0,0,0,0,0,0,0,0,0,0,0,0,0,0,0,0,0,0,0,0,0,0,0,0,0,0,0,0,0,0,0,0,0,0,0,0,0,0,0,0,0,0,0,0,0,0,0,0,0,0,0,0,0,0,0,0,0,0,0,0,0,0,0,0,0,0,0,0,0,0,0,0,0,0,0,0,0,0,0,0,0,0,0,0,0,0,0,0,0,0],"id":14,"left_children":[1,3,5,7,9,11,13,15,17,19,21,23,25,27,29,31,-1,33,35,37,39,41,43,45,47,49,51,53,55,57,-1,59,61,63,65,67,-1,-1,-1,69,71,73,-1,75,77,79,81,83,-1,85,87,-1,89,91,-1,-1,-1,-1,-1,-1,-1,-1,-1,-1,-1,-1,-1,-1,-1,-1,-1,-1,-1,-1,-1,-1,-1,-1,-1,-1,-1,-1,-1,-1,-1,-1,-1,-1,-1,-1,-1,-1,-1],"loss_changes":[2.3068247E3,3.5672626E2,4.0988293E2,1.6987598E2,1.1905798E2,1.5006593E2,1.02858765E2,6.3434204E1,8.092355E1,3.1665894E1,3.417372E1,6.838919E1,2.271235E1,3.6783936E1,2.0133965E1,2.5820282E1,0E0,3.8523254E1,2.0415144E1,1.5568848E0,1.3991821E1,1.7220314E1,1.4709122E1,3.4742706E1,8.920677E0,1.8202724E1,9.757969E0,4.3095825E1,1.2319946E0,1.5228989E1,0E0,3.8368988E0,2.1761017E1,1.3588844E1,1.4283144E1,1.7073936E1,0E0,0E0,0E0,7.555359E0,6.2662354E0,9.713184E0,0E0,7.6846066E0,8.179871E0,3.3262024E0,1.0422821E1,9.4731245E0,0E0,1.0752655E1,5.7078533E0,0E0,7.9435425E0,2.178479E1,0E0,0E0,0E0,0E0,0E0,0E0,0E0,0E0,0E0,0E0,0E0,0E0,0E0,0E0,0E0,0E0,0E0,0E0,0E0,0E0,0E0,0E0,0E0,0E0,0E0,0E0,0E0,0E0,0E0,0E0,0E0,0E0,0E0,0E0,0E0,0E0,0E0,0E0,0E0],"parents":[2147483647,0,0,1,1,2,2,3,3,4,4,5,5,6,6,7,7,8,8,9,9,10,10,11,11,12,12,13,13,14,14,15,15,17,17,18,18,19,19,20,20,21,21,22,22,23,23,24,24,25,25,26,26,27,27,28,28,29,29,31,31,32,32,33,33,34,34,35,35,39,39,40,40,41,41,43,43,44,44,45,45,46,46,47,47,49,49,50,50,52,52,53,53],"right_children":[2,4,6,8,10,12,14,16,18,20,22,24,26,28,30,32,-1,34,36,38,40,42,44,46,48,50,52,54,56,58,-1,60,62,64,66,68,-1,-1,-1,70,72,74,-1,76,78,80,82,84,-1,86,88,-1,90,92,-1,-1,-1,-1,-1,-1,-1,-1,-1,-1,-1,-1,-1,-1,-1,-1,-1,-1,-1,-1,-1,-1,-1,-1,-1,-1,-1,-1,-1,-1,-1,-1,-1,-1,-1,-1,-1,-1,-1],"split_conditions":[1.2E1,4E0,1.8E1,6E0,8E0,4E0,5E0,1.1666666E0,4E0,3E0,4E0,3.1666667E0,2.8333333E0,2.4E1,2.4E1,2.075E1,9.024056E-3,2.3333333E0,3.1666667E0,4.99E0,4E0,4.635E0,5E0,2E0,4.891667E0,4E-2,1.4E-1,3.5E0,3E0,2.8333333E0,2.8137626E-2,3E0,2.5E0,5E0,3E0,3E0,-1.8691102E-2,-3.6230303E-2,-2.7454287E-2,1.2E-1,5.7683334E0,7E0,6.618859E-3,4.7E0,9E0,2.8333333E0,2E0,-7E-2,1.3951315E-2,-2.4883332E0,8.164966E-1,3.0715272E-3,3.6666667E0,3E0,1.2590029E-2,4.737892E-2,3.7827015E-2,1.8682158E-2,8.8569097E-4,-3.0487299E-2,-2.1040596E-2,-5.7754708E-3,-1.8816402E-2,2.5577841E-2,7.4511385E-3,6.1674356E-3,-6.818471E-3,-5.584779E-4,-1.0124727E-2,-2.1424485E-2,-8.702897E-3,-2.9180054E-2,-2.0230856E-2,-2.9736427E-3,-1.5825758E-2,-1.5848598E-2,-2.543977E-3,-2.7680377E-2,-1.6827881E-2,3.128527E-2,2.1571986E-2,2.400186E-2,1.4173461E-2,-7.536032E-3,6.0344078E-3,-1.1703313E-2,3.3119768E-3,1.8759638E-2,7.3889117E-3,-5.751821E-3,-1.9241164E-2,4.170367E-2,2.7648434E-2],"split_indices":[19,20,19,19,19,20,20,40,16,19,16,38,38,19,19,3,0,38,38,2,16,18,20,20,18,27,37,38,16,38,0,19,38,29,38,20,0,0,0,27,18,22,0,4,19,38,16,23,0,18,39,0,38,20,0,0,0,0,0,0,0,0,0,0,0,0,0,0,0,0,0,0,0,0,0,0,0,0,0,0,0,0,0,0,0,0,0,0,0,0,0,0,0],"split_type":[0,0,0,0,0,0,0,0,0,0,0,0,0,0,0,0,0,0,0,0,0,0,0,0,0,0,0,0,0,0,0,0,0,0,0,0,0,0,0,0,0,0,0,0,0,0,0,0,0,0,0,0,0,0,0,0,0,0,0,0,0,0,0,0,0,0,0,0,0,0,0,0,0,0,0,0,0,0,0,0,0,0,0,0,0,0,0,0,0,0,0,0,0],"sum_hessian":[7.679416E3,4.6025845E3,3.0768313E3,2.4126782E3,2.1899062E3,1.8373732E3,1.2394581E3,8.7782025E2,1.534858E3,1.4138602E3,7.7604596E2,1.132885E3,7.0448816E2,9.706403E2,2.6881787E2,7.96555E2,8.126521E1,7.005317E2,8.3432635E2,3.972197E2,1.01664056E3,3.0394122E2,4.7210477E2,8.892173E2,2.4366771E2,4.0905597E2,2.9543216E2,5.74845E2,3.9579532E2,1.7642204E2,9.239583E1,2.5191035E2,5.4464465E2,1.8318506E2,5.173466E2,7.394288E2,9.489757E1,3.2124136E2,7.597833E1,4.1514728E2,6.014933E2,2.1926445E2,8.467677E1,1.6541278E2,3.0669196E2,3.4092477E2,5.482925E2,1.8733665E2,5.6331055E1,1.7707428E2,2.3198169E2,7.516618E1,2.2026599E2,4.889166E2,8.592838E1,3.0370825E2,9.208707E1,9.3565125E1,8.285692E1,1.3995987E2,1.1195048E2,1.7601666E2,3.68628E2,1.2338939E2,5.9795673E1,4.2741885E2,8.9927765E1,4.798296E2,2.595992E2,3.58461E2,5.6686287E1,4.7813654E2,1.2335676E2,1.17302605E2,1.01961845E2,9.153293E1,7.387986E1,1.2954204E2,1.7714993E2,2.6706622E2,7.385856E1,1.4573776E2,4.0255475E2,7.611758E1,1.1121908E2,6.6795525E1,1.1027875E2,5.5991E1,1.7599069E2,1.668523E2,5.3413685E1,2.9512964E2,1.9378694E2],"tree_param":{"num_deleted":"0","num_feature":"41","num_nodes":"93","size_leaf_vector":"1"}},{"base_weights":[7.972165E-5,-4.331838E-1,6.404311E-1,-1.7632976E-1,-7.131156E-1,1.0293562E0,3.00771E-1,-5.0009084E-1,2.5901939E-3,-8.795923E-1,-4.0905082E-1,5.8507097E-1,1.2269844E0,5.004298E-1,-1.6987517E-2,-5.7637846E-1,1.4574464E-2,3.4659016E-1,-1.290659E-1,-6.302209E-1,-1.00523E0,-1.609798E-1,-5.629628E-1,8.470339E-1,1.9585837E-1,1.3505961E0,7.578552E-1,3.2255235E-1,8.8905877E-1,-3.0525222E-1,1.3437307E-1,-8.3128244E-1,-4.138908E-1,5.226086E-1,3.8355216E-2,9.665735E-2,-2.3058416E-1,-5.777214E-1,-3.0175349E-2,-3.5577744E-2,-8.988371E-1,9.65298E-2,-3.7615737E-1,-3.2838395E-1,-6.848654E-1,1.059747E0,6.0665053E-1,-2.227893E-3,4.0596548E-1,1.4588512E0,1.1361786E0,8.739739E-3,9.204397E-1,4.2841324E-1,6.636977E-2,1.1899793E0,6.9566673E-1,-3.9715663E-1,-0E0,-1.7649458E-1,3.1353188E-1,-2.8859802E-2,-1.8282056E-2,-5.7258755E-3,-1.7666928E-2,2.1079682E-2,8.15754E-3,-2.753977E-3,6.8557295E-3,-8.77777E-3,6.079799E-3,-2.8192487E-3,-1.2032455E-2,-1.8965106E-2,-4.77417E-3,-2.868953E-2,-1.9088557E-2,1.1473615E-2,-4.693693E-3,-4.428687E-3,-1.8855264E-2,-1.7656686E-2,-3.042369E-3,-1.5778834E-2,-2.5265379E-2,3.8439285E-2,2.5113098E-2,1.0038248E-2,2.3459436E-2,4.2918352E-3,1.9263288E-2,4.7882326E-2,4.116246E-2,2.5817392E-2,3.759411E-2,3.142515E-2,1.8994715E-2,7.039354E-3,1.8391114E-2,9.776925E-3,-2.0912443E-3,4.1381843E-2,2.9508537E-2,3.022424E-2,1.5522576E-2,-6.0127038E-3,-1.6880197E-2,4.996049E-3,-1.1236551E-2,4.350538E-3,1.621174E-2],"categories":[],"categories_nodes":[],"categories_segments":[],"categories_sizes":[],"default_left":[0,0,0,0,0,0,0,0,0,0,0,0,0,0,0,0,0,0,0,0,0,0,0,0,0,0,0,0,0,0,0,0,0,0,0,0,0,0,0,0,0,0,0,0,0,0,0,0,0,0,0,0,0,0,0,0,0,0,0,0,0,0,0,0,0,0,0,0,0,0,0,0,0,0,0,0,0,0,0,0,0,0,0,0,0,0,0,0,0,0,0,0,0,0,0,0,0,0,0,0,0,0,0,0,0,0,0,0,0,0,0],"id":15,"left_children":[1,3,5,7,9,11,13,15,17,19,21,23,25,27,29,31,-1,33,35,37,39,41,43,45,47,49,51,53,55,57,59,61,63,65,67,69,71,73,-1,-1,75,77,79,81,83,85,87,-1,89,91,93,-1,95,97,99,101,103,105,-1,107,109,-1,-1,-1,-1,-1,-1,-1,-1,-1,-1,-1,-1,-1,-1,-1,-1,-1,-1,-1,-1,-1,-1,-1,-1,-1,-1,-1,-1,-1,-1,-1,-1,-1,-1,-1,-1,-1,-1,-1,-1,-1,-1,-1,-1,-1,-1,-1,-1,-1,-1],"loss_changes":[2.1128313E3,3.2584424E2,4.0474097E2,1.3765254E2,1.0855835E2,1.2333606E2,1.0457266E2,6.417935E1,6.943254E1,4.1791748E1,2.8974014E1,4.454709E1,5.4197266E1,6.869417E1,2.7892414E1,3.1241821E1,0E0,2.2722626E1,2.5455078E1,7.4304047E0,1.4638672E1,1.6838017E1,1.2627731E1,1.1419754E1,1.0583933E1,1.3460571E1,1.489698E1,1.8609734E1,1.5753723E1,6.087782E0,2.3398577E1,6.8230896E0,1.8321785E1,1.1278999E1,4.0103893E0,1.4225607E1,1.7495033E1,9.05278E0,0E0,0E0,6.9389343E0,1.0151289E1,8.937712E0,9.438026E0,6.163101E0,3.5385895E0,5.123104E0,0E0,5.880665E0,1.9433594E-1,5.5478516E0,0E0,3.4945068E0,1.6880531E1,7.50774E0,7.779236E-1,9.188652E0,4.891638E0,0E0,1.06020355E1,9.677916E0,0E0,0E0,0E0,0E0,0E0,0E0,0E0,0E0,0E0,0E0,0E0,0E0,0E0,0E0,0E0,0E0,0E0,0E0,0E0,0E0,0E0,0E0,0E0,0E0,0E0,0E0,0E0,0E0,0E0,0E0,0E0,0E0,0E0,0E0,0E0,0E0,0E0,0E0,0E0,0E0,0E0,0E0,0E0,0E0,0E0,0E0,0E0,0E0,0E0,0E0],"parents":[2147483647,0,0,1,1,2,2,3,3,4,4,5,5,6,6,7,7,8,8,9,9,10,10,11,11,12,12,13,13,14,14,15,15,17,17,18,18,19,19,20,20,21,21,22,22,23,23,24,24,25,25,26,26,27,27,28,28,29,29,30,30,31,31,32,32,33,33,34,34,35,35,36,36,37,37,40,40,41,41,42,42,43,43,44,44,45,45,46,46,48,48,49,49,50,50,52,52,53,53,54,54,55,55,56,56,57,57,59,59,60,60],"right_children":[2,4,6,8,10,12,14,16,18,20,22,24,26,28,30,32,-1,34,36,38,40,42,44,46,48,50,52,54,56,58,60,62,64,66,68,70,72,74,-1,-1,76,78,80,82,84,86,88,-1,90,92,94,-1,96,98,100,102,104,106,-1,108,110,-1,-1,-1,-1,-1,-1,-1,-1,-1,-1,-1,-1,-1,-1,-1,-1,-1,-1,-1,-1,-1,-1,-1,-1,-1,-1,-1,-1,-1,-1,-1,-1,-1,-1,-1,-1,-1,-1,-1,-1,-1,-1,-1,-1,-1,-1,-1,-1,-1,-1],"split_conditions":[1.2E1,4E0,2E0,5E0,8E0,5.18E0,4E0,1.3333334E0,3E0,4E0,4E0,4E0,5E0,1.1666666E0,3.3333334E-1,5.313402E0,1.4574464E-2,2.6666667E0,2E0,3.1666667E0,3E0,4E0,5E0,5E0,2.222E1,3E0,-7E-2,3.5E0,2E0,2.6E-1,1.5E1,4.04E0,2.6666667E0,9E0,5.22E1,2.055E1,4E0,6.61E0,-3.0175349E-2,-3.5577744E-2,6.2233334E0,1.9E-1,2.8333333E0,4.5E0,3E0,2E0,2.12E1,-2.227893E-3,1.7975E0,2E0,5.86E0,8.739739E-3,3E0,1.5E1,6.923567E0,1E-1,3E0,3E0,-0E0,1.6E-1,6.48E0,-2.8859802E-2,-1.8282056E-2,-5.7258755E-3,-1.7666928E-2,2.1079682E-2,8.15754E-3,-2.753977E-3,6.8557295E-3,-8.77777E-3,6.079799E-3,-2.8192487E-3,-1.2032455E-2,-1.8965106E-2,-4.77417E-3,-2.868953E-2,-1.9088557E-2,1.1473615E-2,-4.693693E-3,-4.428687E-3,-1.8855264E-2,-1.7656686E-2,-3.042369E-3,-1.5778834E-2,-2.5265379E-2,3.8439285E-2,2.5113098E-2,1.0038248E-2,2.3459436E-2,4.2918352E-3,1.9263288E-2,4.7882326E-2,4.116246E-2,2.5817392E-2,3.759411E-2,3.142515E-2,1.8994715E-2,7.039354E-3,1.8391114E-2,9.776925E-3,-2.0912443E-3,4.1381843E-2,2.9508537E-2,3.022424E-2,1.5522576E-2,-6.0127038E-3,-1.6880197E-2,4.996049E-3,-1.1236551E-2,4.350538E-3,1.621174E-2],"split_indices":[19,20,0,19,19,2,20,40,16,16,16,20,20,40,40,24,0,38,20,38,19,0,20,16,5,20,34,38,20,34,19,4,38,22,10,3,0,2,0,0,18,8,38,4,0,20,5,0,33,16,2,0,13,19,24,8,0,0,0,8,2,0,0,0,0,0,0,0,0,0,0,0,0,0,0,0,0,0,0,0,0,0,0,0,0,0,0,0,0,0,0,0,0,0,0,0,0,0,0,0,0,0,0,0,0,0,0,0,0,0,0],"split_type":[0,0,0,0,0,0,0,0,0,0,0,0,0,0,0,0,0,0,0,0,0,0,0,0,0,0,0,0,0,0,0,0,0,0,0,0,0,0,0,0,0,0,0,0,0,0,0,0,0,0,0,0,0,0,0,0,0,0,0,0,0,0,0,0,0,0,0,0,0,0,0,0,0,0,0,0,0,0,0,0,0,0,0,0,0,0,0,0,0,0,0,0,0,0,0,0,0,0,0,0,0,0,0,0,0,0,0,0,0,0,0],"sum_hessian":[7.611055E3,4.53949E3,3.0715652E3,2.3699585E3,2.1695315E3,1.4293575E3,1.6422076E3,8.4325946E2,1.526699E3,1.3984463E3,7.710852E2,4.4327896E2,9.860786E2,1.0087797E3,6.33428E2,7.839377E2,5.9321754E1,4.2272006E2,1.1039789E3,4.7387997E2,9.245664E2,2.98045E2,4.7304022E2,2.6277722E2,1.8050172E2,7.7662146E2,2.0945714E2,6.954261E2,3.133536E2,2.1852301E2,4.1490494E2,3.0077896E2,4.8315875E2,2.6715012E2,1.5556996E2,3.4098282E2,7.629961E2,4.2139105E2,5.2488926E1,3.3337622E2,5.911901E2,1.3512085E2,1.6292415E2,1.6569E2,3.0735022E2,1.346922E2,1.2808504E2,7.849675E1,1.02004974E2,5.0680588E2,2.6981558E2,5.6368557E1,1.5308858E2,4.8975223E2,2.0567387E2,1.17550934E2,1.9580267E2,1.6686646E2,5.165655E1,1.5068411E2,2.6422083E2,1.8365947E2,1.17119484E2,2.1552824E2,2.676305E2,1.5222264E2,1.1492747E2,9.141176E1,6.41582E1,7.122005E1,2.697628E2,4.2694586E2,3.3605023E2,3.7092624E2,5.046481E1,4.7910934E2,1.1208081E2,6.38785E1,7.124235E1,8.8199905E1,7.472424E1,7.468791E1,9.100209E1,1.58805E2,1.4854524E2,6.1617863E1,7.307433E1,5.3595356E1,7.448968E1,5.078923E1,5.121574E1,1.8061276E2,3.261931E2,8.664284E1,1.8317276E2,1.01265724E2,5.182285E1,2.4249591E2,2.472563E2,7.105064E1,1.3462325E2,5.4100983E1,6.3449947E1,6.681466E1,1.2898802E2,7.96441E1,8.722237E1,5.434824E1,9.633587E1,1.5475185E2,1.09469E2],"tree_param":{"num_deleted":"0","num_feature":"41","num_nodes":"111","size_leaf_vector":"1"}},{"base_weights":[6.162195E-3,1.0195761E0,-2.31991E-1,4.5618853E-1,1.1955663E0,-4.6159077E-1,2.2056942E-1,1.8711351E-1,8.87631E-1,1.3149785E0,7.446149E-1,-2.2411354E-1,-8.4758437E-1,4.3203294E-1,-1.7402357E-1,2.2384832E-2,-6.3196355E-3,2.1651974E-2,3.2785635E-2,4.447974E-2,1.1850094E0,4.5319255E-3,9.141813E-1,9.399256E-2,-4.0303186E-1,-6.616949E-1,-1.0020058E0,6.904781E-1,2.1976806E-1,6.890657E-2,-4.884242E-1,-8.667507E-3,5.751616E-3,2.0394305E-2,1.2376014E0,2.1445937E-2,3.365456E-2,-1.4141773E-1,2.487506E-1,-5.9508187E-1,-2.3474646E-1,-7.945378E-1,-4.5398417E-1,-1.087088E0,-8.1171656E-1,5.6230384E-1,9.8498476E-1,3.4657285E-1,-6.0067117E-2,-1.1389633E-1,4.462986E-1,-5.9321815E-1,-1.0054663E-5,4.095752E-2,3.3306967E-2,-1.2379601E-2,6.2281796E-4,1.1371605E-2,-0E0,-1.43945245E-2,-2.4352113E-2,-2.9586153E-3,-1.3086309E-2,-2.8013596E-2,-2.032968E-2,-1.6054485E-2,-3.5140896E-3,-2.9364636E-2,-3.511768E-2,-2.1160912E-2,-3.0078216E-2,1.2271059E-2,2.2150667E-2,2.4231657E-2,4.0791802E-2,7.971237E-3,2.7277526E-2,2.115238E-3,-9.507458E-3,5.8729844E-3,-9.013578E-3,7.5005195E-3,2.2037448E-2,-2.0510659E-2,-7.7793994E-3],"categories":[],"categories_nodes":[],"categories_segments":[],"categories_sizes":[],"default_left":[0,0,0,0,0,0,0,0,0,0,0,0,0,0,0,0,0,0,0,0,0,0,0,0,0,0,0,0,0,0,0,0,0,0,0,0,0,0,0,0,0,0,0,0,0,0,0,0,0,0,0,0,0,0,0,0,0,0,0,0,0,0,0,0,0,0,0,0,0,0,0,0,0,0,0,0,0,0,0,0,0,0,0,0,0],"id":16,"left_children":[1,3,5,7,9,11,13,15,17,19,21,23,25,27,29,-1,31,-1,-1,-1,33,-1,35,37,39,41,43,45,47,49,51,-1,-1,-1,53,-1,-1,55,57,59,61,63,65,67,69,71,73,75,77,79,81,83,-1,-1,-1,-1,-1,-1,-1,-1,-1,-1,-1,-1,-1,-1,-1,-1,-1,-1,-1,-1,-1,-1,-1,-1,-1,-1,-1,-1,-1,-1,-1,-1,-1],"loss_changes":[1.8330543E3,1.4138672E2,6.3916736E2,3.952172E1,5.621228E1,3.7309613E2,1.7300085E2,2.3903177E1,2.0227585E0,1.4019165E1,2.2908981E1,1.4420259E2,4.24104E1,7.325218E1,5.548606E1,0E0,9.278069E0,0E0,0E0,0E0,1.0625916E1,0E0,5.0198975E0,3.3321228E1,5.16752E1,1.829721E1,1.092981E1,2.1008423E1,2.6611282E1,2.8458279E1,1.5877037E1,0E0,0E0,0E0,3.0297241E0,0E0,0E0,1.6111572E1,1.7994E1,1.7406311E1,2.3459614E1,4.928192E0,7.3083572E0,1.8286743E0,3.2149506E0,1.0380402E1,8.679108E0,2.2317848E1,7.972472E0,1.6113417E1,6.7590446E0,7.0124817E0,0E0,0E0,0E0,0E0,0E0,0E0,0E0,0E0,0E0,0E0,0E0,0E0,0E0,0E0,0E0,0E0,0E0,0E0,0E0,0E0,0E0,0E0,0E0,0E0,0E0,0E0,0E0,0E0,0E0,0E0,0E0,0E0,