tree
version=v4
num_class=1
num_tree_per_iteration=1
label_index=0
max_feature_idx=40
objective=binary sigmoid:1
feature_names=Column_0 Column_1 Column_2 Column_3 Column_4 Column_5 Column_6 Column_7 Column_8 Column_9 Column_10 Column_11 Column_12 Column_13 Column_14 Column_15 Column_16 Column_17 Column_18 Column_19 Column_20 Column_21 Column_22 Column_23 Column_24 Column_25 Column_26 Column_27 Column_28 Column_29 Column_30 Column_31 Column_32 Column_33 Column_34 Column_35 Column_36 Column_37 Column_38 Column_39 Column_40
feature_infos=[1:6] [1:4] [2.4700000000000002:8.7100000000000009] [10:75.230000000000004] [2.1099999999999999:9.0999999999999996] [10:90] [10:80] [10:88.890000000000001] [0:0.92000000000000004] [0:3] [41:64.900000000000006] [0:9] [0:2] [0:9] [0:1] [1:6] [1:6] [-2.8266666666666658:3.7866666666666671] [-36.526666666666664:46.861666666666672] [1:24] [1:6] [22.5:144.44999999999999] [0:54] [-3.5700000000000003:2.96] [2.6737967914438503:9.5372340425531927] [0:48] none [-0.60000000000000009:0.89999999999999991] [0:12] [1:6] [1:6] [1:6] [-9.2666666666666728:12.18333333333333] [0.26600000000000001:7.7780000000000005] [-0.40000000000000002:0.59999999999999998] [0:81] [6.59443:6.8949999999999996] [0:0.92000000000000004] [1.3333333333333333:4] [0:1.4719601443879744] [-2.5:2.166666666666667]
tree_sizes=3414 3488 3487 3468 3460 3472 3480 3485 3471 3481 3471 3490 3485 3490 3484 3479 3480 3483 3501 3498 3482 3486 3481 3495 3481 3491 3470 3501 3484 3473 3473 3492 3484 3466 3477 3465 3496 3502 3507 3495 3490 3491 3478 3501 3486 3495 3521 3511 3490 3510 3510 3504 3512 3499 3489 3489 3501 3506 3487 3494 3488 3518 3504 3502 3461 3505 3477 3509 3471 3494 3478 3504 3508 3478 3498 3474 3511 3491 3523 3528 3498 3478 3497 3503 3506 3500 3504 3521 3453 3519 3499 3469 3516 3465 3508 3457 3521 3478 3490 3510 3508 3481 3432 3470 3501 3472 3505 3483 3482 3517 3491 3490 3490 3454 3419 3450 3466 3469 3472 3491 3486 3492 3500 3481 3488 3497 3495 3504 3494 3461 3477 3489 3443 3499 3491 3442 3475 3477 3494 3501 3467 3449 3415 3474 3507 3485 3428 3469 3464 3463 3452 3475 3485 3442 3474 3434 3499 3429 3380 3480 3476 3397 3492 3475 3440 3444 3439 3457 3466 3474 3475 3473 2979 3421 3428 3476 3236 3459 3495 2696 2912 3442 2046 3323 3424 3425 3428 3241 3474 3352 2935 3483 3455 3462 3444 3446 3427 3227 3484 3402 3350 3450 3455 3473 3461 3486 3361 3335 3436 3490 3468 3413 3486 2774 3451 3433 2353 3464 3482 3442 3469 3495 3495 3455 3399 2795 3425 3460 2927 3453 3446 3467 2439

Tree=0
num_leaves=31
num_cat=0
split_feature=19 0 19 2 16 40 16 34 27 27 8 19 27 16 8 16 34 27 40 0 27 16 24 16 34 27 38 4 38 24
split_gain=6473.41 1477.48 688.95 427.836 312.378 296.529 190.99 142.885 137.097 130.522 109.273 95.6786 61.5664 54.9418 52.4383 51.9736 47.7947 43.2137 42.6214 40.4514 36.3078 30.289 29.7607 24.3981 23.938 23.8041 20.7451 20.4452 19.5065 18.8389
threshold=11.000000000000002 1.5000000000000002 4.5000000000000009 5.1950000000000012 3.5000000000000004 0.58333333333333337 2.5000000000000004 0.080000000000000057 0.32500000000000012 0.23000000000000007 0.18500000000000003 13.500000000000002 0.27500000000000008 1.5000000000000002 0.25500000000000006 1.5000000000000002 0.19000000000000003 0.11500000000000003 1.0833333333333337 3.5000000000000004 0.050000000000000037 2.5000000000000004 5.0010460251046034 2.5000000000000004 0.17000000000000007 0.11500000000000003 2.5833333333333335 4.4450000000000012 2.7500000000000004 5.0010460251046034
decision_type=2 2 2 2 2 2 2 2 2 2 2 2 2 2 2 2 2 2 2 2 2 2 2 2 2 2 2 2 2 2
left_child=2 3 6 10 9 12 18 14 20 13 24 16 -3 -4 -5 28 -7 -8 25 -15 -6 -14 -10 26 27 -1 -11 -2 -13 -19
right_child=1 5 4 7 8 11 17 -9 22 23 -12 15 21 19 -16 -17 -18 29 -20 -21 -22 -23 -24 -25 -26 -27 -28 -29 -30 -31
leaf_value=-0.71675668072768406 -0.67262762019081435 -0.69598638157364467 -0.68618336174476391 -0.6429029821396266 -0.71978664703200701 -0.69215251590039839 -0.72961055387039808 -0.62253528134844571 -0.70537487492691919 -0.66623717995337184 -0.68302829446055036 -0.64559960575293074 -0.67193442680399884 -0.69110609193145423 -0.68043468026147835 -0.66945354607491336 -0.66905331933235335 -0.72572424384856737 -0.69506384727209514 -0.70666773734177057 -0.71050461944025178 -0.6872269247059426 -0.69024232974710165 -0.68635960211755609 -0.64368515413043315 -0.69804637422412874 -0.68593394509726013 -0.65218019850320785 -0.6630082909891023 -0.71373777735304988
leaf_weight=304.44444671273232 88.88888955116272 559.77778194844723 252.88889077305794 227.77777947485447 672.00000500679016 143.7777788490057 1605.7777897417545 814.22222828865051 189.77777919173241 164.66666789352894 161.55555675923824 231.55555728077888 184.44444581866264 206.22222375869751 42.444444760680199 249.33333519101143 186.2222236096859 243.11111292243004 178.00000132620335 533.11111508309841 964.44445163011551 328.22222466766834 295.77777998149395 210.88889046013355 156.00000116229057 80.666667267680168 73.555556103587151 115.77777864038944 106.00000078976154 288.66666881740093
leaf_count=1370 400 2519 1138 1025 3024 647 7226 3664 854 741 727 1042 830 928 191 1122 838 1094 801 2399 4340 1477 1331 949 702 363 331 521 477 1299
internal_value=-0.693147 -0.661075 -0.711563 -0.63969 -0.702887 -0.678391 -0.72299 -0.628924 -0.710202 -0.692118 -0.662235 -0.665881 -0.689131 -0.698181 -0.648606 -0.658599 -0.679006 -0.727091 -0.70733 -0.702313 -0.714353 -0.681635 -0.696152 -0.678727 -0.653069 -0.712922 -0.672146 -0.660704 -0.650812 -0.719347
internal_weight=9860 3596 6264 1606.67 3563.33 1989.33 2700.67 1084.44 2122 1441.33 522.222 916.889 1072.44 992.222 270.222 586.889 330 2137.56 563.111 739.333 1636.44 512.667 485.556 449.111 360.667 385.111 238.222 204.667 337.556 531.778
internal_count=44370 16182 28188 7230 16035 8952 12153 4880 9549 6486 2350 4126 4826 4465 1216 2641 1485 9619 2534 3327 7364 2307 2185 2021 1623 1733 1072 921 1519 2393
is_linear=0
shrinkage=1


Tree=1
num_leaves=31
num_cat=0
split_feature=19 0 19 2 17 17 17 27 27 34 8 17 27 17 19 0 17 17 8 17 17 27 27 17 27 34 17 0 3 40
split_gain=6066.36 1345.9 661.565 383.266 363.119 316.513 203.226 130.227 128.769 126.508 100.214 83.4281 71.7836 62.6881 55.5117 51.8973 50.4169 48.987 47.5321 42.0398 41.2272 39.9363 32.4043 29.3573 26.6268 26.0799 18.8497 18.547 18.0334 17.1078
threshold=11.000000000000002 1.5000000000000002 4.5000000000000009 5.1950000000000012 0.74750000000000016 -0.008333333333333302 0.18000000000000019 0.29000000000000009 0.25500000000000012 0.080000000000000057 0.18500000000000003 1.6983333333333339 0.24500000000000011 1.3150000000000002 13.500000000000002 3.5000000000000004 1.2941666666666667 -0.58166666666666644 0.25500000000000006 -0.56000000000000016 0.45583333333333359 0.21500000000000005 0.11500000000000003 -0.34166666666666629 0.050000000000000037 0.17000000000000007 1.2016666666666669 2.5000000000000004 20.525000000000002 0.16666666666666666
decision_type=2 2 2 2 2 2 2 2 2 2 2 2 2 2 2 2 2 2 2 2 2 2 2 2 2 2 2 2 2 2
left_child=2 3 6 10 12 8 21 13 24 18 19 22 27 15 25 -7 -16 -10 -5 -2 -14 28 26 -12 -4 -6 -8 -3 -1 -20
right_child=1 4 5 9 14 7 11 -9 17 -11 23 -13 20 -15 16 -17 -18 -19 29 -21 -22 -23 -24 -25 -26 -27 -28 -29 -30 -31
leaf_value=-0.039211890426770972 0.027673384367081635 0.0034453790134316869 -0.025918062337990475 0.047961975524006342 0.0078841497321354218 0.0074360755653921371 -0.024230676624484641 0.020139368581482228 -0.012729823945675489 0.066959934119356468 0.0005614859430159118 0.019963797294061829 0.0064456528805202744 0.017518094379520704 0.027028769844280702 -0.0091092746216677057 0.046680257316916079 0.0032600483789125174 -0.013462220135579652 0.048982490750555704 0.024790097513595923 -0.019271712720870807 -0.0043272051712028806 0.027539523569554671 -0.017624618503934177 0.026431487426393684 -0.0088252048530156196 -0.007598112878775775 -0.032545789966021664 0.024957955451149729
leaf_weight=787.25832310318947 185.80095899105072 208.65144617855549 695.94929522275925 231.49411268532276 119.11249375343323 217.88270545005798 431.0098934173584 276.85760480165482 399.75740019977093 832.68389225006104 108.58539286255836 53.699530139565468 454.77100290358067 118.95401540398598 287.23936620354652 752.13021975755692 224.05284732580185 298.81859105825424 13.612629935145376 179.52196981012821 146.30191445350647 160.77245877683163 124.93204069137573 53.512308597564697 791.23268100619316 175.47079055011272 93.284201681613922 383.23850266635418 1022.4909382164478 29.010522812604904
leaf_count=3586 826 938 3158 1025 536 980 1956 1240 1804 3664 487 242 2040 534 1281 3393 995 1346 61 797 654 730 564 240 3580 784 421 1724 4654 130
internal_value=-1.44182e-06 0.0307924 -0.0179799 0.0509756 0.014249 -0.00948005 -0.0292506 0.00183897 -0.0165551 0.0610281 0.0297011 -0.0152999 0.00371082 -0.00282835 0.0297827 -0.0053698 0.0358178 -0.0058789 0.0426001 0.0383953 0.011003 -0.0341989 -0.0182921 0.00978609 -0.0215453 0.0190863 -0.0215621 -0.00368134 -0.035494 0.0122981
internal_weight=9858.09 3633.06 6225.03 1634.22 1998.84 3551.58 2673.45 1365.82 2185.76 1106.8 527.421 702.926 1192.96 1088.97 805.875 970.013 511.292 698.576 274.117 365.323 601.073 1970.52 649.226 162.098 1487.18 294.583 524.294 591.89 1809.75 42.6232
internal_count=44370 16182 28188 7230 8952 16035 12153 6147 9888 4880 2350 3183 5356 4907 3596 4373 2276 3150 1216 1623 2694 8970 2941 727 6738 1320 2377 2662 8240 191
is_linear=0
shrinkage=0.03


Tree=2
num_leaves=31
num_cat=0
split_feature=16 22 20 20 20 22 40 22 40 20 20 2 22 40 22 22 20 40 22 40 15 22 4 22 22 22 22 22 22 40
split_gain=2572.76 1139.92 589.24 497.887 463.528 296.601 194.693 185.735 168.242 107.581 83.8622 76.6109 66.2322 57.6377 56.5139 85.8044 56.3781 55.7147 55.1368 54.6325 50.7724 35.823 31.3596 29.8481 29.7825 29.3074 29.0455 28.6546 28.3746 26.3152
threshold=3.5000000000000004 4.5000000000000009 3.5000000000000004 3.5000000000000004 1.5000000000000002 4.5000000000000009 0.4166666666666668 3.5000000000000004 1.0833333333333337 1.5000000000000002 4.5000000000000009 4.0050000000000008 1.0000000180025095e-35 -1.0000000180025095e-35 1.0000000180025095e-35 1.5000000000000002 1.5000000000000002 1.2500000000000002 2.5000000000000004 1.0000000180025095e-35 1.5000000000000002 9.5000000000000018 4.6950000000000012 2.5000000000000004 9.5000000000000018 9.5000000000000018 9.5000000000000018 1.0000000180025095e-35 17.000000000000004 0.16666666666666666
decision_type=2 2 2 2 2 2 2 2 2 2 2 2 2 2 2 2 2 2 2 2 2 2 2 2 2 2 2 2 2 2
left_child=1 4 5 8 19 9 14 13 16 12 23 -7 -2 -4 -6 -16 26 25 -14 27 -11 -13 -9 -8 -18 -5 -3 -1 -10 -22
right_child=2 3 7 17 6 11 10 22 28 20 -12 21 18 -15 15 -17 24 -19 -20 -21 29 -23 -24 -25 -26 -27 -28 -29 -30 -31
leaf_value=0.011045503597900816 -0.0020137495970800343 0.024599849993745794 -0.016999553897814226 -0.010050601082849046 -0.0023717741878759228 -0.025527225960215498 0.044018983482080679 -0.034250357563391683 0.033823104592384197 0.020365794845655243 0.017766704652150099 -0.0035801726969815076 0.044100241776601566 0.003548987942265634 0.045321061065802852 0.011775302843132725 0.0083104628512865597 0.0025780013908124786 0.015904435494067844 0.059233138125961989 -0.004647921623479271 -0.014903399928694381 -0.025995084587947748 0.029868121210102416 -0.0035573564971092728 -0.020677788197105994 0.0084822108789785432 0.043857195970979965 0.013730134121649583 0.025849007198833873
leaf_weight=33.351438626646996 82.441461622714996 190.06784036755562 488.79157318174839 444.47695668041706 190.55813559889793 366.04167707264423 366.97494313120842 1021.7928407043219 315.4748363494873 95.631870880723 264.11503280699253 491.31017780303955 114.98465922474861 161.56091850996017 78.068586975336075 525.9819779843092 367.3113050609827 171.54265041649342 146.97061301767826 435.6582800000906 514.90633206069469 526.12409400939941 817.28208945691586 263.55882346630096 388.9454351067543 527.37401439249516 226.7660753428936 121.90147645771503 87.3994080722332 24.695405676960945
leaf_count=149 373 848 2216 2004 856 1678 1609 4691 1400 426 1166 2227 507 723 340 2343 1648 766 659 1905 2325 2401 3732 1163 1759 2395 1022 537 392 110
internal_value=-4.17676e-06 0.0150948 -0.0155634 0.00196699 0.0307292 -0.00481919 0.0226671 -0.0257444 0.012899 0.0077923 0.0322664 -0.0137585 0.0212424 -0.0118766 0.0117865 0.0162708 0.00711324 -0.0130839 0.0285781 0.0535971 0.000432903 -0.00946798 -0.0306221 0.0382409 0.00219374 -0.0158635 0.0159497 0.0371341 0.0295905 -0.0031342
internal_weight=9852.06 4999.53 4852.53 2719.36 2280.17 2363.11 1689.26 2489.43 1575.96 979.63 894.649 1383.48 344.397 650.352 794.609 604.051 1173.09 1143.39 261.955 590.911 635.234 1017.43 1839.07 630.534 756.257 971.851 416.834 155.253 402.874 539.602
internal_count=44370 22302 22068 12234 10068 10706 7477 11362 7069 4400 3938 6306 1539 2939 3539 2683 5277 5165 1166 2591 2861 4628 8423 2772 3407 4399 1870 686 1792 2435
is_linear=0
shrinkage=0.03


Tree=3
num_leaves=31
num_cat=0
split_feature=19 0 19 2 17 17 17 34 8 8 17 38 0 17 19 17 8 17 17 34 17 0 17 8 0 8 17 19 17 17
split_gain=5480.06 1200.37 625.084 319.145 318.358 286.66 188.066 106.181 91.5569 87.8882 77.0396 75.1761 57.267 57.5457 49.0317 44.3887 43.109 41.1003 38.6662 35.7056 35.3189 33.6876 49.591 27.8004 26.1928 25.8799 25.8155 25.2102 24.4869 23.8208
threshold=11.000000000000002 1.5000000000000002 4.5000000000000009 5.1950000000000012 0.74750000000000016 0.22166666666666715 0.18000000000000019 -0.064999999999999988 0.115 0.18500000000000003 1.6983333333333339 2.4166666666666674 3.5000000000000004 -0.40833333333333272 13.500000000000002 1.2941666666666667 0.14500000000000005 1.6608333333333334 0.45583333333333359 0.21500000000000005 -0.56000000000000016 4.5000000000000009 -0.57083333333333319 0.16500000000000004 2.5000000000000004 0.13500000000000004 -0.34166666666666629 2.5000000000000004 0.98166666666666702 0.52166666666666706
decision_type=2 2 2 2 2 2 2 2 2 2 2 2 2 2 2 2 2 2 2 2 2 2 2 2 2 2 2 2 2 2
left_child=2 3 6 9 16 8 27 -5 21 20 25 23 13 -10 -6 -16 18 29 -3 -9 -2 22 -4 -7 -18 28 -11 -1 -8 -13
right_child=1 4 5 7 14 11 10 19 12 26 -12 17 -14 -15 15 -17 24 -19 -20 -21 -22 -23 -24 -25 -26 -27 -28 -29 -30 -31
leaf_value=-0.037069811116487723 0.026553989293771649 0.0044156586904112744 -0.01069994995112079 0.02653283743554365 0.017699733707845208 0.021128666495788262 -0.015866838967129288 0.052801029853612021 -0.018133339814702835 0.00093619901960823959 0.018726354331461543 -0.011801182834681095 -0.02407507671452383 -0.0032909533273808543 0.025112704383129295 0.043376312455743936 0.0045902134158859707 0.027873106023144755 0.021489815923542471 0.065405329436916931 0.046026624075188191 -0.022572386542135354 0.0071285613869580527 0.004750260166323377 -0.0085640138296483818 -0.022664164573392893 0.026185041347329061 -0.029740441907762 0.0048079477642494249 0.00052862814579280714
leaf_weight=904.22476910054684 187.48119257390499 491.18640595674515 285.2404413819313 101.9664209485054 298.20603154599667 233.16777676343918 180.2278490960598 481.60907542705536 727.82788786292076 108.12609089910984 54.319772630929947 222.17000845074654 785.55413898825645 352.30625465512276 291.75135038793087 229.21750593185425 240.74242508411407 36.541962504386902 157.9293490499258 552.15181744098663 183.16874992847443 80.498039647936821 272.08011820912361 161.51132574677467 306.479472219944 395.27270741760731 54.135442525148392 1027.2731093168259 69.448950096964836 373.97558231651783
leaf_count=4209 826 2196 1296 447 1320 1038 819 2073 3341 487 242 1002 3603 1599 1281 995 1080 162 697 2360 797 366 1221 726 1383 1809 240 4761 313 1681
internal_value=-4.97644e-06 0.0289291 -0.0173114 0.0477394 0.0133168 -0.00904913 -0.0283795 0.0567518 -0.014523 0.0283639 -0.0149472 0.00427745 -0.0178781 -0.0133211 0.027704 0.0333122 0.00342309 -0.00211511 0.00864607 0.059661 0.0364127 -0.00466044 -0.00197501 0.0145218 -0.00275405 -0.0178557 0.00966756 -0.0332142 -0.0100639 -0.00406543
internal_weight=9845.79 3684.15 6161.64 1668.64 2015.51 3530.87 2630.77 1135.73 2503.51 532.911 699.269 1027.37 1865.69 1080.13 819.175 520.969 1196.34 632.688 649.116 1033.76 370.65 637.819 557.321 394.679 547.222 644.95 162.262 1931.5 249.677 596.146
internal_count=44370 16182 28188 7230 8952 16035 12153 4880 11426 2350 3183 4609 8543 4940 3596 2276 5356 2845 2893 4433 1623 2883 2517 1764 2463 2941 727 8970 1132 2683
is_linear=0
shrinkage=0.03


Tree=4
num_leaves=31
num_cat=0
split_feature=19 0 20 20 19 20 19 3 40 40 20 3 40 3 20 3 19 19 20 40 15 1 27 27 20 0 34 19 27 0
split_gain=5145.88 1104.53 629.638 324.884 317.921 242.249 195.806 165.452 145.81 108.674 76.9367 67.1765 60.6262 48.7242 47.6774 43.2046 42.4197 38.0999 34.7317 34.2942 34.1909 26.1565 26.1244 25.8315 25.7537 22.3068 22.0411 19.6173 19.4636 19.1143
threshold=11.000000000000002 1.5000000000000002 3.5000000000000004 4.5000000000000009 4.5000000000000009 3.5000000000000004 7.0000000000000009 30.245000000000005 1.0833333333333337 1.0833333333333337 1.5000000000000002 35.775000000000013 0.58333333333333337 20.525000000000002 1.5000000000000002 24.405000000000005 2.5000000000000004 13.500000000000002 4.5000000000000009 0.4166666666666668 2.5000000000000004 1.5000000000000002 0.37500000000000006 -0.30999999999999994 1.5000000000000002 2.5000000000000004 -0.059999999999999977 13.500000000000002 -0.15499999999999992 3.5000000000000004
decision_type=2 2 2 2 2 2 2 2 2 2 2 2 2 2 2 2 2 2 2 2 2 2 2 2 2 2 2 2 2 2
left_child=2 3 4 7 9 8 16 14 19 13 15 26 -7 -1 -2 -6 -4 -14 -8 -3 29 -15 -17 -13 -9 -21 -5 -10 -19 -12
right_child=1 5 6 11 10 12 18 24 27 -11 20 23 17 21 -16 22 -18 28 -20 25 -22 -23 -24 -25 -26 -27 -28 -29 -30 -31
leaf_value=-0.032030563549315605 0.049048508923943988 0.009007359765654489 -0.038976558922842637 -0.0048778213978026962 -0.0043669209707945297 -0.0071942810257851 -0.0086018046258426427 0.065876919201563647 0.025614340060535194 0.010388848259431423 0.011172599471681532 0.0041024747536909708 -0.0040912385246308905 0.002822963659512838 0.024714358799968285 0.0088324982600071177 -0.029059618864473676 -0.0021220580345414097 -0.020119390176049776 0.030648964337649135 -0.0079820195109783169 -0.019526419925670602 0.024799392752474773 0.037869527961146357 0.054256267199490449 0.014941921122005156 0.016164356763670978 0.041737124764944455 0.020923315131925437 -0.0015766641512671839
leaf_weight=337.38089682161808 124.00181230902672 492.46113857626915 590.35651175677776 64.977439776062965 161.80359700322151 455.14625324308872 385.65787754952908 416.2291546612978 119.47599029541016 96.833178639411926 143.57445020973682 24.701965540647507 117.88297843933105 48.939853116869926 203.5441610366106 327.11359523236752 1426.9385627359152 38.361980304121971 649.24387919902802 142.69391714036465 772.12205283343792 668.353999376297 132.02979330718517 179.21730819344521 545.01979653537273 220.03519326448441 131.12990266084671 255.19068524241447 181.93210795521736 381.58711230754852
leaf_count=1586 535 2196 2791 290 736 2048 1762 1752 523 433 647 109 525 226 891 1468 6635 168 2981 625 3520 3095 587 765 2313 972 575 1100 795 1721
internal_value=-6.83274e-06 0.0278524 -0.0169052 0.0457549 -0.00729768 0.0128707 -0.0265519 0.053096 0.0211973 -0.0197438 0.000178643 0.02192 -3.95933e-05 -0.022539 0.034214 0.00885378 -0.0320049 0.00953136 -0.0158667 0.0142747 -0.00396942 -0.0179771 0.0135441 0.0339315 0.05943 0.0212962 0.00913775 0.0367989 0.0168597 0.00190958
internal_weight=9833.94 3712 6121.94 1688.82 3069.74 2023.18 3052.2 1288.79 1229.86 1151.51 1918.23 400.027 793.323 1054.67 327.546 620.947 2017.3 338.177 1034.9 855.19 1297.28 717.294 459.143 203.919 961.249 362.729 196.107 374.667 220.294 525.162
internal_count=44370 16182 28188 7230 14019 8952 14169 5491 5416 5340 8679 1739 3536 4907 1426 2791 9426 1488 4743 3793 5888 3321 2055 874 4065 1597 865 1623 963 2368
is_linear=0
shrinkage=0.03


Tree=5
num_leaves=31
num_cat=0
split_feature=19 19 20 20 17 19 20 19 19 19 20 17 40 17 19 17 33 17 20 19 20 33 39 17 17 17 33 20 2 17
split_gain=4835.12 847.572 604.219 317.914 310.308 232.418 190.093 189.914 105.67 118.328 91.343 59.9189 59.7225 54.0797 52.7976 43.6804 45.5375 39.8511 37.8344 33.2357 30.2737 29.435 31.0635 27.3483 26.2146 24.2077 28.0405 22.0561 22.0504 28.5007
threshold=11.000000000000002 17.000000000000004 3.5000000000000004 3.5000000000000004 0.38000000000000039 4.5000000000000009 4.5000000000000009 7.0000000000000009 22.000000000000004 19.000000000000004 1.5000000000000002 0.22166666666666715 0.58333333333333337 -0.40833333333333272 4.5000000000000009 0.9966666666666667 2.3550000000000009 0.98166666666666702 1.5000000000000002 22.000000000000004 5.5000000000000009 2.0607500000000005 0.59008904476942114 1.6983333333333339 -0.28333333333333272 0.60166666666666713 2.5055000000000005 2.5000000000000004 5.6650000000000009 1.2441666666666669
decision_type=2 2 2 2 2 2 2 2 2 2 2 2 2 2 2 2 2 2 2 2 2 2 2 2 2 2 2 2 2 2
left_child=2 3 4 10 5 24 8 11 9 27 21 -4 -11 -9 17 16 -12 -6 -7 -8 25 -2 -23 -13 -1 26 -5 -3 -16 -30
right_child=1 6 7 20 14 18 19 13 -10 12 15 23 -14 -15 28 -17 -18 -19 -20 -21 -22 22 -24 -25 -26 -27 -28 -29 29 -31
leaf_value=-0.028480171916993383 0.044032292105317929 0.059428906462986 -0.034326285506950806 0.0069926981329152581 -0.011951249576708489 0.0022342761106058677 0.016365304118969182 -0.022892490674584612 0.061140429462833726 0.0084878722619983124 0.023089317305800494 -0.023339919298165156 0.037060726315746056 -0.0089951248957182151 0.026367811704478279 0.03115984280396792 0.0072188192898843297 0.010886230444881732 -0.0083989094964741356 0.037172371211915661 -0.0076390954787539326 0.0126421646192865 0.034139828017313058 0.0094245894982563968 -0.016855569611097437 0.012895589036126316 -0.0085759485568762291 0.04214496516400653 0.0061182523447298387 0.024231464022602706
leaf_weight=595.20663201808929 190.24769072234631 243.78392438590527 1532.8694606423378 246.91677221655846 147.54000622034073 430.83474305272102 212.97186562418938 476.88912469148636 475.42171457409859 100.12193775177002 300.31886440515518 437.14837422966957 208.46788814663887 552.1224697381258 116.80629703402519 182.87870219349861 366.53269997239113 125.05956801772118 978.37870071828365 109.19427640736103 250.19928853213787 89.667945936322212 230.64407069981098 22.489158526062965 275.01073572039604 210.73598982393742 176.81886170804501 141.85200490057468 282.89823026955128 109.20127193629742
leaf_count=2817 812 1016 7294 1094 678 1944 924 2223 1979 444 1310 2031 894 2520 518 789 1623 561 4471 463 1118 395 1000 101 1284 926 798 597 1265 481
internal_value=-8.33948e-06 0.0268401 -0.0165086 0.0151613 -0.00710052 -0.0126937 0.0443612 -0.0260235 0.0500031 0.0422007 0.0242554 -0.031439 0.0279529 -0.0154822 0.00918478 0.0181178 0.0144362 -0.00141657 -0.00513887 0.0236497 0.00113778 0.0343305 0.0282841 -0.0216704 -0.0248708 0.00463558 0.000451121 0.0533601 0.0148761 0.0112983
internal_weight=9819.23 3736.77 6082.45 2244.96 3060.94 2279.43 1491.81 3021.52 1169.65 694.226 1360.29 1992.51 308.59 1029.01 781.505 849.73 666.852 272.6 1409.21 322.166 884.671 510.56 320.312 459.638 870.217 634.472 423.736 385.636 508.906 392.1
internal_count=44370 16182 28188 9865 14019 10516 6317 14169 4930 2951 5929 9426 1338 4743 3503 3722 2933 1239 6415 1387 3936 2207 1395 2132 4101 2818 1892 1613 2264 1746
is_linear=0
shrinkage=0.03


Tree=6
num_leaves=31
num_cat=0
split_feature=19 0 20 17 20 17 19 0 3 0 17 17 20 20 17 17 17 17 17 27 17 19 8 27 8 17 20 17 17 0
split_gain=4545.88 961.66 579.963 294.615 274.849 270.318 184.294 178.579 118.207 115.404 109.868 106.882 92.3269 80.8286 58.6173 51.8568 44.3276 29.1945 28.834 27.2074 26.1336 25.873 25.3573 24.8843 22.5565 22.197 22.1125 22.036 21.9638 20.2553
threshold=11.000000000000002 1.5000000000000002 3.5000000000000004 -0.15249999999999983 3.5000000000000004 0.83500000000000052 7.0000000000000009 4.5000000000000009 36.230000000000011 4.5000000000000009 -0.52999999999999947 0.98166666666666702 3.5000000000000004 3.5000000000000004 0.22166666666666715 -0.40833333333333272 0.48833333333333379 0.48833333333333379 -0.86166666666666691 0.4900000000000001 1.6983333333333339 13.500000000000002 0.23500000000000001 0.53000000000000014 0.22500000000000003 0.27500000000000085 4.5000000000000009 1.4891666666666665 1.6608333333333334 5.5000000000000009
decision_type=2 2 2 2 2 2 2 2 2 2 2 2 2 2 2 2 2 2 2 2 2 2 2 2 2 2 2 2 2 2
left_child=2 4 3 7 10 12 14 23 18 16 -2 29 17 27 -4 -8 19 -3 -6 -5 -16 -14 -10 -1 -20 -23 -17 -7 -13 -11
right_child=1 5 6 9 8 13 15 -9 22 11 -12 28 21 -15 20 26 -18 -19 24 -21 -22 25 -24 -25 -26 -27 -28 -29 -30 -31
leaf_value=-0.0090425440262396697 0.028620442864095846 0.0065516855551973228 -0.033771804441251337 0.0037274084085830452 -0.0042232335938647185 0.028376262907005199 -0.022405509420338015 -0.027674721193155342 0.041840138718778758 -0.0066138081221216163 0.055530839334275287 0.0058261908312974052 -0.013915660002438848 0.011997691642988572 -0.022845379701142386 -0.0012811267588519035 0.023400811569658127 0.019714689325009062 0.023461436408560396 0.028649370580884417 0.0091385246134791497 -0.0075449279522490278 0.015962405405348108 0.0064126213059954211 0.0017692005051794055 0.0078793073531510053 -0.013638030963030838 0.042838493811136601 0.025409806496158215 -0.018249152856452702
leaf_weight=856.75661893188953 171.07960592210293 527.56582297384739 1511.6508982926607 352.91447012126446 71.550412982702255 340.66379621624947 472.74344211816788 659.58594678342342 285.02808366715908 325.80302758514881 929.50866596400738 173.89175622165203 211.80724264681339 247.85289518535137 433.31495586037636 219.73162469267845 223.20111612975597 216.55150553584099 156.18362425267696 42.928445532917976 22.558873176574707 182.84309373795986 44.735339775681496 102.65928573906422 61.919726714491844 151.65993291139603 330.64170455932617 160.10611638426781 74.26131434738636 239.95793294906616
leaf_count=3939 732 2335 7294 1587 318 1460 2223 3145 1191 1487 3848 776 960 1079 2031 1001 986 942 674 190 101 824 193 465 274 673 1519 679 325 1119
internal_value=-8.82229e-06 0.0258849 -0.0161228 -0.00690888 0.0423983 0.0119201 -0.0255098 -0.0156714 0.0262287 0.00298893 0.0514209 -0.00441957 0.00357394 0.026239 -0.0308903 -0.015108 0.0127366 0.010445 0.0120474 0.00659829 -0.0211969 -0.00576163 0.0384922 -0.00736331 0.0174432 -0.000501909 -0.0087543 0.033182 0.011903 -0.0116221
internal_weight=9801.66 3759.06 6042.6 3051.96 1720.01 2039.05 2990.64 1619 619.417 1432.96 1100.59 813.914 1290.43 748.623 1967.52 1023.12 619.044 744.117 289.654 395.843 455.874 546.31 329.763 959.416 218.103 334.503 550.373 500.77 248.153 565.761
internal_count=44370 16182 28188 14019 7230 8952 14169 7549 2650 6470 4580 3707 5734 3218 9426 4743 2763 3277 1266 1777 2132 2457 1384 4404 948 1497 2520 2139 1101 2606
is_linear=0
shrinkage=0.03


Tree=7
num_leaves=31
num_cat=0
split_feature=0 17 0 0 20 20 20 17 20 17 17 17 17 20 17 0 17 34 17 20 20 40 0 20 17 2 8 33 0 8
split_gain=3925.94 1324.31 534.857 466.207 278.8 244.483 167.253 149.316 120.147 101.908 80.7512 71.0822 62.504 57.883 53.9837 53.5824 46.279 40.9418 40.5742 33.0234 26.9817 26.5732 25.8145 25.1699 22.7619 20.1556 19.6531 17.8693 17.2411 12.5948
threshold=1.5000000000000002 0.23333333333333298 4.5000000000000009 4.5000000000000009 4.5000000000000009 3.5000000000000004 3.5000000000000004 -0.35166666666666607 3.5000000000000004 1.2941666666666667 -0.56000000000000016 -0.50666666666666627 1.3150000000000002 3.5000000000000004 -0.58166666666666644 3.5000000000000004 0.48833333333333379 0.055000000000000014 1.7408333333333335 1.5000000000000002 1.5000000000000002 1.2500000000000002 3.5000000000000004 1.5000000000000002 -0.28333333333333272 5.8650000000000011 0.26500000000000007 1.5915000000000001 5.5000000000000009 0.19500000000000003
decision_type=2 2 2 2 2 2 2 2 2 2 2 2 2 2 2 2 2 2 2 2 2 2 2 2 2 2 2 2 2 2
left_child=4 2 5 6 7 11 9 23 12 16 29 27 28 24 -7 21 -3 26 -10 -9 -13 -8 -16 -1 -4 -21 -12 -2 -5 -6
right_child=1 3 13 8 10 14 15 19 18 -11 17 20 -14 -15 22 -17 -18 -19 -20 25 -22 -23 -24 -25 -26 -27 -28 -29 -30 -31
leaf_value=0.039159294355105699 -0.015433476926629584 0.0073706063492484557 -0.027951026568979773 -0.00042050324839145613 0.0061183220797343682 -0.025745598390351614 0.0058357360568988322 0.058999360666771673 -0.021893004293350463 0.038168739404043167 0.021152402063262247 0.011224644253089257 0.016642736792155298 -0.034969223745040905 -0.009861286674415921 -0.0081917675606116534 0.021757733167867117 0.038230942622719005 0.014176116038238099 0.039286150852773358 -9.9407088212225588e-05 0.023565185273784255 -0.022402791432020439 0.020277649514083944 -0.017229098382053356 0.052105233841596203 -0.0031384953542575506 -0.005488118139642578 -0.012445349634268682 -0.014615836803287071
leaf_weight=111.26248113811016 267.78474560379982 297.03746549785137 580.73596374690533 254.56818383932114 49.309511750936508 665.30619651079178 391.40734577178955 454.80471967160702 473.86179395020008 275.66318775713444 140.04413609206676 274.41806507110596 151.18376895785332 1137.9098463654518 499.9551817625761 226.38207997381687 666.78247378766537 142.23879161477089 27.992164805531502 242.60552115738392 593.05718486011028 94.56865856051445 217.48810821771622 182.15546178817749 290.89963740110397 359.45228739082813 36.088531687855721 437.4533768594265 187.18175853788853 51.327386319637299
leaf_count=467 1241 1312 2805 1149 217 3177 1740 1857 2230 1163 599 1221 663 5583 2300 1026 2883 594 125 1010 2679 405 1030 785 1369 1475 159 2007 866 233
internal_value=-1.01693e-05 -0.00894566 -0.0184981 0.00661877 0.0404072 -0.01036 0.015405 0.0470493 -0.00903164 0.022057 0.018845 -0.00225244 9.59372e-05 -0.0304374 -0.0195539 0.00378049 0.0173638 0.0262178 -0.0198031 0.0523433 0.00348318 0.00939899 -0.0137357 0.0277049 -0.0244375 0.0471117 0.0161118 -0.00931863 -0.0055827 -0.00438922
internal_weight=9780.93 8011.64 4965.01 3046.63 1769.29 2955.46 1951.84 1350.28 1094.79 1239.48 419.008 1572.71 592.934 2009.55 1382.75 712.358 963.82 318.371 501.854 1056.86 867.475 485.976 717.443 293.418 871.636 602.058 176.133 705.238 441.75 100.637
internal_count=44370 36974 23412 13562 7396 13655 8529 5594 5033 5358 1802 7148 2678 9757 6507 3171 4195 1352 2355 4342 3900 2145 3330 1252 4174 2485 758 3248 2015 450
is_linear=0
shrinkage=0.03


Tree=8
num_leaves=31
num_cat=0
split_feature=19 0 19 17 17 17 17 34 0 8 17 17 34 17 19 0 17 8 17 34 17 2 8 19 19 8 8 10 25 17
split_gain=4031.57 828.493 523.599 236.428 235.535 223.973 165.5 102.272 81.129 70.7722 67.029 62.4607 58.5303 40.2723 37.2736 32.345 37.0215 31.541 30.1768 29.1796 29.0461 27.3841 25.1323 24.8653 23.3274 22.5139 21.9504 20.6204 22.6834 19.9247
threshold=11.000000000000002 1.5000000000000002 4.5000000000000009 0.83500000000000052 -0.008333333333333302 -0.35166666666666607 0.18000000000000019 0.080000000000000057 3.5000000000000004 0.18500000000000003 0.52166666666666706 1.6983333333333339 0.14500000000000005 0.48833333333333379 13.500000000000002 3.5000000000000004 -0.75916666666666666 0.25500000000000006 1.6608333333333334 0.14500000000000005 1.5200000000000002 5.6150000000000011 0.23500000000000001 2.5000000000000004 13.500000000000002 0.13500000000000004 0.22500000000000003 55.250000000000007 2.13375 0.98166666666666702
decision_type=2 2 2 2 2 2 2 2 2 2 2 2 2 2 2 2 2 2 2 2 2 2 2 2 2 2 2 2 2 2
left_child=2 5 6 13 9 12 23 17 27 15 21 25 26 22 -5 16 -4 -7 -12 -15 -16 -10 24 -1 -3 29 -2 28 -6 -8
right_child=1 3 4 14 8 7 11 -9 10 -11 18 -13 -14 19 20 -17 -18 -19 -20 -21 -22 -23 -24 -25 -26 -27 -28 -29 -30 -31
leaf_value=-0.034550578226446159 0.014792592511617462 -0.0043258516644197912 -0.013214916847308248 0.015346366532679338 0.0080280959111877406 0.035138839437198706 -0.013932324262220458 0.050436464023018331 -0.0025711717758859103 -0.022079104671250138 0.0018954232826343166 0.016854271214281125 0.033933637107106701 0.0010520151063339884 0.024472938954629857 -0.015650107735523156 -0.00049732649481021621 0.0099746995732996249 0.024664314973049484 0.01858012464147106 0.041382016316952305 -0.017789944000297948 -0.017980483232889789 -0.027093807349660427 0.0056075703449030108 -0.020467628435991918 -0.0069072987075790822 -0.013175032123352718 0.023690716896817853 0.0047829124101552972
leaf_weight=845.04012495279312 197.13847699761391 365.73197437822819 383.82673095166683 273.85112878680229 178.75180938839912 313.69640873372555 175.02761793136597 971.09558139741421 189.88069905340672 683.13994812965393 499.35442133247852 55.219968155026436 154.99736174941063 141.98920513689518 343.55327612161636 590.7189376950264 447.87454967200756 56.573444798588753 56.90172903239727 221.20196917653084 139.91194532811642 250.14531369507313 62.723601400852203 970.04887916147709 500.74077372252941 380.24082618951797 50.820110037922859 21.722403913736343 166.20896707475185 69.405878767371178
leaf_count=4209 850 1640 1792 1180 795 1306 819 3953 870 3272 2246 242 648 628 1455 2770 2054 245 247 954 583 1152 285 4761 2227 1809 228 97 740 313
internal_value=-1.16039e-05 0.0241559 -0.0153926 0.011196 -0.0078398 0.0393458 -0.0258717 0.0452498 0.00186641 -0.0141257 -0.00256537 -0.0131531 0.0195291 0.00337089 0.024486 -0.0102698 -0.00640206 0.0314086 0.00433143 0.0118119 0.0295475 -0.011298 3.7198e-05 -0.0306079 0.00139717 -0.015875 0.0102654 0.0138969 0.015711 -0.00856165
internal_weight=9757.53 3794.03 5963.51 2049.7 3468.53 1744.32 2494.98 1341.37 1362.97 2105.56 996.282 679.894 402.956 1292.39 757.316 1422.42 831.701 370.27 556.256 363.191 483.465 440.026 929.196 1815.09 866.473 624.674 247.959 366.683 344.961 244.433
internal_count=44370 16182 28188 8952 16035 7230 12153 5504 6147 9888 4515 3183 1726 5734 3218 6616 3846 1551 2493 1582 2038 2022 4152 8970 3867 2941 1078 1632 1535 1132
is_linear=0
shrinkage=0.03


Tree=9
num_leaves=31
num_cat=0
split_feature=19 0 20 19 20 20 19 16 40 2 16 2 16 40 38 16 20 19 38 34 40 20 3 0 34 0 20 24 20 20
split_gain=3795.39 772.432 529.703 249.173 229.857 182.544 170.356 119.022 106.805 106.009 100.122 83.3627 48.975 47.7425 45.3545 40.5834 37.0745 36.8881 35.9482 28.0685 27.693 25.4401 24.6681 23.5768 22.7982 21.0788 20.0916 19.148 19.1411 18.6321
threshold=11.000000000000002 1.5000000000000002 3.5000000000000004 4.5000000000000009 3.5000000000000004 3.5000000000000004 7.0000000000000009 2.5000000000000004 1.0833333333333337 5.3650000000000011 2.5000000000000004 5.1950000000000012 3.5000000000000004 0.33333333333333343 2.4166666666666674 3.5000000000000004 1.5000000000000002 13.500000000000002 3.4166666666666674 -0.064999999999999988 1.2500000000000002 1.5000000000000002 20.525000000000002 3.5000000000000004 0.040000000000000029 3.5000000000000004 1.5000000000000002 5.3304336726251549 5.5000000000000009 2.5000000000000004
decision_type=2 2 2 2 2 2 2 2 2 2 2 2 2 2 2 2 2 2 2 2 2 2 2 2 2 2 2 2 2 2
left_child=2 4 3 10 11 8 12 14 18 24 20 21 -4 -7 -5 25 27 -15 26 -11 -1 -2 -12 -18 -6 -8 -3 -9 -19 -10
right_child=1 5 6 7 9 13 15 16 29 19 22 -13 -14 17 -16 -17 23 28 -20 -21 -22 -23 -24 -25 -26 -27 -28 -29 -30 -31
leaf_value=-0.007663510007668909 0.041910463298379212 0.024362272864110558 -0.022374333464357878 0.023118626049673203 -4.8711310269714585e-05 -0.010436937481933207 0.0012782584234592549 -0.0056385880823931643 0.035394510841206185 0.016466580961437782 -0.029518159940327263 0.051418403792678855 -0.032911410984451495 -0.0055740360055276349 0.0049816704306458555 -0.018882824253052717 -0.0032283778347776001 0.015094918039359344 0.0027350800587341074 0.037753903831451233 0.013452777185519208 0.024103276891746284 -0.018479105532664845 -0.012701419493846657 0.017682935130125539 -0.012696765271413432 0.012245556305043717 0.0076596274524600751 -0.0014280737572231153 0.019898542321593271
leaf_weight=204.89906930923462 153.82912731170654 185.80374793708324 625.56682588160038 214.88789561390877 136.39457309246063 276.8528957515955 173.99480123817921 145.08866161108017 274.47839887440205 77.724288433790207 315.91430525481701 799.16000905632973 1273.1102145910263 187.95712646842003 299.84393553435802 620.91798166930676 540.79994210600853 248.4953021556139 266.00956280529499 295.33539137244225 74.371801719069481 171.17800459265709 510.94701987504959 428.78092409670353 120.2301003485918 212.00274227559566 419.66428004205227 283.10384427011013 81.769673392176628 113.88268454372883
leaf_count=951 633 797 3020 935 602 1259 790 665 1146 329 1576 3228 6406 842 1328 2975 2487 1076 1171 1208 328 719 2485 1990 511 978 1825 1274 359 477
internal_value=-1.29612e-05 0.0233427 -0.0150339 -0.00621983 0.0379602 0.0108347 -0.0241752 0.000330823 0.0179291 0.0232838 -0.0175396 0.0461116 -0.0294748 -0.000404757 0.0126426 -0.0141287 -0.00420388 0.00494548 0.0120231 0.0334703 -0.00193109 0.0327822 -0.0227759 -0.00745063 0.00827317 -0.00638451 0.0160565 0.00311353 0.0109749 0.0310141
internal_weight=9733 3808.77 5924.23 3018.64 1753.85 2054.91 2905.59 1912.51 1259.84 629.684 1106.13 1124.17 1898.68 795.075 514.732 1006.92 1397.77 518.222 871.478 373.06 279.271 325.007 826.861 969.581 256.625 385.998 605.468 428.193 330.265 388.361
internal_count=44370 16182 28188 14019 7230 8952 14169 8679 5416 2650 5340 4580 9426 3536 2263 4743 6416 2277 3793 1537 1279 1352 4061 4477 1113 1768 2622 1939 1435 1623
is_linear=0
shrinkage=0.03


Tree=10
num_leaves=31
num_cat=0
split_feature=0 17 0 0 20 20 20 2 20 17 17 17 20 17 17 0 20 17 17 27 20 27 0 17 17 33 20 0 34 17
split_gain=3245.3 1148.32 485.496 392.677 235.709 220.115 142.956 123.578 106.915 85.1272 67.4565 62.3955 56.521 55.0894 49.0087 45.6445 41.6245 38.467 37.1037 33.8706 23.9243 23.6914 22.8189 21.5649 17.6706 16.4149 15.4279 14.5461 14.4337 13.2564
threshold=1.5000000000000002 0.23333333333333298 4.5000000000000009 4.5000000000000009 4.5000000000000009 3.5000000000000004 3.5000000000000004 5.1950000000000012 3.5000000000000004 1.2941666666666667 -0.56000000000000016 -0.50666666666666627 3.5000000000000004 0.98166666666666702 -0.58166666666666644 3.5000000000000004 1.5000000000000002 0.48833333333333379 1.7408333333333335 -0.30999999999999994 1.5000000000000002 -0.15999999999999995 3.5000000000000004 -0.28333333333333272 1.6608333333333334 1.5915000000000001 1.5000000000000002 5.5000000000000009 0.055000000000000014 -0.77166666666666595
decision_type=2 2 2 2 2 2 2 2 2 2 2 2 2 2 2 2 2 2 2 2 2 2 2 2 2 2 2 2 2 2
left_child=4 2 5 6 7 11 9 16 13 17 -6 25 23 27 -7 21 -1 -3 -10 -12 -13 -8 -16 -4 -15 -2 -9 -5 -21 -18
right_child=1 3 12 8 10 14 15 26 18 -11 19 20 -14 24 22 -17 29 -19 -20 28 -22 -23 -24 -25 -26 -27 -28 -29 -30 -31
leaf_value=0.04041713359169237 -0.014510775033044784 0.0068075498485685127 -0.026490773376371731 -0.0021966402274249657 -0.0046075767821138116 -0.024456728789392024 -0.0061471665418513684 0.053442924507900461 -0.020721800370073592 0.034781436390516798 -7.6121657957319053e-06 0.010691261643139707 -0.033583456472484279 0.0053935632642770686 -0.0092485938592248278 -0.0077521862730763119 0.010197679424010064 0.019883967835588458 0.013703219729655136 0.019266291067073119 0 0.011428066733545322 -0.021162070782272151 -0.015934622460564707 0.022857316046355779 -0.0049248559020033094 0.044254281385791482 -0.014837353436286973 0.034036713411521584 0.025373391733560149
leaf_weight=160.01510076224804 263.85282270610332 298.53511233627796 560.87566764652729 198.31350722908974 100.72564955055714 647.00718304514885 80.44065822660923 415.44869267940521 463.50107978284359 280.7040124386549 46.804194241762161 275.71912306547165 1090.2405521422625 174.58710320293903 495.49652414023876 225.01203034818172 86.718751013278961 675.742755189538 28.123933985829353 131.62242494523525 591.85485024750233 409.14248006045818 212.23185206949711 284.41033773124218 75.732513278722763 434.16848596930504 545.44319412112236 142.84131480753422 145.11271265149117 165.44295635819435
leaf_count=656 1241 1312 2805 901 450 3177 356 1668 2230 1163 205 1221 5583 776 2300 1026 372 2883 125 553 2679 1789 1030 1369 325 2007 2204 676 594 694
internal_value=-1.38596e-05 -0.0082871 -0.017349 0.00612464 0.03635 -0.00960813 0.0141014 0.0423963 -0.00836616 0.0201952 0.0166398 -0.00193022 -0.0289989 0.000210813 -0.0184541 0.00335189 0.0283249 0.0159147 -0.0186746 0.0232883 0.00342695 0.0084966 -0.0128919 -0.0230027 0.0108759 -0.00860088 0.0483454 -0.00758864 0.027254 0.0203348
internal_weight=9705.87 7908.53 4855.86 3052.68 1797.33 2920.33 1969.58 1373.07 1083.1 1254.98 424.265 1565.6 1935.53 591.474 1354.74 714.595 412.177 974.278 491.625 323.539 867.574 489.583 707.728 845.286 250.32 698.021 960.892 341.155 276.735 252.162
internal_count=44370 36974 23412 13562 7396 13655 8529 5594 5033 5358 1802 7148 9757 2678 6507 3171 1722 4195 2355 1352 3900 2145 3330 4174 1101 3248 3872 1577 1147 1066
is_linear=0
shrinkage=0.03


Tree=11
num_leaves=31
num_cat=0
split_feature=0 17 0 0 17 27 17 17 34 27 17 27 17 27 34 27 0 34 0 27 3 6 0 17 5 17 17 21 17 27
split_gain=3049.17 1090.25 469.265 368.645 210.062 138.565 115 94.7285 84.8811 83.9154 73.5322 60.7485 55.9987 42.1011 34.9438 28.6957 27.4704 22.7483 22.2577 20.5224 18.4329 16.6094 16.5167 15.9584 15.3992 14.6803 14.5549 14.431 12.8899 11.916
threshold=1.5000000000000002 0.23333333333333298 4.5000000000000009 4.5000000000000009 -0.35166666666666607 0.23000000000000007 1.2441666666666669 1.5883333333333336 0.080000000000000057 0.27500000000000008 -0.57083333333333319 -1.0000000180025095e-35 -0.24499999999999963 0.11500000000000003 0.17000000000000007 -0.30999999999999994 2.5000000000000004 0.14500000000000005 3.5000000000000004 0.050000000000000037 20.705000000000002 45.030000000000008 2.5000000000000004 0.98166666666666702 36.255000000000003 0.32749999999999974 0.80916666666666714 66.645000000000024 -0.92833333333333312 0.58000000000000018
decision_type=2 2 2 2 2 2 2 2 2 2 2 2 2 2 2 2 2 2 2 2 2 2 2 2 2 2 2 2 2 2
left_child=4 2 5 6 11 12 9 13 15 16 27 24 18 23 20 -6 -3 28 -2 -8 -4 -11 -14 -5 -1 -17 -10 -7 -13 -12
right_child=1 3 14 7 8 10 19 -9 26 21 29 17 22 -15 -16 25 -18 -19 -20 -21 -22 -23 -24 -25 -26 -27 -28 -29 -30 -31
leaf_value=-0.0097530200026026727 -0.01542058711898738 0.011883600769212464 -0.035146453312776701 -0.019001860382263178 0.008604631735522254 -0.016524332520712372 0.013718917931869863 0.015429795824112046 0.042151134759802998 0.016295042596306378 0.0024561638707070706 0.0042969151135025226 0.0010164219022337515 -0.0023479528457405613 -0.021276517486045452 0.023521129208143317 0.00037535454506478329 0.030861057162076957 -0.024381238173216923 0.030371505339533904 -0.02769356282929536 0.032894999080924879 -0.010506032739978431 -0.0082886709952558237 0.024515136088806341 0.037718174187670254 0.051101741382483877 -0.0062370080930945013 0.021186559822327779 0.013774180960288419
leaf_weight=79.852211430668831 677.1367923617363 263.86764973402023 609.97146254777908 448.09656427800655 58.999553248286247 220.49424029886723 92.642457947134972 132.20947623252869 617.60180658102036 565.09614430367947 670.35218308866024 70.34785108268261 159.75372196733952 310.58073174953461 485.43230327963829 135.62924867868423 636.93362195789814 159.45024329423904 433.93402022123337 353.833321377635 814.37027280032635 63.325226083397865 352.99364456534386 188.12877741456032 11.676581770181654 191.50059331953526 369.8764236420393 298.75134547054768 108.38844983279705 95.132487684488297
leaf_count=358 3257 1148 3185 2165 254 1040 395 577 2486 2418 3020 305 729 1415 2410 562 2827 656 2139 1471 4162 270 1649 876 51 781 1484 1401 459 420
internal_value=-1.48912e-05 -0.00807796 -0.0169651 0.00593707 0.0351489 -0.0093606 0.0136369 -0.00814668 0.0408845 0.0096877 -0.00198024 0.0166756 -0.0151809 -0.0114802 -0.0285168 0.0285744 0.00378189 0.0225234 -0.0189712 0.0270262 -0.0309406 0.0180906 -0.00689691 -0.0158934 -0.00479021 0.0320563 0.0456154 -0.0106809 0.0147432 0.00391451
internal_weight=9676.36 7873.04 4818.32 3054.71 1803.32 2908.55 1975.7 1079.02 1373.61 1529.22 1284.73 429.715 1623.82 946.806 1909.77 386.129 900.801 338.187 1111.07 446.476 1424.34 628.421 512.747 636.225 91.5288 327.13 987.478 519.246 178.736 765.485
internal_count=44370 36974 23412 13562 7396 13655 8529 5033 5567 6663 5881 1829 7774 4456 9757 1597 3975 1420 5396 1866 7347 2688 2378 3041 409 1343 3970 2441 764 3440
is_linear=0
shrinkage=0.03


Tree=12
num_leaves=31
num_cat=0
split_feature=19 0 20 17 20 17 19 0 2 0 17 17 20 20 17 17 17 19 17 19 27 8 38 27 8 20 19 0 38 20
split_gain=3183 631.821 481.605 225.107 197.191 189.552 157.887 142.862 88.2366 82.8308 79.2262 79.1501 71.4868 58.8671 52.7393 41.5595 30.5702 30.2664 24.9875 23.9866 23.2378 23.1126 21.9614 21.6567 19.2795 18.8245 18.2146 16.7251 16.5606 16.1712
threshold=11.000000000000002 1.5000000000000002 3.5000000000000004 -0.15249999999999983 3.5000000000000004 0.83500000000000052 7.0000000000000009 4.5000000000000009 5.3650000000000011 4.5000000000000009 -0.52999999999999947 0.98166666666666702 4.5000000000000009 2.5000000000000004 -0.23333333333333381 -0.40833333333333272 0.48833333333333379 13.500000000000002 1.6983333333333339 13.500000000000002 0.4900000000000001 0.26500000000000007 2.7500000000000004 0.53000000000000014 0.18500000000000003 1.5000000000000002 4.5000000000000009 5.5000000000000009 3.4166666666666674 1.5000000000000002
decision_type=2 2 2 2 2 2 2 2 2 2 2 2 2 2 2 2 2 2 2 2 2 2 2 2 2 2 2 2 2 2
left_child=2 4 3 7 10 12 14 23 24 16 -2 27 17 -7 -4 -8 20 25 26 -15 -5 -10 -17 -1 -6 -3 -16 -11 -19 -12
right_child=1 5 6 9 8 13 15 -9 21 11 29 -13 -14 19 18 22 -18 28 -20 -21 -22 -23 -24 -25 -26 -27 -28 -29 -30 -31
leaf_value=-0.0077087909640563817 0.022813524330922041 0.011565696134100842 -0.032407382521763423 0.0033239303067949637 0.01572715622048268 0.03037307838799071 -0.019936876727483507 -0.024725692189537397 0.031999443839161465 -0.0052131137870211697 0.049651826181903787 0.010470951700381658 -0.0092189631017669544 0.0035120139877250029 -0.02604960958631284 -0.0034536300392382672 0.019834724043604885 0.015776053737360088 0.0080478981976559311 0.018985824257077656 0.0261660137931072 0.0015640481471613104 -0.016692150481878051 0.0067480150086881322 -0.00050533686284508033 -0.0028140243844133024 -0.015222259482160756 -0.015943467557927155 0.0049077863610477368 0.04053411186561532
leaf_weight=840.60034210979939 176.94072963297367 108.35316522419453 1089.6367475837469 354.17251980304718 121.69849807024002 367.13647316396236 450.58528359234333 615.48624004423618 352.43007922172546 319.51778380572796 486.06189408898354 251.1072036921978 326.85918352007866 143.29157274961472 495.19381476938725 378.18040788173676 229.46041205525398 334.02061757445335 22.816584751009941 259.33487328886986 43.775330796837807 25.311933547258377 162.24557399749756 102.20813299715519 136.88232304155827 314.33581478893757 222.08030261099339 230.48178666830063 213.73153081536293 472.39096640050411
leaf_count=3939 732 468 5727 1587 511 1515 2223 3145 1428 1487 1947 1101 1484 619 2513 1746 986 1441 101 1084 190 109 774 465 602 1398 1085 1119 943 1901
internal_value=-1.50999e-05 0.0211733 -0.0140256 -0.00561756 0.0343144 0.0098803 -0.0229131 -0.0134975 0.0207959 0.00297459 0.0418276 -0.00340229 0.00285864 0.0216566 -0.0281456 -0.0132 0.0111257 0.00695258 -0.0217803 0.0135605 0.00599241 0.0300185 -0.00750262 -0.00611471 0.00713883 0.000873897 -0.0227698 -0.0097784 0.0115959 0.0452674
internal_weight=9646.33 3838.78 5807.55 2986.81 1771.72 2067.06 2820.74 1558.29 636.323 1428.52 1135.39 801.107 1297.3 769.763 1829.73 991.011 627.408 970.441 740.091 402.626 397.948 377.742 540.426 942.808 258.581 422.689 717.274 550 547.752 958.453
internal_count=44370 16182 28188 14019 7230 8952 14169 7549 2650 6470 4580 3707 5734 3218 9426 4743 2763 4250 3699 1703 1777 1537 2520 4404 1113 1866 3598 2606 2384 3848
is_linear=0
shrinkage=0.03


Tree=13
num_leaves=31
num_cat=0
split_feature=19 0 20 17 20 17 19 0 2 38 20 20 17 17 20 17 20 19 19 17 0 17 20 38 36 19 17 24 40 19
split_gain=3001.14 593.556 462.418 213.41 185.838 177.45 153.586 137.402 101.399 79.3036 66.8302 58.0299 51.9283 51.8813 44.0993 39.8327 34.8499 27.4424 26.4413 24.6529 27.3361 23.9448 21.3934 20.9126 19.5223 18.4724 20.2173 18.4156 17.958 17.6996
threshold=11.000000000000002 1.5000000000000002 3.5000000000000004 -0.15249999999999983 4.5000000000000009 0.74750000000000016 7.0000000000000009 4.5000000000000009 5.1950000000000012 2.5833333333333335 3.5000000000000004 4.5000000000000009 -0.23333333333333381 -0.56000000000000016 1.5000000000000002 -0.40833333333333272 1.5000000000000002 13.500000000000002 5.5000000000000009 1.2941666666666667 5.5000000000000009 1.6983333333333339 2.5000000000000004 2.7500000000000004 6.8022750000000007 13.500000000000002 1.2941666666666667 5.0672158329021242 0.33333333333333343 4.5000000000000009
decision_type=2 2 2 2 2 2 2 2 2 2 2 2 2 2 2 2 2 2 2 2 2 2 2 2 2 2 2 2 2 2
left_child=2 4 3 7 8 11 12 22 16 14 25 17 -4 -6 24 -8 -2 -3 -16 20 -11 29 27 -17 -5 -7 -27 -1 -19 -14
right_child=1 5 6 9 13 10 15 -9 -10 19 -12 -13 21 -15 18 23 -18 28 -20 -21 -22 -23 -24 -25 -26 26 -28 -29 -30 -31
leaf_value=-0.0083682049890347783 0.036780753083320482 5.8707105578479736e-06 -0.031951350658234436 0.022524355885984629 -0.0041034971639618729 0.018328403653561649 -0.019513117915225517 -0.024269996829067674 0.043949243251159127 -0.0027784414783313732 0.0079864756246706744 -0.0090962006610423134 -0.025581853636958366 0.021155108560184429 -0.0067039470573161172 -0.0033548204047234059 0.018167509761552559 0.0046286299828016087 0.0081886287757236033 0.011168794011055269 -0.017292414861921825 0.0078078233465482027 -0.011956237189240911 -0.016307266705064771 0.0042164624686798777 0.022876125587143765 0.038020306660415309 0.0021465718067684388 0.016063115653815952 -0.014866489557164303
leaf_weight=266.26673482358456 156.63609305024147 395.84833334386349 1072.3246791958809 227.48065592348576 92.55333523452282 212.1086783260107 446.66282345354557 608.37741760909557 958.95197954773903 389.24971386790276 286.98052977025509 306.12225866317749 489.24806082248688 322.32880689203739 151.80278342962265 377.70561285316944 244.42136938869953 246.60823094844818 348.79920670390129 71.965289518237114 167.58486700057983 22.873221576213837 339.41779008507729 161.15653811395168 72.089901074767113 194.21413499116898 168.112584233284 334.88628496229649 260.70522028207779 220.64296589791775
leaf_count=1254 633 1751 5727 1008 409 884 2223 3145 3842 1766 1227 1398 2513 1330 718 1746 1016 1087 1535 312 811 101 1603 774 320 804 681 1547 1120 1085
internal_value=-1.5588e-05 0.0205055 -0.0137009 -0.00546605 0.033231 0.00956903 -0.0224729 -0.0131743 0.0386009 0.00288565 0.0199597 0.00213424 -0.027682 0.0154917 0.00914738 -0.01288 0.0256207 0.00596901 0.00363405 -0.00506261 -0.00721966 -0.0213439 -0.00594526 -0.0073022 0.0182256 0.0258669 0.030114 -0.00249814 0.0105742 -0.0223236
internal_weight=9614.13 3845.59 5768.53 2977.92 1774.89 2070.7 2790.61 1548.95 1360.01 1428.97 861.416 1209.28 1805.09 414.882 800.173 985.525 401.057 903.162 500.602 628.8 556.835 732.764 940.571 538.862 299.571 574.435 362.327 601.153 507.313 709.891
internal_count=44370 16182 28188 14019 7230 8952 14169 7549 5491 6470 3596 5356 9426 1739 3581 4743 1649 3958 2253 2889 2577 3699 4404 2520 1328 2369 1485 2801 2207 3598
is_linear=0
shrinkage=0.03


Tree=14
num_leaves=31
num_cat=0
split_feature=19 0 20 17 20 17 19 0 20 2 38 17 19 17 20 17 20 19 17 40 34 17 20 20 8 19 19 19 20 15
split_gain=2830.44 558.071 443.993 202.316 177.522 167.783 149.429 132.123 82.6926 78.6872 75.5995 73.2981 55.5411 51.1524 45.218 38.1741 35.3501 32.495 22.9459 22.4079 22.2468 21.64 20.6117 20.2974 17.8819 17.5096 17.2024 16.9773 15.6286 15.1921
threshold=11.000000000000002 1.5000000000000002 3.5000000000000004 -0.15249999999999983 3.5000000000000004 0.48833333333333379 7.0000000000000009 4.5000000000000009 2.5000000000000004 5.3650000000000011 2.7500000000000004 -0.52999999999999947 3.5000000000000004 -0.23333333333333381 4.5000000000000009 -0.40833333333333272 1.5000000000000002 13.500000000000002 1.6983333333333339 1.2500000000000002 -0.064999999999999988 1.1825000000000003 4.5000000000000009 2.5000000000000004 0.18500000000000003 13.500000000000002 4.5000000000000009 3.5000000000000004 1.5000000000000002 1.5000000000000002
decision_type=2 2 2 2 2 2 2 2 2 2 2 2 2 2 2 2 2 2 2 2 2 2 2 2 2 2 2 2 2 2
left_child=2 4 3 7 11 14 13 23 21 24 12 -2 -5 27 25 -8 -14 -10 26 -19 -11 -7 -17 -1 -6 -3 -15 -4 -13 -26
right_child=1 5 6 10 9 8 15 -9 17 20 -12 28 16 18 -16 22 -18 19 -20 -21 -22 -23 -24 -25 29 -27 -28 -29 -30 -31
leaf_value=-0.002425682129039505 0.021133511302565279 -0.0016368447212641182 -0.035875671704798412 -0.0096676925820950652 0.014779585155762243 0.020113168673493883 -0.01909777890446555 -0.023823098493888327 0.00037307899999552713 0.013150357355561493 -0.0088035594225345792 0.046919195925239174 0.017297426035512584 -0.025123538093118944 -0.01129692997291991 8.0105187017711335e-06 0.0050196769462556197 0.0087089975463549296 0.0075755855229269614 0.023586186860395663 0.031869209010109013 0.033062476497625622 -0.011894701722177749 -0.011654716422946826 0.023280228798437292 0.0079494479265785397 -0.014518165305569633 -0.027564128507915529 0.038043645738551408 -0.0049077795086061088
leaf_weight=600.55116219818592 178.30486206710339 302.07459539175034 491.02449820935726 153.33009511232376 122.3534838706255 299.32293425500393 442.78833091259003 601.34118850529194 227.4717538356781 79.199233457446098 371.15200209617615 485.76104170084 343.62008506059647 483.35433278977871 241.84722624719143 215.6802603751421 561.57261884212494 239.63840529322624 22.927661910653114 154.623924061656 300.45440924167633 222.42614433169365 321.64460827410221 337.8291030973196 18.012932822108269 386.47481629252434 219.22828774154186 564.09477898478508 473.69077125191689 119.22591455280781
leaf_count=2801 732 1346 2711 741 511 1248 2223 3145 990 329 1726 1947 1502 2513 1115 1001 2501 1019 101 639 1208 904 1519 1603 77 1691 1085 3016 1901 525
internal_value=-1.636e-05 0.0198667 -0.0133835 -0.00531909 0.0321998 0.00927104 -0.0220417 -0.0128594 0.0169578 0.0194085 0.0027978 0.0393267 0.00688868 -0.0272285 -0.000176199 -0.0125672 0.00972483 0.00948193 -0.0209163 0.0146711 0.028093 0.0257674 -0.00710687 -0.00578193 0.00653249 0.00372955 -0.0218862 -0.0315068 0.0426411 -0.000819056
internal_weight=9581.02 3850.88 5730.14 2969.4 1777 2073.88 2760.74 1539.72 1143.48 639.246 1429.67 1137.76 1058.52 1780.63 930.397 980.113 905.193 621.734 725.51 394.262 379.654 521.749 537.325 938.38 259.592 688.549 702.583 1055.12 959.452 137.239
internal_count=44370 16182 28188 14019 7230 8952 14169 7549 4800 2650 6470 4580 4744 9426 4152 4743 4003 2648 3699 1658 1537 2152 2520 4404 1113 3037 3598 5727 3848 602
is_linear=0
shrinkage=0.03


Tree=15
num_leaves=31
num_cat=0
split_feature=19 0 20 19 20 19 20 40 2 40 40 20 19 40 24 20 19 24 25 20 0 25 19 0 8 18 20 40 20 8
split_gain=2670.44 525.729 426.31 190.069 167.72 145.47 134.1 75.4662 73.8333 70.873 67.9598 54.9773 41.252 37.1978 31.2692 31.1636 29.3324 24.7896 20.9774 20.9137 20.4258 19.6218 17.6674 17.2363 16.7551 16.4296 16.3825 15.954 15.6961 15.2678
threshold=11.000000000000002 1.5000000000000002 3.5000000000000004 4.5000000000000009 3.5000000000000004 7.0000000000000009 3.5000000000000004 1.0833333333333337 5.3650000000000011 0.4166666666666668 -1.0000000180025095e-35 1.5000000000000002 2.5000000000000004 0.33333333333333343 5.3125083963669297 4.5000000000000009 13.500000000000002 5.3304336726251549 4.8457500000000016 5.5000000000000009 5.5000000000000009 9.3990000000000045 8.5000000000000018 2.5000000000000004 0.18500000000000003 5.9350000000000014 1.5000000000000002 -1.0000000180025095e-35 5.5000000000000009 0.26500000000000007
decision_type=2 2 2 2 2 2 2 2 2 2 2 2 2 2 2 2 2 2 2 2 2 2 2 2 2 2 2 2 2 2
left_child=2 4 3 9 10 12 7 21 24 14 26 17 -4 -8 -1 -7 -15 -5 -13 -10 -16 23 -17 -3 -6 -23 -2 -20 -18 -21
right_child=1 6 5 11 8 15 13 -9 19 -11 -12 18 -14 16 20 22 28 -19 27 29 -22 25 -24 -25 -26 -27 -28 -29 -30 -31
leaf_value=-0.025541714416431559 0.033645108344817078 0.013898427422277804 -0.034251846941773377 -0.0027415510946135211 0.014302749806640869 -0.0052586172549149669 -0.0096147065379876863 0.025839845492952044 0.031755798659534699 0.0014621318139251224 0.042983902280749539 -0.004780170019109361 -0.023767513555386043 -0.0054131317855925631 -0.0071019516018194393 -0.022399693832786761 0.013014519519239248 0.011121368741177364 -0.00047803903178353764 0.019893662730815592 -0.019494880894377398 0.0013172298271800498 -0.011776180358490339 0.0043958453210610872 -0.00078409146597569965 0.026037914592452992 0.019522113479856263 0.016634923257125359 -0.0018894215324321538 -0.01102001986307896
leaf_weight=374.67267912626266 159.60114824771881 280.47655807435513 498.2651139497757 150.42566710710526 122.70087751746178 367.13064557313919 273.56549380719662 397.6000742316246 271.22075399756432 184.11270214617252 801.37837606668472 1069.6761468499899 1258.1021353900433 187.42878174781799 230.60822953283787 261.66895911097527 252.14441031217575 474.8985038548708 135.82465760409832 94.168070435523987 267.58782935142517 33.10924631357193 345.99976544082165 464.00266525149345 137.16628003120422 106.40889686346054 176.58070129156113 73.243067726492882 81.97607147693634 14.921374201774595
leaf_count=1991 642 1192 2791 694 511 1762 1259 1623 1092 845 3217 4927 6635 842 1147 1289 1076 2097 631 381 1357 142 1692 2004 602 455 721 330 359 64
internal_value=-1.68661e-05 0.0192577 -0.0130733 -0.00517623 0.0312283 -0.0216195 0.008983 0.0149806 0.018807 -0.015365 0.0381601 0.000482073 -0.0267859 -0.000678677 -0.0189267 -0.0122598 0.00399867 0.00776454 -0.00307401 0.0272109 -0.0138397 0.0100321 -0.0164339 0.00802361 0.00633698 0.0203789 0.0264306 0.00554693 0.00932374 0.015408
internal_weight=9546.67 3854.45 5692.22 2961.05 1777.74 2731.17 2076.71 1281.6 640.177 1056.98 1137.56 1904.07 1756.37 795.115 872.869 974.799 521.549 625.324 1278.74 380.31 498.196 883.997 607.669 744.479 259.867 139.518 336.182 209.068 334.12 109.089
internal_count=44370 16182 28188 14019 7230 14169 8952 5416 2650 5340 4580 8679 9426 3536 4495 4743 2277 2791 5888 1537 2504 3793 2981 3196 1113 597 1363 961 1435 445
is_linear=0
shrinkage=0.03


Tree=16
num_leaves=31
num_cat=0
split_feature=19 19 20 17 20 19 19 20 1 17 19 17 17 19 20 17 17 1 17 17 20 17 5 20 2 17 19 39 19 19
split_gain=2519.51 451.348 409.212 189.731 171.099 146.041 141.56 110.722 71.5287 63.674 55.737 51.1441 36.8072 28.9865 26.7294 26.3944 24.2268 23.8108 32.7869 22.1876 20.3466 20.0465 19.9456 18.6235 17.7236 19.7134 17.3649 44.3885 16.9254 16.869
threshold=11.000000000000002 17.000000000000004 3.5000000000000004 0.38000000000000039 3.5000000000000004 4.5000000000000009 7.0000000000000009 2.5000000000000004 2.5000000000000004 0.68583333333333318 22.000000000000004 -0.23333333333333381 -0.40833333333333272 4.5000000000000009 1.5000000000000002 -0.52999999999999947 1.365 2.5000000000000004 0.35083333333333316 1.6983333333333339 5.5000000000000009 -0.28333333333333272 22.210000000000004 4.5000000000000009 5.6650000000000009 1.2441666666666669 22.000000000000004 1.0000000180025095e-35 4.5000000000000009 3.5000000000000004
decision_type=2 2 2 2 2 2 2 2 2 2 2 2 2 2 2 2 2 2 2 2 2 2 2 2 2 2 2 2 2 2
left_child=2 4 3 5 8 21 11 26 15 -10 20 29 -8 16 -7 -2 -5 22 -19 28 -9 -1 -6 -14 -15 -26 27 -3 -13 -4
right_child=1 7 6 13 17 14 12 10 9 -11 -12 19 23 24 -16 -17 -18 18 -20 -21 -22 -23 -24 -25 25 -27 -28 -29 -30 -31
leaf_value=-0.023402409331377085 0.017849603416535294 0.0030649143736654759 -0.035131634941936531 -0.0059402095573322074 -0.002448224613700803 0.0024374184632013317 -0.018425408237537293 0.020066627903732554 0.0055918188107411306 0.020630534964321705 0.033979671286525383 -0.024212861459493945 0.0001642456645295262 0.021708858844393972 -0.0065486986141621009 0.034394702440510877 0.014214503758562258 -0.010907452965525434 0.0028253416217221446 0.0080579416924436865 0.0047096039426682982 -0.012808012159988147 0.014258202721185009 -0.01117854861319083 0.0041493173676658999 0.018965556563360731 0.045178786119545719 0.037814413890969227 -0.013616637384103786 -0.026738854641790145
leaf_weight=525.06518664956093 161.28039191663265 37.523042097687721 473.30642084777355 196.76142856478691 105.29987812042236 428.81774911284447 436.43879818916321 407.99376440048218 559.72437234222889 469.77437987923622 280.31242027878761 471.44314947724342 215.26204670965672 120.96302165091038 952.78949707746506 227.30946519970894 71.471443086862564 277.88476097583771 350.76548394560814 22.814207196235657 100.92759521305561 255.91116692125797 156.06559745967388 318.06132574379444 287.91721719503403 113.54038052260876 326.57228367030621 395.65796396136284 215.53847208619118 549.49893164634705
leaf_count=2817 659 162 2711 930 456 1944 2223 1684 2428 1929 1127 2513 1001 518 4471 913 309 1289 1532 101 427 1284 659 1519 1265 481 1315 1602 1085 3016
internal_value=-1.74435e-05 0.018671 -0.0127676 -0.0050362 0.01024 -0.00963486 -0.0212013 0.0311948 0.0167036 0.0124954 0.0231724 -0.0263463 -0.0119582 0.00751565 -0.00374929 0.0276928 -0.000448963 -5.61758e-05 -0.00323658 -0.0199855 0.0170808 -0.0199916 0.00750302 -0.0065888 0.0116197 0.00845007 0.0394259 0.0348667 -0.0209593 -0.0306983
internal_weight=9512.69 3857.09 5655.6 2953.24 2308.1 2162.58 2702.36 1548.99 1418.09 1029.5 789.234 1732.6 969.762 790.653 1381.61 388.59 268.233 890.016 628.65 709.796 508.921 780.976 261.365 533.323 522.421 401.458 759.753 433.181 686.982 1022.81
internal_count=44370 16182 28188 14019 9865 10516 14169 6317 5929 4357 3238 9426 4743 3503 6415 1572 1239 3936 2821 3699 2111 4101 1115 2520 2264 1746 3079 1764 3598 5727
is_linear=0
shrinkage=0.03


Tree=17
num_leaves=31
num_cat=0
split_feature=19 19 20 19 20 19 20 16 16 38 19 38 16 38 16 8 20 38 38 20 20 38 19 4 20 40 1 19 20 18
split_gain=2377.58 425.594 392.921 171.791 161.24 137.828 105.472 82.1844 73.8386 65.8649 52.7211 46.9976 44.9819 36.28 31.4861 28.317 27.8059 27.7506 26.6038 24.3722 23.1812 22.871 51.4666 21.5295 21.0596 20.0015 18.1322 17.3582 17.1298 16.6159
threshold=11.000000000000002 17.000000000000004 3.5000000000000004 4.5000000000000009 2.5000000000000004 7.0000000000000009 2.5000000000000004 2.5000000000000004 2.5000000000000004 3.0833333333333335 22.000000000000004 2.7500000000000004 3.5000000000000004 2.4166666666666674 3.5000000000000004 0.14500000000000005 1.5000000000000002 3.0833333333333335 2.7500000000000004 1.5000000000000002 4.5000000000000009 3.4166666666666674 22.000000000000004 4.0050000000000008 5.5000000000000009 1.2500000000000002 2.5000000000000004 2.5000000000000004 4.5000000000000009 5.7025000000000015
decision_type=2 2 2 2 2 2 2 2 2 2 2 2 2 2 2 2 2 2 2 2 2 2 2 2 2 2 2 2 2 2
left_child=2 4 3 8 9 12 21 13 25 16 18 15 -4 -5 26 -6 -2 19 -8 -9 -13 -3 -23 -10 -17 -1 -7 -14 -16 -11
right_child=1 6 5 7 11 14 10 17 23 29 -12 20 27 -15 28 24 -18 -19 -20 -21 -22 22 -24 -25 -26 -27 -28 -29 -30 -31
leaf_value=-0.0063090435180816421 0.028203670469272756 0.041098122974839869 -0.018924418444416658 0.019801582863928593 0.016307147730081014 0.0022998623950161554 0.022570349539991298 0.0043342642734075726 -0.026359356983332308 -0.00084027895343957661 0.032968022652703433 0.0012725411820163374 -0.034717050137048844 0.003728258088301939 -0.0088129596180997125 0.0073545395930498343 0.016561837461651324 -0.015882982213241709 0.0085103354929007419 -0.0047350064671186839 -0.011254573841212381 0.0059911749679740292 0.041383894534936974 -0.015531695181905456 -0.0063577584143782876 0.011592691325799072 -0.010790985166523832 -0.026370304673807982 -0.019833048783111477 0.019359219190383799
leaf_weight=200.64008255302906 428.49348124861717 603.01594610512257 579.38964031636715 219.95973210036755 240.98160767555237 171.82462948560715 288.01481358706951 383.8157904446125 273.03170555830002 158.94607557356358 280.30763332545757 334.16960816085339 408.26821801066399 302.99618093669415 207.03530834615231 390.60739368200302 362.7576532959938 141.43501269817352 221.96675622463226 855.28179205954075 216.47616708278656 64.530983120203018 90.913576126098633 492.18382339179516 132.80060817301273 75.495590046048164 205.81706322729588 721.16961085796356 379.93686074018478 45.114210456609726
leaf_count=951 1748 2437 3020 935 1010 790 1169 1732 1485 686 1127 1470 2393 1328 1034 1670 1505 675 942 4009 996 275 367 2576 586 328 978 4013 1941 194
internal_value=-1.74466e-05 0.0181059 -0.0124707 -0.00489955 0.00992546 -0.0207951 0.0302709 0.000455041 -0.0146837 0.0190256 0.0224525 0.00300803 -0.0259208 0.0105671 -0.0116644 0.00781946 0.0229405 -0.00337437 0.0165373 -0.00191122 -0.00364803 0.0383172 0.027049 -0.0194732 0.00383591 -0.00131261 -0.00481448 -0.0294568 -0.0160147 0.00369724
internal_weight=9477.38 3859.1 5618.28 2944.84 2310.35 2673.44 1548.75 1903.49 1041.35 995.311 790.289 1315.04 1708.83 522.956 964.614 764.39 791.251 1380.53 509.982 1239.1 550.646 758.461 155.445 765.216 523.408 276.136 377.642 1129.44 586.972 204.06
internal_count=44370 16182 28188 14019 9865 14169 6317 8679 5340 4133 3238 5732 9426 2263 4743 3266 3253 6416 2111 5741 2466 3079 642 4061 2256 1279 1768 6406 2975 880
is_linear=0
shrinkage=0.03


Tree=18
num_leaves=31
num_cat=0
split_feature=19 19 19 17 17 38 27 19 38 27 27 17 27 38 27 27 38 27 16 17 27 27 30 27 3 37 16 25 38 38
split_gain=2243.93 402.047 369.43 156.769 132.268 112.622 83.7222 80.4948 79.7991 68.5938 67.9014 42.9971 38.8225 37.4105 37.2641 29.4812 31.7354 26.4563 24.6719 23.8464 22.0849 21.3744 20.0309 19.4232 18.3536 17.3127 17.2543 15.2121 15.1309 14.656
threshold=11.000000000000002 17.000000000000004 4.5000000000000009 0.029999999999999808 0.18000000000000019 2.7500000000000004 0.32500000000000012 22.000000000000004 3.4166666666666674 0.24500000000000011 0.12000000000000008 1.6983333333333339 0.21500000000000005 2.9166666666666674 0.53000000000000014 0.12000000000000008 3.4166666666666674 0.46500000000000014 1.5000000000000002 -0.62833333333333352 0.050000000000000037 0.11500000000000003 1.5000000000000002 -0.18999999999999992 20.525000000000002 0.31500000000000006 1.5000000000000002 3.2869999999999995 2.5833333333333335 2.4166666666666674
decision_type=2 2 2 2 2 2 2 2 2 2 2 2 2 2 2 2 2 2 2 2 2 2 2 2 2 2 2 2 2 2
left_child=2 5 4 6 12 10 20 8 14 13 25 21 24 18 23 -7 -17 -12 -5 -8 -4 22 -6 -3 -1 26 -2 28 -11 -22
right_child=1 7 3 9 11 15 19 -9 -10 27 17 -13 -14 -15 -16 16 -18 -19 -20 -21 29 -23 -24 -25 -26 -27 -28 -29 -30 -31
leaf_value=-0.031873009498601765 0.016377610593450193 0.0064024869710544241 -0.018886969961946606 0.0091391732952029146 -0.0030590575994935013 -0.0065787628532542365 -0.0065262104002830092 0.038034765595598069 0.0038359700623342755 0.013789173036688154 0.016022585827517213 0.014499711505922858 -0.010656583149036562 -0.015039179798540645 0.038344896860471163 0.010082792889675569 -0.0035180604576896522 0.027106319544533887 -0.0026164893847113744 0.0065965620376644881 -0.0053877393275870416 -0.0010024701685171812 -0.018577135751429222 0.025237001620464331 -0.02458761819902465 -0.0191332220823568 0.0030962215174567911 0.022018035378861454 -0.0024252077959696387 -0.013843710905326805
leaf_weight=617.73192468285561 123.27574594318867 58.73059718310833 620.84839482605457 223.32394482195377 97.94608511030674 278.25335113704205 259.89563618600368 603.93908999860287 153.78581914305687 162.09291273355484 614.26752628386021 56.2296392172575 137.36784194409847 161.04335400462151 219.43891420960426 412.95852136611938 242.52573411166668 305.1482864767313 556.13080650568008 235.61055643856525 269.06688173115253 119.32507306337357 368.77066692709923 511.6329340338707 833.55596846342087 22.031390652060509 314.44479383528233 122.79986892640591 72.802687734365463 667.14615333080292
leaf_count=3586 516 245 3222 992 495 1256 1239 2442 667 697 2550 242 730 769 888 1763 1075 1242 2577 1070 1308 564 1882 2075 4654 98 1365 531 323 3307
internal_value=-1.78108e-05 0.017561 -0.0121804 -0.00587079 -0.0216367 0.00961876 -0.0110288 0.029394 0.0237789 0.00227738 0.0150609 -0.010067 -0.0262862 -0.00196617 0.0276236 0.00154954 0.00503234 0.0197683 0.000747236 -0.000254817 -0.0144431 -0.012491 -0.0153794 0.023353 -0.0277385 0.00556945 0.00692827 0.0134256 0.00872238 -0.0114461
internal_weight=9442.12 3860.43 5581.69 3350.76 2230.93 2312.91 2052.57 1547.53 943.588 1298.19 1379.17 642.271 1588.66 940.498 789.802 933.738 655.484 919.416 779.455 495.506 1557.06 586.042 466.717 570.364 1451.29 459.752 437.721 357.695 234.896 936.213
internal_count=44370 16182 28188 16035 12153 9865 10146 6317 3875 5889 5771 3183 8970 4338 3208 4094 2838 3792 3569 2309 7837 2941 2377 2320 8240 1979 1881 1551 1020 4615
is_linear=0
shrinkage=0.03


Tree=19
num_leaves=31
num_cat=0
split_feature=27 17 17 27 25 27 22 20 20 8 17 17 17 27 25 25 17 34 17 27 8 20 17 22 20 35 11 22 17 22
split_gain=1353.48 621.776 355.556 150.199 128.38 116.923 104.228 91.0367 82.1308 58.2788 57.3106 49.8284 39.1034 36.1156 34.2925 33.2318 32.2888 28.5186 25.2056 24.3368 23.0995 21.6685 20.7997 22.2683 20.3818 19.9602 19.9107 19.8646 18.1453 17.7635
threshold=0.23000000000000007 0.24333333333333365 0.040000000000000487 0.46500000000000014 2.3110000000000008 0.53000000000000014 4.5000000000000009 4.5000000000000009 3.5000000000000004 0.12500000000000003 -0.58166666666666644 0.78333333333333377 -0.28333333333333272 0.35500000000000009 5.9992500000000009 3.3355000000000019 1.365 0.11500000000000003 1.2441666666666669 0.31000000000000011 0.15500000000000003 4.5000000000000009 0.64833333333333398 5.5000000000000009 3.5000000000000004 8.5000000000000018 1.5000000000000002 3.5000000000000004 0.66083333333333327 4.5000000000000009
decision_type=2 2 2 2 2 2 2 2 2 2 2 2 2 2 2 2 2 2 2 2 2 2 2 2 2 2 2 2 2 2
left_child=1 4 5 9 7 10 11 12 16 18 -2 26 27 20 24 28 25 -14 19 -4 -11 -16 23 -5 -6 -8 -3 -1 -10 -9
right_child=2 6 3 22 14 -7 8 29 15 13 -12 -13 17 -15 21 -17 -18 -19 -20 -21 -22 -23 -24 -25 -26 -27 -28 -29 -30 -31
leaf_value=-0.010003706422977248 -0.0079943754217938322 0.0002547005455633559 -0.00094359475561719031 0.031008701269021142 -0.0054750786727800838 0.017624670658628959 -0.0028887309395882158 -0.020885865759226796 -0.019387564476914233 0.015141755901308701 0.0050783578854626636 0.019423800233057113 -0.0020692636975174058 0.036360951387645807 0.0069038079215413975 0.0016195620214018325 0.01690331387819477 -0.016763551531392806 0.021466267432025957 0.011921066088015478 0.034865218455999131 -0.0083547158761849132 0.037730155609011502 0.01193904337829332 -0.015947300482828532 0.0084157165056894419 0.015581866204069587 -0.021548936628354224 -0.0077688816282048129 -0.030019285918913043
leaf_weight=177.2414365708828 565.68988262116909 292.45964828133583 195.70467109978199 284.42815256118774 284.35206046700478 400.36529107391834 323.71836218237877 307.80147829651833 220.96081891655922 332.76093874871731 641.66442687809467 399.06165854632854 269.54517710208893 147.45937277376652 177.62164400517941 193.73923969268799 168.22781230509281 215.47766117751598 150.52673643827438 392.1755099594593 66.174145922064781 154.86913591623306 415.24155394732952 76.081260904669762 435.38272376358509 244.07132440805435 102.23503483831882 732.22782669961452 289.1919716745615 750.86144904792309
leaf_count=901 2711 1306 871 1167 1369 1701 1475 1583 1125 1392 2891 1673 1319 597 816 887 706 1096 615 1664 267 739 1691 322 2261 1083 425 3998 1406 4313
internal_value=-1.83337e-05 -0.00911645 0.0142089 0.0224544 -0.0169961 0.00361677 0.00324682 -0.0207597 -0.00155733 0.0160956 -0.00103739 0.0119626 -0.0156589 0.0235419 -0.00818458 -0.00887939 0.00542991 -0.00867022 0.0105167 0.00762433 0.0186084 -0.000165995 0.0328982 0.0271137 -0.0118574 0.00195678 0.00432115 -0.0193423 -0.0128866 -0.0274223
internal_weight=9407.32 5739.05 3668.27 2060.55 3505.38 1607.72 2233.67 2453.16 1439.91 1284.8 1207.35 793.756 1394.49 546.394 1052.23 703.892 736.017 485.023 738.407 587.88 398.935 332.491 775.751 360.509 719.735 567.79 394.695 909.469 510.153 1058.66
internal_count=44370 28481 15889 8586 18395 7303 10086 13210 6682 5406 5602 3404 7314 2256 5185 3418 3264 2415 3150 2535 1659 1555 3180 1489 3630 2558 1731 4899 2531 5896
is_linear=0
shrinkage=0.03


Tree=20
num_leaves=31
num_cat=0
split_feature=19 0 19 17 17 17 17 38 8 8 17 8 8 0 19 19 17 19 16 17 40 38 17 8 8 36 8 8 18 8
split_gain=2030.22 427.779 346.264 142.372 126.965 126.439 124.206 63.0085 52.1388 43.5452 39.567 37.0893 30.7804 30.646 25.7188 24.5189 24.3712 24.3055 23.3531 22.5094 21.5874 20.4641 19.6726 18.4055 17.8465 17.4095 16.8437 15.7013 14.2946 13.5357
threshold=11.000000000000002 1.5000000000000002 4.5000000000000009 -0.18083333333333315 0.83500000000000052 -0.35166666666666607 0.18000000000000019 2.9166666666666674 0.18500000000000003 0.20500000000000004 1.6983333333333339 0.115 0.20500000000000004 3.5000000000000004 13.500000000000002 2.5000000000000004 -0.75916666666666666 13.500000000000002 1.5000000000000002 1.5200000000000002 0.33333333333333343 2.9166666666666674 0.5783333333333337 0.16500000000000004 0.25500000000000006 6.8046550000000012 0.12500000000000003 0.085000000000000006 8.5125000000000011 0.23500000000000001
decision_type=2 2 2 2 2 2 2 2 2 2 2 2 2 2 2 2 2 2 2 2 2 2 2 2 2 2 2 2 2 2
left_child=2 5 6 9 14 12 15 11 22 13 21 25 -2 16 26 -1 -4 -6 -13 -19 -16 23 -7 -8 -10 -5 -3 -17 -15 -22
right_child=1 4 3 7 17 8 10 -9 24 -11 -12 18 -14 28 20 27 -18 19 -20 -21 29 -23 -24 -25 -26 -27 -28 -29 -30 -31
leaf_value=-0.029821567760657027 0.017019776810159534 0.0028886758449962399 -0.010307563413749074 0.014350872761329878 0.0097529946791974163 0.030657561856813606 -0.0039340139922997329 -0.012524722850084049 0.024152289745015165 -0.020142878104166304 0.013739695672770919 0.0093204966919387903 -0.0029950165135493524 -0.016615792827129616 -0.00012567819007132513 -0.010231863918735269 5.9840617493785714e-05 0.016675270314854208 -0.0021891804607946934 0.031132278722608486 0.011553776590481927 -0.023197409194190229 0.039611738653075698 -0.016184276514132848 0.005112882957139347 -0.001054083317920786 -0.007747678727047058 -0.023439707893371409 -0.0015952199420969317 -0.0079820717130193574
leaf_weight=706.58356004953384 329.25934600830078 228.22100320458412 409.90834756195545 314.33259233832359 283.070577070117 535.85851368308067 269.84315945208073 263.05210329592228 240.67110030353069 408.67084722220898 56.541108652949333 199.18220615386963 85.179834172129631 441.00221298635006 354.1338727325201 100.7248253673315 398.73405778408051 356.72920399904251 747.41767059266567 144.7044961899519 377.16656456887722 119.20409619808197 519.21509701013565 192.25101460516453 58.317552730441093 80.864704698324203 314.74642363190651 741.18672499060631 68.540675222873688 32.539367958903313
leaf_count=4209 1349 988 2023 1364 1180 2169 1317 1263 974 2178 242 883 377 2242 1570 538 1897 1455 3489 583 1600 617 2116 1007 245 352 1431 4223 344 145
internal_value=-1.81376e-05 0.0166652 -0.0116925 -0.00559292 0.00745985 0.0275216 -0.020967 0.000832129 0.0319677 -0.0115667 -0.00974546 0.00347657 0.0128755 -0.00887008 0.0017125 -0.025561 -0.00518945 0.0169858 0.000231402 0.0209842 0.00526266 -0.0120948 0.0351448 -0.00911075 0.0205472 0.0111715 -0.00325527 -0.0219053 -0.0146388 0.00993454
internal_weight=9377.85 3859.81 5518.04 3331.71 2091.31 1768.5 2186.33 1604.85 1354.06 1726.86 637.839 1341.8 414.439 1318.19 1306.81 1548.5 808.642 784.504 946.6 501.434 763.84 581.298 1055.07 462.094 298.989 395.197 542.967 841.912 509.543 409.706
internal_count=44370 16182 28188 16035 8952 7230 12153 7351 5504 8684 3183 6088 1726 6506 5734 8970 3920 3218 4372 2038 3315 2941 4285 2324 1219 1716 2419 4761 2586 1745
is_linear=0
shrinkage=0.03


Tree=21
num_leaves=31
num_cat=0
split_feature=19 0 20 19 20 19 20 16 2 16 16 16 4 20 20 27 20 3 27 0 19 40 3 36 19 19 40 8 19 40
split_gain=1916.81 404.689 353.93 142.159 136.298 126.206 104.112 76.936 76.4066 66.8717 62.8807 41.2836 28.2974 27.0606 26.5908 26.4151 26.1194 22.4418 22.8619 22.4314 21.5981 20.4501 18.9096 18.0682 17.2545 17.2027 17.0797 16.8878 16.1377 16.304
threshold=11.000000000000002 1.5000000000000002 3.5000000000000004 4.5000000000000009 4.5000000000000009 7.0000000000000009 4.5000000000000009 1.5000000000000002 5.1950000000000012 2.5000000000000004 2.5000000000000004 3.5000000000000004 5.3150000000000004 1.5000000000000002 4.5000000000000009 0.32500000000000012 1.5000000000000002 20.525000000000002 0.26500000000000007 4.5000000000000009 13.500000000000002 1.0000000180025095e-35 20.090000000000003 6.7825550000000012 2.5000000000000004 8.5000000000000018 1.2500000000000002 0.22500000000000003 13.500000000000002 0.58333333333333337
decision_type=2 2 2 2 2 2 2 2 2 2 2 2 2 2 2 2 2 2 2 2 2 2 2 2 2 2 2 2 2 2
left_child=2 4 3 10 8 11 7 21 13 19 26 -4 27 -2 -7 23 -9 -12 -19 -5 -18 -3 -17 -11 -13 -16 -1 -6 -8 -30
right_child=1 6 5 9 12 14 28 16 -10 15 17 24 -14 -15 25 22 20 18 -20 -21 -22 -23 -24 -25 -26 -27 -28 -29 29 -31
leaf_value=-0.0056586897325675064 0.030076838887274249 -0.00046390830005435399 -0.017805118451838502 0.015407552265108778 0.0089158028307340376 -0.0042370823678666561 -0.012838184762762854 0.014075368492183413 0.036140910336071079 -0.0020592207075061223 -0.024792586503646488 -0.033510751891357028 0.018573362433061236 0.013812404433221738 -0.020674658668995781 -0.0072359047341563638 -0.0026458196080614386 -0.015625122566499724 0.0085783017236967744 0.00288228756943135 0.007373057851149791 0.02104481625328089 0.0062987659198536182 -0.010703315338099761 -0.02497031232576627 -0.01004248797442789 0.010881595998996544 -0.010303022590056566 -0.0072517324687424046 0.0067941526130346373
leaf_weight=198.57773946225643 157.48830530047417 41.353992521762848 563.45409390330315 283.31018258631229 126.83678995072842 360.98427495360374 163.38722716271877 261.4734777957201 940.55985531210899 495.59668755531311 273.02015350759029 380.62070080637932 233.74734784662724 248.49484744668007 251.3614265024662 122.77657605707645 333.33806347846985 425.49208116531372 36.19339357316494 242.68320880830288 452.21599186956882 543.36401629447937 356.05111247301102 395.38108725845814 687.10569268465042 335.0623472481966 75.851846054196358 58.062898024916649 168.05825261771679 129.70424629747868
leaf_count=951 633 176 3020 1201 531 1762 757 1097 3842 2351 1576 2393 949 1016 1289 577 1468 2300 185 1062 1927 2214 1599 1889 4013 1692 328 259 766 547
internal_value=-1.87339e-05 0.016176 -0.0114175 -0.0042253 0.0267517 -0.0195045 0.00723211 0.0107894 0.0314056 0.000611567 -0.0133101 -0.0245699 0.0116689 0.020275 -0.0107342 -0.00287253 0.00588183 -0.0178775 -0.0136666 0.00968985 0.00310673 0.0195017 0.00278147 -0.00592731 -0.0280858 -0.0146801 -0.000987068 0.00275471 -0.00531506 -0.00107885
internal_weight=9341.61 3858.09 5483.52 2904.93 1765.19 2578.59 2092.9 1631.75 1346.54 1895.8 1009.14 1631.18 418.647 405.983 947.408 1369.81 1047.03 734.706 461.685 525.993 785.554 584.718 478.828 890.978 1067.73 586.424 274.43 184.9 461.15 297.762
internal_count=44370 16182 28188 14019 7230 14169 8952 6882 5491 8679 5340 9426 1739 1649 4743 6416 4492 4061 2485 2263 3395 2390 2176 4240 6406 2981 1279 790 2070 1313
is_linear=0
shrinkage=0.03


Tree=22
num_leaves=31
num_cat=0
split_feature=19 0 20 19 20 19 20 16 16 16 40 3 16 38 16 0 38 38 20 24 3 27 19 0 8 40 27 19 40 16
split_gain=1810.01 383.288 339.461 135.03 131.09 124.223 97.8269 72.1845 62.8568 60.2196 53.8187 48.6427 42.7948 30.9656 29.8443 27.7951 24.9724 24.7408 24.4739 21.9129 21.8562 21.7772 20.2934 18.4655 16.6057 16.0789 16.002 15.3001 15.3684 15.0117
threshold=11.000000000000002 1.5000000000000002 3.5000000000000004 4.5000000000000009 3.5000000000000004 4.5000000000000009 4.5000000000000009 1.5000000000000002 2.5000000000000004 2.5000000000000004 -1.0000000180025095e-35 37.090000000000011 3.5000000000000004 2.4166666666666674 2.5000000000000004 3.5000000000000004 3.0833333333333335 2.9166666666666674 1.5000000000000002 5.2925187211981575 20.525000000000002 0.26500000000000007 13.500000000000002 2.5000000000000004 0.115 1.2500000000000002 0.10000000000000007 13.500000000000002 0.58333333333333337 1.5000000000000002
decision_type=2 2 2 2 2 2 2 2 2 2 2 2 2 2 2 2 2 2 2 2 2 2 2 2 2 2 2 2 2 2
left_child=2 4 3 9 10 14 7 17 13 25 -2 24 15 -5 -4 26 19 -3 -9 -10 -11 -22 -20 -14 -6 -1 -7 -8 -29 -17
right_child=1 6 5 8 11 12 27 18 16 20 -12 -13 23 -15 -16 29 -18 -19 22 -21 21 -23 -24 -25 -26 -27 -28 28 -30 -31
leaf_value=-0.0055031420928020221 0.021868612518730502 0.022394070369735699 -0.016590028501452053 0.01784673006906665 0.028908686460798999 -0.0050721830368831268 -0.012516432478678166 0.013618366522410141 -0.0064297040430517528 -0.024391312915157976 0.036616692202012947 0.023213519173872103 -0.011047791642259544 0.0030655086032519764 -0.029054215476461649 -0.0010305050875291217 -0.014779268392122905 0.0077089598904633311 -0.002568930896159114 0.0017670649052465507 -0.015281042952445915 0.0083028445966992076 0.0071405445912786107 -0.020527342602199929 0.0043693180257856163 0.010533786833458071 0.012632093965334617 -0.0070544320072533414 0.0065839804139849146 -0.014865938042346006
leaf_weight=198.12832686305046 337.05848759412766 443.17129366099834 233.88837431371212 222.65487878024578 25.68029448390007 96.812109604477882 162.62285602092743 262.19635546207428 476.88599263131618 269.27636760473251 781.68488553166389 326.19232462346554 299.90056915581226 304.52284023165703 901.52286660671234 99.006712317466736 138.62273894250393 142.63066649436951 333.07934652268887 752.58697812259197 422.11736831068993 36.336464509367943 452.98615604639053 567.83055150508881 290.31076841056347 76.068337246775627 83.06458654999733 167.63820415735245 129.89025416970253 269.70762194693089
leaf_count=951 1363 1797 1255 935 104 455 757 1097 2274 1576 3217 1317 1572 1328 5558 472 675 593 1468 3467 2300 185 1927 3118 1229 328 378 766 547 1361
internal_value=-1.96042e-05 0.0157054 -0.0111495 -0.00411093 0.0260173 -0.0191257 0.00701087 0.010452 0.000592962 -0.0130073 0.0322337 0.015098 -0.0131475 0.0093806 -0.0265335 -0.00651105 -0.00279104 0.0188825 0.00569951 -0.00140538 -0.0175126 -0.0133513 0.00301124 -0.0173013 0.00658006 -0.000955766 0.00306994 -0.00516893 -0.00104611 -0.0112169
internal_weight=9304.08 3855.14 5448.93 2897.2 1760.93 2551.73 2094.22 1634.06 1895.27 1001.93 1118.74 642.183 1416.32 527.178 1135.41 548.591 1368.1 585.802 1048.26 1229.47 727.73 458.454 786.066 867.731 315.991 274.197 179.877 460.151 297.528 368.714
internal_count=44370 16182 28188 14019 7230 14169 8952 6882 8679 5340 4580 2650 7356 2263 6813 2666 6416 2390 4492 5741 4061 2485 3395 4690 1333 1279 833 2070 1313 1833
is_linear=0
shrinkage=0.03


Tree=23
num_leaves=31
num_cat=0
split_feature=27 17 17 27 17 27 22 17 17 37 33 22 17 35 22 27 27 35 18 17 27 35 22 17 22 3 22 5 37 27
split_gain=1103.56 521.628 289.19 127.5 95.3452 95.0726 82.6499 54.6443 49.1576 46.1629 42.5192 42.1577 41.4099 38.3178 49.9603 30.2992 26.4981 21.3891 20.8752 20.5987 20.9116 19.361 19.0136 18.6381 18.5154 16.3097 15.482 16.2404 15.3554 15.1966
threshold=0.23000000000000007 0.24333333333333365 0.040000000000000487 0.46500000000000014 -0.47833333333333278 0.53000000000000014 4.5000000000000009 1.2691666666666668 -0.61833333333333373 0.12500000000000003 1.3817500000000003 4.5000000000000009 0.78333333333333377 7.0000000000000009 11.000000000000002 0.35500000000000009 0.11500000000000003 2.5000000000000004 7.819166666666665 1.2441666666666669 0.31000000000000011 1.5000000000000002 14.500000000000002 0.64833333333333398 5.5000000000000009 41.425000000000004 4.5000000000000009 21.890000000000004 0.26500000000000007 0.050000000000000037
decision_type=2 2 2 2 2 2 2 2 2 2 2 2 2 2 2 2 2 2 2 2 2 2 2 2 2 2 2 2 2 2
left_child=1 4 5 9 10 8 12 13 -2 19 26 21 25 16 -15 18 -8 -13 -11 20 -4 -6 -19 24 -5 -3 27 -1 -14 -12
right_child=2 6 3 23 11 -7 7 -9 -10 15 29 17 28 14 -16 -17 -18 22 -20 -21 -22 -23 -24 -25 -26 -27 -28 -29 -30 -31
leaf_value=-0.025737553917855954 -0.0078052712977823855 0.0089581320721976773 -0.0010890643949198072 0.028066355755410392 -0.0073272625961498493 0.015845475085558614 -0.014272094717218752 0.0089676181491626372 0.0043963922612506633 0.013282747076850988 -0.020377842289402138 -0.019997311640867165 0.019080813484743938 0.018854259364427618 -0.003731388827395044 0.032945435506815147 -0.00066262395632758569 -0.005493518561357308 0.031953541195256396 0.019343775453769696 0.010818022444891173 0.0048300212296985478 -0.015629930237155112 0.034535816462676901 0.01067889584763853 -0.0032830249654853083 -0.030284205857691281 -0.0057563456611795316 -0.0031655487900855536 -0.01332616122775738
leaf_weight=106.72819891571999 530.65472534298897 224.83726587891579 195.73114812374115 281.48330718278885 393.57790249586105 400.579006254673 396.97260072827339 344.7813171595335 669.18943303823471 332.14422126114368 644.50606018304825 356.90544377267361 371.43670217692852 112.38990464806557 380.7400366216898 144.87953954935074 193.90572534501553 331.54091323912144 66.552402302622795 151.36091557145119 394.6983462870121 164.80197311937809 352.84904201328754 410.12634159624577 76.493409886956215 168.69701525568962 430.45797409117222 60.624621152877808 28.381585732102394 548.18596038222313
leaf_count=599 2577 986 871 1167 1920 1701 1992 1503 3025 1384 3667 1985 1552 476 1822 597 889 1655 275 615 1664 728 1943 1691 322 745 2626 319 121 2953
internal_value=-1.98966e-05 -0.00837413 0.0128055 0.0202524 -0.0157761 0.00322783 0.00291588 -0.00138776 -0.000991562 0.0144136 -0.0205421 -0.0104132 0.0106694 -0.00470567 0.00144121 0.0210747 -0.00984854 -0.0139804 0.0165807 0.0094687 0.00685508 -0.00370792 -0.0107717 0.029941 0.0244726 0.0036827 -0.0271511 -0.0187413 0.0174564 -0.017177
internal_weight=9266.21 5612.32 3653.89 2053.47 3390.18 1600.42 2222.14 1428.79 1199.84 1285.37 1790.5 1599.68 793.353 1084.01 493.13 543.576 590.878 1041.3 398.697 741.79 590.429 558.38 684.39 768.103 357.977 393.534 597.811 167.353 399.818 1192.69
internal_count=44370 28481 15889 8586 18395 7303 10086 6682 5602 5406 10164 8231 3404 5179 2298 2256 2881 5583 1659 3150 2535 2648 3598 3180 1489 1731 3544 918 1673 6620
is_linear=0
shrinkage=0.03


Tree=24
num_leaves=31
num_cat=0
split_feature=0 0 40 40 20 20 20 2 20 20 24 3 40 34 0 24 40 0 20 40 20 3 20 4 0 40 20 38 3 6
split_gain=1530.23 529.346 279.938 177.934 131.262 128.509 95.811 69.7976 60.245 59.232 40.7616 36.9917 34.185 30.2956 29.2403 29.2123 26.3462 26.0013 24.1564 22.8533 21.2177 18.7604 18.5644 16.1782 13.955 12.673 12.5922 12.5381 10.9403 10.7145
threshold=1.5000000000000002 4.5000000000000009 0.16666666666666666 1.0000000180025095e-35 4.5000000000000009 3.5000000000000004 2.5000000000000004 4.9250000000000007 3.5000000000000004 4.5000000000000009 5.3304336726251549 20.280000000000005 1.0833333333333337 0.055000000000000014 3.5000000000000004 5.268256929637527 1.2500000000000002 3.5000000000000004 1.5000000000000002 1.0833333333333337 1.5000000000000002 26.255000000000006 1.5000000000000002 7.0950000000000006 5.5000000000000009 1.0833333333333337 4.5000000000000009 2.5833333333333335 45.605000000000011 45.030000000000008
decision_type=2 2 2 2 2 2 2 2 2 2 2 2 2 2 2 2 2 2 2 2 2 2 2 2 2 2 2 2 2 2
left_child=4 2 5 9 7 10 19 20 12 15 -2 -7 27 21 16 -3 -8 -13 -12 29 -1 -6 -9 -14 -17 -10 -16 -5 -24 -4
right_child=1 3 6 8 13 11 14 22 25 -11 18 17 23 -15 26 24 -18 -19 -20 -21 -22 -23 28 -25 -26 -27 -28 -29 -30 -31
leaf_value=0.027002273543789427 -0.0073520166002492412 -0.024850109599922728 0.011483716208606247 0.00082096664881484225 -0.0083091656247490462 -0.021701120067281008 0.0031685197313070547 0.038449585373583631 -0.018341093795319525 -0.03012212405925704 0.0090199286987312968 -0.0065820941393724729 0.0042732068019673084 0.019604124517055576 -9.9548639880871369e-05 -0.010152703143681482 0.016894594424693016 -0.017444349203770141 -0.00017136469456932905 0.023761487777452052 0.011026095650860823 0.0091083373184021425 0.02572464099906005 0.023829391842452995 -0.019580187337162075 -0.0069991036838528194 -0.01278787032744026 -0.010493984980464142 0.035093702512945156 0.026663825574485069
leaf_weight=125.93400985002518 507.130929723382 379.95446713268757 479.67578379809856 142.25340168178082 80.068305566906929 323.24229668080807 553.45664130151272 433.15277434885502 318.30367533862591 633.80219791829586 379.02492775022984 673.64963442087173 161.83555836975574 181.82892994582653 201.6291571110487 366.94391041994095 163.12986919283867 287.13908265531063 783.1612990796566 284.97446255385876 205.58535902202129 168.43324825167656 358.76070366799831 49.540360689163208 252.13136593997478 134.39813055098057 108.22082018852234 219.08059412240982 232.28204545378685 47.618959575891495
leaf_count=508 2453 2318 2017 672 367 1823 2404 1816 1762 3999 1649 3312 701 739 892 1957 662 1559 3552 1147 849 696 1462 211 1433 671 515 1066 959 199
internal_value=-1.98111e-05 -0.00600142 -4.10109e-05 -0.0167326 0.0249022 -0.00576413 0.00913966 0.0294886 -0.00689859 -0.0228831 -0.000263786 -0.0128917 -0.000397262 0.0103491 0.00301916 -0.0182246 0.00635244 -0.00987344 0.00282366 0.0168291 0.0172655 0.00341493 0.0333891 0.0091073 -0.0140671 -0.0150525 -0.00463287 -0.00601812 0.0295379 0.0129785
internal_weight=9236.34 7450.3 4792.05 2658.24 1786.05 2953.35 1838.71 1355.71 1025.41 1632.83 1669.32 1284.03 572.71 430.33 1026.44 999.03 716.587 960.789 1162.19 812.269 331.519 248.502 1024.2 211.376 619.075 452.702 309.85 361.334 591.043 527.295
internal_count=44370 36974 22184 14790 7396 14348 7836 5594 5083 9707 7654 6694 2650 1802 4473 5708 3066 4871 5201 3363 1357 1063 4237 912 3390 2433 1407 1738 2421 2216
is_linear=0
shrinkage=0.03


Tree=25
num_leaves=31
num_cat=0
split_feature=19 0 20 17 20 0 17 0 19 17 17 20 17 27 20 20 34 17 0 17 0 19 17 17 20 20 17 19 20 5
split_gain=1545.84 340.845 313.349 163.424 116.399 109.511 102.37 72.424 68.8997 63.5355 53.0033 52.967 43.9711 33.8388 28.4768 27.7797 25.68 23.4529 28.5268 22.6573 21.5659 21.1556 17.2991 16.8741 16.5157 15.4246 15.0225 14.3961 13.5608 13.1347
threshold=11.000000000000002 1.5000000000000002 4.5000000000000009 -0.2166666666666672 3.5000000000000004 3.5000000000000004 0.48833333333333379 4.5000000000000009 4.5000000000000009 0.98166666666666702 -0.52999999999999947 2.5000000000000004 0.46916666666666679 0.26500000000000007 1.5000000000000002 4.5000000000000009 0.15500000000000005 0.63666666666666727 2.5000000000000004 0.28500000000000064 3.5000000000000004 13.500000000000002 -0.8500000000000002 1.5200000000000002 1.5000000000000002 1.5000000000000002 1.1825000000000003 3.5000000000000004 1.5000000000000002 24.025000000000002
decision_type=2 2 2 2 2 2 2 2 2 2 2 2 2 2 2 2 2 2 2 2 2 2 2 2 2 2 2 2 2 2
left_child=2 4 3 5 10 22 15 14 19 28 -2 26 16 27 -5 -3 -6 18 -10 -4 -16 -13 -1 -23 -11 -12 -8 -7 -9 -15
right_child=1 6 8 7 12 13 11 9 17 24 25 21 -14 29 20 -17 -18 -19 -20 -21 -22 23 -24 -25 -26 -27 -28 -29 -30 -31
leaf_value=-0.0082598749028848905 0.014966974933175663 0.0019405379152310626 -0.03067707410544112 0.015673543101066632 0.0034429446931732752 -0.025462538008489136 0.014619308157168253 -0.0029810513025534621 -0.0091807088040152824 0.015730182237382116 0.037330677499696048 -0.00089357372184549672 0.023925373580027973 -0.013485219687391387 0.0091444289957487903 -0.0099081558497814085 0.021787380459227755 -0.0021713690928453445 -0.021652301125338332 -0.017680169961406207 -0.001988995350079461 0.0074495768591576342 0.00099972455590752185 0.023655001124946597 0.0013000693896712567 0.028751766740471429 0.025266711897406285 -0.017262640143157752 -0.012209175062213798 0.0022050252376630201
leaf_weight=320.16680374741554 181.10611346364021 698.3178231716156 606.14680068194866 240.99763509631157 306.22410698235035 352.60527896881104 306.48854079842567 205.45488476753235 264.64480789005756 108.96455609798431 461.82764984667301 229.35625272989273 246.65113657712936 102.83491635322571 305.76711069047451 236.43595162034035 88.07709176838398 108.44066350162029 484.40151497721672 171.25371193885803 314.09074582159519 330.95296378433704 409.685581818223 70.954382568597794 208.64524279534817 461.59722407162189 225.17588110268116 540.2734517455101 525.37156437337399 85.091184839606285
leaf_count=1595 732 3037 3951 1023 1293 2190 1248 1001 1386 466 1947 990 1000 528 1357 1115 357 527 2687 947 1447 1372 1966 286 943 1901 904 3022 2739 413
internal_value=-1.96113e-05 0.0144918 -0.0104388 -0.00561667 0.0242821 -0.0120687 0.00632275 0.000500408 -0.0213813 -0.00478169 0.0301978 0.0122576 0.0140023 -0.018126 0.00694703 -0.00105521 0.00766776 -0.0154156 -0.0173021 -0.0278859 0.00349059 0.00631548 -0.00305319 0.0104507 0.00636509 0.0331299 0.0192347 -0.0205673 -0.00965059 -0.00635344
internal_weight=9198 3843.17 5354.84 3719.95 1745.48 1810.66 2097.68 1909.29 1634.89 1048.44 1104.53 1162.93 640.952 1080.8 860.855 934.754 394.301 857.487 749.046 777.401 619.858 631.264 729.852 401.907 317.61 923.425 531.664 892.879 730.826 187.926
internal_count=44370 16182 28188 18690 7230 9714 8952 8976 9498 5149 4580 4800 2650 6153 3827 4152 1650 4600 4073 4898 2804 2648 3561 1658 1409 3848 2152 5212 3740 941
is_linear=0
shrinkage=0.03


Tree=26
num_leaves=31
num_cat=0
split_feature=0 17 0 0 20 20 20 2 20 17 38 17 17 17 27 20 17 27 17 0 2 20 20 18 36 20 2 0 40 33
split_gain=1367.74 558.072 292.947 162.512 120.627 120 96.5934 66.6981 51.3153 46.6437 38.2431 32.1549 31.1624 31.1508 28.0201 23.4312 23.0503 21.0902 21.0803 19.9545 19.2903 18.1695 15.4813 15.4134 14.0467 13.8801 13.7234 11.5569 10.8648 9.56893
threshold=1.5000000000000002 0.23333333333333298 4.5000000000000009 3.5000000000000004 4.5000000000000009 3.5000000000000004 3.5000000000000004 5.1950000000000012 4.5000000000000009 1.1825000000000003 2.5833333333333335 -0.75916666666666666 -0.50666666666666627 -0.56000000000000016 -0.04999999999999994 1.5000000000000002 1.4891666666666665 -0.37999999999999989 0.49916666666666704 2.5000000000000004 4.0050000000000008 1.5000000000000002 1.5000000000000002 6.9458333333333337 6.7821750000000014 1.5000000000000002 6.8050000000000006 5.5000000000000009 1.2500000000000002 1.77475
decision_type=2 2 2 2 2 2 2 2 2 2 2 2 2 2 2 2 2 2 2 2 2 2 2 2 2 2 2 2 2 2
left_child=4 2 5 9 7 12 10 15 20 14 21 -7 24 -6 29 -1 27 -15 -12 -13 -4 -5 -11 -14 -2 -9 -16 -8 -24 -3
right_child=1 3 8 6 13 11 16 25 -10 22 18 19 23 17 26 -17 -18 -19 -20 -21 -22 -23 28 -25 -26 -27 -28 -29 -30 -31
leaf_value=0.026969607000559295 -0.0021180970938510847 -0.018445777102766934 -0.025914439805872182 0.016554278127525413 -0.0048184570953340097 -0.020364964009697204 -0.0098766396597100223 0.037305342482613413 -0.029744395563042335 0.03288655909527257 -0.011728391431908113 -0.0040086956159935639 0.00076848835038858924 -0.0066202592492164616 0.011964782234348692 0.012100965810190857 0.0035256949618255153 0.01680779222546154 0.0017466438468226589 -0.01385947264907169 -0.015867803453043967 0.0046739234790861154 0.0098112032951507451 0.011312626478158096 -0.010951405073532936 0.029001747765596476 0.0012763838388470678 -0.019042816267884819 0.022763685698955649 0.00014339291390456357
leaf_weight=161.63519035279751 381.07789054512978 30.182341456413269 244.85112568736076 203.65111850202084 99.857646599411964 427.92478501796722 373.65361121296883 389.8615108281374 614.13346609473228 83.281076818704605 141.86467517912388 310.61086103320122 721.07733987271786 37.106798052787781 767.94212929904461 259.86604395508766 82.839258372783661 293.42562651634216 376.00070124864578 484.01624530553818 724.17588540911674 281.85507152974606 111.8889439702034 150.00305584073067 288.50367739796638 532.44934539496899 130.0941182076931 202.95386843383312 149.10232393443584 103.51080945134163
leaf_count=656 1835 135 1557 875 450 2445 1851 1668 4046 335 663 1513 3232 159 3221 1066 382 1193 1653 2549 4154 1240 459 668 1413 2204 547 1148 600 453
internal_value=-1.94467e-05 -0.00570439 -0.0125986 0.00415316 0.0236157 -0.0066874 -0.00215034 0.0280466 -0.022885 0.0117735 0.00369918 -0.0136985 -0.00110367 0.00968052 0.0085296 0.0179386 -0.0110575 0.0141086 -0.00194679 -0.0100475 -0.01847 0.00973551 0.0213463 0.00262316 -0.00596773 0.032601 0.0104393 -0.0131835 0.0173847 -0.00415274
internal_weight=9159.4 7385.19 4346.37 3038.82 1774.2 2763.21 1662.82 1343.81 1583.16 1376 1003.37 1222.55 1540.66 430.39 1031.73 421.501 659.447 330.532 517.865 794.627 969.027 485.506 344.272 871.08 669.582 922.311 898.036 576.607 260.991 133.693
internal_count=44370 36974 23412 13562 7396 13655 7812 5594 9757 5750 4431 6507 7148 1802 4356 1722 3381 1352 2316 4062 5711 2115 1394 3900 3248 3872 3768 2999 1059 588
is_linear=0
shrinkage=0.03


Tree=27
num_leaves=31
num_cat=0
split_feature=19 0 20 17 20 0 17 19 0 20 17 20 17 27 17 20 19 34 17 17 0 17 17 21 7 17 20 24 19 20
split_gain=1381.37 306.178 291.709 148.881 107.337 102.869 91.179 66.5805 65.9471 53.8858 50.5513 49.0191 40.4127 32.1828 28.1702 25.3502 23.7086 23.6186 22.7262 22.3095 22.0313 27.6466 19.6673 16.47 16.2036 15.8833 14.6967 14.0359 13.9721 13.1342
threshold=11.000000000000002 1.5000000000000002 4.5000000000000009 -0.2166666666666672 3.5000000000000004 3.5000000000000004 0.48833333333333379 5.5000000000000009 3.5000000000000004 1.5000000000000002 -0.52999999999999947 1.5000000000000002 0.46916666666666679 0.26500000000000007 1.3150000000000002 4.5000000000000009 13.500000000000002 0.15500000000000005 0.49916666666666704 0.28500000000000064 2.5000000000000004 0.63666666666666727 1.5200000000000002 65.595000000000013 36.215000000000011 -0.8500000000000002 1.5000000000000002 6.4916212687091077 3.5000000000000004 4.5000000000000009
decision_type=2 2 2 2 2 2 2 2 2 2 2 2 2 2 2 2 2 2 2 2 2 2 2 2 2 2 2 2 2 2
left_child=2 4 3 5 10 25 15 19 23 18 -2 -8 17 28 -11 -3 29 -6 -10 -4 27 -22 -18 -5 -25 -1 -12 -9 -7 -13
right_child=1 6 7 8 12 13 11 20 9 14 26 16 -14 -15 -16 -17 22 -19 -20 -21 21 -23 -24 24 -26 -27 -28 -29 -30 -31
leaf_value=-0.0078108540404249072 0.01391557833947586 0.0018502730849740507 -0.029842577598053793 0.0037885212148732589 0.0030559359517734167 -0.024789301315569567 0.022894499886597586 -0.010421764990382122 -0.0009430808794700042 -0.0080696637283356396 0.035784715110121462 0.0049408455240009591 0.022699170032498363 -0.0059693818035420109 0.0064768728964552527 -0.0094948047311995704 0.0090368814674183506 0.020664147586565089 0.012391158025942454 -0.016913498866525392 -0.020934361989086717 -0.0030838750929329437 0.023409428099854308 0.025339363572858813 0.0091691999466951956 0.0010835731543967953 0.027377551579318656 0.0076558964994778078 -0.016626181007158784 -0.0092394312081223798
leaf_weight=317.65409024059772 181.26047793030739 698.67169581353664 598.86369022727013 167.46213227510452 306.57615603506565 343.01807042956352 265.11911191046238 212.12235839664936 212.05188181996346 906.60630428791046 453.88970562815666 253.08083561062813 245.81230452656746 186.60254763066769 135.33283197879791 234.89646105468273 464.53406958281994 87.810979813337326 243.83564235270023 169.95014533400536 474.48309433460236 96.737589508295059 107.60188242793083 101.49897716939449 138.57970391213894 409.12397095561028 457.41732132434845 44.658757358789444 531.3298074901104 74.018614307045937
leaf_count=1595 732 3037 4039 735 1293 2190 1069 1124 1009 4538 1947 1058 1000 941 591 1115 1908 357 1059 955 2687 476 433 442 602 1966 1901 217 3022 332
internal_value=-1.94002e-05 0.0136949 -0.00995484 -0.00531159 0.0230237 -0.0115253 0.00596802 -0.0206642 0.000516561 -0.00238917 0.0287527 0.0115619 0.0131641 -0.0174757 -0.00615712 -0.00100244 0.00816066 0.00709876 0.00617907 -0.0270553 -0.014661 -0.0179588 0.0118382 0.0111921 0.0162204 -0.00279411 0.0316505 -0.00718491 -0.0198951 0.00164979
internal_weight=9120.6 3830.69 5289.91 3693.1 1732.77 1787.73 2097.92 1596.82 1905.37 1497.83 1092.57 1164.35 640.199 1060.95 1041.94 933.568 899.235 394.387 455.888 768.814 828.002 571.221 572.136 407.541 240.079 726.778 911.307 256.781 874.348 327.099
internal_count=44370 16182 28188 18690 7230 9714 8952 9498 8976 7197 4580 4800 2650 6153 5129 4152 3731 1650 2068 4994 4504 3163 2341 1779 1044 3561 3848 1341 5212 1390
is_linear=0
shrinkage=0.03


Tree=28
num_leaves=31
num_cat=0
