{"learner":{"attributes":{"best_iteration":"237","best_score":"0.3057377524293916"},"feature_names":[],"feature_types":[],"gradient_booster":{"model":{"cats":{"enc":[],"feature_segments":[],"sorted_idx":[]},"gbtree_model_param":{"num_parallel_tree":"1","num_trees":"288"},"iteration_indptr":[0,1,2,3,4,5,6,7,8,9,10,11,12,13,14,15,16,17,18,19,20,21,22,23,24,25,26,27,28,29,30,31,32,33,34,35,36,37,38,39,40,41,42,43,44,45,46,47,48,49,50,51,52,53,54,55,56,57,58,59,60,61,62,63,64,65,66,67,68,69,70,71,72,73,74,75,76,77,78,79,80,81,82,83,84,85,86,87,88,89,90,91,92,93,94,95,96,97,98,99,100,101,102,103,104,105,106,107,108,109,110,111,112,113,114,115,116,117,118,119,120,121,122,123,124,125,126,127,128,129,130,131,132,133,134,135,136,137,138,139,140,141,142,143,144,145,146,147,148,149,150,151,152,153,154,155,156,157,158,159,160,161,162,163,164,165,166,167,168,169,170,171,172,173,174,175,176,177,178,179,180,181,182,183,184,185,186,187,188,189,190,191,192,193,194,195,196,197,198,199,200,201,202,203,204,205,206,207,208,209,210,211,212,213,214,215,216,217,218,219,220,221,222,223,224,225,226,227,228,229,230,231,232,233,234,235,236,237,238,239,240,241,242,243,244,245,246,247,248,249,250,251,252,253,254,255,256,257,258,259,260,261,262,263,264,265,266,267,268,269,270,271,272,273,274,275,276,277,278,279,280,281,282,283,284,285,286,287,288],"tree_info":[0,0,0,0,0,0,0,0,0,0,0,0,0,0,0,0,0,0,0,0,0,0,0,0,0,0,0,0,0,0,0,0,0,0,0,0,0,0,0,0,0,0,0,0,0,0,0,0,0,0,0,0,0,0,0,0,0,0,0,0,0,0,0,0,0,0,0,0,0,0,0,0,0,0,0,0,0,0,0,0,0,0,0,0,0,0,0,0,0,0,0,0,0,0,0,0,0,0,0,0,0,0,0,0,0,0,0,0,0,0,0,0,0,0,0,0,0,0,0,0,0,0,0,0,0,0,0,0,0,0,0,0,0,0,0,0,0,0,0,0,0,0,0,0,0,0,0,0,0,0,0,0,0,0,0,0,0,0,0,0,0,0,0,0,0,0,0,0,0,0,0,0,0,0,0,0,0,0,0,0,0,0,0,0,0,0,0,0,0,0,0,0,0,0,0,0,0,0,0,0,0,0,0,0,0,0,0,0,0,0,0,0,0,0,0,0,0,0,0,0,0,0,0,0,0,0,0,0,0,0,0,0,0,0,0,0,0,0,0,0,0,0,0,0,0,0,0,0,0,0,0,0,0,0,0,0,0,0,0,0,0,0,0,0,0,0,0,0,0,0,0,0,0,0,0,0,0,0,0,0,0,0,0,0,0,0,0,0],"trees":[{"base_weights":[-3.8142074E-3,2.708915E0,-5.451707E-1,9.365843E-1,3.23556E0,-7.664985E-1,1.0892592E-1,5.5639293E-2,3.459036E-1,3.8464997E0,2.0603466E0,-9.191014E-1,-3.1396818E-1,-3.2744527E-1,6.8133134E-1,-5.2319886E-3,2.351424E-2,3.1434956E0,4.259861E0,3.5069697E-2,2.5629413E0,-7.271484E-1,-1.0465027E0,3.0749978E-2,-4.7942704E-1,1.9290482E-1,-5.4371244E-1,3.7759686E-1,1.4272166E0,7.23635E-2,1.03862695E-1,3.7310312E0,1.3957885E-1,5.2504737E-2,9.09262E-2,-5.14716E-1,-9.0421486E-1,-8.614726E-1,-1.1248662E0,-2.8677708E-1,2.7583122E-1,-6.793087E-1,-2.879014E-1,-7.290624E-3,1.5762895E-2,-0E0,-7.867075E-1,5.8398537E-2,7.210097E-1,2.91663E-2,5.376435E-2,1.254294E-1,9.341084E-2,-3.6444056E-3,-1.8123016E-2,-2.9645499E-2,-2.1892006E-2,-2.8204568E-2,-1.8873744E-2,-3.411597E-2,-2.5864601E-2,-1.5155511E-2,-1.1851934E-3,1.7157415E-2,-2.064173E-3,-1.531453E-2,-2.4613732E-2,-1.5261256E-2,-4.0665613E-3,-9.47339E-3,9.432767E-3,-1.421008E-2,-2.6360597E-2,-5.0525772E-3,8.656504E-3,3.8102906E-2,1.1329424E-2],"categories":[],"categories_nodes":[],"categories_segments":[],"categories_sizes":[],"default_left":[0,0,0,0,0,0,0,0,0,0,0,0,0,0,0,0,0,0,0,0,0,0,0,0,0,0,0,0,0,0,0,0,0,0,0,0,0,0,0,0,0,0,0,0,0,0,0,0,0,0,0,0,0,0,0,0,0,0,0,0,0,0,0,0,0,0,0,0,0,0,0,0,0,0,0,0,0],"id":0,"left_children":[1,3,5,7,9,11,13,-1,15,17,19,21,23,25,27,-1,-1,29,31,-1,33,35,37,39,41,43,45,47,49,-1,-1,51,-1,-1,-1,53,55,57,59,61,63,65,67,-1,-1,69,71,73,75,-1,-1,-1,-1,-1,-1,-1,-1,-1,-1,-1,-1,-1,-1,-1,-1,-1,-1,-1,-1,-1,-1,-1,-1,-1,-1,-1,-1],"loss_changes":[7.240054E3,7.573662E2,5.955918E2,1.01142944E2,4.344131E2,2.1096423E2,2.6050696E2,0E0,2.7681648E1,8.945654E1,9.092218E1,5.372986E1,4.466326E1,6.691907E1,1.0024309E2,0E0,0E0,1.785437E1,1.3812988E1,0E0,3.9850464E1,3.311209E1,1.6986572E1,1.9873554E1,1.9307594E1,2.5674007E1,5.5715233E1,3.502443E1,1.6615173E1,0E0,0E0,3.3203125E0,0E0,0E0,0E0,1.4461693E1,5.0238647E0,5.694519E0,1.3867188E-1,5.6544847E0,1.511928E1,4.578644E0,8.75639E0,0E0,0E0,1.31813755E1,6.843857E0,9.071786E0,2.7453468E1,0E0,0E0,0E0,0E0,0E0,0E0,0E0,0E0,0E0,0E0,0E0,0E0,0E0,0E0,0E0,0E0,0E0,0E0,0E0,0E0,0E0,0E0,0E0,0E0,0E0,0E0,0E0,0E0],"parents":[2147483647,0,0,1,1,2,2,3,3,4,4,5,5,6,6,8,8,9,9,10,10,11,11,12,12,13,13,14,14,17,17,18,18,20,20,21,21,22,22,23,23,24,24,25,25,26,26,27,27,28,28,31,31,35,35,36,36,37,37,38,38,39,39,40,40,41,41,42,42,45,45,46,46,47,47,48,48],"right_children":[2,4,6,8,10,12,14,-1,16,18,20,22,24,26,28,-1,-1,30,32,-1,34,36,38,40,42,44,46,48,50,-1,-1,52,-1,-1,-1,54,56,58,60,62,64,66,68,-1,-1,70,72,74,76,-1,-1,-1,-1,-1,-1,-1,-1,-1,-1,-1,-1,-1,-1,-1,-1,-1,-1,-1,-1,-1,-1,-1,-1,-1,-1,-1,-1],"split_conditions":[2E0,-4.0333334E-1,5.516667E-1,3E0,4E0,2.5E-1,1.8E-1,5.5639293E-2,7E-2,4.0166667E-1,1E-2,4E0,2E0,3E0,1.3366667E0,-5.2319886E-3,2.351424E-2,2.821E1,2E1,3.5069697E-2,3.4333333E-1,5E0,4E0,-3.6666667E-1,-3.2833335E-1,9.866667E-1,4E0,3.3E-1,1.5E1,7.23635E-2,1.03862695E-1,2E0,1.3957885E-1,5.2504737E-2,9.09262E-2,2E0,-1.0666667E-1,6.4871325E0,4.1166666E-1,2.308E1,2.8333333E0,5.21E1,2E0,-7.290624E-3,1.5762895E-2,9.716667E-1,4E0,-8.3333336E-2,2E0,2.91663E-2,5.376435E-2,1.254294E-1,9.341084E-2,-3.6444056E-3,-1.8123016E-2,-2.9645499E-2,-2.1892006E-2,-2.8204568E-2,-1.8873744E-2,-3.411597E-2,-2.5864601E-2,-1.5155511E-2,-1.1851934E-3,1.7157415E-2,-2.064173E-3,-1.531453E-2,-2.4613732E-2,-1.5261256E-2,-4.0665613E-3,-9.47339E-3,9.432767E-3,-1.421008E-2,-2.6360597E-2,-5.0525772E-3,8.656504E-3,3.8102906E-2,1.1329424E-2],"split_indices":[0,17,17,20,20,27,27,0,27,17,27,20,20,20,17,0,0,5,19,0,17,0,0,17,17,17,0,27,19,0,0,20,0,0,0,20,17,24,17,5,38,10,35,0,0,17,20,32,20,0,0,0,0,0,0,0,0,0,0,0,0,0,0,0,0,0,0,0,0,0,0,0,0,0,0,0,0],"split_type":[0,0,0,0,0,0,0,0,0,0,0,0,0,0,0,0,0,0,0,0,0,0,0,0,0,0,0,0,0,0,0,0,0,0,0,0,0,0,0,0,0,0,0,0,0,0,0,0,0,0,0,0,0,0,0,0,0,0,0,0,0,0,0,0,0,0,0,0,0,0,0,0,0,0,0,0,0],"sum_hessian":[4.926783E3,8.1814404E2,4.108639E3,1.8890933E2,6.2923474E2,3.0701934E3,1.0384457E3,7.1952225E1,1.169571E2,4.107389E2,2.1849586E2,2.2935815E3,7.766118E2,5.892304E2,4.4921527E2,5.347801E1,6.3479088E1,1.5890608E2,2.518328E2,8.15366E1,1.3695926E2,9.219053E2,1.3716761E3,2.5141609E2,5.251957E2,1.7237976E2,4.1685065E2,3.2184036E2,1.2737489E2,5.389472E1,1.0501136E2,1.1681819E2,1.350146E2,5.389472E1,8.3064545E1,4.2393475E2,4.9797055E2,4.1712845E2,9.545477E2,1.08483955E2,1.4293213E2,2.5322183E2,2.7197388E2,7.417469E1,9.820507E1,1.2876393E2,2.8808673E2,1.6876826E2,1.5307211E2,6.0562107E1,6.681278E1,6.0423203E1,5.639499E1,8.042537E1,3.4350937E2,3.2795215E2,1.7001839E2,3.054497E2,1.1167875E2,9.0356995E2,5.0977737E1,5.542266E1,5.3061295E1,7.695277E1,6.597936E1,1.21124214E2,1.3209763E2,1.0778944E2,1.6418443E2,6.3479088E1,6.528484E1,6.945196E1,2.1863477E2,8.417577E1,8.459248E1,5.6256084E1,9.681603E1],"tree_param":{"num_deleted":"0","num_feature":"41","num_nodes":"77","size_leaf_vector":"1"}},{"base_weights":[6.313036E-4,2.5457442E0,-5.4037595E-1,1.390935E0,3.2105205E0,-7.475011E-1,1.536528E-1,1.0621763E-2,1.8455944E0,1.811087E0,3.5160124E0,-8.931609E-1,-3.2262304E-1,-1.7272946E-1,8.6346895E-1,3.226497E-2,2.4483232E0,4.2428184E-2,6.392431E-2,1.20138556E-1,3.1936126E0,-6.8240863E-1,-9.761859E-1,-4.9741095E-1,-1.194924E-2,3.213416E-1,-3.8730654E-1,4.4199383E-1,1.3728989E0,8.3144404E-2,5.9745226E-2,8.426555E-2,1.0521325E-1,-7.8050625E-1,-4.1016802E-1,-1.067406E0,-8.308784E-1,-2.832558E-1,-6.205721E-1,-2.4446154E-1,2.2277735E-1,-2.6690802E-3,6.50675E-1,-5.686111E-1,6.2567286E-2,1.9405136E-2,4.780527E-3,2.6086748E-2,4.9885448E-2,-2.7260818E-2,-2.082614E-2,-1.9951673E-2,-8.653647E-3,-3.3313178E-2,-2.80766E-2,-2.684924E-2,-1.618031E-2,-1.764658E-2,-4.468935E-3,-2.1045988E-2,-1.20652765E-2,-0E0,-1.17168E-2,1.4975739E-2,-4.357965E-3,1.1817381E-2,2.6926659E-2,-2.3283368E-2,-8.671511E-3,-5.6108995E-3,1.3484145E-2],"categories":[],"categories_nodes":[],"categories_segments":[],"categories_sizes":[],"default_left":[0,0,0,0,0,0,0,0,0,0,0,0,0,0,0,0,0,0,0,0,0,0,0,0,0,0,0,0,0,0,0,0,0,0,0,0,0,0,0,0,0,0,0,0,0,0,0,0,0,0,0,0,0,0,0,0,0,0,0,0,0,0,0,0,0,0,0,0,0,0,0],"id":1,"left_children":[1,3,5,7,9,11,13,-1,15,17,19,21,23,25,27,-1,29,-1,-1,-1,31,33,35,37,39,41,43,45,47,-1,-1,-1,-1,49,51,53,55,57,59,61,63,-1,65,67,69,-1,-1,-1,-1,-1,-1,-1,-1,-1,-1,-1,-1,-1,-1,-1,-1,-1,-1,-1,-1,-1,-1,-1,-1,-1,-1],"loss_changes":[6.819306E3,6.553032E2,5.875475E2,1.4892511E2,2.194043E2,1.9350854E2,2.1834457E2,0E0,9.617609E1,5.2463684E0,4.145703E1,3.879602E1,4.356414E1,6.865129E1,6.160591E1,0E0,4.7072144E0,0E0,0E0,0E0,1.0990723E1,1.6654022E1,1.9450928E1,1.2792358E1,1.6148682E1,2.6836025E1,3.7128746E1,8.996517E0,1.5236755E1,0E0,0E0,0E0,0E0,3.3451233E0,4.8169518E0,2.663208E0,1.0581329E1,7.375448E0,4.6144485E0,5.1769104E0,1.5187882E1,0E0,5.585594E0,1.7733032E1,1.2913902E1,0E0,0E0,0E0,0E0,0E0,0E0,0E0,0E0,0E0,0E0,0E0,0E0,0E0,0E0,0E0,0E0,0E0,0E0,0E0,0E0,0E0,0E0,0E0,0E0,0E0,0E0],"parents":[2147483647,0,0,1,1,2,2,3,3,4,4,5,5,6,6,8,8,9,9,10,10,11,11,12,12,13,13,14,14,16,16,20,20,21,21,22,22,23,23,24,24,25,25,26,26,27,27,28,28,33,33,34,34,35,35,36,36,37,37,38,38,39,39,40,40,42,42,43,43,44,44],"right_children":[2,4,6,8,10,12,14,-1,16,18,20,22,24,26,28,-1,30,-1,-1,-1,32,34,36,38,40,42,44,46,48,-1,-1,-1,-1,50,52,54,56,58,60,62,64,-1,66,68,70,-1,-1,-1,-1,-1,-1,-1,-1,-1,-1,-1,-1,-1,-1,-1,-1,-1,-1,-1,-1,-1,-1,-1,-1,-1,-1],"split_conditions":[2E0,5.36E0,6.2666667E-1,4E-2,4E-2,2.5E-1,2.5E-1,1.0621763E-2,-5.65E-1,7E-1,2E0,4E0,-2E-2,4E0,1.13E0,3.226497E-2,3E0,4.2428184E-2,6.392431E-2,1.20138556E-1,2.7E-1,8.5E-2,-2.2166666E-1,9E-2,3.448E1,1.0016667E0,1.385E0,1.1E-1,2E0,8.3144404E-2,5.9745226E-2,8.426555E-2,1.0521325E-1,2E0,-3E-2,1.638E0,1.6E-1,4.09E0,-3.2833335E-1,7.527726E-1,6.03E0,-2.6690802E-3,1.3616667E0,9E-2,1E-1,1.9405136E-2,4.780527E-3,2.6086748E-2,4.9885448E-2,-2.7260818E-2,-2.082614E-2,-1.9951673E-2,-8.653647E-3,-3.3313178E-2,-2.80766E-2,-2.684924E-2,-1.618031E-2,-1.764658E-2,-4.468935E-3,-2.1045988E-2,-1.20652765E-2,-0E0,-1.17168E-2,1.4975739E-2,-4.357965E-3,1.1817381E-2,2.6926659E-2,-2.3283368E-2,-8.671511E-3,-5.6108995E-3,1.3484145E-2],"split_indices":[0,2,17,34,34,27,27,0,17,17,16,0,17,0,17,0,15,0,0,0,34,17,17,8,6,17,17,8,11,0,0,0,0,11,34,25,27,4,17,39,4,0,17,27,27,0,0,0,0,0,0,0,0,0,0,0,0,0,0,0,0,0,0,0,0,0,0,0,0,0,0],"split_type":[0,0,0,0,0,0,0,0,0,0,0,0,0,0,0,0,0,0,0,0,0,0,0,0,0,0,0,0,0,0,0,0,0,0,0,0,0,0,0,0,0,0,0,0,0,0,0,0,0,0,0,0,0,0,0,0,0,0,0,0,0,0,0,0,0,0,0,0,0,0,0],"sum_hessian":[4.9478374E3,8.6623535E2,4.0816018E3,3.1900897E2,5.472264E2,3.143905E3,9.37697E2,9.8662E1,2.2034698E2,1.0082933E2,4.4639703E2,2.3387397E3,8.051651E2,6.428949E2,2.9480215E2,9.9550934E1,1.2079604E2,5.0528393E1,5.030094E1,1.6775938E2,2.7863763E2,6.678695E2,1.6708704E3,5.134704E2,2.9169467E2,1.9366023E2,4.4923465E2,1.6390918E2,1.3089296E2,6.417173E1,5.6624317E1,1.3475899E2,1.4387865E2,4.868649E2,1.8100461E2,1.0165655E3,6.543048E2,1.9137059E2,3.2209982E2,1.4756697E2,1.441277E2,8.620293E1,1.07457306E2,3.2060895E2,1.2862569E2,9.251402E1,7.1395164E1,5.139528E1,7.949768E1,1.8589473E2,3.0097015E2,5.428545E1,1.2671916E2,7.518659E2,2.6469962E2,5.315781E2,1.2272668E2,5.530171E1,1.3606888E2,2.300901E2,9.2009735E1,5.703048E1,9.053648E1,8.2678734E1,6.1448967E1,5.6211853E1,5.1245457E1,1.8095557E2,1.3965338E2,7.802899E1,5.0596695E1],"tree_param":{"num_deleted":"0","num_feature":"41","num_nodes":"71","size_leaf_vector":"1"}},{"base_weights":[-2.0148327E-4,2.3149393E0,-5.2429736E-1,9.095871E-1,2.7799203E0,-7.178334E-1,1.8493941E-1,4.9589105E-2,4.262076E-1,1.811048E0,3.0853271E0,-8.7352264E-1,-2.779249E-1,-1.6426441E-1,8.346219E-1,2.3341374E-2,-5.920652E-4,6.755736E-2,4.2857777E-2,2.6666305E0,3.3861635E0,-1.0438526E0,-7.288023E-1,-4.4687515E-1,6.2115036E-2,-3.30548E-1,4.128265E-1,4.8747066E-1,1.3556477E0,8.946539E-2,6.8570316E-2,8.862505E-2,1.09174415E-1,-3.2644197E-2,-8.8701814E-1,-8.638351E-1,-5.859797E-1,-5.9916747E-1,-2.8554463E-1,2.1031913E-1,-8.370412E-3,-5.0736755E-1,-8.618615E-3,-4.624449E-3,2.4815746E-2,2.224404E-2,5.5007753E-3,3.096198E-2,5.109444E-2,-2.9044159E-2,-1.9198054E-2,-2.0105075E-2,-2.7068816E-2,-2.0927763E-2,-1.29468655E-2,-2.0301415E-2,-6.6727567E-3,2.2350388E-4,-1.1010411E-2,1.1963785E-2,-4.491566E-3,-9.129035E-3,-2.1936553E-2,-5.950619E-3,1.1149727E-2],"categories":[],"categories_nodes":[],"categories_segments":[],"categories_sizes":[],"default_left":[0,0,0,0,0,0,0,0,0,0,0,0,0,0,0,0,0,0,0,0,0,0,0,0,0,0,0,0,0,0,0,0,0,0,0,0,0,0,0,0,0,0,0,0,0,0,0,0,0,0,0,0,0,0,0,0,0,0,0,0,0,0,0,0,0],"id":2,"left_children":[1,3,5,7,9,11,13,-1,15,17,19,21,23,25,27,-1,-1,-1,-1,29,31,33,35,37,39,41,43,45,47,-1,-1,-1,-1,-1,49,51,53,55,57,59,-1,61,63,-1,-1,-1,-1,-1,-1,-1,-1,-1,-1,-1,-1,-1,-1,-1,-1,-1,-1,-1,-1,-1,-1],"loss_changes":[5.985353E3,5.880913E2,5.527549E2,8.005652E1,1.8845264E2,2.1547339E2,1.9651482E2,0E0,2.2726683E1,2.020575E1,4.3910645E1,5.511035E1,4.794355E1,5.4238678E1,5.250859E1,0E0,0E0,0E0,0E0,1.08828125E1,7.1313477E0,4.4837646E0,2.275061E1,1.2872757E1,1.4054274E1,2.4705193E1,3.021878E1,1.35838585E1,8.53624E0,0E0,0E0,0E0,0E0,0E0,2.9269104E0,2.8207397E0,9.606674E0,7.503418E0,6.7575817E0,1.3463512E1,0E0,1.1861809E1,1.1501575E1,0E0,0E0,0E0,0E0,0E0,0E0,0E0,0E0,0E0,0E0,0E0,0E0,0E0,0E0,0E0,0E0,0E0,0E0,0E0,0E0,0E0,0E0],"parents":[2147483647,0,0,1,1,2,2,3,3,4,4,5,5,6,6,8,8,9,9,10,10,11,11,12,12,13,13,14,14,19,19,20,20,21,21,22,22,23,23,24,24,25,25,26,26,27,27,28,28,34,34,35,35,36,36,37,37,38,38,39,39,41,41,42,42],"right_children":[2,4,6,8,10,12,14,-1,16,18,20,22,24,26,28,-1,-1,-1,-1,30,32,34,36,38,40,42,44,46,48,-1,-1,-1,-1,-1,50,52,54,56,58,60,-1,62,64,-1,-1,-1,-1,-1,-1,-1,-1,-1,-1,-1,-1,-1,-1,-1,-1,-1,-1,-1,-1,-1,-1],"split_conditions":[2E0,4.91E0,6.8666667E-1,1.4E-1,7E-2,2.5E-1,2.4E-1,4.9589105E-2,2E-1,2E0,4.9666667E-1,5E0,6.666667E-2,1.5E1,1.2633333E0,2.3341374E-2,-5.920652E-4,6.755736E-2,4.2857777E-2,1.2E-1,4E0,1.1E-1,-2.2166666E-1,-5.233333E-1,6.3E0,1E-1,1.0933334E0,1.1E-1,4E-1,8.946539E-2,6.8570316E-2,8.862505E-2,1.09174415E-1,-3.2644197E-2,-9.6666664E-2,2E0,4E0,3E-1,2E0,3E0,-8.370412E-3,6E0,1.3366667E0,-4.624449E-3,2.4815746E-2,2.224404E-2,5.5007753E-3,3.096198E-2,5.109444E-2,-2.9044159E-2,-1.9198054E-2,-2.0105075E-2,-2.7068816E-2,-2.0927763E-2,-1.29468655E-2,-2.0301415E-2,-6.6727567E-3,2.2350388E-4,-1.1010411E-2,1.1963785E-2,-4.491566E-3,-9.129035E-3,-2.1936553E-2,-5.950619E-3,1.1149727E-2],"split_indices":[0,2,17,8,34,27,27,0,8,15,17,19,17,19,17,0,0,0,0,8,1,27,17,17,2,27,17,8,27,0,0,0,0,0,17,29,35,34,31,15,0,0,17,0,0,0,0,0,0,0,0,0,0,0,0,0,0,0,0,0,0,0,0,0,0],"split_type":[0,0,0,0,0,0,0,0,0,0,0,0,0,0,0,0,0,0,0,0,0,0,0,0,0,0,0,0,0,0,0,0,0,0,0,0,0,0,0,0,0,0,0,0,0,0,0,0,0,0,0,0,0,0,0,0,0,0,0,0,0,0,0,0,0],"sum_hessian":[4.9296294E3,9.0852466E2,4.0211047E3,2.2760431E2,6.8092035E2,3.1595967E3,8.6150793E2,8.736823E1,1.4023608E2,1.6691048E2,5.140099E2,2.3313826E3,8.2821405E2,5.6080206E2,3.0070593E2,7.818321E1,6.2052868E1,7.2386154E1,9.452432E1,2.2385045E2,2.9015942E2,1.0636406E3,1.2677421E3,5.5386566E2,2.743484E2,4.3669354E2,1.2410849E2,1.8336414E2,1.173418E2,1.14248116E2,1.0960233E2,1.1725906E2,1.7290036E2,8.176778E2,2.459628E2,6.4465247E2,6.2308954E2,2.8052725E2,2.7333838E2,1.9281302E2,8.153537E1,2.8012814E2,1.565654E2,5.2424908E1,7.1683586E1,9.745128E1,8.591285E1,6.561858E1,5.172321E1,1.7925194E2,6.671085E1,1.1506671E2,5.295858E2,3.5571045E2,2.6737912E2,2.3022046E2,5.0306805E1,5.8528122E1,2.1481026E2,1.27330925E2,6.548209E1,1.5052855E2,1.2959958E2,1.0596617E2,5.0599236E1],"tree_param":{"num_deleted":"0","num_feature":"41","num_nodes":"65","size_leaf_vector":"1"}},{"base_weights":[-7.690838E-3,2.169892E0,-5.223228E-1,1.3293678E0,2.741469E0,-7.6334006E-1,5.452415E-2,2.0672815E0,7.048747E-1,3.162356E0,1.8267064E0,-9.0332735E-1,-3.5511708E-1,4.0640473E-1,-4.921801E-1,3.634951E-2,7.265127E-2,-0E0,9.89998E-1,1.0313166E-1,2.826969E0,2.1741445E0,3.1584073E-2,-7.137659E-1,-1.0271621E0,-2.8896872E-2,-5.0723976E-1,6.717035E-1,-1.2527966E-1,-7.379447E-1,1.2708867E-1,3.8837045E-2,1.4331461E-2,9.0591826E-2,6.772689E-2,4.973096E-2,7.964039E-2,-4.9351326E-1,-9.0311205E-1,-8.1872106E-1,-3.345704E-2,-2.883288E-1,1.9363597E-1,-6.7669445E-1,-2.328273E-1,3.48504E-1,1.1808784E0,-3.4679183E-1,9.211799E-3,-1.0297447E-2,-8.08757E-1,-5.4066074E-3,1.1315261E-2,-1.7802158E-3,-1.7780153E-2,-2.9324297E-2,-2.1458244E-2,-2.6935237E-2,-1.6103275E-2,-1.7958482E-3,-1.5314947E-2,1.3193962E-2,-0E0,-1.5389338E-2,-2.3182154E-2,-5.651384E-4,-1.588438E-2,3.0378932E-3,1.8513544E-2,5.311402E-2,2.2442758E-2,-1.9479986E-2,-4.049606E-3,-2.634833E-2,-1.4525143E-2],"categories":[],"categories_nodes":[],"categories_segments":[],"categories_sizes":[],"default_left":[0,0,0,0,0,0,0,0,0,0,0,0,0,0,0,0,0,0,0,0,0,0,0,0,0,0,0,0,0,0,0,0,0,0,0,0,0,0,0,0,0,0,0,0,0,0,0,0,0,0,0,0,0,0,0,0,0,0,0,0,0,0,0,0,0,0,0,0,0,0,0,0,0,0,0],"id":3,"left_children":[1,3,5,7,9,11,13,15,17,19,21,23,25,27,29,-1,-1,-1,31,-1,33,35,-1,37,39,41,43,45,47,49,51,-1,-1,-1,-1,-1,-1,53,55,57,-1,59,61,63,65,67,69,71,-1,-1,73,-1,-1,-1,-1,-1,-1,-1,-1,-1,-1,-1,-1,-1,-1,-1,-1,-1,-1,-1,-1,-1,-1,-1,-1],"loss_changes":[5.5196055E3,4.4297754E2,5.54416E2,1.7326044E2,2.0084619E2,1.5937317E2,2.2648956E2,4.5450806E1,4.3059967E1,1.244751E1,4.247461E1,4.6749756E1,3.5533943E1,1.015528E2,7.060269E1,0E0,0E0,0E0,2.1507858E1,0E0,3.8151855E0,1.9465637E1,0E0,3.320871E1,2.0313354E1,1.3598334E1,2.2073349E1,7.7263214E1,2.3185917E1,8.110321E0,1.0379597E1,0E0,0E0,0E0,0E0,0E0,0E0,1.645234E1,3.9720764E0,6.864105E0,0E0,5.2028008E0,6.126558E0,3.3055725E0,1.1876253E1,1.9209717E1,4.31976E1,9.696833E0,0E0,0E0,4.737137E0,0E0,0E0,0E0,0E0,0E0,0E0,0E0,0E0,0E0,0E0,0E0,0E0,0E0,0E0,0E0,0E0,0E0,0E0,0E0,0E0,0E0,0E0,0E0,0E0],"parents":[2147483647,0,0,1,1,2,2,3,3,4,4,5,5,6,6,7,7,8,8,9,9,10,10,11,11,12,12,13,13,14,14,18,18,20,20,21,21,23,23,24,24,25,25,26,26,27,27,28,28,29,29,30,30,37,37,38,38,39,39,41,41,42,42,43,43,44,44,45,45,46,46,47,47,50,50],"right_children":[2,4,6,8,10,12,14,16,18,20,22,24,26,28,30,-1,-1,-1,32,-1,34,36,-1,38,40,42,44,46,48,50,52,-1,-1,-1,-1,-1,-1,54,56,58,-1,60,62,64,66,68,70,72,-1,-1,74,-1,-1,-1,-1,-1,-1,-1,-1,-1,-1,-1,-1,-1,-1,-1,-1,-1,-1,-1,-1,-1,-1,-1,-1],"split_conditions":[2E0,3.6E1,4.5333335E-1,3E0,4E0,2.5E-1,4E0,-6.716667E-1,-7.8833336E-1,2E0,2E-1,4E0,2E0,5E0,1.5E1,3.634951E-2,7.265127E-2,-0E0,2E-1,1.0313166E-1,3E0,6.666667E-1,3.1584073E-2,5E0,4E0,-3.4833333E-1,-1.75E-1,1.13E0,1.3333334E0,4E0,1E0,3.8837045E-2,1.4331461E-2,9.0591826E-2,6.772689E-2,4.973096E-2,7.964039E-2,2E0,-1.0666667E-1,3.58E1,-3.345704E-2,6.78E0,3.125E1,3E0,4.141E1,3.2E-1,2E0,1E-1,9.211799E-3,-1.0297447E-2,1.385E0,-5.4066074E-3,1.1315261E-2,-1.7802158E-3,-1.7780153E-2,-2.9324297E-2,-2.1458244E-2,-2.6935237E-2,-1.6103275E-2,-1.7958482E-3,-1.5314947E-2,1.3193962E-2,-0E0,-1.5389338E-2,-2.3182154E-2,-5.651384E-4,-1.588438E-2,3.0378932E-3,1.8513544E-2,5.311402E-2,2.2442758E-2,-1.9479986E-2,-4.049606E-3,-2.634833E-2,-1.4525143E-2],"split_indices":[0,3,17,20,20,27,20,17,17,20,8,20,20,0,19,0,0,0,8,0,16,40,0,0,0,17,17,17,40,0,40,0,0,0,0,0,0,20,17,3,0,36,5,20,3,27,20,27,0,0,17,0,0,0,0,0,0,0,0,0,0,0,0,0,0,0,0,0,0,0,0,0,0,0,0],"split_type":[0,0,0,0,0,0,0,0,0,0,0,0,0,0,0,0,0,0,0,0,0,0,0,0,0,0,0,0,0,0,0,0,0,0,0,0,0,0,0,0,0,0,0,0,0,0,0,0,0,0,0,0,0,0,0,0,0,0,0,0,0,0,0,0,0,0,0,0,0,0,0,0,0,0,0],"sum_hessian":[4.9220566E3,9.394633E2,3.9825933E3,3.8331354E2,5.561498E2,2.8091138E3,1.1734795E3,1.7321631E2,2.1009723E2,3.771572E2,1.7899257E2,2.089079E3,7.200347E2,7.1482043E2,4.5865903E2,5.373688E1,1.1947942E2,6.0642563E1,1.4945467E2,1.9613322E2,1.8102397E2,1.2058995E2,5.8402622E1,8.3241516E2,1.256664E3,2.3078767E2,4.8924704E2,4.7714786E2,2.3767258E2,3.2865305E2,1.3000598E2,9.120181E1,5.825285E1,1.281554E2,5.2868572E1,6.291413E1,5.7675823E1,3.8935733E2,4.4305783E2,3.8106625E2,8.7559766E2,1.0732371E2,1.2346397E2,2.9952863E2,1.8971841E2,2.945394E2,1.8260849E2,1.5818015E2,7.949243E1,5.284711E1,2.7580594E2,5.7683445E1,7.232253E1,7.392237E1,3.1543497E2,3.0946964E2,1.335882E2,2.9276697E2,8.829929E1,5.5273155E1,5.2050552E1,5.3995506E1,6.946846E1,1.17361885E2,1.8216675E2,1.1242985E2,7.728856E1,1.5577477E2,1.3876462E2,7.419496E1,1.0841352E2,6.2464336E1,9.5715805E1,2.2307494E2,5.273099E1],"tree_param":{"num_deleted":"0","num_feature":"41","num_nodes":"75","size_leaf_vector":"1"}},{"base_weights":[-1.9013103E-3,2.0418983E0,-5.124731E-1,1.2402627E0,2.4873867E0,2.6777452E-3,-7.573645E-1,1.5341673E0,9.001929E-3,2.698669E0,1.5771837E0,-3.1969762E-1,4.478708E-1,-8.9250284E-1,-3.6915484E-1,1.1689212E0,2.099195E0,9.173578E-2,7.401836E-2,3.8108144E-2,5.668043E-2,-4.4534424E-1,2.4212596E-1,1.6892542E-1,9.783028E-1,-1.0324738E0,-7.6555955E-1,-1.1184121E-1,-4.6532038E-1,4.814395E-2,9.2578894E-1,7.307571E-2,5.04282E-2,-5.29191E-1,1.9183434E-3,1.5077106E-2,-4.8534507E-3,3.298917E-1,-2.2395138E-1,2.0748885E-2,3.652635E-2,-1.07629E0,-8.7577003E-1,-8.777583E-1,-6.685459E-1,4.1041183E-3,-3.0719778E-1,-3.1801036E-1,-6.100394E-1,1.6483953E-2,3.5872124E-2,-8.783435E-3,-1.9685572E-2,4.339182E-3,1.8476006E-2,-1.1007973E-2,-1.8687511E-3,-3.3285614E-2,-2.5851715E-2,-2.8291764E-2,-1.952904E-2,-2.7741492E-2,-2.0917673E-2,-1.0708926E-2,-2.126821E-2,-1.7357169E-2,-8.229272E-4,-5.179689E-3,-1.5041053E-2,-2.2802355E-2,-1.44964345E-2],"categories":[],"categories_nodes":[],"categories_segments":[],"categories_sizes":[],"default_left":[0,0,0,0,0,0,0,0,0,0,0,0,0,0,0,0,0,0,0,0,0,0,0,0,0,0,0,0,0,0,0,0,0,0,0,0,0,0,0,0,0,0,0,0,0,0,0,0,0,0,0,0,0,0,0,0,0,0,0,0,0,0,0,0,0,0,0,0,0,0,0],"id":4,"left_children":[1,3,5,7,9,11,13,15,-1,17,19,21,23,25,27,29,31,-1,-1,-1,-1,33,35,37,39,41,43,45,47,-1,49,-1,-1,51,-1,-1,-1,53,55,-1,-1,57,59,61,63,-1,65,67,69,-1,-1,-1,-1,-1,-1,-1,-1,-1,-1,-1,-1,-1,-1,-1,-1,-1,-1,-1,-1,-1,-1],"loss_changes":[5.1415186E3,3.4365674E2,4.978252E2,9.6582886E1,1.10625244E2,1.8288208E2,1.3895459E2,4.9273865E1,0E0,2.441626E1,5.506531E0,5.242634E1,7.8350876E1,3.271228E1,1.6796272E1,1.3707199E1,4.2753296E0,0E0,0E0,0E0,0E0,2.6122238E1,1.4585205E1,2.2592415E1,9.95134E0,3.5543213E0,9.463196E0,9.54559E0,9.88446E0,0E0,9.410194E0,0E0,0E0,1.4761398E1,0E0,0E0,0E0,1.2838554E1,2.1249566E0,0E0,0E0,2.2283325E0,1.2636719E0,1.9450989E0,6.172119E0,0E0,8.00457E0,6.298517E0,3.4039078E0,0E0,0E0,0E0,0E0,0E0,0E0,0E0,0E0,0E0,0E0,0E0,0E0,0E0,0E0,0E0,0E0,0E0,0E0,0E0,0E0,0E0,0E0],"parents":[2147483647,0,0,1,1,2,2,3,3,4,4,5,5,6,6,7,7,9,9,10,10,11,11,12,12,13,13,14,14,15,15,16,16,21,21,22,22,23,23,24,24,25,25,26,26,27,27,28,28,30,30,33,33,37,37,38,38,41,41,42,42,43,43,44,44,46,46,47,47,48,48],"right_children":[2,4,6,8,10,12,14,16,-1,18,20,22,24,26,28,30,32,-1,-1,-1,-1,34,36,38,40,42,44,46,48,-1,50,-1,-1,52,-1,-1,-1,54,56,-1,-1,58,60,62,64,-1,66,68,70,-1,-1,-1,-1,-1,-1,-1,-1,-1,-1,-1,-1,-1,-1,-1,-1,-1,-1,-1,-1,-1,-1],"split_conditions":[2E0,3E0,3E0,2E-1,1.9E-1,2E-1,2.5E-1,5.9591837E0,9.001929E-3,2E0,4.107E1,1.5E1,1.1666666E0,5E0,4E0,8.164966E-1,1.3E-1,9.173578E-2,7.401836E-2,3.8108144E-2,5.668043E-2,1.5E0,2.8333333E0,3.1666667E0,3.3E-1,1.1E-1,5E-2,2.6666667E0,5.21E1,4.814395E-2,2.215E1,7.307571E-2,5.04282E-2,5E0,1.9183434E-3,1.5077106E-2,-4.8534507E-3,3.9E-1,7.5703244E0,2.0748885E-2,3.652635E-2,1.8465E0,6.2460318E0,1.6666667E-1,2.3333333E0,4.1041183E-3,2.56E0,1.1E-1,6.658E1,1.6483953E-2,3.5872124E-2,-8.783435E-3,-1.9685572E-2,4.339182E-3,1.8476006E-2,-1.1007973E-2,-1.8687511E-3,-3.3285614E-2,-2.5851715E-2,-2.8291764E-2,-1.952904E-2,-2.7741492E-2,-2.0917673E-2,-1.0708926E-2,-2.126821E-2,-1.7357169E-2,-8.229272E-4,-5.179689E-3,-1.5041053E-2,-2.2802355E-2,-1.44964345E-2],"split_indices":[0,1,16,8,8,27,27,24,0,16,5,19,40,19,16,39,8,0,0,0,0,40,38,38,27,27,27,38,10,0,5,0,0,0,0,0,0,27,24,0,0,25,24,40,38,0,25,8,21,0,0,0,0,0,0,0,0,0,0,0,0,0,0,0,0,0,0,0,0,0,0],"split_type":[0,0,0,0,0,0,0,0,0,0,0,0,0,0,0,0,0,0,0,0,0,0,0,0,0,0,0,0,0,0,0,0,0,0,0,0,0,0,0,0,0,0,0,0,0,0,0,0,0,0,0,0,0,0,0,0,0,0,0,0,0,0,0,0,0,0,0,0,0,0,0],"sum_hessian":[4.9238823E3,9.8279877E2,3.9410837E3,3.541726E2,6.2862616E2,1.2698267E3,2.671257E3,2.6845782E2,8.571478E1,5.0656082E2,1.2206534E2,7.361806E2,5.3364606E2,1.9786057E3,6.926514E2,1.6732066E2,1.0113717E2,1.880527E2,3.1850812E2,6.747034E1,5.4595E1,6.026975E2,1.3348306E2,3.5207513E2,1.8157089E2,9.323579E2,1.0462478E3,1.9103026E2,5.0162115E2,5.516526E1,1.121554E2,5.0026604E1,5.111057E1,5.1827496E2,8.442256E1,8.160963E1,5.1873444E1,2.5087994E2,1.011952E2,8.7088455E1,9.448243E1,7.1696027E2,2.1539763E2,4.7530084E2,5.7094696E2,8.318913E1,1.07841125E2,2.5346654E2,2.4815462E2,5.0156902E1,6.19985E1,1.8480157E2,3.3347336E2,1.5514091E2,9.573903E1,5.0711002E1,5.0484196E1,6.1157184E2,1.0538848E2,1.5914676E2,5.6250862E1,3.6843552E2,1.06865326E2,6.920302E1,5.0174393E2,5.2750103E1,5.5091022E1,1.4507274E2,1.083938E2,1.072934E2,1.408612E2],"tree_param":{"num_deleted":"0","num_feature":"41","num_nodes":"71","size_leaf_vector":"1"}},{"base_weights":[-3.72967E-3,1.8963176E0,-5.029059E-1,8.2702917E-1,2.2207034E0,-7.279799E-1,8.879041E-2,1.5650941E0,2.76155E-1,2.5743454E0,1.4894938E0,-8.668368E-1,-3.3765018E-1,4.3352953E-1,-4.6837857E-1,5.5897605E-2,3.5939097E-2,1.7251913E-2,-5.4891077E-3,2.1802735E0,8.388492E-2,1.7728202E0,2.7161226E-2,-6.7523056E-1,-9.959442E-1,-2.6547732E-2,-4.8358488E-1,1.7614426E-1,8.759636E-1,-7.229449E-1,1.2899451E-1,7.596396E-2,5.3436514E-2,4.0230427E-2,6.885444E-2,-4.448001E-1,-8.732792E-1,-7.850012E-1,-3.265586E-2,-2.9439044E-1,1.774977E-1,-6.3329434E-1,-2.7724123E-1,-2.655187E-1,4.0627643E-1,5.2290756E-1,4.2300962E-2,-8.1167865E-1,-1.1005113E-2,-3.9825593E-3,1.1732364E-2,-2.5485407E-4,-1.6361402E-2,-2.9298814E-2,-1.963179E-2,-2.6122054E-2,-1.4515486E-2,-1.5300648E-2,-1.6624446E-3,1.2868237E-2,-5.5133796E-4,-1.4305159E-2,-2.1893617E-2,2.1349066E-3,-1.1799721E-2,-1.4451241E-2,-3.3207843E-4,1.7030127E-2,-3.5223784E-3,2.6903596E-2,6.1959494E-3,-2.6469273E-2,-1.6221035E-2],"categories":[],"categories_nodes":[],"categories_segments":[],"categories_sizes":[],"default_left":[0,0,0,0,0,0,0,0,0,0,0,0,0,0,0,0,0,0,0,0,0,0,0,0,0,0,0,0,0,0,0,0,0,0,0,0,0,0,0,0,0,0,0,0,0,0,0,0,0,0,0,0,0,0,0,0,0,0,0,0,0,0,0,0,0,0,0,0,0,0,0,0,0],"id":5,"left_children":[1,3,5,7,9,11,13,15,17,19,21,23,25,27,29,-1,-1,-1,-1,31,-1,33,-1,35,37,39,41,43,45,47,49,-1,-1,-1,-1,51,53,55,-1,57,59,61,63,65,67,69,-1,71,-1,-1,-1,-1,-1,-1,-1,-1,-1,-1,-1,-1,-1,-1,-1,-1,-1,-1,-1,-1,-1,-1,-1,-1,-1],"loss_changes":[4.6653027E3,3.4976147E2,5.1932794E2,9.6499725E1,1.9292993E2,1.5183923E2,2.0684015E2,5.2246857E0,1.978939E1,3.1207031E1,3.858734E1,4.9281616E1,3.35457E1,7.495993E1,6.302169E1,0E0,0E0,0E0,0E0,1.6759216E1,0E0,3.1011963E1,0E0,3.7137177E1,2.1514526E1,1.3340339E1,1.4823227E1,4.338295E1,4.348697E1,7.9552E0,8.738877E0,0E0,0E0,0E0,0E0,1.7088058E1,8.11554E0,8.45047E0,0E0,5.1266108E0,6.9706893E0,3.082611E0,9.02162E0,7.7586584E0,2.404913E1,1.6866001E1,0E0,2.7130127E0,0E0,0E0,0E0,0E0,0E0,0E0,0E0,0E0,0E0,0E0,0E0,0E0,0E0,0E0,0E0,0E0,0E0,0E0,0E0,0E0,0E0,0E0,0E0,0E0,0E0],"parents":[2147483647,0,0,1,1,2,2,3,3,4,4,5,5,6,6,7,7,8,8,9,9,10,10,11,11,12,12,13,13,14,14,19,19,21,21,23,23,24,24,25,25,26,26,27,27,28,28,29,29,30,30,35,35,36,36,37,37,39,39,40,40,41,41,42,42,43,43,44,44,45,45,47,47],"right_children":[2,4,6,8,10,12,14,16,18,20,22,24,26,28,30,-1,-1,-1,-1,32,-1,34,-1,36,38,40,42,44,46,48,50,-1,-1,-1,-1,52,54,56,-1,58,60,62,64,66,68,70,-1,72,-1,-1,-1,-1,-1,-1,-1,-1,-1,-1,-1,-1,-1,-1,-1,-1,-1,-1,-1,-1,-1,-1,-1,-1,-1],"split_conditions":[2E0,4.91E0,5.2666664E-1,3E0,4E0,2.5E-1,4E0,8.3666E-1,2E-1,4.086E1,2E-1,4E0,2E0,1.2366667E0,1.5E1,5.5897605E-2,3.5939097E-2,1.7251913E-2,-5.4891077E-3,2E0,8.388492E-2,6.666667E-1,2.7161226E-2,5E0,4E0,-3.6666667E-1,-1.75E-1,1.5E-1,1.5E1,1.3E-1,1.1666666E0,7.596396E-2,5.3436514E-2,4.0230427E-2,6.885444E-2,2E0,-1.0666667E-1,3.656E1,-3.265586E-2,5.313402E0,3.125E1,-1.1666667E-1,2.5E0,8.5333335E-1,3E0,2E0,4.2300962E-2,1.3366667E0,-1.1005113E-2,-3.9825593E-3,1.1732364E-2,-2.5485407E-4,-1.6361402E-2,-2.9298814E-2,-1.963179E-2,-2.6122054E-2,-1.4515486E-2,-1.5300648E-2,-1.6624446E-3,1.2868237E-2,-5.5133796E-4,-1.4305159E-2,-2.1893617E-2,2.1349066E-3,-1.1799721E-2,-1.4451241E-2,-3.3207843E-4,1.7030127E-2,-3.5223784E-3,2.6903596E-2,6.1959494E-3,-2.6469273E-2,-1.6221035E-2],"split_indices":[0,2,17,20,20,27,20,39,8,3,8,20,20,17,19,0,0,0,0,20,0,40,0,0,0,17,17,27,19,27,40,0,0,0,0,20,17,3,0,24,5,32,38,17,38,20,0,17,0,0,0,0,0,0,0,0,0,0,0,0,0,0,0,0,0,0,0,0,0,0,0,0,0],"split_type":[0,0,0,0,0,0,0,0,0,0,0,0,0,0,0,0,0,0,0,0,0,0,0,0,0,0,0,0,0,0,0,0,0,0,0,0,0,0,0,0,0,0,0,0,0,0,0,0,0,0,0,0,0,0,0,0,0,0,0,0,0,0,0,0,0,0,0,0,0,0,0,0,0],"sum_hessian":[4.9155503E3,1.0213436E3,3.8942065E3,2.3973476E2,7.816089E2,2.8213748E3,1.0728318E3,1.0049757E2,1.3923718E2,5.2295966E2,2.5864923E2,2.0783093E3,7.430653E2,6.6358856E2,4.0924326E2,5.0208412E1,5.028915E1,8.4686745E1,5.4550446E1,1.9696104E2,3.259986E2,1.7085175E2,8.779748E1,8.4322534E2,1.235084E3,2.3911401E2,5.039513E2,4.2201083E2,2.4157771E2,2.8725018E2,1.2199308E2,9.832328E1,9.863777E1,9.796035E1,7.28914E1,3.9391736E2,4.4930798E2,3.8416556E2,8.5091846E2,1.0407007E2,1.3504395E2,2.8825266E2,2.1569864E2,1.4371568E2,2.7829514E2,1.4838165E2,9.319607E1,2.2677937E2,6.047081E1,6.057516E1,6.1417915E1,7.513408E1,3.1878326E2,2.989498E2,1.5035822E2,2.9479758E2,8.9368E1,5.2414783E1,5.1655285E1,5.920982E1,7.583413E1,1.1647032E2,1.7178233E2,5.302346E1,1.6267519E2,7.567131E1,6.804437E1,2.1333478E2,6.4960365E1,6.56041E1,8.277755E1,1.7484795E2,5.1931435E1],"tree_param":{"num_deleted":"0","num_feature":"41","num_nodes":"73","size_leaf_vector":"1"}},{"base_weights":[7.805362E-5,1.7826675E0,-4.8172015E-1,9.947214E-1,2.1057775E0,2.7348273E-3,-7.196876E-1,5.7618994E-1,1.5851308E0,1.2166446E0,2.290141E0,-2.5934917E-1,5.326271E-1,-8.451187E-1,-2.564241E-1,-2.1166208E-3,8.6944085E-1,3.2046434E-2,6.1328586E-2,2.4590451E-2,4.6136968E-2,2.4636557E0,1.9565619E0,-4.4593713E-1,2.572054E-1,6.9271594E-1,-3.9032314E-3,-1.0096374E0,-7.04709E-1,3.8521413E-2,-3.7329593E-1,3.1442974E-2,1.764106E-2,2.6182675E0,2.08126E0,4.4725306E-2,6.320196E-2,-1.086644E-1,-5.9895647E-1,2.731196E-2,-4.026129E-2,2.766929E-3,8.348224E-1,-3.1670365E-2,-8.5897213E-1,-6.00044E-1,-8.274281E-1,-1.344247E-1,1.09293135E-2,-5.9412247E-1,-2.3929341E-1,8.244907E-2,6.4714536E-2,5.216263E-2,7.315574E-2,2.164959E-3,-9.575674E-3,-2.3448434E-2,-1.11106485E-2,-7.5693037E-3,9.501373E-3,2.0782866E-2,4.072268E-2,-2.8073195E-2,-1.7664548E-2,-2.7485913E-2,-1.6520543E-2,-2.8910358E-2,-2.1848986E-2,-1.0295882E-2,2.0793185E-3,-1.2401129E-2,-2.3371743E-2,-1.3116174E-2,-4.217061E-3],"categories":[],"categories_nodes":[],"categories_segments":[],"categories_sizes":[],"default_left":[0,0,0,0,0,0,0,0,0,0,0,0,0,0,0,0,0,0,0,0,0,0,0,0,0,0,0,0,0,0,0,0,0,0,0,0,0,0,0,0,0,0,0,0,0,0,0,0,0,0,0,0,0,0,0,0,0,0,0,0,0,0,0,0,0,0,0,0,0,0,0,0,0,0,0],"id":6,"left_children":[1,3,5,7,9,11,13,15,17,19,21,23,25,27,29,-1,31,-1,-1,-1,-1,33,35,37,39,41,-1,43,45,47,49,-1,-1,51,53,-1,-1,55,57,-1,59,-1,61,-1,63,65,67,69,-1,71,73,-1,-1,-1,-1,-1,-1,-1,-1,-1,-1,-1,-1,-1,-1,-1,-1,-1,-1,-1,-1,-1,-1,-1,-1],"loss_changes":[4.1941387E3,2.5881348E2,4.434663E2,7.281317E1,1.1310718E2,1.7642186E2,1.4882837E2,3.522085E1,2.3857483E1,1.2994339E1,2.3212402E1,8.2122635E1,4.5095566E1,4.4546875E1,1.9260105E1,0E0,4.312134E0,0E0,0E0,0E0,0E0,9.797607E0,7.164795E0,3.1767647E1,4.4375706E1,2.8375702E1,0E0,3.6607056E0,1.2447388E1,9.089916E0,1.1061367E1,0E0,0E0,1.8129883E0,4.4712524E0,0E0,0E0,7.726281E0,1.6734146E1,0E0,1.19749975E1,0E0,1.7423126E1,0E0,2.9137878E0,7.6862335E0,4.5002747E0,4.5814934E0,0E0,3.6854935E0,4.51468E0,0E0,0E0,0E0,0E0,0E0,0E0,0E0,0E0,0E0,0E0,0E0,0E0,0E0,0E0,0E0,0E0,0E0,0E0,0E0,0E0,0E0,0E0,0E0,0E0],"parents":[2147483647,0,0,1,1,2,2,3,3,4,4,5,5,6,6,7,7,8,8,9,9,10,10,11,11,12,12,13,13,14,14,16,16,21,21,22,22,23,23,24,24,25,25,27,27,28,28,29,29,30,30,33,33,34,34,37,37,38,38,40,40,42,42,44,44,45,45,46,46,47,47,49,49,50,50],"right_children":[2,4,6,8,10,12,14,16,18,20,22,24,26,28,30,-1,32,-1,-1,-1,-1,34,36,38,40,42,-1,44,46,48,50,-1,-1,52,54,-1,-1,56,58,-1,60,-1,62,-1,64,66,68,70,-1,72,74,-1,-1,-1,-1,-1,-1,-1,-1,-1,-1,-1,-1,-1,-1,-1,-1,-1,-1,-1,-1,-1,-1,-1,-1],"split_conditions":[2E0,6.0642858E0,3E0,-1.6666667E-1,4E-2,2.5E-1,3E-1,4E-2,3.2E-1,6.8843646E0,3E0,1.3333334E0,3.1666667E0,6E0,4E0,-2.1166208E-3,3E0,3.2046434E-2,6.1328586E-2,2.4590451E-2,4.6136968E-2,3E0,1.5E-1,4E0,4E0,1.86E0,-3.9032314E-3,1.1E-1,5E0,7.304E1,-5E-1,3.1442974E-2,1.764106E-2,4.6666667E-1,1E0,4.4725306E-2,6.320196E-2,4E0,9E-2,2.731196E-2,1.1E-1,2.766929E-3,4.31E1,-3.1670365E-2,6.332149E0,-1E-1,4E-2,5E0,1.09293135E-2,5.24E1,3.115E1,8.244907E-2,6.4714536E-2,5.216263E-2,7.315574E-2,2.164959E-3,-9.575674E-3,-2.3448434E-2,-1.11106485E-2,-7.5693037E-3,9.501373E-3,2.0782866E-2,4.072268E-2,-2.8073195E-2,-1.7664548E-2,-2.7485913E-2,-1.6520543E-2,-2.8910358E-2,-2.1848986E-2,-1.0295882E-2,2.0793185E-3,-1.2401129E-2,-2.3371743E-2,-1.3116174E-2,-4.217061E-3],"split_indices":[0,24,16,40,34,27,27,34,27,24,16,40,38,19,16,0,13,0,0,0,0,13,34,0,0,33,0,27,16,21,40,0,0,32,40,0,0,30,27,0,27,0,6,0,24,34,27,22,0,10,7,0,0,0,0,0,0,0,0,0,0,0,0,0,0,0,0,0,0,0,0,0,0,0,0],"split_type":[0,0,0,0,0,0,0,0,0,0,0,0,0,0,0,0,0,0,0,0,0,0,0,0,0,0,0,0,0,0,0,0,0,0,0,0,0,0,0,0,0,0,0,0,0,0,0,0,0,0,0,0,0,0,0,0,0,0,0,0,0,0,0,0,0,0,0,0,0,0,0,0,0,0,0],"sum_hessian":[4.8786875E3,1.0371198E3,3.8415679E3,3.044305E2,7.326892E2,1.2653795E3,2.5761882E3,1.8095393E2,1.2347657E2,1.2890895E2,6.037803E2,8.466869E2,4.1869263E2,2.0251422E3,5.510462E2,5.6394245E1,1.2455969E2,6.1726696E1,6.1749878E1,6.1533524E1,6.737543E1,3.8779498E2,2.1598529E2,6.229195E2,2.2376738E2,3.3776645E2,8.09262E1,9.251719E2,1.0999702E3,1.5555069E2,3.9549548E2,7.176917E1,5.2790524E1,2.668853E2,1.2090967E2,5.8803757E1,1.5718153E2,1.964994E2,4.264201E2,6.925449E1,1.545129E2,6.594132E1,2.718251E2,6.96881E2,2.2829092E2,6.0220966E2,4.9776065E2,1.0137533E2,5.417536E1,1.4535774E2,2.5013774E2,1.9959494E2,6.7290375E1,6.843499E1,5.2474678E1,1.05134125E2,9.136528E1,2.3312349E2,1.9329662E2,9.8179535E1,5.6333355E1,2.1813635E2,5.368876E1,1.7247899E2,5.581193E1,7.521215E1,5.269975E2,2.0015886E2,2.9760178E2,5.060479E1,5.0770542E1,7.814996E1,6.720778E1,7.9281425E1,1.7085632E2],"tree_param":{"num_deleted":"0","num_feature":"41","num_nodes":"75","size_leaf_vector":"1"}},{"base_weights":[1.6625439E-3,1.6954154E0,-4.7615886E-1,7.138496E-1,1.9968756E0,-7.00749E-1,1.20066494E-1,1.323135E0,2.4084038E-1,2.2835104E0,1.3614428E0,-3.698095E-1,-8.711158E-1,4.413448E-1,-4.23476E-1,2.8790649E-2,5.0350234E-2,1.47404E-2,-4.447774E-3,1.8064524E0,7.3079586E-2,2.648935E-2,1.6408327E0,-7.63768E-1,-1.8451932E-1,-6.5254205E-1,-1.0129102E0,-1.5033479E-1,6.328731E-1,-6.7143255E-1,1.418832E-1,6.2904395E-2,4.4198997E-2,3.50171E-2,5.7550915E-2,-8.531978E-1,-1.2988337E-2,-3.1426752E-1,6.0214885E-2,-7.714261E-1,-3.499251E-1,-8.3000445E-1,-1.0632222E0,4.5789317E-3,-1.101617E-2,3.4771836E-1,1.0825975E0,-7.5691545E-1,-9.238994E-3,-5.7813036E-4,1.0493068E-2,-2.7875898E-2,-1.6406551E-2,-1.4388251E-2,-3.931261E-3,-7.6709636E-3,1.0704763E-2,-2.637475E-2,-2.077263E-2,-4.1879024E-3,-1.8865021E-2,-2.7661687E-2,-1.8716915E-2,-3.23936E-2,-2.4951128E-2,2.2352673E-2,4.1292864E-3,4.5725618E-2,2.2426272E-2,-2.4622345E-2,-1.5431954E-2],"categories":[],"categories_nodes":[],"categories_segments":[],"categories_sizes":[],"default_left":[0,0,0,0,0,0,0,0,0,0,0,0,0,0,0,0,0,0,0,0,0,0,0,0,0,0,0,0,0,0,0,0,0,0,0,0,0,0,0,0,0,0,0,0,0,0,0,0,0,0,0,0,0,0,0,0,0,0,0,0,0,0,0,0,0,0,0,0,0,0,0],"id":7,"left_children":[1,3,5,7,9,11,13,15,17,19,21,23,25,27,29,-1,-1,-1,-1,31,-1,-1,33,35,37,39,41,43,45,47,49,-1,-1,-1,-1,51,-1,53,55,57,59,61,63,-1,-1,65,67,69,-1,-1,-1,-1,-1,-1,-1,-1,-1,-1,-1,-1,-1,-1,-1,-1,-1,-1,-1,-1,-1,-1,-1],"loss_changes":[3.9580732E3,3.14239E2,5.111424E2,7.246362E1,1.4164331E2,1.5497485E2,1.8280084E2,9.806885E0,1.4667819E1,3.0019531E1,3.0725952E1,6.831564E1,5.44657E1,7.500926E1,5.4918533E1,0E0,0E0,0E0,0E0,6.049225E0,0E0,0E0,1.5241364E1,7.528702E0,2.0711191E1,2.5012573E1,7.439087E0,1.0857645E1,6.241977E1,7.422241E0,4.1815805E0,0E0,0E0,0E0,0E0,3.6892548E0,0E0,1.2429703E1,2.1272154E1,2.4079285E0,1.1734093E1,2.8049011E0,5.302124E-1,0E0,0E0,2.5106571E1,2.4946304E1,1.8461838E0,0E0,0E0,0E0,0E0,0E0,0E0,0E0,0E0,0E0,0E0,0E0,0E0,0E0,0E0,0E0,0E0,0E0,0E0,0E0,0E0,0E0,0E0,0E0],"parents":[2147483647,0,0,1,1,2,2,3,3,4,4,5,5,6,6,7,7,8,8,9,9,10,10,11,11,12,12,13,13,14,14,19,19,22,22,23,23,24,24,25,25,26,26,27,27,28,28,29,29,30,30,35,35,37,37,38,38,39,39,40,40,41,41,42,42,45,45,46,46,47,47],"right_children":[2,4,6,8,10,12,14,16,18,20,22,24,26,28,30,-1,-1,-1,-1,32,-1,-1,34,36,38,40,42,44,46,48,50,-1,-1,-1,-1,52,-1,54,56,58,60,62,64,-1,-1,66,68,70,-1,-1,-1,-1,-1,-1,-1,-1,-1,-1,-1,-1,-1,-1,-1,-1,-1,-1,-1,-1,-1,-1,-1],"split_conditions":[2E0,4.91E0,5.516667E-1,3E0,4E0,3E0,4E0,-6.2E-1,2E-1,5.66E0,4E-2,6E0,4E0,8E0,1.5E1,2.8790649E-2,5.0350234E-2,1.47404E-2,-4.447774E-3,2E0,7.3079586E-2,2.648935E-2,4.0166667E-1,2.1E-1,2.8033333E0,8.333334E-3,4E0,2E0,1.2366667E0,1.5E-1,4.5E1,6.2904395E-2,4.4198997E-2,3.50171E-2,5.7550915E-2,2.6666667E-2,-1.2988337E-2,3E0,-2.5E-1,-7.6666665E-1,5E0,-5E-2,3.6333334E-1,4.5789317E-3,-1.101617E-2,2E0,2E0,1.3366667E0,-9.238994E-3,-5.7813036E-4,1.0493068E-2,-2.7875898E-2,-1.6406551E-2,-1.4388251E-2,-3.931261E-3,-7.6709636E-3,1.0704763E-2,-2.637475E-2,-2.077263E-2,-4.1879024E-3,-1.8865021E-2,-2.7661687E-2,-1.8716915E-2,-3.23936E-2,-2.4951128E-2,2.2352673E-2,4.1292864E-3,4.5725618E-2,2.2426272E-2,-2.4622345E-2,-1.5431954E-2],"split_indices":[0,2,17,20,20,20,20,17,8,2,34,19,0,19,19,0,0,0,0,20,0,0,17,27,18,17,20,20,17,27,5,0,0,0,0,17,0,35,17,17,20,17,17,0,0,20,20,17,0,0,0,0,0,0,0,0,0,0,0,0,0,0,0,0,0,0,0,0,0,0,0],"split_type":[0,0,0,0,0,0,0,0,0,0,0,0,0,0,0,0,0,0,0,0,0,0,0,0,0,0,0,0,0,0,0,0,0,0,0,0,0,0,0,0,0,0,0,0,0,0,0,0,0,0,0,0,0,0,0,0,0,0,0,0,0,0,0,0,0,0,0,0,0,0,0],"sum_hessian":[4.88592E3,1.0741802E3,3.8117397E3,2.543621E2,8.1981805E2,2.7691326E3,1.0426073E3,1.0913422E2,1.4522789E2,5.6085156E2,2.5896646E2,9.442303E2,1.8249022E3,6.560963E2,3.8651096E2,5.829649E1,5.0837727E1,8.881033E1,5.6417557E1,1.4285838E2,4.1799316E2,9.91976E1,1.5976888E2,2.9918008E2,6.4505023E2,7.238421E2,1.10106E3,1.5991081E2,4.9618552E2,2.690288E2,1.1748214E2,6.987229E1,7.29861E1,6.3545E1,9.622388E1,2.3183887E2,6.7341225E1,4.225213E2,2.2252893E2,5.1627234E2,2.0756975E2,2.4722447E2,8.5383563E2,6.599856E1,9.3912254E1,3.0650156E2,1.8968396E2,2.1493747E2,5.409134E1,6.584678E1,5.163536E1,1.8118578E2,5.065308E1,2.189652E2,2.0355609E2,1.0707536E2,1.1545357E2,2.0717769E2,3.0909467E2,1.2106614E2,8.650361E1,1.6441849E2,8.2805984E1,7.879707E2,6.5864914E1,1.0341399E2,2.0308757E2,7.8126175E1,1.11557785E2,1.6474658E2,5.019088E1],"tree_param":{"num_deleted":"0","num_feature":"41","num_nodes":"71","size_leaf_vector":"1"}},{"base_weights":[-3.132763E-4,-3.4464818E-1,1.001865E0,-6.7214316E-1,1.2644349E-1,1.519782E0,5.674642E-1,-4.4735384E-1,-8.456779E-1,6.010528E-1,-1.9928794E-1,1.8490973E0,1.0014373E0,3.0726734E-1,1.3931935E0,-1.16436124E-1,-5.797622E-1,-5.6505364E-1,-9.407308E-1,3.1025252E-1,1.1664467E0,2.8443882E-1,-4.952945E-1,6.517998E-2,1.5329839E0,4.2656712E-2,6.457173E-1,2.8196787E-2,1.5259399E-1,3.0371862E-2,5.330893E-2,6.348927E-3,-3.0606332E-1,-6.5702343E-1,-1.0226456E-3,-8.3368623E-1,-3.7328574E-1,-9.9894077E-1,-7.5468236E-1,7.22699E-1,-2.3075476E-1,4.627706E-2,8.1453454E-1,1.12447575E-1,2.9658101E-2,-5.861314E-1,5.684069E-3,5.745463E-2,3.4601685E-2,9.23425E-3,3.280336E-2,-1.0873608E-2,3.1355345E-1,2.0851316E-3,-1.3935647E-2,-2.1992918E-2,-1.3990313E-2,-2.893111E-2,-2.019164E-2,-1.51087865E-2,-8.7362644E-4,-2.4667796E-2,-3.1195227E-2,-2.7149806E-2,-1.6107883E-2,4.795487E-3,5.454588E-2,-4.014401E-4,-1.8281898E-2,1.2520484E-2,3.393157E-2,-3.1298061E-3,2.078187E-2,-1.9988297E-2,-5.246301E-3,2.3639033E-2,-2.2026824E-3],"categories":[],"categories_nodes":[],"categories_segments":[],"categories_sizes":[],"default_left":[0,0,0,0,0,0,0,0,0,0,0,0,0,0,0,0,0,0,0,0,0,0,0,0,0,0,0,0,0,0,0,0,0,0,0,0,0,0,0,0,0,0,0,0,0,0,0,0,0,0,0,0,0,0,0,0,0,0,0,0,0,0,0,0,0,0,0,0,0,0,0,0,0,0,0,0,0],"id":8,"left_children":[1,3,5,7,9,11,13,15,17,19,21,23,25,27,29,31,33,35,37,39,41,43,45,-1,47,-1,49,-1,51,-1,-1,-1,53,55,-1,57,59,61,63,65,67,-1,69,71,-1,73,-1,-1,-1,-1,-1,-1,75,-1,-1,-1,-1,-1,-1,-1,-1,-1,-1,-1,-1,-1,-1,-1,-1,-1,-1,-1,-1,-1,-1,-1,-1],"loss_changes":[1.683596E3,5.608263E2,2.7789673E2,8.2217224E1,2.308826E2,9.17135E1,1.4485802E2,4.0677887E1,3.035913E1,9.8468765E1,1.2708222E2,2.666858E1,3.083548E1,5.0219173E1,1.874414E1,1.7100578E1,2.7829437E1,1.4822929E1,7.326416E0,9.087556E1,2.3458954E1,3.998455E1,3.464975E1,0E0,2.0387238E1,0E0,1.774722E1,0E0,3.5208946E1,0E0,0E0,0E0,1.0627743E1,7.2085724E0,0E0,5.502777E-1,8.069603E0,2.2350464E0,5.6362686E0,1.4063248E2,1.4161823E1,0E0,1.2223183E1,3.4816856E1,0E0,1.5397247E1,0E0,0E0,0E0,0E0,0E0,0E0,5.986898E1,0E0,0E0,0E0,0E0,0E0,0E0,0E0,0E0,0E0,0E0,0E0,0E0,0E0,0E0,0E0,0E0,0E0,0E0,0E0,0E0,0E0,0E0,0E0,0E0],"parents":[2147483647,0,0,1,1,2,2,3,3,4,4,5,5,6,6,7,7,8,8,9,9,10,10,11,11,12,12,13,13,14,14,15,15,16,16,17,17,18,18,19,19,20,20,21,21,22,22,24,24,26,26,28,28,32,32,33,33,35,35,36,36,37,37,38,38,39,39,40,40,42,42,43,43,45,45,52,52],"right_children":[2,4,6,8,10,12,14,16,18,20,22,24,26,28,30,32,34,36,38,40,42,44,46,-1,48,-1,50,-1,52,-1,-1,-1,54,56,-1,58,60,62,64,66,68,-1,70,72,-1,74,-1,-1,-1,-1,-1,-1,76,-1,-1,-1,-1,-1,-1,-1,-1,-1,-1,-1,-1,-1,-1,-1,-1,-1,-1,-1,-1,-1,-1,-1,-1],"split_conditions":[3.6E-1,1.6666667E-1,3E0,4E0,5E0,4E0,6.6E-1,4E0,4E0,2E0,3E0,2E0,2E0,2E0,7.8E-1,5E0,4.716E0,1E0,2.47E0,2E0,4E0,5.25E0,7.22E0,6.517998E-2,2E0,4.2656712E-2,1E1,2.8196787E-2,2E0,3.0371862E-2,5.330893E-2,6.348927E-3,2.3333333E0,1.638E0,-1.0226456E-3,2.614E1,6.395939E0,4E0,8.3666E-1,1E0,3E0,4.627706E-2,3.6E1,1.3333334E0,2.9658101E-2,1.8E-1,5.684069E-3,5.745463E-2,3.4601685E-2,9.23425E-3,3.280336E-2,-1.0873608E-2,6E0,2.0851316E-3,-1.3935647E-2,-2.1992918E-2,-1.3990313E-2,-2.893111E-2,-2.019164E-2,-1.51087865E-2,-8.7362644E-4,-2.4667796E-2,-3.1195227E-2,-2.7149806E-2,-1.6107883E-2,4.795487E-3,5.454588E-2,-4.014401E-4,-1.8281898E-2,1.2520484E-2,3.393157E-2,-3.1298061E-3,2.078187E-2,-1.9988297E-2,-5.246301E-3,2.3639033E-2,-2.2026824E-3],"split_indices":[27,40,16,20,22,22,27,16,22,35,20,20,20,22,27,22,25,35,25,22,20,25,25,0,22,0,35,0,35,0,0,0,38,25,0,3,24,16,39,22,16,0,5,40,0,27,0,0,0,0,0,0,22,0,0,0,0,0,0,0,0,0,0,0,0,0,0,0,0,0,0,0,0,0,0,0,0],"split_type":[0,0,0,0,0,0,0,0,0,0,0,0,0,0,0,0,0,0,0,0,0,0,0,0,0,0,0,0,0,0,0,0,0,0,0,0,0,0,0,0,0,0,0,0,0,0,0,0,0,0,0,0,0,0,0,0,0,0,0,0,0,0,0,0,0,0,0,0,0,0,0,0,0,0,0,0,0],"sum_hessian":[4.8757383E3,3.6302458E3,1.2454923E3,2.1416292E3,1.4886167E3,5.6532825E2,6.8016406E2,9.3739966E2,1.2042295E3,6.057902E2,8.8282654E2,3.419689E2,2.2335934E2,5.197383E2,1.6042575E2,2.7004147E2,6.673582E2,3.0953638E2,8.946931E2,4.0266724E2,2.0312297E2,3.345318E2,5.4829474E2,1.624054E2,1.7956349E2,9.8974106E1,1.2438523E2,9.947839E1,4.2025992E2,8.483088E1,7.559487E1,9.7863174E1,1.7217828E2,5.834271E2,8.393108E1,1.2505485E2,1.8448155E2,6.7277325E2,2.2191989E2,2.2862411E2,1.740431E2,9.422652E1,1.08896454E2,2.7129724E2,6.3234547E1,4.8497845E2,6.331628E1,8.479015E1,9.477334E1,7.344592E1,5.0939312E1,9.8729485E1,3.2153043E2,5.0486267E1,1.21692024E2,4.1110184E2,1.723253E2,6.1720947E1,6.3333897E1,1.32081E2,5.240055E1,1.3669797E2,5.3607526E2,1.26198746E2,9.5721146E1,1.5284366E2,7.578046E1,1.1272202E2,6.1321083E1,5.1051205E1,5.784525E1,1.9807979E2,7.321745E1,4.0382513E2,8.11533E1,1.4409567E2,1.7743475E2],"tree_param":{"num_deleted":"0","num_feature":"41","num_nodes":"77","size_leaf_vector":"1"}},{"base_weights":[-0E0,1.5624884E0,-4.6117905E-1,7.1286577E-1,1.811301E0,-6.480685E-1,3.820422E-2,2.2117184E-3,9.8591566E-1,1.9085166E0,2.5917498E-2,-8.059723E-1,-2.9350996E-1,-2.3624226E-1,5.7507193E-1,7.7606696E-1,4.194972E-2,1.6939896E0,2.1542597E0,-9.742708E-1,-6.5023226E-1,-5.5094403E-1,-1.9447519E-1,-4.54459E-1,1.7489304E-1,6.9924766E-1,-3.444399E-3,1.1973909E-2,3.42572E-2,1.8406863E0,1.3723145E0,6.8803325E-2,5.4507997E-2,-3.101164E-2,-8.024011E-1,-3.9282653E-1,-6.993598E-1,-7.7667846E-3,-6.3874626E-1,-9.2693955E-2,-4.6173868E-1,-1.2544735E-1,-6.1092395E-1,2.1203358E-2,-7.324317E-2,4.5217413E-1,1.018521E0,5.789482E-2,4.3482307E-2,3.362954E-2,5.21972E-2,-2.7518818E-2,-1.5284578E-2,-1.8619234E-2,-4.320453E-3,-2.4241045E-2,-1.621104E-2,-2.3813548E-2,-1.619157E-2,-9.98525E-3,3.6007664E-3,-1.7536107E-2,-9.578375E-3,2.0160156E-3,-8.126428E-3,-2.3151772E-2,-1.034855E-2,-8.901648E-3,7.010078E-3,7.74955E-3,2.570446E-2,3.814783E-2,2.3222728E-2],"categories":[],"categories_nodes":[],"categories_segments":[],"categories_sizes":[],"default_left":[0,0,0,0,0,0,0,0,0,0,0,0,0,0,0,0,0,0,0,0,0,0,0,0,0,0,0,0,0,0,0,0,0,0,0,0,0,0,0,0,0,0,0,0,0,0,0,0,0,0,0,0,0,0,0,0,0,0,0,0,0,0,0,0,0,0,0,0,0,0,0,0,0],"id":9,"left_children":[1,3,5,7,9,11,13,-1,15,17,-1,19,21,23,25,27,-1,29,31,33,35,37,39,41,43,45,-1,-1,-1,47,49,-1,-1,-1,51,53,55,-1,57,59,61,63,65,-1,67,69,71,-1,-1,-1,-1,-1,-1,-1,-1,-1,-1,-1,-1,-1,-1,-1,-1,-1,-1,-1,-1,-1,-1,-1,-1,-1,-1],"loss_changes":[3.503731E3,2.3039111E2,3.507896E2,4.37816E1,7.408984E1,1.5199426E2,1.512734E2,0E0,1.2127975E1,3.1558838E1,0E0,4.74292E1,2.0988655E1,6.1145E1,3.0220947E1,1.5296379E1,0E0,1.3324097E1,6.142212E0,6.642151E0,1.1405792E1,5.18544E0,1.6384447E1,2.235569E1,3.1541916E1,2.1644165E1,0E0,0E0,0E0,2.6184082E0,7.746887E0,0E0,0E0,0E0,6.529358E0,8.770773E0,1.2723694E1,0E0,1.1811523E0,2.3159634E1,2.1126938E0,4.2504516E0,1.1723923E1,0E0,1.1278998E1,1.2413101E1,4.8262787E0,0E0,0E0,0E0,0E0,0E0,0E0,0E0,0E0,0E0,0E0,0E0,0E0,0E0,0E0,0E0,0E0,0E0,0E0,0E0,0E0,0E0,0E0,0E0,0E0,0E0,0E0],"parents":[2147483647,0,0,1,1,2,2,3,3,4,4,5,5,6,6,8,8,9,9,11,11,12,12,13,13,14,14,15,15,17,17,18,18,19,19,20,20,21,21,22,22,23,23,24,24,25,25,29,29,30,30,34,34,35,35,36,36,38,38,39,39,40,40,41,41,42,42,44,44,45,45,46,46],"right_children":[2,4,6,8,10,12,14,-1,16,18,-1,20,22,24,26,28,-1,30,32,34,36,38,40,42,44,46,-1,-1,-1,48,50,-1,-1,-1,52,54,56,-1,58,60,62,64,66,-1,68,70,72,-1,-1,-1,-1,-1,-1,-1,-1,-1,-1,-1,-1,-1,-1,-1,-1,-1,-1,-1,-1,-1,-1,-1,-1,-1,-1],"split_conditions":[2E0,4.91E0,5E-1,4E-2,2.2E-1,2.4E-1,2.5E-1,2.2117184E-3,-1.6666667E-1,2.7E-1,2.5917498E-2,5E0,-5E-1,1.3333334E0,3.1666667E0,4.37E0,4.194972E-2,3E0,3E0,1E-1,2.3333333E0,-3E-1,3.1666667E0,4E0,4E0,6.47E0,-3.444399E-3,1.1973909E-2,3.42572E-2,1.0327955E0,6.666667E-1,6.8803325E-2,5.4507997E-2,-3.101164E-2,6.332149E0,2.353E1,5.51E0,-7.7667846E-3,-2.8883333E0,5.9408164E0,5E0,3.306E1,1E-1,2.1203358E-2,1E-1,4.088333E0,2.6666667E0,5.789482E-2,4.3482307E-2,3.362954E-2,5.21972E-2,-2.7518818E-2,-1.5284578E-2,-1.8619234E-2,-4.320453E-3,-2.4241045E-2,-1.621104E-2,-2.3813548E-2,-1.619157E-2,-9.98525E-3,3.6007664E-3,-1.7536107E-2,-9.578375E-3,2.0160156E-3,-8.126428E-3,-2.3151772E-2,-1.034855E-2,-8.901648E-3,7.010078E-3,7.74955E-3,2.570446E-2,3.814783E-2,2.3222728E-2],"split_indices":[0,2,40,34,8,27,27,0,40,34,0,19,40,40,38,2,0,13,13,27,38,23,38,0,0,2,0,0,0,39,40,0,0,0,24,3,2,0,18,24,22,7,27,0,27,18,38,0,0,0,0,0,0,0,0,0,0,0,0,0,0,0,0,0,0,0,0,0,0,0,0,0,0],"split_type":[0,0,0,0,0,0,0,0,0,0,0,0,0,0,0,0,0,0,0,0,0,0,0,0,0,0,0,0,0,0,0,0,0,0,0,0,0,0,0,0,0,0,0,0,0,0,0,0,0,0,0,0,0,0,0,0,0,0,0,0,0,0,0,0,0,0,0,0,0,0,0,0,0],"sum_hessian":[4.858857E3,1.106039E3,3.7528179E3,2.5274106E2,8.532979E2,2.7311257E3,1.0216921E3,7.69624E1,1.7577866E2,7.715669E2,8.173101E1,1.8868531E3,8.442727E2,6.76205E2,3.4548703E2,1.21122826E2,5.465583E1,4.214626E2,3.5010428E2,9.0026776E2,9.865853E2,2.3061911E2,6.136536E2,4.4239963E2,2.338054E2,2.9337814E2,5.2108902E1,6.2389538E1,5.8733288E1,2.8190427E2,1.3955833E2,2.3858252E2,1.1152176E2,6.59281E2,2.4098674E2,1.6263287E2,8.2395245E2,5.644879E1,1.7417032E2,4.477157E2,1.6593791E2,1.4477287E2,2.9762674E2,7.384191E1,1.599635E2,1.6899663E2,1.2438151E2,2.2215134E2,5.9752914E1,8.8505035E1,5.10533E1,1.688047E2,7.2182045E1,8.228938E1,8.034349E1,4.8270297E2,3.4124948E2,6.044927E1,1.1372105E2,2.108733E2,2.3684238E2,8.390057E1,8.203734E1,6.126129E1,8.351159E1,1.8194391E2,1.1568284E2,9.354454E1,6.641895E1,1.1730872E2,5.168791E1,5.5975994E1,6.840551E1],"tree_param":{"num_deleted":"0","num_feature":"41","num_nodes":"73","size_leaf_vector":"1"}},{"base_weights":[3.8660755E-3,-6.1594945E-1,8.072956E-1,-2.375264E-1,-8.206361E-1,5.3171134E-1,1.9557849E0,-6.2124604E-1,-9.295293E-3,-1.0037098E0,-6.786847E-1,1.3006648E0,2.659405E-1,6.332384E-2,3.4948964E-2,-7.761084E-1,-4.252042E-3,-3.1661245E-1,2.5411886E-1,-8.201339E-1,-3.1359773E-2,-8.0805165E-1,-3.5011113E-1,1.52321E0,4.403856E-3,5.106596E-1,-3.4181616E-1,-2.6646338E-2,-1.0639259E-2,-4.3659616E-1,1.4634476E-3,4.215563E-1,-8.635487E-3,-2.8681375E-2,-1.9306572E-2,-7.0277953E-1,-9.187642E-1,2.9206742E-4,-5.360766E-1,1.252928E0,5.88726E-2,2.8129724E-1,1.0382693E0,-5.7758003E-1,-1.18369535E-1,-1.8657392E-2,-6.604363E-3,2.187101E-2,1.6400976E-3,-2.3914576E-2,-1.5401822E-2,-2.9081265E-2,-2.2011317E-2,-7.000438E-3,-1.9991538E-2,4.766184E-2,2.769901E-2,1.853226E-2,-1.8808017E-3,3.6251828E-2,1.7865743E-2,-2.1265406E-2,-8.550522E-3,5.3459406E-3,-1.427245E-2],"categories":[],"categories_nodes":[],"categories_segments":[],"categories_sizes":[],"default_left":[0,0,0,0,0,0,0,0,0,0,0,0,0,0,0,0,0,0,0,0,0,0,0,0,0,0,0,0,0,0,0,0,0,0,0,0,0,0,0,0,0,0,0,0,0,0,0,0,0,0,0,0,0,0,0,0,0,0,0,0,0,0,0,0,0],"id":10,"left_children":[1,3,5,7,9,11,13,15,17,19,21,23,25,-1,-1,27,-1,29,31,33,-1,35,37,39,-1,41,43,-1,-1,45,-1,47,-1,-1,-1,49,51,-1,53,55,-1,57,59,61,63,-1,-1,-1,-1,-1,-1,-1,-1,-1,-1,-1,-1,-1,-1,-1,-1,-1,-1,-1,-1],"loss_changes":[2.409287E3,2.1059631E2,6.6363196E2,8.394124E1,4.3806885E1,3.4646793E2,4.3298462E1,2.5906937E1,4.9265144E1,3.2163086E0,4.1572357E1,1.1075635E2,1.8905945E2,0E0,0E0,1.1476364E1,0E0,1.2580086E1,2.9951618E1,1.6498642E0,0E0,6.2712097E0,1.9581001E1,3.6826233E1,0E0,1.0834149E2,1.8727161E1,0E0,0E0,7.856373E0,0E0,2.7851276E1,0E0,0E0,0E0,5.301651E0,9.2300415E-1,0E0,6.780327E0,2.1523804E1,0E0,7.379741E1,1.8220215E1,5.8521996E0,2.0544674E1,0E0,0E0,0E0,0E0,0E0,0E0,0E0,0E0,0E0,0E0,0E0,0E0,0E0,0E0,0E0,0E0,0E0,0E0,0E0,0E0],"parents":[2147483647,0,0,1,1,2,2,3,3,4,4,5,5,6,6,7,7,8,8,9,9,10,10,11,11,12,12,15,15,17,17,18,18,19,19,21,21,22,22,23,23,25,25,26,26,29,29,31,31,35,35,36,36,38,38,39,39,41,41,42,42,43,43,44,44],"right_children":[2,4,6,8,10,12,14,16,18,20,22,24,26,-1,-1,28,-1,30,32,34,-1,36,38,40,-1,42,44,-1,-1,46,-1,48,-1,-1,-1,50,52,-1,54,56,-1,58,60,62,64,-1,-1,-1,-1,-1,-1,-1,-1,-1,-1,-1,-1,-1,-1,-1,-1,-1,-1,-1,-1],"split_conditions":[1.2E1,3E0,2.4E1,5E0,5E0,2E0,5E0,4.3333334E-1,-1.75E-1,4E0,1.8E-1,3.1666667E0,3E0,6.332384E-2,3.4948964E-2,2.1E-1,-4.252042E-3,4.5E-1,2.8333333E0,-2.9E-1,-3.1359773E-2,2.6666667E0,3E0,1.8E1,4.403856E-3,1.8E1,1.6E1,-2.6646338E-2,-1.0639259E-2,3E0,1.4634476E-3,2E0,-8.635487E-3,-2.8681375E-2,-1.9306572E-2,7.254E1,1E1,2.9206742E-4,4E0,3E0,5.88726E-2,4E0,4E0,6E0,2E1,-1.8657392E-2,-6.604363E-3,2.187101E-2,1.6400976E-3,-2.3914576E-2,-1.5401822E-2,-2.9081265E-2,-2.2011317E-2,-7.000438E-3,-1.9991538E-2,4.766184E-2,2.769901E-2,1.853226E-2,-1.8808017E-3,3.6251828E-2,1.7865743E-2,-2.1265406E-2,-8.550522E-3,5.3459406E-3,-1.427245E-2],"split_indices":[19,20,19,19,19,20,20,17,17,20,17,38,38,0,0,27,0,27,38,17,0,38,1,19,0,19,19,0,0,35,0,20,0,0,0,21,19,0,20,1,0,20,1,35,19,0,0,0,0,0,0,0,0,0,0,0,0,0,0,0,0,0,0,0,0],"split_type":[0,0,0,0,0,0,0,0,0,0,0,0,0,0,0,0,0,0,0,0,0,0,0,0,0,0,0,0,0,0,0,0,0,0,0,0,0,0,0,0,0,0,0,0,0,0,0,0,0,0,0,0,0,0,0,0,0,0,0,0,0,0,0,0,0],"sum_hessian":[4.833949E3,2.7287026E3,2.1052466E3,9.6021954E2,1.768483E3,1.7005536E3,4.046929E2,3.5601877E2,6.042008E2,7.6552563E2,1.0029574E3,4.3430682E2,1.2662468E3,3.3504892E2,6.964398E1,2.673847E2,8.863405E1,2.7955124E2,3.2464954E2,1.5134439E2,6.141812E2,7.1643884E2,2.8651855E2,3.631861E2,7.112071E1,9.035613E2,3.6268552E2,2.0852057E2,5.886414E1,2.1118387E2,6.836736E1,2.4906847E2,7.558107E1,7.893185E1,7.2412544E1,3.770904E2,3.3934845E2,9.7350365E1,1.891682E2,2.3030452E2,1.3288158E2,6.325802E2,2.7098114E2,1.7384746E2,1.8883804E2,1.1051158E2,1.0067229E2,1.3368977E2,1.1537869E2,2.4563109E2,1.3145932E2,2.5769217E2,8.165628E1,5.975808E1,1.2941013E2,1.0954837E2,1.2075614E2,3.1972784E2,3.1285233E2,1.9244571E2,7.853542E1,1.16859985E2,5.698748E1,1.0298257E2,8.585548E1],"tree_param":{"num_deleted":"0","num_feature":"41","num_nodes":"65","size_leaf_vector":"1"}},{"base_weights":[1.4561975E-3,1.4122905E0,-4.4274235E-1,6.074602E-1,1.6206409E0,-6.4433765E-1,1.3246146E-1,8.6721194E-1,-6.004687E-4,1.6812699E0,1.8412456E-2,-4.8162007E-1,-9.005567E-1,3.602603E-1,-3.1324753E-1,5.7959247E-1,4.064329E-2,1.8270385E0,1.3802481E0,-6.971761E-1,-2.9469398E-1,-7.3646253E-1,-9.9016726E-1,2.1064676E-1,9.275591E-1,-4.552288E-1,9.3477145E-3,2.5445119E-2,8.107109E-3,1.6394281E0,6.244899E-2,1.197569E0,5.140229E-2,-3.9489722E-1,-8.015014E-1,-4.260145E-2,-4.501877E-1,-8.513662E-1,-5.4352427E-1,-3.107058E-2,-2.578683E-2,5.0154793E-1,6.0938533E-2,1.3439723E-2,3.7361503E-2,-2.4744782E-1,-6.6569954E-1,5.153834E-2,3.46967E-2,2.7910696E-2,4.018619E-2,-6.5605016E-3,-1.6745077E-2,-2.7976364E-2,-2.1484913E-2,8.134039E-3,-6.160909E-3,-1.8534962E-2,-1.0527201E-2,-2.010157E-2,-2.952978E-2,-8.967745E-3,-2.0591842E-2,7.1508177E-3,1.9337323E-2,4.408646E-3,-9.885903E-3,-1.2440397E-2,-2.4260413E-3,-1.2704443E-2,-2.4164021E-2],"categories":[],"categories_nodes":[],"categories_segments":[],"categories_sizes":[],"default_left":[0,0,0,0,0,0,0,0,0,0,0,0,0,0,0,0,0,0,0,0,0,0,0,0,0,0,0,0,0,0,0,0,0,0,0,0,0,0,0,0,0,0,0,0,0,0,0,0,0,0,0,0,0,0,0,0,0,0,0,0,0,0,0,0,0,0,0,0,0,0,0],"id":11,"left_children":[1,3,5,7,9,11,13,15,-1,17,-1,19,21,23,25,27,-1,29,31,33,35,37,39,41,43,45,-1,-1,-1,47,-1,49,-1,51,53,55,57,59,61,-1,-1,63,65,-1,-1,67,69,-1,-1,-1,-1,-1,-1,-1,-1,-1,-1,-1,-1,-1,-1,-1,-1,-1,-1,-1,-1,-1,-1,-1,-1],"loss_changes":[3.0137632E3,1.9003003E2,4.244417E2,3.9659157E1,5.253174E1,1.1136804E2,9.670274E1,2.140123E1,0E0,3.1073242E1,0E0,6.606323E1,1.3096802E1,5.254097E1,2.888966E1,8.247299E0,0E0,1.8629517E1,1.2075928E1,2.3026245E1,3.4792656E1,6.804428E0,1.2575684E0,2.1523443E1,1.7891869E1,1.0739452E1,0E0,0E0,0E0,7.4718018E0,0E0,3.7609558E0,0E0,5.1945553E0,4.199524E0,1.7686674E1,8.270042E0,3.4729767E0,4.305435E0,0E0,0E0,5.6199226E0,1.1253685E1,0E0,0E0,3.5016499E0,3.0552368E0,0E0,0E0,0E0,0E0,0E0,0E0,0E0,0E0,0E0,0E0,0E0,0E0,0E0,0E0,0E0,0E0,0E0,0E0,0E0,0E0,0E0,0E0,0E0,0E0],"parents":[2147483647,0,0,1,1,2,2,3,3,4,4,5,5,6,6,7,7,9,9,11,11,12,12,13,13,14,14,15,15,17,17,18,18,19,19,20,20,21,21,22,22,23,23,24,24,25,25,29,29,31,31,33,33,34,34,35,35,36,36,37,37,38,38,41,41,42,42,45,45,46,46],"right_children":[2,4,6,8,10,12,14,16,-1,18,-1,20,22,24,26,28,-1,30,32,34,36,38,40,42,44,46,-1,-1,-1,48,-1,50,-1,52,54,56,58,60,62,-1,-1,64,66,-1,-1,68,70,-1,-1,-1,-1,-1,-1,-1,-1,-1,-1,-1,-1,-1,-1,-1,-1,-1,-1,-1,-1,-1,-1,-1,-1],"split_conditions":[2E0,4.81E0,6.2666667E-1,1.9E-1,2.4E-1,5E0,5E0,-5.5333334E-1,-6.004687E-4,3E0,1.8412456E-2,-3.4833333E-1,1.4E-1,1.525E0,1.6383333E0,2E0,4.064329E-2,6.37E0,8.333333E-1,1.2E-1,1.3E-1,-1.1666667E-1,-5E-2,1.2E-1,1.6E1,6E0,9.3477145E-3,2.5445119E-2,8.107109E-3,1.9E-1,6.244899E-2,6.590909E0,5.140229E-2,5.21E1,6.5E-1,2.963E1,2E0,1E-1,3.214E1,-3.107058E-2,-2.578683E-2,-2.9E-1,6.8E0,1.3439723E-2,3.7361503E-2,9.866667E-1,1.4E-1,5.153834E-2,3.46967E-2,2.7910696E-2,4.018619E-2,-6.5605016E-3,-1.6745077E-2,-2.7976364E-2,-2.1484913E-2,8.134039E-3,-6.160909E-3,-1.8534962E-2,-1.0527201E-2,-2.010157E-2,-2.952978E-2,-8.967745E-3,-2.0591842E-2,7.1508177E-3,1.9337323E-2,4.408646E-3,-9.885903E-3,-1.2440397E-2,-2.4260413E-3,-1.2704443E-2,-2.4164021E-2],"split_indices":[0,2,17,8,8,0,0,17,0,13,0,17,8,17,17,13,0,2,40,8,8,17,17,8,19,0,0,0,0,8,0,24,0,10,25,5,35,8,5,0,0,23,2,0,0,17,8,0,0,0,0,0,0,0,0,0,0,0,0,0,0,0,0,0,0,0,0,0,0,0,0],"split_type":[0,0,0,0,0,0,0,0,0,0,0,0,0,0,0,0,0,0,0,0,0,0,0,0,0,0,0,0,0,0,0,0,0,0,0,0,0,0,0,0,0,0,0,0,0,0,0,0,0,0,0,0,0,0,0,0,0,0,0,0,0,0,0,0,0,0,0,0,0,0,0],"sum_hessian":[4.804244E3,1.1496304E3,3.654614E3,2.385138E2,9.111166E2,2.7066323E3,9.479817E2,1.6870775E2,6.980604E1,8.576386E2,5.3477985E1,1.6600753E3,1.0465569E3,6.2834436E2,3.196373E2,1.0950978E2,5.919797E1,5.6987775E2,2.8776086E2,7.6721655E2,8.928588E2,3.7813525E2,6.6842163E2,5.000819E2,1.2826245E2,2.6154892E2,5.8088383E1,5.588846E1,5.3621323E1,3.377977E2,2.3208006E2,1.9275781E2,9.5003044E1,2.0053545E2,5.666811E2,3.4282352E2,5.500353E2,2.3109232E2,1.4704292E2,4.8255402E2,1.8586761E2,1.6718367E2,3.3289825E2,5.367063E1,7.459183E1,1.3500061E2,1.26548325E2,2.8526205E2,5.2535637E1,7.334272E1,1.194151E2,1.0016837E2,1.0036708E2,2.133488E2,3.5333228E2,1.155974E2,2.2722614E2,1.9882324E2,3.5121207E2,1.0446948E2,1.26622826E2,5.7789474E1,8.9253456E1,6.1974224E1,1.0520944E2,2.7487405E2,5.8024193E1,6.438408E1,7.061652E1,5.0561756E1,7.598657E1],"tree_param":{"num_deleted":"0","num_feature":"41","num_nodes":"71","size_leaf_vector":"1"}},{"base_weights":[-3.1391273E-3,-3.4267896E-1,1.3232322E0,-6.0250056E-1,2.4760391E-1,9.6111006E-1,1.7806523E0,-7.421279E-1,-1.7753313E-1,8.4910816E-1,-3.4862485E-2,1.4179667E0,1.8883435E-1,1.842463E0,4.0599942E-2,-1.9821171E-1,-8.151715E-1,1.7779435E-1,-3.9932755E-1,1.0056567E0,8.388502E-3,1.8510938E-1,-3.5682824E-1,1.5709983E0,2.5775598E-2,5.671301E-1,-1.8984677E-1,5.821435E-2,4.775842E-2,-3.6325258E-1,2.385817E-3,-9.51205E-1,-6.729433E-1,3.2639515E-2,2.1911003E-2,-5.1721615E-1,-1.023996E-1,7.8073204E-1,1.3423219E0,-1.6588146E-2,4.7824708E-1,-5.4559726E-1,-1.4317879E-1,5.417761E-2,1.3626498E0,2.61696E-2,7.1738036E-3,-1.0772038E-2,-9.958227E-5,-1.667973E-2,-5.4265866E-3,-2.9895624E-2,-2.344101E-2,-1.5522204E-2,-2.2882625E-2,-2.838831E-3,8.497844E-3,-2.1276841E-2,-1.2080354E-2,5.4005394E-3,-9.6008815E-3,1.5715625E-2,3.233632E-2,4.7062792E-2,3.1168431E-2,-9.494464E-3,4.046868E-3,3.7853501E-3,1.80261E-2,-2.40909E-2,-9.233574E-3,9.3303795E-4,-9.655533E-3,3.2543197E-2,4.6119023E-2],"categories":[],"categories_nodes":[],"categories_segments":[],"categories_sizes":[],"default_left":[0,0,0,0,0,0,0,0,0,0,0,0,0,0,0,0,0,0,0,0,0,0,0,0,0,0,0,0,0,0,0,0,0,0,0,0,0,0,0,0,0,0,0,0,0,0,0,0,0,0,0,0,0,0,0,0,0,0,0,0,0,0,0,0,0,0,0,0,0,0,0,0,0,0,0],"id":12,"left_children":[1,3,5,7,9,11,13,15,17,19,21,23,25,27,-1,29,31,33,35,37,-1,39,41,43,-1,45,47,-1,-1,49,-1,51,53,55,-1,57,59,61,63,65,67,69,71,-1,73,-1,-1,-1,-1,-1,-1,-1,-1,-1,-1,-1,-1,-1,-1,-1,-1,-1,-1,-1,-1,-1,-1,-1,-1,-1,-1,-1,-1,-1,-1],"loss_changes":[2.170951E3,5.8928314E2,1.5793689E2,1.5752625E2,1.9997101E2,1.9387128E2,4.8028564E0,7.886328E1,5.2508904E1,3.230371E1,5.690208E1,2.5750977E1,3.0253038E1,1.1430664E0,0E0,1.124373E1,3.209436E1,2.0051426E1,1.3926491E1,1.905661E1,0E0,2.8383656E1,1.2666054E1,6.6712646E0,0E0,9.577755E0,3.1296573E0,0E0,0E0,4.7948017E0,0E0,4.4536743E0,1.0757629E1,6.687581E0,0E0,5.285576E0,7.569387E0,1.192627E1,3.2554932E0,1.3025154E1,7.905571E0,9.44183E0,5.057239E0,0E0,2.728363E0,0E0,0E0,0E0,0E0,0E0,0E0,0E0,0E0,0E0,0E0,0E0,0E0,0E0,0E0,0E0,0E0,0E0,0E0,0E0,0E0,0E0,0E0,0E0,0E0,0E0,0E0,0E0,0E0,0E0,0E0],"parents":[2147483647,0,0,1,1,2,2,3,3,4,4,5,5,6,6,7,7,8,8,9,9,10,10,11,11,12,12,13,13,15,15,16,16,17,17,18,18,19,19,21,21,22,22,23,23,25,25,26,26,29,29,31,31,32,32,33,33,35,35,36,36,37,37,38,38,39,39,40,40,41,41,42,42,44,44],"right_children":[2,4,6,8,10,12,14,16,18,20,22,24,26,28,-1,30,32,34,36,38,-1,40,42,44,-1,46,48,-1,-1,50,-1,52,54,56,-1,58,60,62,64,66,68,70,72,-1,74,-1,-1,-1,-1,-1,-1,-1,-1,-1,-1,-1,-1,-1,-1,-1,-1,-1,-1,-1,-1,-1,-1,-1,-1,-1,-1,-1,-1,-1,-1],"split_conditions":[1.8E1,1.2E1,2.4E1,2.4E-1,3E0,4E0,1.9E-1,2E0,4E0,2E-1,3E0,1.9E-1,2E0,6E0,4.0599942E-2,8E0,5E0,4.043E1,4.5E-1,5.9591837E0,8.388502E-3,3E-1,3E0,1.2E-1,2.5775598E-2,5.071E1,5.1666666E-2,5.821435E-2,4.775842E-2,5E-2,2.385817E-3,1.1E-1,4E0,3.9E-1,2.1911003E-2,-2.7266667E0,-1.6666668E-2,1.06E0,6.77913E0,2E0,-4.2716665E0,2.2E-1,5.9E0,5.417761E-2,6.664E1,2.61696E-2,7.1738036E-3,-1.0772038E-2,-9.958227E-5,-1.667973E-2,-5.4265866E-3,-2.9895624E-2,-2.344101E-2,-1.5522204E-2,-2.2882625E-2,-2.838831E-3,8.497844E-3,-2.1276841E-2,-1.2080354E-2,5.4005394E-3,-9.6008815E-3,1.5715625E-2,3.233632E-2,4.7062792E-2,3.1168431E-2,-9.494464E-3,4.046868E-3,3.7853501E-3,1.80261E-2,-2.40909E-2,-9.233574E-3,9.3303795E-4,-9.655533E-3,3.2543197E-2,4.6119023E-2],"split_indices":[19,19,19,27,1,1,8,16,16,8,16,8,16,35,0,19,19,6,27,24,0,27,35,8,0,3,18,0,0,27,0,27,16,27,0,18,32,18,36,35,18,27,4,0,21,0,0,0,0,0,0,0,0,0,0,0,0,0,0,0,0,0,0,0,0,0,0,0,0,0,0,0,0,0,0],"split_type":[0,0,0,0,0,0,0,0,0,0,0,0,0,0,0,0,0,0,0,0,0,0,0,0,0,0,0,0,0,0,0,0,0,0,0,0,0,0,0,0,0,0,0,0,0,0,0,0,0,0,0,0,0,0,0,0,0,0,0,0,0,0,0,0,0,0,0,0,0,0,0,0,0,0,0],"sum_hessian":[4.8175977E3,3.8371738E3,9.804238E2,2.664959E3,1.1722148E3,5.512866E2,4.2913724E2,2.0038912E3,6.610678E2,3.7385635E2,7.983585E2,3.4492126E2,2.0636537E2,3.6809933E2,6.1037903E1,2.3893596E2,1.7649552E3,2.5334189E2,4.0772592E2,2.9135538E2,8.250096E1,4.7388815E2,3.2447037E2,2.6722055E2,7.770071E1,1.0339784E2,1.0296753E2,2.5344867E2,1.1465066E2,1.5061842E2,8.8317535E1,8.9451196E2,8.704433E2,2.0303085E2,5.0311024E1,2.89585E2,1.1814094E2,1.7953319E2,1.1182221E2,2.8083606E2,1.9305208E2,1.6937349E2,1.550969E2,1.1726442E2,1.4995613E2,5.1052666E1,5.2345177E1,5.161281E1,5.135472E1,6.990176E1,8.0716675E1,6.961009E2,1.9841103E2,3.2561874E2,5.448246E2,1.3415569E2,6.8875175E1,1.0268816E2,1.8689684E2,5.056763E1,6.757331E1,1.0015729E2,7.93759E1,5.8309723E1,5.351249E1,9.462608E1,1.8620999E2,5.1971024E1,1.4108105E2,7.8039314E1,9.1334175E1,7.7933075E1,7.716382E1,6.4546005E1,8.541012E1],"tree_param":{"num_deleted":"0","num_feature":"41","num_nodes":"75","size_leaf_vector":"1"}},{"base_weights":[-5.313662E-3,1.2713664E0,-4.2854145E-1,1.4804083E0,5.081792E-1,-6.4088947E-1,9.424606E-2,7.1126235E-1,1.62649E0,1.592237E-1,9.841635E-1,-3.084659E-1,-8.20617E-1,3.7493852E-1,-3.9795357E-1,3.0464476E-2,1.4259574E-2,1.8598648E0,1.4342076E0,-7.2778896E-3,1.1751947E-2,3.9396152E-2,1.7535765E-2,-7.068757E-1,-1.3933706E-1,-6.0264766E-1,-9.6975476E-1,-3.745981E-2,6.0261923E-1,-6.608678E-1,1.7906794E-1,5.9332233E-2,4.7694847E-2,4.9224988E-2,1.1337024E0,-8.0463666E-1,-1.2928502E-2,-3.7834197E-1,-3.52467E-2,-7.801143E-1,-4.8833746E-1,-7.4331963E-1,-1.0340673E0,-2.589402E-1,8.443866E-3,1.0146651E0,3.5362813E-1,-7.20729E-1,-1.1724018E-2,-2.3048772E-3,1.2191862E-2,4.1162007E-2,2.5579588E-2,-2.6290838E-2,-1.745586E-2,-4.643678E-3,-1.4882128E-2,-6.211856E-3,4.1697673E-3,-1.952206E-2,-2.6999319E-2,-1.2629481E-2,-2.2477612E-2,-1.5431977E-2,-2.6001316E-2,-3.2039646E-2,-2.7530147E-2,1.0535097E-3,-1.3373206E-2,1.8837929E-2,4.1107647E-2,5.1961625E-3,2.0086018E-2,-1.5877504E-2,-2.584321E-2],"categories":[],"categories_nodes":[],"categories_segments":[],"categories_sizes":[],"default_left":[0,0,0,0,0,0,0,0,0,0,0,0,0,0,0,0,0,0,0,0,0,0,0,0,0,0,0,0,0,0,0,0,0,0,0,0,0,0,0,0,0,0,0,0,0,0,0,0,0,0,0,0,0,0,0,0,0,0,0,0,0,0,0,0,0,0,0,0,0,0,0,0,0,0,0],"id":13,"left_children":[1,3,5,7,9,11,13,15,17,19,21,23,25,27,29,-1,-1,31,33,-1,-1,-1,-1,35,37,39,41,43,45,47,49,-1,-1,-1,51,53,-1,55,57,59,61,63,65,67,-1,69,71,73,-1,-1,-1,-1,-1,-1,-1,-1,-1,-1,-1,-1,-1,-1,-1,-1,-1,-1,-1,-1,-1,-1,-1,-1,-1,-1,-1],"loss_changes":[2.5842966E3,1.8746179E2,3.992539E2,1.01360596E2,4.222943E1,1.5164014E2,1.438175E2,9.274094E0,2.8113037E1,1.4536844E1,1.182412E1,6.0102127E1,5.1905396E1,6.260611E1,5.7765415E1,0E0,0E0,2.9213867E0,2.2132324E1,0E0,0E0,0E0,0E0,5.895691E0,1.55885105E1,1.2393372E1,1.18324585E1,1.6877373E1,4.253401E1,3.091339E0,7.1602354E0,0E0,0E0,0E0,9.021927E0,1.3450394E0,0E0,4.5553474E0,1.346426E1,2.1046753E0,6.173912E0,4.7848663E0,3.0822754E-2,8.03005E0,0E0,1.9211365E1,1.4779297E1,4.0321198E0,0E0,0E0,0E0,0E0,0E0,0E0,0E0,0E0,0E0,0E0,0E0,0E0,0E0,0E0,0E0,0E0,0E0,0E0,0E0,0E0,0E0,0E0,0E0,0E0,0E0,0E0,0E0],"parents":[2147483647,0,0,1,1,2,2,3,3,4,4,5,5,6,6,7,7,8,8,9,9,10,10,11,11,12,12,13,13,14,14,17,17,18,18,23,23,24,24,25,25,26,26,27,27,28,28,29,29,30,30,34,34,35,35,37,37,38,38,39,39,40,40,41,41,42,42,43,43,45,45,46,46,47,47],"right_children":[2,4,6,8,10,12,14,16,18,20,22,24,26,28,30,-1,-1,32,34,-1,-1,-1,-1,36,38,40,42,44,46,48,50,-1,-1,-1,52,54,-1,56,58,60,62,64,66,68,-1,70,72,74,-1,-1,-1,-1,-1,-1,-1,-1,-1,-1,-1,-1,-1,-1,-1,-1,-1,-1,-1,-1,-1,-1,-1,-1,-1,-1,-1],"split_conditions":[2E0,5E0,5.516667E-1,-4.4333333E-1,4.0166667E-1,3E0,4E0,2E0,2E0,-5.65E-1,1.9E-1,5E0,4E0,9E0,1.5E1,3.0464476E-2,1.4259574E-2,3E0,2E0,-7.2778896E-3,1.1751947E-2,3.9396152E-2,1.7535765E-2,-1.0666667E-1,-5.4333335E-1,-5.35E-1,4E0,1.1933334E0,2E0,1.4116666E0,1.1666666E0,5.9332233E-2,4.7694847E-2,4.9224988E-2,3E0,8E0,-1.2928502E-2,1E-1,3E0,5E0,6E0,3E0,-2E-2,2E0,8.443866E-3,1.13E0,1.2633333E0,5E0,-1.1724018E-2,-2.3048772E-3,1.2191862E-2,4.1162007E-2,2.5579588E-2,-2.6290838E-2,-1.745586E-2,-4.643678E-3,-1.4882128E-2,-6.211856E-3,4.1697673E-3,-1.952206E-2,-2.6999319E-2,-1.2629481E-2,-2.2477612E-2,-1.5431977E-2,-2.6001316E-2,-3.2039646E-2,-2.7530147E-2,1.0535097E-3,-1.3373206E-2,1.8837929E-2,4.1107647E-2,5.1961625E-3,2.0086018E-2,-1.5877504E-2,-2.584321E-2],"split_indices":[0,20,17,17,17,20,20,20,20,17,8,19,0,19,19,0,0,13,15,0,0,0,0,17,17,17,20,17,20,17,40,0,0,0,35,35,0,8,35,20,20,15,17,20,0,17,17,0,0,0,0,0,0,0,0,0,0,0,0,0,0,0,0,0,0,0,0,0,0,0,0,0,0,0,0],"split_type":[0,0,0,0,0,0,0,0,0,0,0,0,0,0,0,0,0,0,0,0,0,0,0,0,0,0,0,0,0,0,0,0,0,0,0,0,0,0,0,0,0,0,0,0,0,0,0,0,0,0,0,0,0,0,0,0,0,0,0,0,0,0,0,0,0,0,0,0,0,0,0,0,0,0,0],"sum_hessian":[4.779606E3,1.1886914E3,3.5909146E3,9.3111755E2,2.5757388E2,2.5540178E3,1.0368969E3,1.5103775E2,7.8007983E2,1.5076439E2,1.06809494E2,8.99156E2,1.6548618E3,6.6127576E2,3.7562115E2,6.2161274E1,8.887647E1,3.43376E2,4.367038E2,5.4441444E1,9.6322945E1,5.5385105E1,5.1424385E1,2.6517615E2,6.3397986E2,6.7774744E2,9.771143E2,2.3503377E2,4.2624197E2,2.5844095E2,1.1718021E2,2.2893977E2,1.1443624E2,2.525013E2,1.842025E2,1.9163512E2,7.354104E1,1.8928471E2,4.4469513E2,2.592455E2,4.1850192E2,2.2341019E2,7.5370416E2,1.3985394E2,9.5179825E1,1.5747852E2,2.687635E2,2.0730287E2,5.113807E1,5.4714252E1,6.2465954E1,9.450646E1,8.969604E1,1.3882643E2,5.2808678E1,6.8357994E1,1.2092672E2,2.2516006E2,2.1953506E2,1.3286343E2,1.26382095E2,3.3831122E2,8.01907E1,8.3285324E1,1.4012485E2,5.676332E2,1.8607094E2,5.392665E1,8.592729E1,7.8759155E1,7.871936E1,1.7404233E2,9.4721146E1,9.3349525E1,1.13953354E2],"tree_param":{"num_deleted":"0","num_feature":"41","num_nodes":"75","size_leaf_vector":"1"}},{"base_weights":[-9.057971E-3,-5.936023E-1,6.831448E-1,-7.900009E-1,-3.1263068E-1,2.443352E-1,1.2006592E0,-8.5517424E-1,-2.15192E-1,-4.7709224E-1,1.01865485E-1,8.225222E-1,-4.0749006E-2,8.874157E-1,1.5971779E0,-9.656045E-1,-7.156267E-1,-3.8204563E-1,2.5724634E-3,-6.4006007E-1,-1.7912635E-1,-6.971612E-3,1.650216E-2,4.4681904E-1,1.1465572E0,-3.2734832E-1,2.0198663E-1,1.2559562E0,2.4403366E-1,1.4737853E0,6.0352176E-2,-1.0204667E0,-8.2508E-1,-2.765521E-2,-6.5207106E-1,-7.0323325E-3,-1.5069515E-2,-6.8626714E-1,-8.452397E-3,-3.346467E-1,4.246809E-2,-1.3777019E-1,1.09839E-2,2.6427332E-1,2.5025817E-2,2.416087E-2,1.3705285E0,-4.9385795E-1,-1.17367245E-1,-2.8484998E-2,4.7009966E-1,2.2481026E-2,1.3998281E0,-1.4348365E-1,2.7529566E-2,1.6307328E0,1.0971515E0,-3.1638682E-2,-2.4626449E-2,-2.8165346E-2,-1.9204864E-2,-2.081718E-2,-1.1350541E-2,-2.302E-2,-1.5009137E-2,-1.521568E-2,-4.7273757E-3,-7.097968E-3,8.328052E-3,-7.174253E-3,3.0164348E-3,2.3541517E-4,1.3526654E-2,4.5978412E-2,3.3451054E-2,-2.12271E-2,-9.128088E-3,-1.1975284E-2,2.3356621E-4,-5.953724E-3,8.446111E-3,8.848263E-3,1.8406538E-2,4.5537878E-2,3.3380646E-2,-1.1498575E-2,1.7518896E-3,5.3513497E-2,4.0282726E-2,2.486303E-2,3.87191E-2],"categories":[],"categories_nodes":[],"categories_segments":[],"categories_sizes":[],"default_left":[0,0,0,0,0,0,0,0,0,0,0,0,0,0,0,0,0,0,0,0,0,0,0,0,0,0,0,0,0,0,0,0,0,0,0,0,0,0,0,0,0,0,0,0,0,0,0,0,0,0,0,0,0,0,0,0,0,0,0,0,0,0,0,0,0,0,0,0,0,0,0,0,0,0,0,0,0,0,0,0,0,0,0,0,0,0,0,0,0,0,0],"id":14,"left_children":[1,3,5,7,9,11,13,15,17,19,21,23,25,27,29,31,33,35,-1,37,39,41,-1,43,45,47,49,51,53,55,-1,57,59,-1,61,-1,-1,63,-1,65,67,69,-1,71,-1,-1,73,75,77,79,81,-1,83,85,-1,87,89,-1,-1,-1,-1,-1,-1,-1,-1,-1,-1,-1,-1,-1,-1,-1,-1,-1,-1,-1,-1,-1,-1,-1,-1,-1,-1,-1,-1,-1,-1,-1,-1,-1,-1],"loss_changes":[1.9386066E3,1.4231903E2,4.9675446E2,5.6293457E1,7.3445015E1,1.9659238E2,1.207926E2,1.8887024E1,8.194307E0,3.6730698E1,1.5189255E1,4.6098938E1,5.572961E1,1.3304422E2,1.4859985E1,3.229248E0,6.069336E0,1.2371359E0,0E0,7.3351135E0,9.684514E0,1.2040978E1,0E0,1.2181789E1,1.270282E1,1.2437237E1,2.6973297E1,2.3023804E1,5.5317772E1,1.56203E1,0E0,9.671631E-1,2.7534943E0,0E0,4.4203796E0,0E0,0E0,5.17688E0,0E0,4.5091476E0,7.6487546E0,4.5948834E0,0E0,6.0042286E0,0E0,0E0,3.3761597E-1,7.2952957E0,6.0779533E0,1.2372596E1,4.235405E0,0E0,4.6953735E0,6.704074E0,0E0,4.2458496E0,2.4803314E0,0E0,0E0,0E0,0E0,0E0,0E0,0E0,0E0,0E0,0E0,0E0,0E0,0E0,0E0,0E0,0E0,0E0,0E0,0E0,0E0,0E0,0E0,0E0,0E0,0E0,0E0,0E0,0E0,0E0,0E0,0E0,0E0,0E0,0E0],"parents":[2147483647,0,0,1,1,2,2,3,3,4,4,5,5,6,6,7,7,8,8,9,9,10,10,11,11,12,12,13,13,14,14,15,15,16,16,17,17,19,19,20,20,21,21,23,23,24,24,25,25,26,26,27,27,28,28,29,29,31,31,32,32,34,34,37,37,39,39,40,40,41,41,43,43,46,46,47,47,48,48,49,49,50,50,52,52,53,53,55,55,56,56],"right_children":[2,4,6,8,10,12,14,16,18,20,22,24,26,28,30,32,34,36,-1,38,40,42,-1,44,46,48,50,52,54,56,-1,58,60,-1,62,-1,-1,64,-1,66,68,70,-1,72,-1,-1,74,76,78,80,82,-1,84,86,-1,88,90,-1,-1,-1,-1,-1,-1,-1,-1,-1,-1,-1,-1,-1,-1,-1,-1,-1,-1,-1,-1,-1,-1,-1,-1,-1,-1,-1,-1,-1,-1,-1,-1,-1,-1],"split_conditions":[1.2E1,1.4E-1,1.8E1,9.866667E-1,2.4166666E-1,3E0,2.4E1,5E0,1.525E0,3.3E-1,4.091E1,-4.3333334E-1,5.2666664E-1,4E0,1.385E0,-3E-2,-9E-2,2E-1,2.5724634E-3,4.845E0,-4.4333333E-1,3.3E-1,1.650216E-2,5E-1,2.5E-1,2E0,2.6E-1,7E-2,1.13E0,3E0,6.0352176E-2,1.672E0,6E-2,-2.765521E-2,1.6E1,-7.0323325E-3,-1.5069515E-2,-2.6E-1,-8.452397E-3,4.5E-1,6.664E1,1.0366666E0,1.09839E-2,-9.166667E-1,2.5025817E-2,2.416087E-2,6.78146E0,2.2E-1,-4.3566666E0,1.2883333E0,5E0,2.2481026E-2,3E0,4.2333335E-1,2.7529566E-2,8.944272E-1,5.95E-1,-3.1638682E-2,-2.4626449E-2,-2.8165346E-2,-1.9204864E-2,-2.081718E-2,-1.1350541E-2,-2.302E-2,-1.5009137E-2,-1.521568E-2,-4.7273757E-3,-7.097968E-3,8.328052E-3,-7.174253E-3,3.0164348E-3,2.3541517E-4,1.3526654E-2,4.5978412E-2,3.3451054E-2,-2.12271E-2,-9.128088E-3,-1.1975284E-2,2.3356621E-4,-5.953724E-3,8.446111E-3,8.848263E-3,1.8406538E-2,4.5537878E-2,3.3380646E-2,-1.1498575E-2,1.7518896E-3,5.3513497E-2,4.0282726E-2,2.486303E-2,3.87191E-2],"split_indices":[19,27,19,17,17,1,19,19,17,27,6,17,17,1,17,17,34,18,0,25,17,27,0,27,27,13,27,27,17,13,0,25,27,0,35,0,0,17,0,27,21,17,0,17,0,0,36,27,18,17,22,0,13,17,0,39,17,0,0,0,0,0,0,0,0,0,0,0,0,0,0,0,0,0,0,0,0,0,0,0,0,0,0,0,0,0,0,0,0,0,0],"split_type":[0,0,0,0,0,0,0,0,0,0,0,0,0,0,0,0,0,0,0,0,0,0,0,0,0,0,0,0,0,0,0,0,0,0,0,0,0,0,0,0,0,0,0,0,0,0,0,0,0,0,0,0,0,0,0,0,0,0,0,0,0,0,0,0,0,0,0,0,0,0,0,0,0,0,0,0,0,0,0,0,0,0,0,0,0,0,0,0,0,0,0],"sum_hessian":[4.7872466E3,2.5960056E3,2.191241E3,1.5247826E3,1.0712229E3,1.1879053E3,1.00333563E3,1.367847E3,1.5693555E2,7.675735E2,3.0364938E2,3.916245E2,7.9628076E2,5.648501E2,4.3848557E2,7.5497754E2,6.1286957E2,1.0168163E2,5.5253914E1,4.936209E2,2.7395258E2,2.4500793E2,5.8641457E1,1.8427145E2,2.0735306E2,3.6577313E2,4.3050766E2,3.574278E2,2.0742227E2,3.4585837E2,9.2627174E1,5.314227E2,2.2355478E2,1.3617111E2,4.7669846E2,5.0162254E1,5.1519375E1,4.343787E2,5.9242218E1,1.6170212E2,1.1225046E2,1.8333694E2,6.1670998E1,1.2841338E2,5.5858086E1,8.669978E1,1.20653275E2,2.0116747E2,1.6460567E2,2.3146313E2,1.9904453E2,8.257275E1,2.7485507E2,1.322015E2,7.5220764E1,2.3848993E2,1.07368454E2,4.443119E2,8.711083E1,1.3168292E2,9.1871864E1,4.09252E2,6.744644E1,2.962806E2,1.380981E2,7.857882E1,8.312331E1,5.03518E1,6.189866E1,1.3009184E2,5.3245094E1,5.6095917E1,7.231745E1,6.650689E1,5.4146385E1,9.075875E1,1.1040871E2,5.0503063E1,1.141026E2,1.5100548E2,8.045765E1,9.393972E1,1.05104805E2,1.8744463E2,8.741043E1,6.073604E1,7.146546E1,1.4780904E2,9.068089E1,5.048772E1,5.6880737E1],"tree_param":{"num_deleted":"0","num_feature":"41","num_nodes":"91","size_leaf_vector":"1"}},{"base_weights":[-2.955748E-3,1.2043471E0,-4.2158687E-1,4.7923827E-1,1.3733331E0,-2.2905907E-2,-6.7268175E-1,2.8691007E-2,1.0443627E-1,1.5725441E0,9.4087577E-1,-2.9519567E-1,4.6550936E-1,-8.493473E-1,-3.5852128E-1,9.478209E-3,-5.5112564E-3,1.740187E0,1.3841636E0,1.2428207E-2,1.0710415E0,-9.858777E-2,-6.751393E-1,3.3311743E-1,3.0633766E-2,-6.579824E-1,-9.774019E-1,-1.566494E-2,-6.4899385E-1,1.5905658E0,6.0159624E-2,1.5928061E0,1.0676764E0,8.871508E-1,4.218509E-2,-2.844248E-1,4.750822E-2,-7.468531E-1,-1.0189514E-2,5.0363755E-1,-8.2357034E-2,-7.7537674E-1,-4.293614E-1,-7.7876234E-1,-3.0977804E-2,-1.5837291E-1,1.390792E-2,-3.324503E-1,-7.824019E-1,5.1966734E-2,3.9641242E-2,5.4344468E-2,4.2685732E-2,3.713268E-2,2.2144126E-2,3.0975748E-2,1.6645355E-2,-2.861327E-3,-1.3808409E-2,-3.136106E-3,9.914147E-3,-1.8267293E-2,-2.7815713E-2,1.8643064E-2,-3.4276093E-4,-6.0167913E-3,1.8362562E-3,-1.990758E-2,-2.6549784E-2,-8.964937E-3,-2.0075953E-2,-2.6118282E-2,-1.552256E-2,3.1518764E-4,-1.2803633E-2,-1.5105752E-2,-4.101658E-3,-2.5478924E-2,-1.5284182E-2],"categories":[],"categories_nodes":[],"categories_segments":[],"categories_sizes":[],"default_left":[0,0,0,0,0,0,0,0,0,0,0,0,0,0,0,0,0,0,0,0,0,0,0,0,0,0,0,0,0,0,0,0,0,0,0,0,0,0,0,0,0,0,0,0,0,0,0,0,0,0,0,0,0,0,0,0,0,0,0,0,0,0,0,0,0,0,0,0,0,0,0,0,0,0,0,0,0,0,0],"id":15,"left_children":[1,3,5,7,9,11,13,-1,15,17,19,21,23,25,27,-1,-1,29,31,-1,33,35,37,39,-1,41,43,45,47,49,-1,51,53,55,-1,57,59,61,-1,63,65,67,69,71,-1,73,-1,75,77,-1,-1,-1,-1,-1,-1,-1,-1,-1,-1,-1,-1,-1,-1,-1,-1,-1,-1,-1,-1,-1,-1,-1,-1,-1,-1,-1,-1,-1,-1],"loss_changes":[2.4076292E3,1.4803223E2,3.538026E2,4.1370396E1,8.1329346E1,1.8239378E2,1.1922388E2,0E0,8.390263E0,1.4970703E1,2.0231049E1,6.533043E1,3.472487E1,3.1871216E1,7.7878815E1,0E0,0E0,5.649048E0,1.7027344E1,0E0,1.199295E1,1.6004728E1,6.1526947E0,2.8620003E1,0E0,1.3855728E1,6.5300293E0,2.4829576E1,1.6845093E1,2.8061523E0,0E0,4.2184448E-1,4.916031E0,6.282318E0,0E0,8.241207E0,1.4261057E1,4.167038E0,0E0,1.7587715E1,2.0832996E0,2.5655518E0,5.2867966E0,2.953148E0,0E0,1.3004504E1,0E0,3.9093723E0,3.8593292E0,0E0,0E0,0E0,0E0,0E0,0E0,0E0,0E0,0E0,0E0,0E0,0E0,0E0,0E0,0E0,0E0,0E0,0E0,0E0,0E0,0E0,0E0,0E0,0E0,0E0,0E0,0E0,0E0,0E0,0E0],"parents":[2147483647,0,0,1,1,2,2,3,3,4,4,5,5,6,6,8,8,9,9,10,10,11,11,12,12,13,13,14,14,17,17,18,18,20,20,21,21,22,22,23,23,25,25,26,26,27,27,28,28,29,29,31,31,32,32,33,33,35,35,36,36,37,37,39,39,40,40,41,41,42,42,43,43,45,45,47,47,48,48],"right_children":[2,4,6,8,10,12,14,-1,16,18,20,22,24,26,28,-1,-1,30,32,-1,34,36,38,40,-1,42,44,46,48,50,-1,52,54,56,-1,58,60,62,-1,64,66,68,70,72,-1,74,-1,76,78,-1,-1,-1,-1,-1,-1,-1,-1,-1,-1,-1,-1,-1,-1,-1,-1,-1,-1,-1,-1,-1,-1,-1,-1,-1,-1,-1,-1,-1,-1],"split_conditions":[2E0,-4.0333334E-1,3E0,3E0,4E0,5.4E-1,2.6166666E-1,2.8691007E-2,1.9E-1,2E0,-7E-2,5E0,1.6E0,4E0,4E0,9.478209E-3,-5.5112564E-3,8.95E-1,2E0,1.2428207E-2,8.333333E-1,-3.3833334E-1,2.4E-1,5E0,3.0633766E-2,-2.5E-1,4E0,1.2633333E0,4E0,8.3666E-1,6.0159624E-2,3.265E1,5.23E1,3E0,4.218509E-2,5.21E1,3E0,4E0,-1.0189514E-2,3E0,3.556E1,5E0,5.26E1,3.913E1,-3.0977804E-2,5E0,1.390792E-2,4E0,1.2633333E0,5.1966734E-2,3.9641242E-2,5.4344468E-2,4.2685732E-2,3.713268E-2,2.2144126E-2,3.0975748E-2,1.6645355E-2,-2.861327E-3,-1.3808409E-2,-3.136106E-3,9.914147E-3,-1.8267293E-2,-2.7815713E-2,1.8643064E-2,-3.4276093E-4,-6.0167913E-3,1.8362562E-3,-1.990758E-2,-2.6549784E-2,-8.964937E-3,-2.0075953E-2,-2.6118282E-2,-1.552256E-2,3.1518764E-4,-1.2803633E-2,-1.5105752E-2,-4.101658E-3,-2.5478924E-2,-1.5284182E-2],"split_indices":[0,17,20,20,20,17,17,0,8,20,34,0,17,0,0,0,0,17,15,0,40,17,27,0,0,17,20,17,20,39,0,7,10,13,0,10,13,15,0,38,7,20,10,7,0,20,0,29,17,0,0,0,0,0,0,0,0,0,0,0,0,0,0,0,0,0,0,0,0,0,0,0,0,0,0,0,0,0,0],"split_type":[0,0,0,0,0,0,0,0,0,0,0,0,0,0,0,0,0,0,0,0,0,0,0,0,0,0,0,0,0,0,0,0,0,0,0,0,0,0,0,0,0,0,0,0,0,0,0,0,0,0,0,0,0,0,0,0,0,0,0,0,0,0,0,0,0,0,0,0,0,0,0,0,0,0,0,0,0,0,0],"sum_hessian":[4.7604365E3,1.2244011E3,3.5360354E3,2.3342383E2,9.9097736E2,1.3680538E3,2.1679817E3,1.0074129E2,1.3268254E2,6.7404877E2,3.1692862E2,8.795325E2,4.885213E2,1.3844492E3,7.835325E2,7.740675E1,5.5275784E1,3.4653345E2,3.275153E2,6.523173E1,2.5169688E2,5.821333E2,2.973992E2,3.9782642E2,9.069488E1,5.6150977E2,8.229395E2,3.6111877E2,4.224137E2,2.3167679E2,1.1485667E2,1.915751E2,1.3594019E2,1.6819295E2,8.350394E1,2.5689124E2,3.2524207E2,2.4177493E2,5.562427E1,2.826142E2,1.15212234E2,3.6639822E2,1.9511153E2,1.8747577E2,6.3546375E2,2.8009763E2,8.102116E1,1.2842522E2,2.939885E2,1.4345699E2,8.82198E1,7.404267E1,1.1753243E2,8.502716E1,5.0913025E1,1.13027664E2,5.516528E1,1.2665896E2,1.3023227E2,2.1123369E2,1.1400838E2,1.4351967E2,9.8255264E1,2.3046352E2,5.215067E1,6.466225E1,5.054999E1,1.9064258E2,1.7575566E2,1.3060635E2,6.4505165E1,1.3385706E2,5.361872E1,1.7196252E2,1.081351E2,6.5487076E1,6.2938137E1,2.3125247E2,6.2736015E1],"tree_param":{"num_deleted":"0","num_feature":"41","num_nodes":"79","size_leaf_vector":"1"}},{"base_weights":[3.4484505E-3,1.1696395E0,-4.0580925E-1,5.261467E-1,1.3325623E0,-3.910093E-3,-6.290593E-1,7.429431E-1,-4.490579E-3,1.4068098E0,1.8586388E-2,-2.1842355E-1,3.8797233E-1,-7.678796E-1,-2.765053E-1,1.40809715E-2,2.9229073E-2,1.2354108E0,1.554714E0,9.386172E-2,-3.7729964E-1,2.9574203E-1,2.550201E-2,-9.4594103E-1,-6.1864245E-1,2.1368228E-3,-3.9211133E-1,1.369894E0,1.0302675E0,5.2623633E-2,1.4260807E0,3.5812914E-1,-1.7213799E-1,-5.64565E-1,-1.9145526E-1,3.939664E-2,4.3142456E-1,-9.9120885E-1,-7.894925E-1,-7.707903E-1,-5.305613E-1,-9.1962945E-3,1.9028035E-1,-2.6223546E-1,-5.679969E-1,4.545E-2,3.6435492E-2,2.3437526E-2,3.6195006E-2,4.587662E-2,3.5538774E-2,4.6963515E-3,2.0397572E-2,-1.0446206E-2,2.3504132E-3,-2.3167087E-2,-1.3642745E-2,-7.7958236E-4,-1.1167521E-2,-4.747207E-3,1.0725626E-2,1.8452736E-2,6.4651216E-3,-3.0689985E-2,-2.3313358E-2,-2.638436E-2,-1.595804E-2,-2.6987353E-2,-2.0221524E-2,-6.925583E-3,-1.7928062E-2,1.1916624E-2,2.5323228E-4,-3.9422917E-3,-1.3408649E-2,-2.2660531E-2,-1.1655007E-2],"categories":[],"categories_nodes":[],"categories_segments":[],"categories_sizes":[],"default_left":[0,0,0,0,0,0,0,0,0,0,0,0,0,0,0,0,0,0,0,0,0,0,0,0,0,0,0,0,0,0,0,0,0,0,0,0,0,0,0,0,0,0,0,0,0,0,0,0,0,0,0,0,0,0,0,0,0,0,0,0,0,0,0,0,0,0,0,0,0,0,0,0,0,0,0,0,0],"id":16,"left_children":[1,3,5,7,9,11,13,15,-1,17,-1,19,21,23,25,-1,-1,27,29,31,33,35,-1,37,39,41,43,45,47,-1,49,51,53,55,57,59,61,63,65,67,69,-1,71,73,75,-1,-1,-1,-1,-1,-1,-1,-1,-1,-1,-1,-1,-1,-1,-1,-1,-1,-1,-1,-1,-1,-1,-1,-1,-1,-1,-1,-1,-1,-1,-1,-1],"loss_changes":[2.2611533E3,1.2670715E2,3.1425525E2,3.752825E1,4.9136475E1,1.055745E2,1.0932721E2,1.0524956E1,0E0,1.7213379E1,0E0,4.055248E1,1.7839066E1,4.0949463E1,2.0835243E1,0E0,0E0,7.605896E0,5.3615723E0,1.9526802E1,1.8211464E1,1.27366905E1,0E0,2.720398E0,1.04001465E1,1.1011309E1,9.660194E0,5.2560425E-1,4.864273E0,0E0,2.3796997E0,8.411076E0,6.2453313E0,4.767807E0,8.025637E0,8.568449E0,8.957874E0,1.2978516E0,2.4450607E0,1.9651947E0,1.0750885E1,0E0,4.2840343E0,6.0352516E0,5.2151375E0,0E0,0E0,0E0,0E0,0E0,0E0,0E0,0E0,0E0,0E0,0E0,0E0,0E0,0E0,0E0,0E0,0E0,0E0,0E0,0E0,0E0,0E0,0E0,0E0,0E0,0E0,0E0,0E0,0E0,0E0,0E0,0E0],"parents":[2147483647,0,0,1,1,2,2,3,3,4,4,5,5,6,6,7,7,9,9,11,11,12,12,13,13,14,14,17,17,18,18,19,19,20,20,21,21,23,23,24,24,25,25,26,26,27,27,28,28,30,30,31,31,32,32,33,33,34,34,35,35,36,36,37,37,38,38,39,39,40,40,42,42,43,43,44,44],"right_children":[2,4,6,8,10,12,14,16,-1,18,-1,20,22,24,26,-1,-1,28,30,32,34,36,-1,38,40,42,44,46,48,-1,50,52,54,56,58,60,62,64,66,68,70,-1,72,74,76,-1,-1,-1,-1,-1,-1,-1,-1,-1,-1,-1,-1,-1,-1,-1,-1,-1,-1,-1,-1,-1,-1,-1,-1,-1,-1,-1,-1,-1,-1,-1,-1],"split_conditions":[2E0,4.83E0,3E0,2E-1,2.2E-1,2.5E-1,2.5E-1,1.4E-1,-4.490579E-3,2.2E-1,1.8586388E-2,4E0,4.31E1,5E0,4E0,1.40809715E-2,2.9229073E-2,4E0,2E0,2E0,8E-2,3.5E-1,2.550201E-2,1.1E-1,2E0,2E0,5.24E1,2E0,5.8E0,5.2623633E-2,6E0,3.846E1,6.1E0,8.164966E-1,2E0,7.4206586E0,2E0,1.8465E0,6.1968193E0,5.6837606E0,2E0,-9.1962945E-3,5.53E0,6.78448E0,2.2E-1,4.545E-2,3.6435492E-2,2.3437526E-2,3.6195006E-2,4.587662E-2,3.5538774E-2,4.6963515E-3,2.0397572E-2,-1.0446206E-2,2.3504132E-3,-2.3167087E-2,-1.3642745E-2,-7.7958236E-4,-1.1167521E-2,-4.747207E-3,1.0725626E-2,1.8452736E-2,6.4651216E-3,-3.0689985E-2,-2.3313358E-2,-2.638436E-2,-1.595804E-2,-2.6987353E-2,-2.0221524E-2,-6.925583E-3,-1.7928062E-2,1.1916624E-2,2.5323228E-4,-3.9422917E-3,-1.3408649E-2,-2.2660531E-2,-1.1655007E-2],"split_indices":[0,2,16,8,8,27,27,34,0,34,0,0,6,19,16,0,0,35,16,16,27,27,0,27,35,35,10,15,2,0,35,6,4,39,16,24,16,25,24,24,29,0,2,36,34,0,0,0,0,0,0,0,0,0,0,0,0,0,0,0,0,0,0,0,0,0,0,0,0,0,0,0,0,0,0,0,0],"split_type":[0,0,0,0,0,0,0,0,0,0,0,0,0,0,0,0,0,0,0,0,0,0,0,0,0,0,0,0,0,0,0,0,0,0,0,0,0,0,0,0,0,0,0,0,0,0,0,0,0,0,0,0,0,0,0,0,0,0,0,0,0,0,0,0,0,0,0,0,0,0,0,0,0,0,0,0,0],"sum_hessian":[4.732866E3,1.228819E3,3.5040474E3,2.5059142E2,9.7822754E2,1.252874E3,2.2511736E3,1.9013905E2,6.0452366E1,8.8357245E2,9.465506E1,8.110646E2,4.4180942E2,1.6124767E3,6.386968E2,9.088642E1,9.9252625E1,4.1950943E2,4.6406302E2,2.7270657E2,5.38358E2,3.719361E2,6.9873344E1,7.288393E2,8.8363745E2,1.8659349E2,4.521033E2,2.4506345E2,1.7444598E2,1.705368E2,2.935262E2,1.3739417E2,1.3531241E2,2.647837E2,2.735743E2,1.3089728E2,2.410388E2,5.54523E2,1.7431628E2,3.1622482E2,5.674126E2,6.9178604E1,1.1741489E2,2.64568E2,1.8753531E2,1.1600676E2,1.2905669E2,7.79732E1,9.6472786E1,1.967464E2,9.677982E1,8.72583E1,5.0135857E1,8.017343E1,5.5138973E1,8.583332E1,1.7895036E2,1.4547992E2,1.2809439E2,8.03887E1,5.050858E1,1.2699827E2,1.14040535E2,4.74216E2,8.030701E1,1.2416466E2,5.0151634E1,1.26307076E2,1.8991776E2,1.0670927E2,4.6070334E2,5.2522987E1,6.48919E1,1.5846579E2,1.06102196E2,8.725687E1,1.0027844E2],"tree_param":{"num_deleted":"0","num_feature":"41","num_nodes":"77","size_leaf_vector":"1"}},{"base_weights":[-7.180696E-3,-3.3904454E-1,5.9947413E-1,-5.6917375E-1,1.6681246E-1,2.596459E-1,9.8660177E-1,-6.4984876E-1,-6.1734088E-2,5.095692E-1,-7.1583636E-2,-1.4991234E-2,7.2982985E-1,1.4243898E0,8.1162536E-1,-4.423187E-1,-8.053288E-1,1.566016E-2,-2.0591642E-1,3.3229988E-2,3.806278E-1,2.2976379E-1,-4.744978E-1,-2.6304322E-1,2.3827328E-1,9.582356E-1,2.567786E-1,3.1095833E-2,1.6300119E0,2.2288777E-1,9.5133644E-1,-6.3888115E-1,-2.0568623E-1,-5.2290785E-1,-8.9474255E-1,3.9645648E-3,-4.4341215E-1,2.7050543E-1,2.7744506E-2,9.317103E-2,2.0637615E-2,-6.208811E-1,-6.045873E-3,2.0270878E-2,-4.476024E-1,-8.044036E-3,2.4767216E-2,1.882867E-2,1.1470888E0,-5.431144E-4,1.671566E-2,3.8505446E-2,5.381139E-2,1.4988234E-3,1.2042989E-2,1.421782E0,6.8921006E-1,-2.2844357E-2,-1.2843239E-2,-1.0520074E-2,5.217798E-3,-2.2285584E-2,-7.605273E-3,-2.8892484E-2,-2.1780955E-2,-1.9047301E-2,-5.576633E-3,-3.2080954E-3,1.0950976E-2,-1.7393696E-3,1.2521711E-2,-2.2589795E-2,-9.881398E-3,-5.357367E-3,6.3270587E-3,-7.7371686E-3,-2.0232698E-2,-1.2546256E-2,1.0643119E-2,4.381088E-2,2.5331676E-2,5.0380778E-2,3.4424845E-2,2.9263364E-2,1.3921406E-2],"categories":[],"categories_nodes":[],"categories_segments":[],"categories_sizes":[],"default_left":[0,0,0,0,0,0,0,0,0,0,0,0,0,0,0,0,0,0,0,0,0,0,0,0,0,0,0,0,0,0,0,0,0,0,0,0,0,0,0,0,0,0,0,0,0,0,0,0,0,0,0,0,0,0,0,0,0,0,0,0,0,0,0,0,0,0,0,0,0,0,0,0,0,0,0,0,0,0,0,0,0,0,0,0,0],"id":17,"left_children":[1,3,5,7,9,11,13,15,17,19,21,23,25,27,29,31,33,-1,35,-1,37,39,41,43,45,47,49,-1,51,53,55,57,59,61,63,-1,65,67,-1,69,-1,71,-1,73,75,77,-1,-1,79,-1,-1,-1,-1,-1,-1,81,83,-1,-1,-1,-1,-1,-1,-1,-1,-1,-1,-1,-1,-1,-1,-1,-1,-1,-1,-1,-1,-1,-1,-1,-1,-1,-1,-1,-1],"loss_changes":[9.461023E2,3.5411688E2,2.174342E2,8.510681E1,7.799727E1,1.1506685E2,5.5956177E1,5.680487E1,2.4439564E1,2.8582176E1,6.854794E1,3.5441334E1,3.4361664E1,1.2666626E1,4.499646E1,3.548239E1,2.4272156E1,0E0,1.9095945E1,0E0,1.8411911E1,1.9633968E1,8.997833E0,1.5178253E1,4.065383E1,1.1401993E1,9.399028E0,0E0,1.6888123E0,3.1482573E0,5.257141E1,9.67453E0,1.9854832E1,1.4113228E1,6.6966553E0,0E0,6.209898E0,9.995789E0,0E0,1.25394535E1,0E0,4.939621E0,0E0,4.3977585E0,6.683281E0,2.9691452E1,0E0,0E0,9.331894E0,0E0,0E0,0E0,0E0,0E0,0E0,5.9465637E0,1.7325653E1,0E0,0E0,0E0,0E0,0E0,0E0,0E0,0E0,0E0,0E0,0E0,0E0,0E0,0E0,0E0,0E0,0E0,0E0,0E0,0E0,0E0,0E0,0E0,0E0,0E0,0E0,0E0,0E0],"parents":[2147483647,0,0,1,1,2,2,3,3,4,4,5,5,6,6,7,7,8,8,9,9,10,10,11,11,12,12,13,13,14,14,15,15,16,16,18,18,20,20,21,21,22,22,23,23,24,24,25,25,26,26,28,28,29,29,30,30,31,31,32,32,33,33,34,34,36,36,37,37,39,39,41,41,43,43,44,44,45,45,48,48,55,55,56,56],"right_children":[2,4,6,8,10,12,14,16,18,20,22,24,26,28,30,32,34,-1,36,-1,38,40,42,44,46,48,50,-1,52,54,56,58,60,62,64,-1,66,68,-1,70,-1,72,-1,74,76,78,-1,-1,80,-1,-1,-1,-1,-1,-1,82,84,-1,-1,-1,-1,-1,-1,-1,-1,-1,-1,-1,-1,-1,-1,-1,-1,-1,-1,-1,-1,-1,-1,-1,-1,-1,-1,-1,-1],"split_conditions":[3E-1,5.2666664E-1,3.8166666E-1,5.334E0,5E0,5.4E-1,2E0,4E0,2E0,2E0,4E0,1.2E-1,4E0,1E0,2E0,1.6E-1,4E0,1.566016E-2,4E0,3.3229988E-2,1.089E1,1.525E0,4E0,2E0,4.2E-1,-3.2833335E-1,3.276E0,3.1095833E-2,5.95E0,6.34E0,4E0,-1.1666667E-1,1.1E-1,-3.2833335E-1,4E0,3.9645648E-3,6E-2,1.6E-1,2.7744506E-2,3.276E0,2.0637615E-2,2.4975E0,-6.045873E-3,-3.4833333E-1,5.22E1,1.4E-1,2.4767216E-2,1.882867E-2,2E0,-5.431144E-4,1.671566E-2,3.8505446E-2,5.381139E-2,1.4988234E-3,1.2042989E-2,2E0,2E0,-2.2844357E-2,-1.2843239E-2,-1.0520074E-2,5.217798E-3,-2.2285584E-2,-7.605273E-3,-2.8892484E-2,-2.1780955E-2,-1.9047301E-2,-5.576633E-3,-3.2080954E-3,1.0950976E-2,-1.7393696E-3,1.2521711E-2,-2.2589795E-2,-9.881398E-3,-5.357367E-3,6.3270587E-3,-7.7371686E-3,-2.0232698E-2,-1.2546256E-2,1.0643119E-2,4.381088E-2,2.5331676E-2,5.0380778E-2,3.4424845E-2,2.9263364E-2,1.3921406E-2],"split_indices":[27,17,17,25,22,27,22,20,22,20,20,37,22,11,11,37,22,0,20,0,25,17,11,20,27,17,25,0,4,4,22,17,27,17,11,0,27,37,0,25,0,25,0,17,10,37,0,0,22,0,0,0,0,0,0,20,20,0,0,0,0,0,0,0,0,0,0,0,0,0,0,0,0,0,0,0,0,0,0,0,0,0,0,0,0],"split_type":[0,0,0,0,0,0,0,0,0,0,0,0,0,0,0,0,0,0,0,0,0,0,0,0,0,0,0,0,0,0,0,0,0,0,0,0,0,0,0,0,0,0,0,0,0,0,0,0,0,0,0,0,0,0,0,0,0,0,0,0,0,0,0,0,0,0,0,0,0,0,0,0,0,0,0,0,0,0,0,0,0,0,0,0,0],"sum_hessian":[4.695964E3,3.0365557E3,1.659408E3,2.0875884E3,9.489672E2,8.8615594E2,7.732521E2,1.7998878E3,2.8770065E2,3.8920523E2,5.5976196E2,5.599555E2,3.262004E2,2.1591013E2,5.573419E2,7.7557697E2,1.0243109E3,5.5261032E1,2.3243962E2,6.564609E1,3.235591E2,3.2002646E2,2.3973555E2,2.8384723E2,2.7610828E2,2.178881E2,1.083123E2,7.983395E1,1.3607617E2,1.0857603E2,4.487659E2,4.2064713E2,3.549298E2,2.5095058E2,7.733603E2,9.540916E1,1.3703047E2,2.7235764E2,5.120148E1,2.4922246E2,7.0803986E1,1.5319939E2,8.653615E1,1.1160112E2,1.7224611E2,1.953138E2,8.079449E1,8.331972E1,1.3456839E2,5.667156E1,5.1640743E1,5.031429E1,8.576189E1,5.787866E1,5.0697365E1,1.5672734E2,2.9203857E2,2.6114996E2,1.5949716E2,2.5790106E2,9.702875E1,1.3519917E2,1.157514E2,5.415942E2,2.3176614E2,7.57956E1,6.1234867E1,5.3436485E1,2.1892116E2,1.7004718E2,7.917527E1,1.02062004E2,5.1137386E1,5.3401207E1,5.8199917E1,9.732713E1,7.4918976E1,9.2178314E1,1.03135475E2,6.1558582E1,7.30098E1,7.4602005E1,8.212534E1,1.24669426E2,1.6736914E2],"tree_param":{"num_deleted":"0","num_feature":"41","num_nodes":"85","size_leaf_vector":"1"}},{"base_weights":[-0E0,1.0592976E0,-3.856578E-1,4.3708745E-1,1.2187355E0,-4.330534E-3,-6.3556516E-1,6.605735E-1,-3.4292117E-3,1.4826114E0,9.165944E-1,6.098997E-1,-1.9381288E-1,-3.6322147E-1,-8.410026E-1,4.6278352E-1,3.0260729E-2,4.827937E-2,1.2830427E0,1.0231699E0,1.3916138E-2,7.670497E-1,-2.0041047E-3,-1.34894075E-2,-5.646624E-1,6.604208E-2,-5.967747E-1,-5.834293E-1,-9.273276E-1,5.5969562E-3,1.936798E-2,4.313112E-2,2.8791059E-2,1.228353E0,7.213539E-1,9.3393785E-1,1.241451E-2,1.7423089E-1,-1.9980663E-1,-6.557542E-1,-3.5188787E-3,2.4794732E-1,-2.454143E-1,-7.9657006E-1,-4.906392E-1,-3.8472795E-1,-2.4364075E-2,-3.039368E-2,-7.5344115E-1,2.7821312E-2,4.303278E-2,2.738552E-2,1.0184491E-2,3.539617E-2,1.779088E-2,9.243893E-3,-5.2270084E-3,4.1714185E-3,-8.039088E-3,-2.2070546E-2,-1.0913143E-2,1.6102925E-2,1.7864922E-3,-1.5070354E-2,6.655795E-5,-2.778335E-2,-2.1082116E-2,-1.09220175E-2,-1.9800954E-2,-4.740426E-3,-1.4493137E-2,-2.4331922E-2,-1.7406229E-2],"categories":[],"categories_nodes":[],"categories_segments":[],"categories_sizes":[],"default_left":[0,0,0,0,0,0,0,0,0,0,0,0,0,0,0,0,0,0,0,0,0,0,0,0,0,0,0,0,0,0,0,0,0,0,0,0,0,0,0,0,0,0,0,0,0,0,0,0,0,0,0,0,0,0,0,0,0,0,0,0,0,0,0,0,0,0,0,0,0,0,0,0,0],"id":18,"left_children":[1,3,5,7,9,11,13,15,-1,17,19,21,23,25,27,29,-1,-1,31,33,-1,35,-1,37,39,41,43,45,47,-1,-1,-1,-1,49,51,53,-1,55,57,59,-1,61,63,65,67,69,-1,-1,71,-1,-1,-1,-1,-1,-1,-1,-1,-1,-1,-1,-1,-1,-1,-1,-1,-1,-1,-1,-1,-1,-1,-1,-1],"loss_changes":[1.9273427E3,1.2302222E2,3.292658E2,3.2537785E1,7.585632E1,1.5971774E2,1.1563873E2,1.1163734E1,0E0,7.8253174E0,2.1109314E1,3.4837593E1,6.9961136E1,9.083444E1,2.457605E1,5.5775833E0,0E0,0E0,6.904022E0,2.0784485E1,0E0,1.4066589E1,0E0,2.4912483E1,1.3429413E1,1.8201084E1,1.0990585E1,1.2638924E1,1.0791382E1,0E0,0E0,0E0,0E0,9.950775E0,1.0425987E1,1.2484375E1,0E0,1.6661922E1,8.420827E0,5.5302353E0,0E0,1.070795E1,7.737167E0,2.941513E-1,7.3523636E0,3.2781124E0,0E0,0E0,1.3786469E0,0E0,0E0,0E0,0E0,0E0,0E0,0E0,0E0,0E0,0E0,0E0,0E0,0E0,0E0,0E0,0E0,0E0,0E0,0E0,0E0,0E0,0E0,0E0,0E0],"parents":[2147483647,0,0,1,1,2,2,3,3,4,4,5,5,6,6,7,7,9,9,10,10,11,11,12,12,13,13,14,14,15,15,18,18,19,19,21,21,23,23,24,24,25,25,26,26,27,27,28,28,33,33,34,34,35,35,37,37,38,38,39,39,41,41,42,42,43,43,44,44,45,45,48,48],"right_children":[2,4,6,8,10,12,14,16,-1,18,20,22,24,26,28,30,-1,-1,32,34,-1,36,-1,38,40,42,44,46,48,-1,-1,-1,-1,50,52,54,-1,56,58,60,-1,62,64,66,68,70,-1,-1,72,-1,-1,-1,-1,-1,-1,-1,-1,-1,-1,-1,-1,-1,-1,-1,-1,-1,-1,-1,-1,-1,-1,-1,-1],"split_conditions":[2E0,4.83E0,3E0,5E0,3E0,2E0,4E0,-1.6666667E-1,-3.4292117E-3,2E0,6E0,3E0,5E0,3E0,4E0,2.019E1,3.0260729E-2,4.827937E-2,2E0,2E0,1.3916138E-2,5E0,-2.0041047E-3,3E0,5E-1,5E0,5.236735E0,3E0,1.6666667E-1,5.5969562E-3,1.936798E-2,4.313112E-2,2.8791059E-2,4.141E1,1E0,2E0,1.241451E-2,3E0,7E-2,2.1E-1,-3.5188787E-3,3E0,6.666667E-1,7.5E-1,5E0,2.5E0,-2.4364075E-2,-3.039368E-2,4.833E1,2.7821312E-2,4.303278E-2,2.738552E-2,1.0184491E-2,3.539617E-2,1.779088E-2,9.243893E-3,-5.2270084E-3,4.1714185E-3,-8.039088E-3,-2.2070546E-2,-1.0913143E-2,1.6102925E-2,1.7864922E-3,-1.5070354E-2,6.655795E-5,-2.778335E-2,-2.1082116E-2,-1.09220175E-2,-1.9800954E-2,-4.740426E-3,-1.4493137E-2,-2.4331922E-2,-1.7406229E-2],"split_indices":[0,2,20,20,20,16,0,40,0,15,20,38,0,16,20,3,0,0,20,13,0,0,0,15,40,20,24,15,40,0,0,0,0,3,12,20,0,38,37,27,0,30,40,25,20,38,0,0,3,0,0,0,0,0,0,0,0,0,0,0,0,0,0,0,0,0,0,0,0,0,0,0,0],"split_type":[0,0,0,0,0,0,0,0,0,0,0,0,0,0,0,0,0,0,0,0,0,0,0,0,0,0,0,0,0,0,0,0,0,0,0,0,0,0,0,0,0,0,0,0,0,0,0,0,0,0,0,0,0,0,0,0,0,0,0,0,0,0,0,0,0,0,0,0,0,0,0,0,0],"sum_hessian":[4.7137676E3,1.2571802E3,3.4565876E3,2.586013E2,9.9857886E2,1.3700693E3,2.0865183E3,1.8438063E2,7.422066E1,5.2798895E2,4.705899E2,3.2133768E2,1.0487317E3,9.0059296E2,1.1859253E3,1.2146366E2,6.291697E1,3.1277982E2,2.1520914E2,3.7798422E2,9.260568E1,2.6116052E2,6.0177143E1,7.079271E2,3.4080457E2,3.1708823E2,5.8350476E2,3.0303867E2,8.828866E2,5.107299E1,7.039067E1,1.398679E2,7.534123E1,2.2037238E2,1.5761183E2,1.7416916E2,8.699136E1,3.5136365E2,3.5656348E2,2.8144754E2,5.935703E1,2.0144691E2,1.1564133E2,1.9628511E2,3.8721964E2,1.6619673E2,1.3684193E2,5.8280426E2,3.0008234E2,9.501984E1,1.2535255E2,1.0224749E2,5.536434E1,9.746698E1,7.670218E1,2.5503267E2,9.633098E1,5.813679E1,2.9842667E2,2.1722911E2,6.4218414E1,7.702067E1,1.2442624E2,5.6736485E1,5.890484E1,7.2763176E1,1.2352194E2,2.2691588E2,1.6030376E2,5.340869E1,1.1278804E2,2.1748871E2,8.259363E1],"tree_param":{"num_deleted":"0","num_feature":"41","num_nodes":"73","size_leaf_vector":"1"}},{"base_weights":[2.9678966E-3,1.0408518E0,-3.80904E-1,1.2122043E0,3.937527E-1,-1.05143115E-2,-6.233658E-1,9.3662006E-1,1.4483452E0,-4.6020634E-3,5.61586E-1,-2.6013458E-1,4.061225E-1,-8.096431E-1,-3.0514163E-1,1.1282576E0,5.7543945E-1,1.3075049E0,1.5978264E0,8.0520236E-1,7.933885E-3,-6.433323E-1,-9.9704295E-2,2.7684534E-1,2.769895E-2,-8.928526E-1,-5.102152E-1,-5.394619E-1,-7.847788E-2,2.2757247E-2,1.2621692E0,6.7686858E-3,7.5885624E-1,4.509104E-2,1.1335741E0,4.0051308E-2,5.073268E-2,2.873723E-2,1.7797196E-2,-4.6962008E-1,-2.4696538E-2,-2.5433517E-1,5.86228E-2,4.6036443E-1,6.942238E-2,-6.7324394E-1,-9.6341634E-1,-6.0633603E-3,-6.205206E-1,-7.172377E-1,-4.2247862E-1,7.4296063E-3,-1.7053658E-2,4.199276E-2,3.072009E-2,1.4775973E-2,2.9869223E-2,3.8902335E-2,2.7142152E-2,-1.811197E-2,-8.639795E-3,-3.7121433E-3,-1.6100748E-2,-7.777834E-3,6.046011E-3,1.854825E-2,3.2757334E-3,-4.64522E-3,7.3836795E-3,-2.3078343E-2,-1.5301292E-2,-2.2500446E-2,-3.0224482E-2,-1.1200267E-2,-2.2572536E-2,-1.6951315E-2,-2.4963979E-2,-9.668633E-3,-2.2286952E-2,3.1925282E-3,-1.3452674E-2],"categories":[],"categories_nodes":[],"categories_segments":[],"categories_sizes":[],"default_left":[0,0,0,0,0,0,0,0,0,0,0,0,0,0,0,0,0,0,0,0,0,0,0,0,0,0,0,0,0,0,0,0,0,0,0,0,0,0,0,0,0,0,0,0,0,0,0,0,0,0,0,0,0,0,0,0,0,0,0,0,0,0,0,0,0,0,0,0,0,0,0,0,0,0,0,0,0,0,0,0,0],"id":19,"left_children":[1,3,5,7,9,11,13,15,17,-1,19,21,23,25,27,29,31,33,35,37,-1,39,41,43,-1,45,47,49,51,-1,53,-1,55,-1,57,-1,-1,-1,-1,59,-1,61,63,65,67,69,71,-1,73,75,77,79,-1,-1,-1,-1,-1,-1,-1,-1,-1,-1,-1,-1,-1,-1,-1,-1,-1,-1,-1,-1,-1,-1,-1,-1,-1,-1,-1,-1,-1],"loss_changes":[1.8636536E3,1.3829663E2,3.0624435E2,6.0980957E1,2.4988544E1,1.4089684E2,1.211991E2,3.0156006E1,5.5759277E0,0E0,1.3967171E1,5.1652306E1,3.2793533E1,3.0743713E1,4.0272873E1,1.2023285E1,9.8667755E0,5.028351E0,3.753662E-2,1.694191E0,0E0,6.3631897E0,1.4847937E1,1.5252686E1,0E0,1.3571045E1,9.1386795E0,6.6240387E0,1.681548E1,0E0,3.053955E0,0E0,5.0626564E0,0E0,2.5749207E0,0E0,0E0,0E0,0E0,2.440607E0,0E0,1.0826378E1,1.3572991E1,1.1454006E1,7.880258E0,2.5647736E0,4.7544556E0,0E0,5.7281265E0,8.84079E-1,6.4610863E0,1.5048087E1,0E0,0E0,0E0,0E0,0E0,0E0,0E0,0E0,0E0,0E0,0E0,0E0,0E0,0E0,0E0,0E0,0E0,0E0,0E0,0E0,0E0,0E0,0E0,0E0,0E0,0E0,0E0,0E0,0E0],"parents":[2147483647,0,0,1,1,2,2,3,3,4,4,5,5,6,6,7,7,8,8,10,10,11,11,12,12,13,13,14,14,15,15,16,16,17,17,18,18,19,19,21,21,22,22,23,23,25,25,26,26,27,27,28,28,30,30,32,32,34,34,39,39,41,41,42,42,43,43,44,44,45,45,46,46,48,48,49,49,50,50,51,51],"right_children":[2,4,6,8,10,12,14,16,18,-1,20,22,24,26,28,30,32,34,36,38,-1,40,42,44,-1,46,48,50,52,-1,54,-1,56,-1,58,-1,-1,-1,-1,60,-1,62,64,66,68,70,72,-1,74,76,78,80,-1,-1,-1,-1,-1,-1,-1,-1,-1,-1,-1,-1,-1,-1,-1,-1,-1,-1,-1,-1,-1,-1,-1,-1,-1,-1,-1,-1,-1],"split_conditions":[2E0,5E0,3E0,5.83E0,2.353E1,5.4E-1,1E1,3E0,6.57E0,-4.6020634E-3,6E0,6E0,1.6E0,4.6666667E-1,2.9E-1,-5.233333E-1,3.141E1,2E0,6.5166664E-1,3E0,7.933885E-3,6E0,3E0,2E0,2.769895E-2,4E0,5E0,2E0,6E0,2.2757247E-2,6E0,6.7686858E-3,6.0642858E0,4.509104E-2,3E0,4.0051308E-2,5.073268E-2,2.873723E-2,1.7797196E-2,5.35426E0,-2.4696538E-2,1.4E-1,-4.9333334E-1,5E0,1.2E1,-2.9E-1,4E0,-6.0633603E-3,3.165E1,-5E-2,6E0,4E0,-1.7053658E-2,4.199276E-2,3.072009E-2,1.4775973E-2,2.9869223E-2,3.8902335E-2,2.7142152E-2,-1.811197E-2,-8.639795E-3,-3.7121433E-3,-1.6100748E-2,-7.777834E-3,6.046011E-3,1.854825E-2,3.2757334E-3,-4.64522E-3,7.3836795E-3,-2.3078343E-2,-1.5301292E-2,-2.2500446E-2,-3.0224482E-2,-1.1200267E-2,-2.2572536E-2,-1.6951315E-2,-2.4963979E-2,-9.668633E-3,-2.2286952E-2,3.1925282E-3,-1.3452674E-2],"split_indices":[0,20,20,2,5,17,19,20,2,0,20,19,17,17,17,17,6,20,17,35,0,0,35,20,0,20,0,35,20,0,35,0,24,0,35,0,0,0,0,24,0,37,17,0,19,17,0,0,7,32,20,0,0,0,0,0,0,0,0,0,0,0,0,0,0,0,0,0,0,0,0,0,0,0,0,0,0,0,0,0,0],"split_type":[0,0,0,0,0,0,0,0,0,0,0,0,0,0,0,0,0,0,0,0,0,0,0,0,0,0,0,0,0,0,0,0,0,0,0,0,0,0,0,0,0,0,0,0,0,0,0,0,0,0,0,0,0,0,0,0,0,0,0,0,0,0,0,0,0,0,0,0,0,0,0,0,0,0,0,0,0,0,0,0,0],"sum_hessian":[4.672857E3,1.2610918E3,3.4117654E3,9.9507544E2,2.6601636E2,1.3514346E3,2.0603306E3,4.6474838E2,5.30327E2,6.1784626E1,2.0423174E2,8.463256E2,5.05109E2,1.2966548E3,7.6367596E2,2.9996106E2,1.6478734E2,2.8481503E2,2.4551202E2,1.094165E2,9.481524E1,2.4706314E2,5.9926245E2,4.073277E2,9.778132E1,1.0102717E3,2.86383E2,3.7305426E2,3.9062167E2,8.430047E1,2.1566058E2,5.9153915E1,1.0563342E2,1.2553409E2,1.5928093E2,7.3737206E1,1.7177483E2,5.8135937E1,5.128056E1,1.3077603E2,1.1628712E2,3.0415417E2,2.9510828E2,2.1354375E2,1.9378394E2,2.5252641E2,7.577453E2,7.818771E1,2.0819528E2,1.4228772E2,2.3076654E2,3.3315842E2,5.7463272E1,1.2917938E2,8.64812E1,5.3608727E1,5.2024696E1,8.625721E1,7.302373E1,7.097072E1,5.9805313E1,2.1114261E2,9.301156E1,8.993481E1,2.0517348E2,1.4527402E2,6.826973E1,8.426056E1,1.09523384E2,1.5237279E2,1.0015362E2,1.3780069E2,6.1994464E2,7.6425064E1,1.3177022E2,6.817215E1,7.411558E1,1.80042E2,5.072453E1,2.7588098E2,5.7277435E1],"tree_param":{"num_deleted":"0","num_feature":"41","num_nodes":"81","size_leaf_vector":"1"}},{"base_weights":[4.5379447E-3,1.0096388E0,-3.749761E-1,1.2182695E0,5.955005E-1,-9.283709E-3,-6.192366E-1,9.535862E-1,4.3329164E-2,7.686626E-5,7.669122E-1,-1.9506039E-1,4.6634784E-1,-8.1282973E-1,-2.946683E-1,6.1884665E-1,1.1034535E0,9.135281E-3,8.7447786E-1,-5.9114397E-1,-5.2021056E-2,6.9086903E-1,1.808317E-1,-6.081349E-1,-9.578738E-1,3.830134E-2,-5.925297E-1,2.463497E-2,1.169538E-2,3.9066534E-2,8.9152706E-1,1.0214938E0,1.7707784E-2,-6.746244E-1,-8.36072E-3,1.12199195E-1,-2.1318047E-1,5.339539E-1,3.1981774E-2,3.1205183E-1,-2.3960932E-3,-8.2461536E-1,-4.88196E-1,-7.5529045E-1,-3.0472465E-2,-1.1975641E-1,3.3367947E-1,-3.0874416E-1,-7.125938E-1,3.7827037E-2,1.85051E-2,2.4067257E-2,3.9157838E-2,-2.378836E-2,-1.1422472E-2,-3.351864E-3,8.241648E-3,-8.994846E-3,2.3385037E-3,1.0169735E-2,2.44206E-2,3.590615E-3,1.4906378E-2,-1.9559573E-2,-2.7151957E-2,-1.9302782E-2,-1.1153118E-2,-1.7258821E-2,-2.7846513E-2,1.257222E-3,-1.1308519E-2,4.191134E-3,1.6886307E-2,-3.0664557E-3,-1.4470728E-2,-2.3484193E-2,-1.2838016E-2],"categories":[],"categories_nodes":[],"categories_segments":[],"categories_sizes":[],"default_left":[0,0,0,0,0,0,0,0,0,0,0,0,0,0,0,0,0,0,0,0,0,0,0,0,0,0,0,0,0,0,0,0,0,0,0,0,0,0,0,0,0,0,0,0,0,0,0,0,0,0,0,0,0,0,0,0,0,0,0,0,0,0,0,0,0,0,0,0,0,0,0,0,0,0,0,0,0],"id":20,"left_children":[1,3,5,7,9,11,13,15,-1,-1,17,19,21,23,25,27,29,-1,31,33,35,37,39,41,43,45,47,-1,-1,-1,49,51,-1,53,-1,55,57,59,-1,61,-1,63,65,67,-1,69,71,73,75,-1,-1,-1,-1,-1,-1,-1,-1,-1,-1,-1,-1,-1,-1,-1,-1,-1,-1,-1,-1,-1,-1,-1,-1,-1,-1,-1,-1],"loss_changes":[1.7763143E3,1.07935425E2,3.0153763E2,4.6670532E1,4.355429E1,1.19878555E2,1.2622211E2,1.7672455E1,0E0,0E0,1.5527176E1,5.4992565E1,2.3722275E1,3.5653564E1,7.577445E1,4.6965218E0,7.9717712E0,0E0,9.254044E0,5.882271E0,1.9185478E1,1.0510498E1,6.0259624E0,1.235527E1,6.213318E0,1.7008116E1,1.2762375E1,0E0,0E0,0E0,1.1551216E1,7.6653595E0,0E0,5.8016357E0,0E0,1.3134714E1,9.395903E0,7.282795E0,0E0,3.683898E0,0E0,6.1517334E-1,5.3180237E0,3.5755692E0,0E0,9.973347E0,5.147607E0,4.070342E0,4.321869E0,0E0,0E0,0E0,0E0,0E0,0E0,0E0,0E0,0E0,0E0,0E0,0E0,0E0,0E0,0E0,0E0,0E0,0E0,0E0,0E0,0E0,0E0,0E0,0E0,0E0,0E0,0E0,0E0],"parents":[2147483647,0,0,1,1,2,2,3,3,4,4,5,5,6,6,7,7,10,10,11,11,12,12,13,13,14,14,15,15,16,16,18,18,19,19,20,20,21,21,22,22,23,23,24,24,25,25,26,26,30,30,31,31,33,33,35,35,36,36,37,37,39,39,41,41,42,42,43,43,45,45,46,46,47,47,48,48],"right_children":[2,4,6,8,10,12,14,16,-1,-1,18,20,22,24,26,28,30,-1,32,34,36,38,40,42,44,46,48,-1,-1,-1,50,52,-1,54,-1,56,58,60,-1,62,-1,64,66,68,-1,70,72,74,76,-1,-1,-1,-1,-1,-1,-1,-1,-1,-1,-1,-1,-1,-1,-1,-1,-1,-1,-1,-1,-1,-1,-1,-1,-1,-1,-1,-1],"split_conditions":[2E0,4E0,3E0,5.83E0,-4.0333334E-1,7.866667E-1,2.6166666E-1,-4.4333333E-1,4.3329164E-2,7.686626E-5,-7E-2,5E0,2E0,4E0,4E0,2E0,2E0,9.135281E-3,1E0,2.1E-1,2E0,1.6E0,7.648427E0,-7.133333E-1,4E0,1.0183333E0,4E0,2.463497E-2,1.169538E-2,3.9066534E-2,2E0,4E0,1.7707784E-2,1.8333333E-2,-8.36072E-3,6.664E1,4E0,3.3E-1,3.1981774E-2,2.4E-1,-2.3960932E-3,6.76955E0,2E0,4E0,-3.0472465E-2,5E0,4.524E1,7.1292834E0,1.2633333E0,3.7827037E-2,1.85051E-2,2.4067257E-2,3.9157838E-2,-2.378836E-2,-1.1422472E-2,-3.351864E-3,8.241648E-3,-8.994846E-3,2.3385037E-3,1.0169735E-2,2.44206E-2,3.590615E-3,1.4906378E-2,-1.9559573E-2,-2.7151957E-2,-1.9302782E-2,-1.1153118E-2,-1.7258821E-2,-2.7846513E-2,1.257222E-3,-1.1308519E-2,4.191134E-3,1.6886307E-2,-3.0664557E-3,-1.4470728E-2,-2.3484193E-2,-1.2838016E-2],"split_indices":[0,20,20,2,17,17,17,17,0,0,34,19,20,0,0,20,20,0,12,27,20,17,24,17,20,17,20,0,0,0,11,1,0,17,0,21,11,27,0,27,0,36,11,31,0,20,5,24,17,0,0,0,0,0,0,0,0,0,0,0,0,0,0,0,0,0,0,0,0,0,0,0,0,0,0,0,0],"split_type":[0,0,0,0,0,0,0,0,0,0,0,0,0,0,0,0,0,0,0,0,0,0,0,0,0,0,0,0,0,0,0,0,0,0,0,0,0,0,0,0,0,0,0,0,0,0,0,0,0,0,0,0,0,0,0,0,0,0,0,0,0,0,0,0,0,0,0,0,0,0,0,0,0,0,0,0,0],"sum_hessian":[4.651927E3,1.2745142E3,3.3774126E3,8.4416034E2,4.3035388E2,1.3541631E3,2.0232496E3,3.9466544E2,4.494949E2,9.761972E1,3.3273416E2,9.754094E2,3.7875363E2,1.2644828E3,7.5876685E2,1.2625668E2,2.6840875E2,6.51175E1,2.6761664E2,2.5620447E2,7.1920496E2,2.094544E2,1.6929922E2,5.301445E2,7.343383E2,3.5829956E2,4.0046732E2,6.312843E1,6.3128254E1,1.3197844E2,1.3643031E2,1.7180225E2,9.581441E1,1.9909288E2,5.7111584E1,3.5498398E2,3.6422095E2,1.5204419E2,5.7410225E1,1.1362949E2,5.5669727E1,1.8332953E2,3.4681494E2,1.7133698E2,5.6300134E2,2.3307616E2,1.252234E2,1.2242021E2,2.780471E2,5.434808E1,8.208223E1,1.0223047E2,6.957177E1,1.3830873E2,6.0784153E1,1.4825818E2,2.067258E2,2.8196024E2,8.226073E1,9.330074E1,5.8743443E1,5.8619675E1,